svm_type nu_svr
kernel_type rbf
gamma 0.0625
nr_class 2
total_sv 2555
rho -1.68591
SV
1 1:0.34470612 2:0 3:0.55740611 4:0.39669424 5:0.34105355 6:1 7:0 8:0.47492638 9:0 10:0.057899593 13:0.25477707 14:0.36842108 15:0.55882353 16:1 
-1 1:0.22859429 2:0 3:0.42329983 4:0.43859649 5:0.37376542 6:0 7:0 8:0.95253601 9:1 10:0.01955 13:0.22540984 14:0.39999998 15:0.32355915 16:24 
-1 1:0.22387683 2:1 3:0.55414777 4:0.30476189 5:0.32419766 6:0.42706821 7:0.067841628 8:0 9:0 10:0 13:0.094059406 14:0.090909064 15:0.27777778 16:34 
-1 1:0.39470827 2:1 3:0.44686391 4:0.375 5:0.37961886 6:0 7:0.072839466 8:0.91726208 9:0 10:0.10505319 13:0.27272727 14:0.125 15:0.50420168 16:32 
-1 1:0.40451267 2:0 3:0.65098643 4:0.5229885 5:0.70416684 6:0.7870915 7:0 8:0.81684761 9:1 10:0.3092271 13:0.29787234 14:0.3611111 15:0.59570495 16:26 
1 1:0.43373353 2:1 3:0.76825874 4:0.55238092 5:0.55149017 6:1 7:0.079619056 8:0.77254571 9:1 10:0.01984691 13:0.40441176 14:0.47058821 15:0.72794118 16:16 
0.4828821965460671 1:0.59285694 2:0.81666666 3:0.70559106 4:0.66216218 5:0.64546351 6:0 7:0.11656614 8:0.84219631 9:1 10:0.17998924 13:0.47410359 14:0.55555558 15:0.65166667 16:10 
1 1:0.58600487 2:0.5714286 3:0.7564119 4:0.68965518 5:0.57096609 6:1 7:0.088673179 8:0 9:0 10:0.00010287801 13:0.51851852 14:0.66666663 15:0.82352941 16:17 
-1 1:0.32096605 2:1 3:0.46774943 4:0.24175823 5:0.4475806 6:0.85270838 7:0.07759994 8:1 9:1 10:0.46811456 13:0.17021277 14:0.055555582 15:0.48571429 16:11 
-1 1:0.51646022 2:0.796875 3:0.79191261 4:0.67721522 5:0.67594482 6:1 7:0.078896808 8:0.93707305 9:1 10:0.16588353 13:0.35989717 14:0.60606062 15:0.53549696 16:28 
-1 1:0.26869553 2:1 3:0.60136945 4:0.21739131 5:0.34129923 6:0.76223757 7:0.035440102 8:0.48393514 9:1 10:0.0021967718 13:0.15775401 14:0.15625 15:0.41769802 16:28 
1 1:0.3004156 2:0.59375 3:0.5164252 4:0.38297874 5:0.43538269 6:1 7:0.048626303 8:0.87565138 9:1 10:0.24294443 13:0.14935065 14:0.09523809 15:0.46867168 16:20 
1 1:0.40440447 2:0.8828125 3:0.66930962 4:0.60305345 5:0.43519093 6:0.90179831 7:0.040645099 8:0.95884066 9:1 10:0.2652128 13:0.35294118 14:0.39999998 15:0.71707317 16:15 
-1 1:0.40036452 2:0.82857144 3:0.58264857 4:0.41463417 5:0.52232666 6:0 7:0.14738432 8:0.56547923 9:0 10:0.025166655 13:0.27717391 14:0.33333331 15:0.50819672 16:4 
1 1:0.31141907 2:0.62009805 3:0.62593364 4:0.31764704 5:0.39593535 6:0 7:0.083354705 8:0.83990559 9:0.21093316 10:0.048012902 13:0.15384615 14:0.33333331 15:0.40784314 16:10 
-1 1:0.25904623 2:0 3:0.50192907 4:0.39393938 5:0.3851873 6:0 7:0 8:0.90144568 9:1 10:0.14918246 13:0.133829 14:0.34615386 15:0.24186992 16:33 
-1 1:0.76880109 2:1 3:0.70705401 4:0.8125 5:0.81257172 6:0.74221659 7:0.068581999 8:0.91969601 9:1 10:0.084378477 13:0.69037657 14:0.82608694 15:0.82608696 16:3 
-1 1:0.35622117 2:1 3:0.58478801 4:0.57599998 5:0.38144058 6:1 7:0.05362573 8:0.79255298 9:0 10:0.0018903692 13:0.19587629 14:0.33333331 15:0.61463415 16:22 
-1 1:0.57155937 2:0 3:0.69141903 4:0.72000003 5:0.6564517 6:1 7:0 8:0.81721466 9:1 10:0.23730398 13:0.42675159 14:0.61904764 15:0.55388471 16:23 
-1 1:0.48598722 2:1 3:0.60719954 4:0.60869563 5:0.52402982 6:1 7:0.059874226 8:0.97114694 9:1 10:0.17507179 13:0.39915966 14:0.52173913 15:0.6040404 16:1 
-1 1:0.45689318 2:1 3:0.59774252 4:0.5119617 5:0.38166879 6:0.31627941 7:0.052848118 8:0.66315055 9:1 10:0.050106267 13:0.33807829 14:0.16000003 15:1.0377279 16:57 
1 1:0.38435946 2:1 3:0.55248374 4:0.3561644 5:0.47126817 6:0.3358378 7:0.12694025 8:1 9:1 10:0.084974092 13:0.13636364 14:0.083333313 15:0.71272727 16:20 
-1 1:0.19015151 2:0 3:0.42967968 4:0.40952379 5:0.16973443 6:0 7:0 8:1 9:1 10:0.00087107847 13:0.15662651 14:0.375 15:0.25974026 16:12 
1 1:0.45897276 2:0 3:0.50328217 4:0.3490566 5:0.35217623 6:1 7:0 8:0.99207894 9:0 10:0.40785004 13:0.23170732 14:-0.42857146 15:1.0416667 16:49 
-1 1:0.30413141 2:1 3:0.62831991 4:0.42056078 5:0.34013681 6:1 7:0.062084842 8:0.92096373 9:1 10:0.4679033 13:0.23529412 14:0.27777779 15:0.41290323 16:1 
-1 1:0.55422154 2:0.7571429 3:0.65349098 4:0.58620691 5:0.52673352 6:0.71380006 7:0.052219022 8:0.83878681 9:0.35027539 10:0.29212667 13:0.43283582 14:0.48275864 15:0.63801453 16:9 
1 1:0.51863261 2:1 3:0.70507363 4:0.69767439 5:0.63104187 6:1 7:0.15379092 8:0.99245334 9:1 10:0.32321936 13:0.42372881 14:0.60869563 15:0.69590643 16:19 
-1 1:0.39818092 2:0 3:0.5836612 4:0.25362319 5:0.48438397 6:0 7:0 8:0.8309964 9:1 10:0.017281484 13:0.26966292 14:-0.10000002 15:0.56521739 16:19 
1 1:0.57976561 2:1 3:0.72681449 4:0.42016804 5:0.69802215 6:1 7:0.072122204 8:0.96512728 9:1 10:0.61842369 13:0.53333333 14:0.19999999 15:0.90277778 16:20 
-1 1:0.64116155 2:1 3:0.74493919 4:0.6636771 5:0.74040112 6:0.85510367 7:0.029956397 8:0.78297738 9:1 10:0.80310446 13:0.58278146 14:0.5945946 15:0.7987988 16:15 
-1 1:0.27737589 2:1 3:0.53026023 4:0.27419353 5:0.23009123 6:0.5158544 7:0.085770378 8:0.98110769 9:1 10:0.73368102 13:0.20967742 14:0.19230771 15:0.4493617 16:33 
-1 1:0.53790064 2:1 3:0.73468279 4:0.49650347 5:0.62573162 6:1 7:0.075335907 8:0.87680929 9:1 10:0.042959893 13:0.39490446 14:0.10526317 15:0.96413199 16:29 
-1 1:0.5466086 2:0 3:0.48221246 4:0.4044944 5:0.45557707 6:0.86004975 7:0 8:0.94350625 9:1 10:0.57128643 13:0.28571429 14:0.39999998 15:0.60952381 16:20 
1 1:0.27035895 2:0 3:0.6868535 4:0.45679015 5:0.24743328 6:0.26876711 7:0 8:0.92231116 9:1 10:0.43433247 13:0.21705426 14:0.29411763 15:0.45454545 16:0 
1 1:0.25634409 2:1 3:0.58823417 4:0.48333335 5:0.27053738 6:0 7:0.08761571 8:0.78479197 9:1 10:0.027574615 13:0.1 14:0.27999997 15:0.33702882 16:23 
1 1:0.34634634 2:0 3:0.52454909 4:0.26732671 5:0.45395399 6:0 7:0 8:0.8994816 9:0 10:0.15530028 13:0.1300813 14:-0.058823586 15:0.48172043 16:11 
1 1:0.5701689 2:0 3:0.59938774 4:0.29213482 5:0.54830225 6:1 7:0 8:0.99026397 9:1 10:0.8194919 13:0.5212766 14:0.19999999 15:0.87272727 16:3 
1 1:0.14074076 2:0 3:0.46368849 4:0.30434781 5:0.20296531 6:0 7:0 8:0.69371163 9:0 10:0.02752854 13:0.092592593 14:0.12121212 15:0.36904762 16:13 
-1 1:0.41409813 2:0.76543212 3:0.65388163 4:0.5454545 5:0.40220612 6:0.75100658 7:0.091189115 8:0.90070814 9:1 10:0.14399873 13:0.23387097 14:0.2352941 15:0.54285714 16:32 
-1 1:0.48231198 2:1 3:0.65907239 4:0.68421054 5:0.61796156 6:1 7:0.071993583 8:0.95531032 9:1 10:0.56887795 13:0.44117647 14:0.63157892 15:0.66571835 16:2 
-1 1:0.67540671 2:0 3:0.83016174 4:0.6608187 5:0.67137121 6:1 7:0 8:0.49863668 9:1 10:0.72016464 13:0.58737864 14:0.29166669 15:0.98461538 16:50 
-1 1:0.27665493 2:0 3:0.46763773 4:0.40677965 5:0.19291593 6:0 7:0 8:0 9:1 10:4.8942844e-05 13:0.20704846 14:0.30434781 15:0.34848485 16:29 
1 1:0.20490535 2:0.36607143 3:0.63829115 4:0.37903225 5:0.33779176 6:0.75820765 7:6.7641542e-08 8:0.68460596 9:1 10:0.098882968 13:0.16589862 14:0.22727275 15:0.13802622 16:60 
-1 1:0.43796905 2:0.81481481 3:0.61740775 4:0.28934008 5:0.59614636 6:0.84766595 7:0.064745931 8:0.49707534 9:0 10:0.065464437 13:0.22769953 14:0.1891892 15:0.53125 16:11 
1 1:0.3499807 2:0.40542328 3:0.45141824 4:0.44 5:0.38750228 6:1 7:0.085453374 8:0.87970272 9:1 10:0.34945877 13:0.080882353 14:-0.11764705 15:0.42567568 16:16 
0.3164651483286315 1:0.48390671 2:1 3:0.72447768 4:0.62295079 5:0.57167807 6:1 7:0.086111628 8:0.88320174 9:1 10:0.34014165 13:0.4075 14:0.53125 15:0.77241379 16:3 
-1 1:0.45541951 2:0.15714286 3:0.66840069 4:0.4893617 5:0.55055228 6:0.37197599 7:4.0547067e-09 8:0.80176371 9:0 10:0.0090450061 13:0.26366559 14:0.38461536 15:0.65217391 16:9 
-1 1:0.49510652 2:0 3:0.46708434 4:0.43362832 5:0.52076956 6:1 7:0 8:0.6 9:0 10:0.22813847 13:0.12820513 14:-0.076923132 15:0.43589744 16:42 
-1 1:0.52625733 2:0.73809522 3:0.57077837 4:0.22881359 5:0.58491295 6:1 7:0.099108881 8:0.87603563 9:1 10:0.30213805 13:0.24701195 14:0.18518519 15:0.49777778 16:4 
1 1:0.4103016 2:0 3:0.58777551 4:0.5 5:0.52364222 6:1 7:0 8:0.82983689 9:1 10:0.17597829 13:0.32967033 14:0.48000002 15:0.48533873 16:46 
1 1:0.29136443 2:0.40000001 3:0.65198601 4:0.55238092 5:0.33633918 6:0 7:0.074706361 8:0.98902103 9:0 10:0.19258089 13:0.2278481 14:0.42105263 15:0.50505051 16:7 
-1 1:0.3332561 2:0 3:0.60636165 4:0.32258064 5:0.41618233 6:0.90448859 7:0 8:1 9:1 10:0.63669299 13:0.17948718 14:0.17647058 15:0.38945233 16:11 
-0.422861733080918 1:0.65518141 2:1 3:0.69933847 4:0.57599998 5:0.72217731 6:0 7:0.174072 8:1 9:1 10:0.81872228 13:0.56 14:0.17647058 15:1.0770788 16:32 
-1 1:0.46076541 2:0.86136365 3:0.61057168 4:0.5454545 5:0.55488466 6:0.81181116 7:0.093558155 8:0.96809802 9:1 10:0.48915446 13:0.4953271 14:0.46428573 15:0.83076923 16:17 
-1 1:0.34222363 2:0 3:0.44604813 4:0.35632181 5:0.43306241 6:1 7:0 8:0.94847356 9:1 10:0.10490442 13:0.12605042 14:0.11764705 15:0.34077079 16:22 
-1 1:0.86038321 2:1 3:0.86625867 4:0.65909088 5:0.76074298 6:1 7:0.12241185 8:0.94892303 9:1 10:0.35359852 13:0.88435374 14:0.52631581 15:1.1018651 16:41 
-1 1:0.47252952 2:1 3:0.64684066 4:0.61538458 5:0.58902795 6:1 7:0.16008343 8:0.94035163 9:1 10:0.13258878 13:0.32098765 14:0.52173913 15:0 16:9 
-1 1:0.38561769 2:0 3:0.61597214 4:0.46666664 5:0.30191275 6:0.63098798 7:0 8:0.7765077 9:1 10:0.014188204 13:0.28 14:0.17647058 15:0.53333333 16:36 
-0.30903341759547 1:0.57383641 2:1 3:0.68996227 4:0.45294118 5:0.53185982 6:1 7:0.053818006 8:0.87010586 9:1 10:0.39847459 13:0.65517241 14:0.20833331 15:0.86091761 16:79 
-1 1:0.75020703 2:1 3:0.80985654 4:0.46202534 5:0.61741336 6:0.77918766 7:0.056948784 8:0.99446134 9:1 10:0.86357854 13:0.58823529 14:0 15:1.125 16:50 
-1 1:0.34828426 2:0 3:0.50460873 4:0.51492536 5:0.63847992 6:0 7:0 8:0.91680718 9:1 10:0.51830906 13:0.3088685 14:0.51612902 15:0.65384615 16:1 
-1 1:0.4637229 2:0.81714278 3:0.72997034 4:0.45405406 5:0.71462527 6:0.16313967 7:0.16279816 8:0.699543 9:0.60564222 10:0.52443839 13:0.2979798 14:0.35135138 15:0.66444444 16:4 
0.1838818137439531 1:0.24186888 2:0.072562359 3:0.41337246 4:0.38372093 5:0.22099875 6:0.84637693 7:8.6570391e-10 8:0 9:0 10:0 13:0.14492754 14:0.15384614 15:0.39855072 16:19 
-1 1:0.38491028 2:0 3:0.56299159 4:0.25925928 5:0.45877166 6:1 7:0 8:0.72127594 9:1 10:0.16406484 13:0.18181818 14:-0.16666663 15:0.43333333 16:11 
-1 1:0.398874 2:0.58888888 3:0.66072253 4:0.40566039 5:0.44828864 6:0.89366393 7:0.028683531 8:0.76250795 9:1 10:0.01408152 13:0.29333333 14:0.27999997 15:0.52250079 16:5 
-1 1:0.26911338 2:1 3:0.34916689 4:0.18627453 5:0.36645387 6:0.43838761 7:0.046961336 8:0.86221156 9:1 10:0.026324671 13:0.12280702 14:0.10526317 15:0.50793651 16:7 
1 1:0.23525972 2:0 3:0.5506904 4:0.20618558 5:0.29617545 6:1 7:0 8:0 9:1 10:4.1110928e-05 13:0.051470588 14:0.058823526 15:0.27956989 16:16 
-1 1:0.32041674 2:1 3:0.60598482 4:0.33333331 5:0.29126119 6:1 7:0.098955023 8:0.91955754 9:1 10:0.70082216 13:0.17241379 14:-0.33333337 15:0.9047619 16:20 
-1 1:0.33511151 2:1 3:0.53568013 4:0.33009708 5:0.38380847 6:1 7:0.051758068 8:0.8917504 9:1 10:0.038195932 13:0.16993464 14:0.22222221 15:0.52941176 16:0 
1 1:0.55689617 2:1 3:0.67845147 4:0.63909775 5:0.62020222 6:0.20621891 7:0.10377483 8:0.90273314 9:1 10:0.38363318 13:0.53174603 14:0.51999998 15:0.82205029 16:15 
-1 1:0.85768022 2:1 3:0.76357231 4:0.73049647 5:0.76768328 6:1 7:0.081655183 8:0.9899325 9:1 10:0.02338234 13:0.80693069 14:0.65217388 15:0.96727273 16:35 
0.6792399658881305 1:0.51972172 2:0.90714288 3:0.85112066 4:0.71921182 5:0.70361051 6:1 7:0.20748727 8:0.99232805 9:1 10:0.92574545 13:0.60229446 14:0.74358976 15:0.64127764 16:49 
1 1:0.22325901 2:0 3:0.46914595 4:0.23966944 5:0.19071751 6:0 7:0 8:0.95805435 9:1 10:0.087876587 13:0.089473684 14:0.050000012 15:0.52631579 16:5 
-1 1:0.52184227 2:0 3:0.57555284 4:0.4285714 5:0.65672791 6:1 7:0 8:0.89094067 9:1 10:0.04838881 13:0.27083333 14:0.13333333 15:0.41290323 16:25 
-1 1:0.71762248 2:1 3:0.72097972 4:0.70114946 5:0.68863849 6:0 7:0.072252124 8:1 9:0 10:0.22480231 13:0.64705882 14:0.6111111 15:0.84705882 16:5 
-1 1:0.4276474 2:1 3:0.53725529 4:0.38834953 5:0.42610002 6:1 7:0.057828267 8:0.8275497 9:1 10:0.29015476 13:0.28571429 14:0.071428597 15:0.7146402 16:19 
-1 1:0.56500304 2:1 3:0.74640713 4:0.58974361 5:0.5499248 6:0.92688603 7:0.1184779 8:0.79149345 9:1 10:0.0077268877 13:0.45652174 14:0.625 15:0.66532258 16:3 
-1 1:0.45090747 2:0.083333336 3:0.60459539 4:0.57777774 5:0.43899748 6:0.49484442 7:7.9084448e-10 8:0.93570796 9:1 10:0.31824626 13:0.51546392 14:0.26666665 15:0.87179487 16:31 
-1 1:0.27029293 2:1 3:0.56773143 4:0.5 5:0.33212836 6:1 7:0.10790316 8:0.80059362 9:1 10:0.12156121 13:0.2293578 14:0.33333331 15:0 16:27 
-1 1:0.45437918 2:0.8611111 3:0.66443839 4:0.50370371 5:0.59813839 6:1 7:0.13563477 8:0.67433764 9:1 10:0.086724368 13:0.38582677 14:0.44827586 15:0.55172414 16:3 
1 1:0.39212171 2:0.84027773 3:0.61154393 4:0.45054942 5:0.53406857 6:1 7:0.17321849 8:0.86696088 9:1 10:0.16527245 13:0.2195122 14:0.42105263 15:0.4 16:18 
1 1:0.51784721 2:1 3:0.70585788 4:0.40425533 5:0.53023284 6:1 7:0.07008108 8:0.95222936 9:1 10:0.0050295273 13:0.2890625 14:0.41176468 15:0.625 16:8 
1 1:0.45765292 2:0 3:0.71256774 4:0.22222221 5:0.64137966 6:0.6047664 7:0 8:0.95121951 9:1 10:0.33944786 13:0.18103448 14:0.16666669 15:0.53333333 16:19 
-1 1:0.42399373 2:0.8214286 3:0.79764638 4:0.63478261 5:0.56642057 6:0.58968282 7:0.15464369 8:0.94969408 9:1 10:0.56554754 13:0.39607843 14:0.60000002 15:0.54824561 16:26 
-1 1:0.32438345 2:0 3:0.45468814 4:0.42990655 5:0.46509846 6:0 7:0 8:0 9:1 10:0.00019242443 13:0.19924812 14:0.41666669 15:0.39957717 16:8 
-1 1:0.67693802 2:1 3:0.72788441 4:0.56521738 5:0.78525859 6:1 7:0.17419136 8:0.98213999 9:1 10:0.373301 13:0.51020408 14:0.55172414 15:0.59259259 16:9 
-1 1:0.59534544 2:1 3:0.80512662 4:0.73228347 5:0.75230732 6:1 7:0.093917122 8:0.73707199 9:1 10:0.072459811 13:0.54146341 14:0.63999999 15:0.6573913 16:20 
1 1:0.56907207 2:0.54545456 3:0.73426548 4:0.31818181 5:0.76665461 6:1 7:0.064514981 8:0.96980151 9:1 10:0.10930913 13:0.3196347 14:0.21739131 15:0.63192905 16:5 
0.1956128790856221 1:0.31870237 2:0.83333331 3:0.73684772 4:0.31300813 5:0.52113474 6:0.99431462 7:0.057988588 8:0.67575116 9:1 10:0.45186936 13:0.12903226 14:0.073170722 15:0.40983607 16:82 
-1 1:0.18715059 2:0 3:0.46766166 4:0.38235295 5:0.16838306 6:0 7:0 8:0 9:1 10:2.5201798e-05 13:0.11808118 14:0.36000001 15:0.21404682 16:4 
-1 1:0.37747483 2:0 3:0.63615778 4:0.33774835 5:0.51267922 6:1 7:0 8:0.91700392 9:1 10:0.059063548 13:0.28494624 14:0.28125 15:0.51724138 16:2 
1 1:0.44018655 2:0 3:0.62659492 4:0.49411762 5:0.54494534 6:0.75043623 7:0 8:0.90735666 9:1 10:0.12385511 13:0.30769231 14:0.4285714 15:0.76392573 16:1 
1 1:0.19324397 2:0.41574073 3:0.50176072 4:0.32653064 5:0.32703528 6:0 7:1.3316696e-08 8:0 9:0 10:1.0168372e-05 13:0.1349481 14:0.26923078 15:0.44858156 16:16 
-1 1:0.21426835 2:1 3:0.46558416 4:0.39583331 5:0.27203185 6:1 7:0.097414112 8:0.7384033 9:1 10:0.0030156056 13:0.093023256 14:0.22222221 15:0.21252372 16:2 
-1 1:0.4260616 2:1 3:0.66028568 4:0.61445785 5:0.37885273 6:1 7:0.24512994 8:0.98113718 9:1 10:0.73708469 13:0.3956044 14:0.64285713 15:0.56410256 16:22 
0.1834777630970101 1:0.41409253 2:1 3:0.62879263 4:0.3119266 5:0.66407762 6:1 7:0.066749231 8:0.86537455 9:1 10:0.51532772 13:0.26133333 14:0.030303001 15:0.62857143 16:38 
-1 1:0.2605219 2:1 3:0.54987803 4:0.38738739 5:0.32531495 6:1 7:0.046887985 8:0.86169757 9:1 10:0.02278602 13:0.11764706 14:0.27777779 15:0.42857143 16:43 
-1 1:0.74660096 2:1 3:0.84591697 4:0.41025639 5:0.70207406 6:0.49500191 7:0.26364483 8:0.92447779 9:1 10:0.5605496 13:0.61788618 14:0.17647058 15:1.0855263 16:35 
-1 1:0.34196832 2:0.90285718 3:0.65046042 4:0.51630437 5:0.43670767 6:0.73560018 7:0.085649451 8:0.66680094 9:1 10:0.12619624 13:0.29571106 14:0.44117647 15:0.39204545 16:55 
-1 1:0.22605872 2:0.30519482 3:0.47872411 4:0.45569623 5:0.29529659 6:0 7:3.6276982e-09 8:0.71902939 9:1 10:0.0073295088 13:0.18274112 14:0.37142855 15:0.39093222 16:15 
-1 1:0.271905 2:1 3:0.55444692 4:0.50335574 5:0.29357957 6:0.40323983 7:0.10757398 8:0.99082043 9:0 10:0.31287592 13:0.12834225 14:0.22727275 15:0.35 16:12 
1 1:0.4618263 2:0 3:0.76562329 4:0.56140351 5:0.84260627 6:1 7:0 8:0.92220982 9:1 10:0.17828766 13:0.38421053 14:0.43478262 15:0.61244019 16:26 
-1 1:0.069040405 2:0 3:0.36633651 4:0.32954544 5:0.063450328 6:0 7:0 8:1 9:1 10:0.15766995 13:0.0083333333 14:0.055555582 15:0.23109244 16:29 
-1 1:0.32067005 2:0.28840488 3:0.57289646 4:0.47445256 5:0.3564387 6:0.54469427 7:0.046375451 8:0.85007757 9:0 10:0.018112474 13:0.22801303 14:0.48148149 15:0.35619048 16:50 
-1 1:0.68915278 2:0.86160713 3:0.57229303 4:0.64117646 5:0.63492842 6:1 7:0.14015077 8:0.93147232 9:1 10:0.17270086 13:0.54022989 14:0.38095236 15:0.83333333 16:36 
1 1:0.82818068 2:0.85416669 3:0.84795781 4:0.76884425 5:0.7958595 6:0.74316075 7:0.1335637 8:0.82462874 9:1 10:0.56655784 13:0.67785235 14:0.60714287 15:0.86538462 16:34 
-1 1:0.48510741 2:0.7571429 3:0.72049505 4:0.58914733 5:0.69332827 6:0.85805507 7:0.039745792 8:0.78841735 9:1 10:0.098254971 13:0.30890052 14:0.54838711 15:0.4331307 16:45 
-1 1:0.42628161 2:0.51041669 3:0.69220742 4:0.47321427 5:0.55758834 6:1 7:0.058947206 8:0.91410629 9:1 10:0.32449631 13:0.33043478 14:0.45833331 15:0.45811241 16:21 
-1 1:0.6149971 2:1 3:0.70195007 4:0.56896555 5:0.46152234 6:0.85700089 7:0.099848347 8:0.94914156 9:1 10:0.44261762 13:0.53846154 14:0.27777779 15:0.67647059 16:26 
1 1:0.35395956 2:1 3:0.6204654 4:0.41584158 5:0.48951735 6:1 7:0.081849598 8:0.92986518 9:1 10:0.2545523 13:0.24522293 14:0.1111111 15:0.68740741 16:35 
1 1:0.22504144 2:0 3:0.44517253 4:0.34615386 5:0.3388959 6:0 7:0 8:0.98195608 9:1 10:0.44793223 13:0.083333333 14:0 15:0.60952381 16:5 
-1 1:0.18194926 2:0.88095236 3:0.51569888 4:0.25210083 5:0.22810765 6:0.29876997 7:0.10023919 8:0 9:1 10:8.6485061e-05 13:0.074534161 14:0.052631557 15:0.43777313 16:10 
1 1:0.41197526 2:1 3:0.56915315 4:0.24175823 5:0.40199577 6:0 7:0.070766972 8:0.9086819 9:1 10:0.1680325 13:0.13071895 14:0.055555582 15:0 16:3 
-1 1:0.36972106 2:1 3:0.6310134 4:0.49473685 5:0.31044722 6:1 7:0.034353058 8:0.8625694 9:1 10:0.0099353525 13:0.32989691 14:0.26666665 15:0.65454545 16:14 
1 1:0.33699281 2:0.58240741 3:0.61545812 4:0.38961041 5:0.35077951 6:1 7:0.083382249 8:0.68905527 9:1 10:0.14843408 13:0.16911765 14:0.2352941 15:0.3862069 16:6 
-1 1:0.52719389 2:1 3:0.55992968 4:0.30158728 5:0.57883249 6:0 7:0.091871069 8:0.92155235 9:1 10:0.50128259 13:0.20512821 14:0.076923072 15:0.55840456 16:3 
-1 1:0.4761422 2:0 3:0.80963796 4:0.56643355 5:0.61429918 6:0 7:0 8:0.97720087 9:1 10:0.70832582 13:0.39111111 14:0.51999998 15:0.55272727 16:31 
-1 1:0.7178703 2:1 3:0.74824685 4:0.68421054 5:0.65051057 6:0.70358964 7:0.10323959 8:0.69918707 9:1 10:0.49888778 13:0.61269841 14:0.51724136 15:0.92404269 16:12 
-1 1:0.3646953 2:0 3:0.67337728 4:0.46212119 5:0.42652395 6:0 7:0 8:0.65515586 9:0 10:0.044608865 13:0.17080745 14:0.42307693 15:0.40503876 16:21 
-1 1:0.61098219 2:0.071428575 3:0.62329216 4:0.5247525 5:0.49286621 6:1 7:5.0804574e-10 8:0.86267866 9:1 10:0.15524778 13:0.42647059 14:0.23076922 15:0.75420875 16:39 
-0.2959339949165599 1:0.69076235 2:1 3:0.65007942 4:0.453125 5:0.59332462 6:1 7:0.14328091 8:0.93997533 9:1 10:0.071786379 13:0.50920245 14:0.30000001 15:0.85555556 16:26 
-1 1:0.15941998 2:1 3:0.57768237 4:0.24590164 5:0.1924209 6:1 7:0.16130855 8:0.86088781 9:1 10:0.021008705 13:0.094059406 14:-0.045454502 15:0.47142857 16:11 
-1 1:0.41824467 2:1 3:0.57220266 4:0.46564883 5:0.47591557 6:1 7:0.072784538 8:0.58604355 9:0 10:0.24716823 13:0.43023256 14:0.14285713 15:0.61467537 16:38 
1 1:0.3350339 2:1 3:0.48908927 4:0.61538458 5:0.29988408 6:1 7:0.085366794 8:1 9:1 10:0.32676554 13:0.27777778 14:0.44444442 15:0.625 16:1 
0.05315790732237624 1:0.54082546 2:0 3:0.64356392 4:0.52941179 5:0.65356298 6:0.56293546 7:0 8:0.93238564 9:1 10:0.28430566 13:0.44332494 14:0.36363637 15:0.73796004 16:9 
1 1:0.38935139 2:0 3:0.45180493 4:0.25 5:0.40142304 6:1 7:0 8:0.90918361 9:1 10:0.29957707 13:0.12820513 14:-0.53846157 15:0.72916667 16:61 
-1 1:0.48296076 2:1 3:0.6558425 4:0.62841529 5:0.59233328 6:0.88152603 7:0.03836858 8:0.76083856 9:1 10:0.085989644 13:0.2704918 14:0.5151515 15:0.50028297 16:52 
-1 1:0.51827099 2:1 3:0.59779623 4:0.4285714 5:0.57730175 6:1 7:0.066215518 8:1 9:1 10:0.38842352 13:0.35443038 14:0.42105263 15:0.6875 16:26 
1 1:0.63187502 2:1 3:0.66431537 4:0.2280702 5:0.6258789 6:0.70516124 7:0.25029808 8:1 9:1 10:0.66963317 13:0.20408163 14:-0.18181813 15:0.85375494 16:11 
-1 1:0.43194791 2:1 3:0.80863411 4:0.58119655 5:0.75358571 6:0.43761315 7:0.22711006 8:1 9:1 10:0.080689907 13:0.30821918 14:0.52631581 15:0.45833333 16:36 
-1 1:0.34580626 2:0 3:0.52459823 4:0.4649123 5:0.30031829 6:0.41071891 7:0 8:0.80921511 9:1 10:0.0050830117 13:0.19230769 14:-0.076923132 15:0.61290323 16:36 
-1 1:0.7006569 2:1 3:0.76437024 4:0.52482271 5:0.47002012 6:1 7:0.080961397 8:0.98024323 9:1 10:0.62496179 13:0.74561404 14:0.2352941 15:1.0059524 16:61 
1 1:0.33968904 2:1 3:0.53785261 4:0.44385028 5:0.45900507 6:0.54064549 7:0.094173904 8:0.9303466 9:1 10:0.65553146 13:0.34472934 14:0.1785714 15:0.67878788 16:19 
-0.3639040342559133 1:0.59022685 2:1 3:0.68855982 4:0.51724136 5:0.42922392 6:0.8529539 7:0.055758184 8:0.94315787 9:1 10:0.68696733 13:0.55828221 14:-0.052631617 15:1.0544218 16:56 
-1 1:0.52550966 2:0.62857145 3:0.55041892 4:0.32467532 5:0.64597259 6:1 7:0.11039042 8:0.94883653 9:0 10:0.0016508243 13:0.23076923 14:0.14285713 15:0.56773619 16:7 
1 1:0.24625723 2:0.22499999 3:0.45373294 4:0.2842105 5:0.24224955 6:0.83289563 7:3.949174e-09 8:0.82581461 9:0 10:0.09321596 13:0.15238095 14:-0.13333333 15:0.45714286 16:10 
1 1:0.16519218 2:0.68055558 3:0.40543318 4:0.37113404 5:0.13896757 6:1 7:5.5942655e-08 8:0 9:1 10:0 13:0.076923077 14:-0.15384614 15:0.26799007 16:22 
-1 1:0.26360189 2:0.39925596 3:0.57762612 4:0.3214286 5:0.27482333 6:0.61129418 7:0.029478092 8:0.85979692 9:1 10:0.069230462 13:0.17120623 14:0.19230771 15:0.35 16:3 
-1 1:0.29163801 2:0.60988146 3:0.58911534 4:0.50387597 5:0.38314079 6:0.35241947 7:0.027246468 8:0.89115748 9:0.22348311 10:0.022229566 13:0.17 14:0.46875 15:0.44444444 16:19 
1 1:0.4506914 2:0.97727275 3:0.78503799 4:0.61576355 5:0.63939869 6:1 7:0.14799328 8:1 9:1 10:0.042670182 13:0.41810345 14:0.58823526 15:0.45833333 16:56 
1 1:0.4657973 2:1 3:0.68481604 4:0.31100476 5:0.58143969 6:1 7:0.21163854 8:0.87654683 9:0 10:0.32591014 13:0.25242718 14:0.035714269 15:0.65413534 16:33 
-1 1:0.42369923 2:1 3:0.55800403 4:0.42647058 5:0.49489671 6:0.45499856 7:0.19161822 8:0.7615105 9:1 10:0.74842918 13:0.22580645 14:0.2631579 15:0.58479532 16:38 
1 1:0.28195237 2:0.014285714 3:0.59822629 4:0.46610171 5:0.37174678 6:0 7:1.9026781e-10 8:0 9:1 10:0 13:0.17768595 14:0.26086956 15:0.28539576 16:34 
1 1:0.14418057 2:0.47470155 3:0.46154872 4:0.27184469 5:0.20059338 6:1 7:3.2197044e-08 8:0.89745197 9:1 10:0.014406684 13:0.064327485 14:0.14999998 15:0.26666667 16:9 
-1 1:0.26809311 2:0 3:0.43420616 4:0.37373739 5:0.25254295 6:0 7:0 8:0.95981025 9:1 10:0.0010058945 13:0.18875502 14:0.41666669 15:0.23776224 16:15 
-1 1:0.45086032 2:0 3:0.6753076 4:0.46610171 5:0.50471184 6:1 7:0 8:0.92528107 9:1 10:0.087304887 13:0.25 14:0.15789473 15:0.52631579 16:0 
1 1:0.49483726 2:1 3:0.56841508 4:0.31645572 5:0.55722933 6:1 7:0.13057338 8:0.98756248 9:1 10:0.25354319 13:0.23170732 14:0 15:0.74175824 16:1 
-1 1:0.42965295 2:0.38977075 3:0.63569333 4:0.5447154 5:0.56479945 6:0.3739293 7:0.044095805 8:0.60374922 9:1 10:0.48637508 13:0.31372549 14:0.40909094 15:0.41351351 16:33 
-1 1:0.40166013 2:0.125 3:0.65774008 4:0.48571426 5:0.49364654 6:0.79496495 7:2.5671258e-09 8:0 9:0 10:1.2761484e-06 13:0.23076923 14:0.4285714 15:0.70512821 16:13 
-1 1:0.53302022 2:1 3:0.82083234 4:0.73722625 5:0.67242102 6:1 7:0.11542208 8:0.94375181 9:1 10:0.10657063 13:0.44664032 14:0.60869563 15:0.59649123 16:24 
1 1:0.52947321 2:1 3:0.69452888 4:0.60526311 5:0.56374013 6:1 7:0.058560702 8:0.86460939 9:1 10:0.09557795 13:0.40860215 14:0.36363637 15:0.72463768 16:34 
-1 1:0.71479382 2:1 3:0.81541472 4:0.67479676 5:0.64710387 6:1 7:0.079410478 8:0.52313796 9:1 10:0.032486384 13:0.61445783 14:0.28571427 15:1.1107778 16:31 
1 1:0.44552314 2:1 3:0.64378852 4:0.37404579 5:0.43711825 6:0.60033078 7:0.050185517 8:0.87426755 9:1 10:0.25792343 13:0.30769231 14:0.10526317 15:0.67222222 16:35 
1 1:0.30000973 2:0 3:0.62790693 4:0.41221374 5:0.48827674 6:0.71077314 7:0 8:0.98320257 9:1 10:0.063533031 13:0.095454545 14:0.30434781 15:0.18181818 16:63 
-1 1:0.46270421 2:1 3:0.69658637 4:0.69512194 5:0.63782894 6:1 7:0.099416653 8:0.93146045 9:1 10:0.20681767 13:0.43317972 14:0.60869563 15:0.78989899 16:6 
1 1:0.54113888 2:0 3:0.60892045 4:0.30434781 5:0.55092483 6:1 7:0 8:0.98692668 9:1 10:0.066919464 13:0.5 14:0 15:0.9 16:44 
-1 1:0.7142691 2:1 3:0.54074555 4:0.61764705 5:0.72504522 6:0.62821244 7:0.24243112 8:0.94769606 9:1 10:0.35411136 13:0.70769231 14:0.45833331 15:1.0181818 16:53 
1 1:0.35090196 2:1 3:0.53201749 4:0.47297299 5:0.38306867 6:0 7:0.094939671 8:0.88543186 9:1 10:0.040673597 13:0.27272727 14:0.27272725 15:0.56916996 16:6 
-1 1:0.47857497 2:0 3:0.68337718 4:0.55371904 5:0.48487144 6:1 7:0 8:0.99328177 9:1 10:0.9066084 13:0.33950617 14:0.36842108 15:0.57894737 16:5 
-1 1:0.25616777 2:0 3:0.41042043 4:0.40384614 5:0.20676418 6:0 7:0 8:0 9:1 10:0.00015066942 13:0.18875502 14:0.375 15:0.31818182 16:7 
-0.9482577504405522 1:0.39519332 2:0 3:0.50966643 4:0.33620691 5:0.48371168 6:0 7:0 8:0.89758514 9:0 10:0.36946445 13:0.23529412 14:-0.35294116 15:0.68597561 16:29 
1 1:0.31169654 2:0.57358432 3:0.51994532 4:0.47899157 5:0.42508058 6:0.5392436 7:0.10593521 8:0.55349555 9:1 10:0.080184299 13:0.22014925 14:0.2962963 15:0.25155925 16:10 
1 1:0.35723974 2:0 3:0.54213212 4:0.45398772 5:0.36979818 6:0 7:0 8:0.92866143 9:1 10:0.10897304 13:0.21376812 14:0.33333331 15:0.5974026 16:6 
-1 1:0.44895167 2:1 3:0.60502977 4:0.45454544 5:0.60022414 6:1 7:0.054267721 8:0.62368428 9:1 10:0.015854881 13:0.28338762 14:0.44827586 15:0.60714286 16:2 
-1 1:0.58246319 2:0 3:0.73554517 4:0.592233 5:0.64199641 6:1 7:0 8:0.95684369 9:1 10:0.77986902 13:0.52307692 14:0.47368419 15:0.84520124 16:19 
-1 1:0.48363206 2:0.30756804 3:0.76767013 4:0.5990783 5:0.63993049 6:0.42499179 7:1.3178915e-08 8:0.96597439 9:0 10:0.37093813 13:0.55718475 14:0.375 15:0.75268817 16:17 
-1 1:0.61328371 2:1 3:0.70833756 4:0.48739493 5:0.5581403 6:1 7:0.053363941 8:0.97925909 9:1 10:0.051584217 13:0.55 14:0.3125 15:0.94078947 16:50 
1 1:0.67428505 2:0 3:0.67415742 4:0.4195804 5:0.53379507 6:0 7:0 8:0.79662348 9:1 10:0.055356776 13:0.49450549 14:-0.5 15:0.93461538 16:81 
-0.5902342300666353 1:0.54321837 2:1 3:0.73722779 4:0.58928573 5:0.68757825 6:1 7:0.045458004 8:0.87720869 9:1 10:0.20953009 13:0.39163498 14:0.45833331 15:0.63192905 16:11 
-1 1:0.45246296 2:1 3:0.63738492 4:0.35398233 5:0.58090184 6:1 7:0.15380941 8:0.94485446 9:1 10:0.21822782 13:0.40131579 14:0.35000002 15:0.72222222 16:15 
1 1:0.64336822 2:0 3:0.76570133 4:0.484375 5:0.67163452 6:1 7:0 8:0.5248689 9:1 10:0.087985647 13:0.50510204 14:0.4285714 15:0.87424938 16:5 
-1 1:0.22520645 2:0.5703125 3:0.58874219 4:0.38345867 5:0.33363108 6:0 7:0.072906203 8:0 9:1 10:2.1916229e-05 13:0.17283951 14:-0.049999952 15:0.58139535 16:29 
-1 1:0.38545202 2:1 3:0.6486482 4:0.39583331 5:0.37455281 6:1 7:0.12746624 8:0.70289598 9:1 10:0.059698209 13:0.28481013 14:0.42105263 15:0.52287582 16:14 
-1 1:0.26411638 2:1 3:0.52367167 4:0.47297299 5:0.44435004 6:0.74339921 7:0.11128891 8:0.84232756 9:0 10:0.074410677 13:0.20930233 14:0.33333331 15:0.53019608 16:9 
1 1:0.41997486 2:0 3:0.66758565 4:0.5840708 5:0.51689794 6:0.90962307 7:0 8:0.89844815 9:1 10:0.039776539 13:0.21052632 14:0.36842108 15:0.62100457 16:12 
-1 1:0.33494643 2:0 3:0.47970075 4:0.39449543 5:0.31417652 6:0 7:0 8:0.95328255 9:1 10:0.29866255 13:0.17391304 14:-0.066666722 15:0.44705882 16:25 
1 1:0.21297217 2:1 3:0.34714456 4:0.19191921 5:0.27715515 6:0 7:0.070442949 8:0.90897057 9:1 10:0.030584568 13:0.095890411 14:0.1111111 15:0.33088235 16:7 
-1 1:0.37813711 2:0.73333335 3:0.50336078 4:0.37572253 5:0.54206682 6:0.39351341 7:0.056131065 8:0.93180973 9:1 10:0.19825909 13:0.26952141 14:0.21212119 15:0.48387097 16:6 
-1 1:0.24182056 2:0.013888889 3:0.42257639 4:0.38938051 5:0.26261024 6:1 7:1.4886464e-10 8:0 9:1 10:0.00013280804 13:0.14883721 14:0.27272725 15:0.39550562 16:18 
-1 1:0.78715302 2:1 3:0.62370393 4:0.69852942 5:0.70266411 6:0.75720995 7:0.028432853 8:0.90117902 9:1 10:0.038739119 13:0.63703704 14:0.44444442 15:1.0491228 16:33 
-1 1:0.65702093 2:0.9375 3:0.8207958 4:0.71597636 5:0.77041241 6:1 7:0.025971687 8:0.88581624 9:0 10:0.11167009 13:0.64174455 14:0.46428573 15:0.80301887 16:19 
-1 1:0.31959688 2:0 3:0.59528055 4:0.4285714 5:0.3574407 6:0 7:0 8:0 9:1 10:0 13:0.30208333 14:0.17647058 15:0.62222222 16:33 
-1 1:0.54931649 2:0.7348159 3:0.73625973 4:0.37349397 5:0.72165505 6:0.86030105 7:0.14537395 8:0.96555775 9:0.10759363 10:0.61779937 13:0.42045455 14:0.30303031 15:0.74193548 16:18 
1 1:0.34891277 2:0.76840281 3:0.68934149 4:0.33175355 5:0.52077337 6:0.54543712 7:0.21293279 8:0.87049267 9:0.16092953 10:0.13342142 13:0.19895288 14:0.10526317 15:0.61691542 16:46 
1 1:0.20827067 2:0.69841272 3:0.42607138 4:0.19653177 5:0.19571079 6:0.34387614 7:0.029226738 8:0.94951212 9:0 10:0.016458426 13:0.1305483 14:-0.16666663 15:0.41904762 16:4 
-1 1:0.37919994 2:1 3:0.55368964 4:0.27848101 5:0.52804241 6:0.6741995 7:0.060167324 8:0.65559763 9:1 10:0.333535 13:0.29801325 14:0.23333335 15:0.43721535 16:32 
-1 1:0.62874728 2:0.94999999 3:0.71659643 4:0.65517241 5:0.6780013 6:1 7:0.093840159 8:0.76667594 9:1 10:0.12029633 13:0.54471545 14:0.47058821 15:0.8 16:17 
1 1:0.7346969 2:1 3:0.76987838 4:0.71345031 5:0.85925158 6:0 7:0.23710876 8:0.83714879 9:1 10:0.42071188 13:0.60559796 14:0.7027027 15:0.78552036 16:18 
-1 1:0.7794054 2:1 3:0.84960748 4:0.59210527 5:0.79405538 6:1 7:0.15479061 8:1 9:1 10:0.97032105 13:0.73992674 14:0.65384614 15:0.84 16:8 
-1 1:0.18575294 2:1 3:0.36230694 4:0.32867134 5:0.18743089 6:0.72057173 7:0.037377659 8:0.91246224 9:1 10:0.016493608 13:0.087719298 14:0.16000003 15:0.58593927 16:39 
-1 1:0.28540031 2:0 3:0.5432054 4:0.28915662 5:0.28069355 6:1 7:0 8:0.88428794 9:1 10:0.010693251 13:0.16935484 14:0.11764705 15:0.48214286 16:5 
1 1:0.41484181 2:0.53174603 3:0.59111352 4:0.44144142 5:0.58564022 6:1 7:0.07614273 8:0.64861978 9:1 10:0.26988984 13:0.24 14:0.31578946 15:0.34210526 16:25 
-0.06806134762097821 1:0.20791706 2:0.82142854 3:0.51968243 4:0.40196079 5:0.15683769 6:1 7:0.079279264 8:0 9:1 10:3.5408183e-06 13:0.10843373 14:-0.071428537 15:0.55194805 16:36 
0.6665857247097894 1:0.78945565 2:1 3:0.87557996 4:0.22881359 5:0.85460277 6:0.86559066 7:0.19747011 8:0.8448227 9:1 10:0.17686134 13:0.53741497 14:-0.15789473 15:1.1428571 16:21 
-1 1:0.52615556 2:0.83809525 3:0.63627584 4:0.57062149 5:0.63058905 6:0.91448291 7:0.10891411 8:0.91159686 9:0.59505414 10:0.14955203 13:0.36082474 14:0.2962963 15:0.64895105 16:24 
1 1:0.71222391 2:0.061728396 3:0.72663457 4:0.55029583 5:0.43197584 6:0.53729054 7:1.5448972e-09 8:0.90232983 9:0 10:0.46249162 13:0.63522013 14:-0.052631617 15:1.1015069 16:57 
-1 1:0.87900264 2:1 3:0.92163944 4:0.72151899 5:0.79747355 6:1 7:0.12010901 8:0.98765213 9:1 10:0.48203438 13:0.80203046 14:0.59090912 15:0.94444444 16:37 
1 1:0.41981445 2:1 3:0.65980556 4:0.60000002 5:0.4841202 6:0.41513782 7:0.074343065 8:0.85533415 9:1 10:0.19173077 13:0.28795812 14:0.36363637 15:0.51209104 16:19 
1 1:0.45357035 2:1 3:0.55841219 4:0.52112675 5:0.51970654 6:1 7:0.051268535 8:1 9:1 10:0.046820868 13:0.36263736 14:0.28571427 15:0.65689333 16:4 
-1 1:0.315622 2:0 3:0.4964881 4:0.4285714 5:0.49329735 6:0 7:0 8:1 9:1 10:0.00082753395 13:0.25 14:0.36000001 15:0.3826087 16:6 
-1 1:0.33088324 2:0.57830691 3:0.52963218 4:0.4285714 5:0.29716774 6:0.92702238 7:0.1329526 8:0.94590839 9:1 10:0.38056252 13:0.29333333 14:0.52631581 15:0.56289264 16:25 
-1 1:0.40577117 2:0.85000002 3:0.58199041 4:0.60000002 5:0.34587878 6:0.78782041 7:0.15648267 8:0.97355591 9:0.50684536 10:0.53877489 13:0.23333333 14:0.4375 15:0.6377551 16:1 
-1 1:0.30199218 2:1 3:0.39731214 4:0.23333335 5:0.45641722 6:0 7:0.096189846 8:0.69954227 9:1 10:0.0112485 13:0.08974359 14:0.10000002 15:0.16470588 16:17 
-1 1:0.68620802 2:1 3:0.76925548 4:0.63414633 5:0.7075602 6:1 7:0.041559935 8:0.83353299 9:0 10:0.16155666 13:0.73113208 14:0.31818181 15:1.0350404 16:47 
-1 1:0.31757038 2:0.6111111 3:0.53841319 4:0.19387758 5:0.44025421 6:1 7:0.075188104 8:1 9:1 10:0.068584128 13:0.09569378 14:0 15:0.34102564 16:4 
-1 1:0.37923884 2:1 3:0.51552397 4:0.26027399 5:0.31398935 6:1 7:0.17749919 8:0.96147295 9:1 10:0.1028891 13:0.30508475 14:0 15:0.76190476 16:13 
1 1:0.38850431 2:0 3:0.64179968 4:0.35869563 5:0.4974389 6:1 7:0 8:0.96667633 9:1 10:0.017874282 13:0.32051282 14:-0.30769229 15:1.0433401 16:28 
-1 1:0.29457886 2:0.38497946 3:0.53418354 4:0.36220473 5:0.41314733 6:0 7:1.1764581e-07 8:0.90095421 9:0 10:0.10786278 13:0.17687075 14:0.30769229 15:0 16:1 
-1 1:0.29182434 2:0.53174603 3:0.52288072 4:0.3984375 5:0.34212055 6:0.56122442 7:0.040033031 8:0.85729679 9:1 10:0.0019681538 13:0.25179856 14:0.22222221 15:0.36521739 16:16 
-1 1:0.55629516 2:1 3:0.67611225 4:0.48598129 5:0.59633915 6:0.71032173 7:0.11116625 8:0.90105925 9:1 10:0.090289393 13:0.46859903 14:0.52173913 15:0.68019324 16:2 
-1 1:0.48237843 2:0.72023815 3:0.77910078 4:0.68055558 5:0.62860526 6:1 7:0.10649597 8:0.88714654 9:1 10:0.099155362 13:0.2967033 14:0.5925926 15:0.58727273 16:35 
-1 1:0.40605333 2:1 3:0.65433356 4:0.27659577 5:0.54982849 6:1 7:0.16376822 8:0.92241393 9:1 10:0.13151407 13:0.26717557 14:0.27777779 15:0.66532258 16:13 
-1 1:0.2982697 2:0.55714285 3:0.54901817 4:0.41176468 5:0.3368928 6:1 7:0.060659573 8:0.92309083 9:1 10:0.11537073 13:0.23809524 14:0.34782606 15:0.59379217 16:11 
1 1:0.43000128 2:0.24550264 3:0.55848355 4:0.49760765 5:0.52369655 6:0.48856873 7:3.4205637e-08 8:0.54206716 9:0.48798996 10:0.2018103 13:0.24313725 14:0.34210527 15:0.35686275 16:55 
-1 1:0.29485463 2:0.50505048 3:0.56108507 4:0.4437086 5:0.41950438 6:1 7:0.041515747 8:0.7934874 9:1 10:0.044233876 13:0.23809524 14:0.42424244 15:0.33605442 16:54 
-1 1:0.71226049 2:0.62857145 3:0.76108561 4:0.75757575 5:0.77293483 6:0.34890954 7:0.040965259 8:0.95158627 9:0 10:0.49376349 13:0.6108871 14:0.75 15:0.79261364 16:10 
-1 1:0.18677439 2:0 3:0.48015431 4:0.44545454 5:0.17699165 6:0 7:0 8:0.85375072 9:1 10:0.0038263752 13:0.18875502 14:0.375 15:0.31818182 16:10 
1 1:0.40338933 2:0 3:0.6283284 4:0.20408165 5:0.39961624 6:1 7:0 8:0.93842715 9:1 10:0.010001174 13:0.13888889 14:0 15:0.62745098 16:2 
-1 1:0.43063351 2:1 3:0.59172492 4:0.4273504 5:0.43000653 6:1 7:0.065220282 8:0 9:1 10:2.6863891e-05 13:0.25480769 14:0.36363637 15:0.43846154 16:22 
1 1:0.69515035 2:1 3:0.70645185 4:0.26976746 5:0.92638381 6:0.74903762 7:0.15305417 8:1 9:1 10:0.66574492 13:0.50513347 14:0.1081081 15:0.92494172 16:10 
0.6463565337927077 1:0.63163525 2:1 3:0.77893764 4:0.67759562 5:0.65727307 6:1 7:0.047015629 8:0.75470012 9:1 10:0.2070693 13:0.66857143 14:0.40909094 15:0.97659574 16:47 
-1 1:0.6361632 2:0.47777781 3:0.75023189 4:0.71929824 5:0.82052239 6:0.54654738 7:0.046688552 8:0.98358466 9:1 10:0.76615227 13:0.63819095 14:0.59090912 15:0.86349206 16:10 
1 1:0.35103313 2:0 3:0.50180496 4:0.50961542 5:0.55901806 6:1 7:0 8:0.99372537 9:1 10:0.70891818 13:0.19526627 14:0.38095236 15:0.4 16:37 
-1 1:0.19092381 2:0 3:0.45643476 4:0.38738739 5:0.16072242 6:0 7:0 8:0.9484083 9:1 10:0.0049784383 13:0.18875502 14:0.33333331 15:0.32525253 16:4 
1 1:0.56739683 2:0 3:0.67958373 4:0.56756759 5:0.7119663 6:1 7:0 8:0.71399404 9:1 10:0.22718686 13:0.5033557 14:0.57894737 15:0.77777778 16:6 
-1 1:0.55152915 2:0.66666669 3:0.62550035 4:0.25581396 5:0.55364877 6:0.71182299 7:0.040524788 8:0.97452415 9:0 10:0.83729971 13:0.22815534 14:-0.041666627 15:0.56521739 16:13 
-1 1:0.6220049 2:1 3:0.63024134 4:0.3125 5:0.54884649 6:0.72515043 7:0.23209028 8:0.99496782 9:1 10:0.74149899 13:0.35897436 14:-0.076923132 15:0.87931034 16:28 
-1 1:0.72337285 2:1 3:0.72845425 4:0.66115701 5:0.79968242 6:1 7:0.12656592 8:0.97407916 9:1 10:0.52874606 13:0.63133641 14:0.5454545 15:0.8097166 16:14 
-1 1:0.48868424 2:1 3:0.75025023 4:0.66037738 5:0.66825728 6:0.60565133 7:0.077253323 8:0.96292793 9:1 10:0.16223112 13:0.29466357 14:0.55882353 15:0.48204504 16:29 
-1 1:0.19844339 2:0 3:0.57564764 4:0.43157893 5:0.23097965 6:0 7:0 8:0.81788537 9:0 10:0.12950316 13:0.079136691 14:0.16666669 15:0.62091503 16:10 
-1 1:0.65513997 2:0.84765625 3:0.6868033 4:0.736 5:0.68310935 6:0.87486854 7:0.14435154 8:0.92224709 9:0.45655188 10:0.13449231 13:0.52941176 14:0.71428573 15:0.67857143 16:13 
-0.346599538664973 1:0.60590742 2:0 3:0.72389865 4:0.63076925 5:0.73275356 6:1 7:0 8:0.94633574 9:1 10:0.45358306 13:0.50622407 14:0.58823526 15:0.57706093 16:51 
-1 1:0.33577275 2:0.62626261 3:0.56204979 4:0.35714287 5:0.36809426 6:0.44478504 7:0.042241037 8:0.97515873 9:1 10:0.10322624 13:0.18181818 14:0.13333333 15:0.49583333 16:23 
-1 1:0.59882637 2:0.39204544 3:0.55383322 4:0.42718446 5:0.58804148 6:1 7:7.617436e-09 8:0.9783166 9:0 10:0.37961242 13:0.26666667 14:0.066666663 15:0.62672811 16:24 
1 1:0.1815012 2:0.6974206 3:0.54895771 4:0.3888889 5:0.25414302 6:0 7:0.075582737 8:0 9:0 10:0 13:0.08988764 14:0.17391306 15:0.25869565 16:14 
1 1:0.33307421 2:0.79012346 3:0.45652748 4:0.19387758 5:0.34849257 6:0.51917686 7:7.0346698e-06 8:0.89077301 9:1 10:0.2227423 13:0.1552795 14:-0.052631617 15:0.45510836 16:9 
-1 1:0.51453556 2:0.71428567 3:0.71526401 4:0.6122449 5:0.56205628 6:1 7:0.14189492 8:0.94876492 9:1 10:0.27963013 13:0.30769231 14:0.41176468 15:0.75 16:6 
1 1:0.24198642 2:0 3:0.54040304 4:0.34782606 5:0.25906133 6:1 7:0 8:0.97570336 9:1 10:0.002442491 13:0.12820513 14:0.30769229 15:0.35714286 16:18 
-1 1:0.39040051 2:0.81999999 3:0.55130473 4:0.64583337 5:0.3495953 6:0 7:0.12432171 8:0.98569621 9:0 10:0.2127952 13:0.33684211 14:0.45454544 15:0.5982906 16:22 
-1 1:0.30081659 2:0 3:0.56580797 4:0.48913044 5:0.36349439 6:0.67436763 7:0 8:0.96927638 9:1 10:0.13892948 13:0.17647059 14:0.4375 15:0.32142857 16:20 
1 1:0.3486303 2:0.2903409 3:0.6453624 4:0.41830063 5:0.39040733 6:0 7:0.047569434 8:0.9514265 9:1 10:0.059612161 13:0.27113703 14:0.36666667 15:0.68783069 16:4 
1 1:0.61604108 2:0 3:0.78889691 4:0.55862069 5:0.76413773 6:0.80554891 7:0 8:0.93356917 9:1 10:0.43217043 13:0.55031447 14:0.55172414 15:0.69716776 16:10 
1 1:0.74250749 2:0.86831278 3:0.7181027 4:0.67088604 5:0.82611653 6:0.91525715 7:0.10991101 8:0.75023373 9:0 10:0.45654271 13:0.76036866 14:0.67857146 15:0.75661376 16:10 
-1 1:0.46907848 2:1 3:0.67712801 4:0.46987951 5:0.57032764 6:1 7:0.08527845 8:0.98974978 9:1 10:0.62469056 13:0.48863636 14:0.5 15:0.78374456 16:5 
-1 1:0.30962802 2:0.44761905 3:0.54987688 4:0.48407644 5:0.33494379 6:1 7:0.034182705 8:0.82863832 9:1 10:0.043688302 13:0.26751592 14:0.51428568 15:0.53232759 16:31 
-1 1:0.45212263 2:1 3:0.54370649 4:0.28865981 5:0.43882736 6:0.88599143 7:0.070620626 8:0.99002376 9:1 10:0.37445344 13:0.14285714 14:-0.14285719 15:0.82251082 16:27 
-1 1:0.58917152 2:0.52380955 3:0.72763064 4:0.52777779 5:0.63010718 6:1 7:0.050569422 8:0.88431105 9:1 10:0.18979663 13:0.43554007 14:0.42307693 15:0.78 16:30 
-1 1:0.43850792 2:0.77380949 3:0.73352076 4:0.46666664 5:0.68183188 6:0.27860912 7:0.10772465 8:0.95455263 9:1 10:0.26734266 13:0.35692308 14:0.39285713 15:0.56170213 16:13 
1 1:0.46197261 2:0 3:0.6347385 4:0.41666669 5:0.53793997 6:0 7:0 8:0.89637862 9:1 10:0.16092892 13:0.34693878 14:0.33333331 15:0.77272727 16:6 
1 1:0.48642477 2:0.80624998 3:0.75559268 4:0.56544507 5:0.65266505 6:1 7:0.041117328 8:0.8993359 9:1 10:0.37183777 13:0.35490605 14:0.48571426 15:0.63492063 16:26 
1 1:0.10422657 2:0 3:0.38885962 4:0.32394367 5:0.060426428 6:1 7:0 8:0.96018204 9:1 10:0.010055001 13:0.076923077 14:0.15384614 15:0.69333333 16:4 
-1 1:0.54652616 2:0 3:0.6484735 4:0.28378379 5:0.6080188 6:0.53669174 7:0 8:0.58779394 9:1 10:0.012418771 13:0.35416667 14:0.19047618 15:1.0596206 16:32 
-1 1:0.36438197 2:0.88095236 3:0.76987577 4:0.52795029 5:0.59111407 6:1 7:0.12424762 8:0.90187646 9:1 10:0.46286461 13:0.22653722 14:0.39285713 15:0.35619048 16:44 
-1 1:0.38032718 2:0.65432096 3:0.57011485 4:0.46875 5:0.45219298 6:0.58680036 7:0.050268932 8:0.97145297 9:1 10:0.38185508 13:0.24074074 14:0.38095236 15:0.48351648 16:15 
1 1:0.56231636 2:0.84027773 3:0.67692897 4:0.64772725 5:0.75327205 6:0 7:0.1026763 8:0.93999361 9:0 10:0.61118427 13:0.52967033 14:0.64705884 15:0.66315789 16:14 
1 1:0.33382634 2:0 3:0.59443181 4:0.33884299 5:0.45984667 6:1 7:0 8:0.7382555 9:1 10:0.093491474 13:0.15740741 14:0.22727275 15:0.52758621 16:14 
1 1:0.23642548 2:0 3:0.65184895 4:0.44565219 5:0.37268814 6:0 7:0 8:0 9:0 10:1.8202242e-05 13:0.21538462 14:0.28571427 15:0.2625 16:20 
-1 1:0.37354569 2:0.43209875 3:0.71226744 4:0.61165047 5:0.51217951 6:1 7:0.090335749 8:1 9:1 10:0.2986614 13:0.27586207 14:0.55555558 15:0.48611111 16:30 
-1 1:0.43414276 2:0.06666667 3:0.54328062 4:0.42105263 5:0.44462822 6:0.56494696 7:3.0952885e-10 8:0.76685211 9:0 10:0.039426338 13:0.21666667 14:0 15:0.54285714 16:33 
1 1:0.37551664 2:0 3:0.5265101 4:0.33333331 5:0.49585649 6:0.70104361 7:0 8:1 9:1 10:0.072269797 13:0.18556701 14:0.066666663 15:0.55053763 16:3 
-1 1:0.32863691 2:0 3:0.48939867 4:0.16666669 5:0.36935249 6:0.69452924 7:0 8:0.9079655 9:1 10:0.22527722 13:0.1969697 14:-0.16666663 15:0.47619048 16:0 
1 1:0.50066524 2:1 3:0.8470744 4:0.56387663 5:0.7238176 6:0 7:0.044675705 8:0.99712938 9:1 10:0.97616224 13:0.50884956 14:0.48780489 15:0.44230769 16:80 
-1 1:0.5245343 2:0.73148149 3:0.69805775 4:0.61320758 5:0.60578525 6:1 7:0.059701883 8:0.753165 9:1 10:0.12779661 13:0.25730994 14:0.47368419 15:0.48611111 16:10 
-1 1:0.24689976 2:0.85714287 3:0.59175658 4:0.38690478 5:0.32333876 6:0.19531289 7:0.089876111 8:0.89812797 9:1 10:0.0094798139 13:0.20413437 14:0.09677422 15:0.54098361 16:24 
1 1:0.17715156 2:1 3:0.4588029 4:0.3888889 5:0.1083949 6:0.50302795 7:0.05975858 8:0.98702839 9:1 10:0.21546811 13:0.071428571 14:0.28571427 15:0.26755853 16:5 
-0.8694598159321263 1:0.43744803 2:0.35861257 3:0.67475754 4:0.63909775 5:0.45957083 6:0 7:0.053583814 8:0.93901786 9:0 10:0.25917786 13:0.28979592 14:0.54166663 15:0.59090909 16:8 
-1 1:0.31785171 2:0.50793654 3:0.38725205 4:0.38043481 5:0.3145661 6:0.56122442 7:0.050038082 8:0.91665097 9:1 10:0.028570446 13:0.24390244 14:0.35000002 15:0.48571429 16:1 
0.7163447969432506 1:0.41048946 2:1 3:0.4779239 4:0.30000001 5:0.32415476 6:0.56359111 7:0.15313732 8:0.97720007 9:1 10:0.57991438 13:0.28571429 14:-0.78571427 15:1.1339321 16:57 
-1 1:0.55333776 2:0 3:0.55802724 4:0.31313133 5:0.59231897 6:1 7:0 8:0.92182207 9:0 10:0.49305622 13:0.20588235 14:-0.35294116 15:0.62222222 16:10 
-1 1:0.4554866 2:0.69047618 3:0.57869935 4:0.23664123 5:0.52761092 6:1 7:0.041058043 8:0.92729676 9:1 10:0.2144152 13:0.23717949 14:0 15:0.48888889 16:18 
-1 1:0.26190345 2:1 3:0.53962288 4:0.34579438 5:0.34274556 6:0.50511484 7:0.042972234 8:0.99567273 9:1 10:0.863318 13:0.10169492 14:0.23809522 15:0.39393939 16:13 
-1 1:0.67211944 2:1 3:0.77778846 4:0.19259262 5:0.8425926 6:1 7:0.03324329 8:1 9:1 10:0.9999631 13:0.38782051 14:0.10000002 15:0.83577918 16:9 
-1 1:0.37514439 2:0.75520837 3:0.61287821 4:0.45544553 5:0.45141099 6:0.77014919 7:0.069496287 8:0 9:0 10:7.9222386e-06 13:0.32926829 14:0.21428573 15:0.64285714 16:7 
1 1:0.47825583 2:1 3:0.65332288 4:0.51239669 5:0.59406706 6:1 7:0.06077945 8:0.90716591 9:1 10:0.072154724 13:0.41176471 14:0.43478262 15:0 16:11 
-1 1:0.31825512 2:0.83673471 3:0.60933521 4:0.2972973 5:0.49143916 6:1 7:0.14708615 8:0.62762508 9:0.25650485 10:0.018672666 13:0.18556701 14:0.17647058 15:0.51336898 16:0 
-1 1:0.43020317 2:1 3:0.49087088 4:0.21428573 5:0.45310523 6:0.86857817 7:0.050386493 8:0.90933198 9:1 10:0.50751899 13:0.27826087 14:-0.058823586 15:0.63851351 16:4 
-1 1:0.28161835 2:0 3:0.45288086 4:0.45945948 5:0.33119686 6:0 7:0 8:0.917497 9:1 10:0.053659507 13:0.1047619 14:0.26666665 15:0.41269841 16:13 
-1 1:0.33979523 2:0.6685459 3:0.57723331 4:0.56849313 5:0.640041 6:0.22225052 7:0.12473697 8:0.90902062 9:0.59806936 10:0.2351579 13:0.36074271 14:0.41935486 15:0.52429379 16:6 
1 1:0.69162213 2:1 3:0.8214622 4:0.72727275 5:0.67181593 6:1 7:0.25497832 8:0.91204838 9:1 10:0.68509327 13:0.71428571 14:0.5 15:0.96989967 16:42 
-1 1:0.26624785 2:0 3:0.48327579 4:0.38461536 5:0.24320614 6:0 7:0 8:0 9:1 10:1.1961732e-06 13:0.17180617 14:0.43478262 15:0.24710425 16:9 
-1 1:0.36060844 2:0 3:0.55635589 4:0.44210523 5:0.4174455 6:1 7:0 8:0.90295763 9:1 10:0.2862176 13:0.31182796 14:0.46666664 15:0.57142857 16:12 
1 1:0.44325799 2:0 3:0.75045369 4:0.40869564 5:0.44835618 6:0.15334849 7:0 8:0.9736405 9:1 10:0.58647327 13:0.40723982 14:0.39130437 15:0.48351648 16:12 
-0.64740148232504 1:0.28375544 2:0 3:0.60160638 4:0.43274856 5:0.45120721 6:1 7:0 8:0.78873854 9:1 10:0.24628238 13:0.16216216 14:0.32258064 15:0.32941176 16:46 
-1 1:0.31515262 2:0.87083334 3:0.52606086 4:0.58461535 5:0.45928882 6:1 7:0.080330286 8:0.96923435 9:1 10:0.46209644 13:0.2662116 14:0.25925928 15:0 16:4 
1 1:0.35219059 2:1 3:0.57366061 4:0.55789471 5:0.3362614 6:0 7:0.1008016 8:0 9:1 10:0 13:0.19230769 14:0.23076922 15:0.35897436 16:4 
0.7804105907734387 1:0.64133609 2:0 3:0.73690844 4:0.49532712 5:0.66111581 6:0 7:0 8:0.99177684 9:1 10:0.5125814 13:0.45112782 14:0.33333331 15:0.85135135 16:40 
-1 1:0.27160845 2:0.74467123 3:0.55592098 4:0.39156628 5:0.44697749 6:0.4543099 7:0.14787624 8:0.75423457 9:0 10:0.055343521 13:0.20292887 14:0.3888889 15:0.40361997 16:50 
-1 1:0.30615855 2:1 3:0.55809772 4:0.34666669 5:0.27937394 6:1 7:0.071066974 8:0.8784355 9:1 10:0.017891935 13:0.20879121 14:0.28571427 15:0.66502463 16:1 
-1 1:0.4087014 2:0.69421768 3:0.7069521 4:0.51304352 5:0.63131884 6:0.45630155 7:0.097836546 8:0.86648154 9:1 10:0.0050697078 13:0.22083333 14:0.4074074 15:0.34157913 16:45 
-1 1:0.2221818 2:0.64204544 3:0.62353874 4:0.29347825 5:0.26486723 6:0 7:0.081804617 8:0 9:1 10:0.00069367454 13:0.0625 14:0.058823526 15:0.30588235 16:6 
-1 1:0.41620719 2:1 3:0.56160737 4:0.64227641 5:0.58719556 6:0.30906741 7:0.056696523 8:0.56034625 9:1 10:0.40763661 13:0.32128514 14:0.53846157 15:0.47868217 16:26 
-1 1:0.45905091 2:1 3:0.72195618 4:0.6557377 5:0.49022481 6:1 7:0.078301335 8:0.98313515 9:1 10:0.04643813 13:0.33088235 14:0.29411763 15:0.83333333 16:15 
-1 1:0.75169804 2:1 3:0.75317689 4:0.55714285 5:0.71382408 6:1 7:0.1317227 8:0.85758896 9:1 10:0.1855262 13:0.59183673 14:0.35000002 15:0.86631016 16:49 
1 1:0.42286149 2:0 3:0.70548265 4:0.31818181 5:0.61316849 6:1 7:0 8:0.86000666 9:1 10:0.31474428 13:0.20149254 14:0.20833331 15:0.43650794 16:39 
-1 1:0.54033639 2:0.36825398 3:0.68815643 4:0.66336632 5:0.80334059 6:1 7:6.8028763e-07 8:0.80475859 9:1 10:0.22366168 13:0.47029703 14:0.58333337 15:0.4952381 16:31 
-1 1:0.38095083 2:0.85416669 3:0.71757352 4:0.49038464 5:0.41112515 6:0.64811181 7:0.14222564 8:0.88202936 9:1 10:0.25514411 13:0.24456522 14:0.44999999 15:0.57744361 16:24 
-1 1:0.38192418 2:0.6654321 3:0.47828285 4:0.41666669 5:0.30958347 6:0.38777231 7:0.064342789 8:0.82982476 9:0 10:0.39436449 13:0.27586207 14:0.17647058 15:0.57575758 16:40 
-1 1:0.94731622 2:0 3:0.78664472 4:0.6392405 5:0.80243091 6:0.48166467 7:0 8:1 9:1 10:0.59262013 13:0.912 14:0.43478262 15:1.2363636 16:56 
0.4113490415410169 1:0.82717706 2:0.66666669 3:0.81759332 4:0.80132449 5:0.87739207 6:0.53102471 7:0.036675593 8:0.95779264 9:0 10:0.62884301 13:0.80952381 14:0.73913044 15:1.0340909 16:28 
-1 1:0.41400641 2:0.91156465 3:0.64948879 4:0.44755244 5:0.32310404 6:1 7:0.11578437 8:0.79880094 9:1 10:0.0018342858 13:0.26470588 14:0.2352941 15:0.77777778 16:45 
1 1:0.34702225 2:0.64242429 3:0.60098207 4:0.2264151 5:0.33577461 6:0 7:0.09103694 8:0.90838678 9:0 10:0.09360854 13:0.11392405 14:0 15:0.36756757 16:13 
-1 1:0.30406767 2:1 3:0.54863436 4:0.50854701 5:0.39761096 6:1 7:0.1127515 8:0.93971428 9:1 10:0.29596509 13:0.20757825 14:0.38461536 15:0.47867495 16:35 
1 1:0.37409114 2:0.3125 3:0.5395704 4:0.43396229 5:0.47724876 6:0 7:2.9275628e-09 8:0 9:1 10:0 13:0.23239437 14:0.45454544 15:0.49898084 16:6 
-1 1:0.2908089 2:0 3:0.56435868 4:0.26288658 5:0.44742442 6:1 7:0 8:0.960779 9:0 10:0.22017721 13:0.17724868 14:0.060606062 15:0.48053393 16:24 
-1 1:0.30503981 2:0 3:0.65621701 4:0.59090912 5:0.308361 6:0.44405653 7:0 8:0.70811117 9:0 10:0.0052827128 13:0.20588235 14:0.47058821 15:0.4233871 16:6 
0.622519542329956 1:0.22204858 2:1 3:0.50001338 4:0.28571427 5:0.28952364 6:0 7:0.082943652 8:0 9:1 10:3.6959823e-05 13:0.11940299 14:0.27777779 15:0.32142857 16:16 
-1 1:0.3667639 2:0.54591835 3:0.54598231 4:0.43010753 5:0.48407168 6:1 7:0.076047667 8:0.84102378 9:1 10:0.01447717 13:0.32374101 14:0.22222221 15:0.66554622 16:1 
1 1:0.40412002 2:0 3:0.45877892 4:0.25555557 5:0.48823895 6:0.67837004 7:0 8:0 9:0 10:0.00013648405 13:0.125 14:0.17647058 15:0.29166667 16:7 
-1 1:0.2689149 2:0.61363637 3:0.4429261 4:0.21951222 5:0.32542135 6:0.14437508 7:0.083615027 8:0.97972578 9:0.30528293 10:0.33042724 13:0.14285714 14:0.15384614 15:0.3030303 16:17 
-1 1:0.19244193 2:0 3:0.50921586 4:0.37777776 5:0.21969515 6:1 7:0 8:0.95578802 9:1 10:0.18749893 13:0.10980392 14:0.24000001 15:0.29457364 16:31 
-1 1:0.46097224 2:0 3:0.63674709 4:0.4818182 5:0.59256432 6:1 7:0 8:0.93535454 9:0 10:0.58627401 13:0.31125828 14:0.2631579 15:0.62091503 16:0 
-0.9216674140407913 1:0.21790697 2:0.75510204 3:0.45502812 4:0.29752064 5:0.21491496 6:0.38922287 7:0.0385854 8:0.89716685 9:1 10:0.097997796 13:0.11255411 14:0.045454562 15:0.41515554 16:11 
-1 1:0.24075101 2:0.091071427 3:0.63567674 4:0.44545454 5:0.40328389 6:0 7:5.840003e-10 8:0 9:0 10:0.00019354742 13:0.21794872 14:0.29166669 15:0.29490022 16:12 
1 1:0.29527703 2:1 3:0.60019701 4:0.2931937 5:0.38690839 6:1 7:0.11535202 8:0.81986178 9:1 10:0.0033923514 13:0.27358491 14:0.064516127 15:0.55418719 16:29 
1 1:0.38159813 2:0.68783069 3:0.63262222 4:0.38255036 5:0.64140973 6:0 7:0.11383607 8:0.60228098 9:1 10:0.058516538 13:0.14859438 14:0.31999999 15:0.51138716 16:33 
-1 1:0.31677369 2:0.61369044 3:0.56627056 4:0.33333331 5:0.38024388 6:1 7:0.060034896 8:0.92998374 9:1 10:0.014828207 13:0.21782178 14:0.19047618 15:0.55228216 16:2 
1 1:0.44867736 2:0.50370371 3:0.71801977 4:0.24698794 5:0.59761485 6:0 7:0.039923439 8:0.99731196 9:0.41981167 10:0.56131576 13:0.27624309 14:-0.068965554 15:0.72513263 16:8 
1 1:0.78757496 2:1 3:0.71125521 4:0.85820895 5:0.84525431 6:0.65860204 7:0.096203519 8:0.91439195 9:1 10:0.29850035 13:0.74906367 14:0.75999999 15:0.88282828 16:3 
1 1:0.56390061 2:1 3:0.67470936 4:0.32258064 5:0.63534627 6:0.63104647 7:0.13699562 8:0.78000179 9:1 10:0.08262181 13:0.30540541 14:0.125 15:0.81623134 16:20 
1 1:0.37913566 2:0 3:0.42385105 4:0.36486489 5:0.47602312 6:0.52240231 7:0 8:0.69184693 9:0 10:0.079161302 13:0.22727273 14:0.33333331 15:0.60606061 16:10 
1 1:0.38746892 2:0 3:0.60241169 4:0.40259743 5:0.51522801 6:1 7:0 8:0.98114669 9:1 10:0.4345569 13:0.23148148 14:0.25 15:0.59259259 16:22 
-1 1:0.53206212 2:1 3:0.64960546 4:0.35106385 5:0.40023832 6:1 7:0.11713285 8:1 9:1 10:0.23468284 13:0.21978022 14:0.071428597 15:0.68571429 16:15 
1 1:0.72530165 2:1 3:0.80567319 4:0.44565219 5:0.80536545 6:0.41154772 7:0.12153843 8:1 9:1 10:0.64917167 13:0.54285714 14:0.55000001 15:0.94444444 16:0 
1 1:0.41451523 2:0.44444445 3:0.60893359 4:0.44230771 5:0.4914818 6:0.73743455 7:3.8899195e-09 8:0.99871785 9:1 10:0.33233595 13:0.18852459 14:0.29411763 15:0.6375 16:9 
-1 1:0.23169229 2:0 3:0.47989895 4:0.39603961 5:0.17109108 6:0 7:0 8:0.98343358 9:1 10:0.0036208867 13:0.20253165 14:0.15789473 15:0.40588235 16:1 
-1 1:0.27778472 2:0.72500002 3:0.64196751 4:0.51219511 5:0.4606293 6:0.65097522 7:0.12511242 8:0 9:1 10:2.5589601e-05 13:0.14634146 14:0.39999998 15:0.47619048 16:27 
-1 1:0.44985698 2:1 3:0.7531815 4:0.58895707 5:0.6082374 6:0.77178437 7:0.11282962 8:0.95640303 9:1 10:0.61504892 13:0.42561983 14:0.46153843 15:0.65 16:15 
1 1:0.43474219 2:0 3:0.58748615 4:0.40310079 5:0.55426577 6:0.40523055 7:0 8:0.55560872 9:0 10:0.078211229 13:0.21875 14:0.30000001 15:0.5 16:5 
-1 1:0.61861398 2:0.6736111 3:0.7666721 4:0.81884056 5:0.83706212 6:1 7:0.057910925 8:0.9686377 9:0 10:0.60715042 13:0.6231454 14:0.71428573 15:0.79710145 16:5 
-1 1:0.39188194 2:1 3:0.56546234 4:0.41666669 5:0.41942139 6:1 7:0.13785692 8:0.91523229 9:1 10:0.13191945 13:0.41830065 14:0.15789473 15:0.87793953 16:30 
-1 1:0.52636759 2:1 3:0.69608048 4:0.40650409 5:0.57499938 6:1 7:0.16200208 8:1 9:1 10:0.43780728 13:0.32631579 14:0.35000002 15:0.65 16:11 
1 1:0.53911755 2:0 3:0.59920813 4:0.2352941 5:0.62041118 6:1 7:0 8:0.9649824 9:1 10:0.084075199 13:0.26022305 14:-0.125 15:0.77272727 16:6 
-1 1:0.30773713 2:0.54090911 3:0.51827597 4:0.26760566 5:0.25430746 6:0.72880528 7:0.098906803 8:1 9:1 10:0.16230121 13:0.13333333 14:0.076923072 15:0.55555556 16:8 
-1 1:0.81501351 2:1 3:0.70314639 4:0.46551722 5:0.73237513 6:1 7:0.068031989 8:0.90750677 9:0 10:0.19834072 13:0.64968153 14:0.14999998 15:0.96413199 16:32 
1 1:0.19804321 2:0.76111108 3:0.63049395 4:0.36419755 5:0.3344878 6:0 7:0.06128191 8:0 9:1 10:0 13:0.092063492 14:0.18518519 15:0.51692308 16:17 
-1 1:0.45032971 2:0.89074081 3:0.63134877 4:0.55279505 5:0.37057946 6:0.70861388 7:0.14601168 8:0.88288173 9:1 10:0.26508034 13:0.43333333 14:0.19047618 15:0.84932744 16:33 
0.5924743729219892 1:0.57314542 2:0.62769276 3:0.94305672 4:0.61988306 5:0.87644601 6:0.2913003 7:0.061519124 8:0 9:0 10:5.5462017e-05 13:0.48173516 14:0.67647058 15:0.591133 16:65 
-1 1:0.33208035 2:0 3:0.52245249 4:0.3174603 5:0.40866437 6:0.74416061 7:0 8:0.97153516 9:1 10:0.39767165 13:0.10480349 14:0.086956501 15:0.53589744 16:14 
1 1:0.49248117 2:0 3:0.57382478 4:0.36046511 5:0.37314403 6:1 7:0 8:0.90251057 9:1 10:0.11774029 13:0.28346457 14:0.10526317 15:0.65789474 16:76 
1 1:0.28786496 2:0.87083334 3:0.58858301 4:0.45049506 5:0.39161307 6:0.45513467 7:0.062462384 8:0.84398521 9:0 10:0.45044675 13:0.23702032 14:0.30303031 15:0.42758621 16:3 
-1 1:0.27113394 2:0.64880955 3:0.53781463 4:0.23188406 5:0.33629798 6:0 7:0.096409084 8:0.63920547 9:0 10:0.058824603 13:0.087349398 14:0 15:0.40740741 16:9 
1 1:0.30230871 2:0.890625 3:0.65457576 4:0.47087377 5:0.31088147 6:0.36373208 7:0.093606337 8:0.97183768 9:1 10:0.2565128 13:0.22857143 14:0.25 15:0.76392573 16:27 
-1 1:0.54759363 2:0 3:0.62938412 4:0.59770119 5:0.56215501 6:0 7:0 8:0.90895742 9:1 10:0.15870169 13:0.35855263 14:0.34615386 15:0.73156342 16:40 
-1 1:0.54837768 2:0 3:0.65403694 4:0.39814812 5:0.48684525 6:1 7:0 8:0.64263856 9:1 10:0.015928219 13:0.27272727 14:-0.083333373 15:1.0285714 16:44 
-1 1:0.98496362 2:0 3:0.76299116 4:0.73417723 5:0.95881524 6:0.59337093 7:0 8:1 9:1 10:0.9999631 13:0.76470588 14:0.66666663 15:0.96059113 16:9 
1 1:0.67397869 2:1 3:0.74307553 4:0.59770119 5:0.69158531 6:1 7:0.091397248 8:0.55626967 9:1 10:0.038378104 13:0.69811321 14:0.38095236 15:0.94693878 16:56 
1 1:0.47068855 2:1 3:0.66133882 4:0.46052629 5:0.59914327 6:1 7:0.07446214 8:0.96740464 9:1 10:0.55734828 13:0.32380952 14:0.26666665 15:0.75 16:7 
-1 1:0.52627445 2:0 3:0.54231009 4:0.42528737 5:0.5574481 6:0.66778645 7:0 8:1 9:1 10:0.0033055404 13:0.22222222 14:0 15:0.82051282 16:35 
-1 1:0.99198642 2:0 3:0.8447903 4:0.63870966 5:0.87908343 6:0.61215368 7:0 8:0.95411516 9:1 10:0.4281747 13:1 14:0.55000001 15:1.173913 16:56 
-1 1:0.55521465 2:1 3:0.73402749 4:0.63529408 5:0.55655307 6:0.87989341 7:0.074653643 8:0.91355716 9:1 10:0.13873617 13:0.5625 14:0.5 15:0.83809524 16:13 
-1 1:0.44326195 2:0 3:0.4935529 4:0.4852941 5:0.58256373 6:1 7:0 8:0.82803161 9:1 10:0.007025682 13:0.3220339 14:0.25 15:0.56916996 16:8 
-1 1:0.43518341 2:0 3:0.70288275 4:0.56410253 5:0.59181575 6:0.68906814 7:0 8:0.74305371 9:0 10:0.032541779 13:0.30414747 14:0.45454544 15:0.41904762 16:21 
-1 1:0.40622899 2:0 3:0.55312671 4:0.37777776 5:0.32023701 6:0 7:0 8:0.87833771 9:1 10:0.27003047 13:0.27272727 14:0 15:0.53872054 16:28 
-1 1:0.39809912 2:0.95249999 3:0.56151636 4:0.30573249 5:0.51518282 6:0.61997466 7:0.085750117 8:0.91846437 9:0.39981178 10:0.23028227 13:0.21717172 14:0.25 15:0.35714286 16:33 
1 1:0.23178892 2:0 3:0.44996703 4:0.38028169 5:0.3418405 6:1 7:0 8:0 9:1 10:0 13:0.10309278 14:0.19999999 15:0.37714286 16:12 
-1 1:0.87570859 2:1 3:0.79086175 4:0.55172414 5:0.70995777 6:1 7:0.10464222 8:0.83268847 9:1 10:0.077670641 13:0.64356436 14:0.41176468 15:0.94078947 16:45 
1 1:0.24714874 2:0.63813066 3:0.54924392 4:0.42076504 5:0.34717138 6:0.36637925 7:0.063520947 8:0.80452841 9:0.44931651 10:0.017501217 13:0.13571429 14:0.3125 15:0.28421053 16:18 
1 1:0.52255908 2:0 3:0.65753601 4:0.72463769 5:0.48895469 6:1 7:0 8:0.93684778 9:1 10:0.10375037 13:0.35897436 14:0.53846157 15:0.91036415 16:3 
-1 1:0.46797404 2:0.79666662 3:0.66213701 4:0.49044585 5:0.63121044 6:1 7:0.023460595 8:0.96801238 9:0.14168321 10:0.11507331 13:0.4017094 14:0.26666665 15:0.68813559 16:4 
-1 1:0.42271936 2:0.76543212 3:0.46769991 4:0.54464287 5:0.35632377 6:0.78613118 7:0.095353298 8:0.90764849 9:1 10:0.18075605 13:0.34285714 14:0.33333331 15:0.59607843 16:34 
-1 1:0.18091514 2:0 3:0.4970946 4:0.35238093 5:0.30249425 6:1 7:0 8:0 9:1 10:1.8659209e-06 13:0.068571429 14:0.10000002 15:0.29387755 16:17 
1 1:0.47160191 2:1 3:0.52853389 4:0.15909094 5:0.4449903 6:0 7:0.072689434 8:0.96902989 9:1 10:0.22637236 13:0.14193548 14:0.052631557 15:0 16:1 
-1 1:0.29352712 2:0 3:0.52949076 4:0.43333334 5:0.35571663 6:1 7:0 8:0.93560846 9:0 10:0.096668572 13:0.25714286 14:0.44999999 15:0.41830065 16:5 
1 1:0.73545663 2:1 3:0.74620924 4:0.43518519 5:0.83912281 6:0.67786058 7:0.17111117 8:0.98896506 9:1 10:0.71735678 13:0.52673267 14:0.30555558 15:0.76666667 16:8 
-1 1:0.48431922 2:0 3:0.64815941 4:0.56 5:0.54650787 6:0.76003665 7:0 8:0.63287967 9:1 10:0.34388237 13:0.34042553 14:0.52173913 15:0.56622851 16:18 
-1 1:0.40665294 2:1 3:0.68458646 4:0.66906476 5:0.61080734 6:0.41230084 7:0.13086552 8:0.9346451 9:1 10:0.61580078 13:0.4747191 14:0.63333333 15:0 16:5 
-1 1:0.278007 2:1 3:0.38147599 4:0.22471911 5:0.36478823 6:1 7:0.047565991 8:0.95140137 9:1 10:0.32917656 13:0.125 14:0.058823526 15:0.4 16:10 
-1 1:0.480999 2:0.796875 3:0.70278572 4:0.61744964 5:0.6949501 6:0.71790819 7:0.085974036 8:0.78124883 9:0.49486808 10:0.39541498 13:0.47214854 14:0.625 15:0 16:30 
0.9227661698338882 1:0.61503973 2:0 3:0.77996052 4:0.53999996 5:0.89543991 6:1 7:0 8:0.98 9:1 10:0.064105021 13:0.68421053 14:0.44999999 15:0.84210526 16:0 
1 1:0.58140659 2:0.52922076 3:0.66707173 4:0.45833331 5:0.76592374 6:0.8897237 7:0.08195153 8:0.94747574 9:0 10:0.21820623 13:0.41935484 14:0.33333331 15:0.72833333 16:12 
-1 1:0.46074836 2:0.42873016 3:0.57821893 4:0.4921875 5:0.53100943 6:0.70635944 7:0.031945537 8:0.7371397 9:0.17451189 10:0.22558175 13:0.25482625 14:0.34615386 15:0.80935252 16:2 
-1 1:0.3116484 2:1 3:0.39742192 4:0.37362635 5:0.29127761 6:1 7:0.087432838 8:0.71768289 9:1 10:0.18504469 13:0.16071429 14:0.125 15:0.4056338 16:31 
-1 1:0.57647305 2:1 3:0.82413349 4:0.64705884 5:0.70992491 6:0 7:0.16717523 8:1 9:1 10:0.84229315 13:0.51219512 14:0.68421054 15:0.70707071 16:30 
-1 1:0.3745913 2:1 3:0.63053003 4:0.5568862 5:0.46401953 6:1 7:0.10568365 8:0.6957903 9:1 10:0.016274016 13:0.25517241 14:0.48571426 15:0.45762712 16:16 
-1 1:0.39127056 2:1 3:0.49208497 4:0.47727275 5:0.60023775 6:1 7:0.062062498 8:0.89336904 9:1 10:0.07197139 13:0.12068966 14:0.30000001 15:0.34027778 16:43 
-1 1:0.25676874 2:1 3:0.65298077 4:0.33333331 5:0.51951024 6:1 7:0.16149598 8:0.84305252 9:1 10:0.30205624 13:0.20484581 14:0.24390244 15:0.37606838 16:31 
1 1:0.37128677 2:0.82655096 3:0.65655643 4:0.61290324 5:0.47012674 6:0.69597514 7:0.082629133 8:0.88272322 9:1 10:0.34018414 13:0.30979133 14:0.5 15:0.61666667 16:9 
1 1:0.45940118 2:0.40193453 3:0.75073657 4:0.63513517 5:0.71767093 6:1 7:0.071720187 8:0.92942165 9:1 10:0.20066423 13:0.36119403 14:0.57142854 15:0.50167224 16:37 
1 1:0.25155534 2:0 3:0.45211859 4:0.32051283 5:0.27051275 6:1 7:0 8:0.59785714 9:1 10:0.28929067 13:0.10989011 14:0 15:0.28458498 16:10 
-1 1:0.30728273 2:0.7137692 3:0.69893188 4:0.43708611 5:0.38999569 6:1 7:0.11182642 8:0.89002519 9:1 10:0.21299554 13:0.17857143 14:0.41935486 15:0.30028736 16:69 
0.7765697466720063 1:0.49730632 2:0.7651 3:0.67094715 4:0.26775956 5:0.61070887 6:0 8:0.90284166 9:0.014473808 10:0.52210956 13:0.20529801 14:0.03125 15:0.56842105 16:6 
-1 1:0.33570534 2:0 3:0.4916786 4:0.41346157 5:0.34894719 6:0 7:0 8:0 9:1 10:2.1597658e-05 13:0.26570048 14:0.40909094 15:0.35853659 16:14 
-1 1:0.53289021 2:1 3:0.68073167 4:0.7068063 5:0.60081759 6:0 7:0.12734314 8:0.92556174 9:1 10:0.50056225 13:0.46774194 14:0.5806452 15:0.67857143 16:15 
1 1:0.35011005 2:0 3:0.44831952 4:0.22105265 5:0.47915135 6:0.90199447 7:0 8:0.94447619 9:1 10:0.012634331 13:0.1221374 14:-0.058823586 15:0.42504744 16:23 
-1 1:0.30281651 2:0.80624998 3:0.55786819 4:0.3586207 5:0.34314931 6:0 7:0.036317282 8:0.9606599 9:0 10:0.0011146776 13:0.19893899 14:0.25806451 15:0.28930818 16:13 
-1 1:0.15483874 2:1 3:0.34907133 4:0.33644861 5:0.19643848 6:0 7:0.062924011 8:1 9:1 10:0.02203136 13:0.06097561 14:0.10526317 15:0.40967283 16:23 
-1 1:0.13591105 2:0.51111114 3:0.5251895 4:0.33057851 5:0.28231587 6:0.31967729 7:0.048698381 8:0.75870563 9:1 10:0.33500065 13:0.13438735 14:0.25925928 15:0.30932897 16:12 
-0.02299718846026358 1:0.5907547 2:1 3:0.76950915 4:0.69999999 5:0.71394155 6:1 7:0.09324226 8:1 9:0 10:0.93203642 13:0.528 14:0.70588231 15:0.76923077 16:12 
-0.8933430732423429 1:0.38619437 2:1 3:0.6780804 4:0.27411169 5:0.37064478 6:0 7:0.11971518 8:0.79117296 9:1 10:0.35304442 13:0.31791908 14:-0.35000002 15:0.72652219 16:102 
0.4085526241375929 1:0.53457311 2:1 3:0.76614463 4:0.22916669 5:0.60226242 6:0.81209673 7:0.17323752 8:0.99458376 9:1 10:0.69475838 13:0.28937729 14:0.037037015 15:0.90497738 16:5 
-0.1999614269404869 1:0.41275401 2:0 3:0.63037675 4:0.44186044 5:0.36818023 6:1 7:0 8:0.73808614 9:0 10:0.044018747 13:0.27777778 14:-0.22222221 15:0.63636364 16:36 
-0.07817629701300305 1:0.67404025 2:0 3:0.79590819 4:0.59116018 5:0.74432966 6:0.64803435 7:0 8:0.97024938 9:0 10:0.2496145 13:0.58450704 14:0.45161289 15:0.76315789 16:7 
-1 1:0.33687569 2:0.74074078 3:0.6881746 4:0.39999998 5:0.49530136 6:1 7:0.082459318 8:0.83326749 9:1 10:0.11580754 13:0.16915423 14:0.13333333 15:0.5025641 16:1 
-1 1:0.48061278 2:1 3:0.39741254 4:0.32075471 5:0.50806198 6:1 7:0.050255604 8:0.653448 9:1 10:0.10803478 13:0.28181818 14:0.125 15:0.55555556 16:31 
-1 1:0.51290407 2:1 3:0.68536709 4:0.58720934 5:0.65430439 6:0.39343417 7:0.12184661 8:0.85761025 9:0 10:0.045291585 13:0.4567474 14:0.41379309 15:0.72681704 16:16 
-1 1:0.62914006 2:0.76851851 3:0.75278113 4:0.69743586 5:0.62407557 6:0.90971702 7:0.082427513 8:0.97158112 9:1 10:0.42764685 13:0.50542299 14:0.58823526 15:0.71828358 16:16 
-1 1:0.66446557 2:0 3:0.81706662 4:0.66216218 5:0.79351143 6:1 7:0 8:0.88004896 9:1 10:0.7139847 13:0.45669291 14:0.66666663 15:0.53333333 16:25 
1 1:0.53095999 2:0 3:0.66935515 4:0.49342108 5:0.50962411 6:0.77798093 7:0 8:0.94723035 9:1 10:0.46554236 13:0.44444444 14:0.15789473 15:1.0182056 16:38 
-0.9730773811842766 1:0.41764481 2:0 3:0.46910244 4:0.40196079 5:0.41692775 6:0 7:0 8:0 9:1 10:0.00016207838 13:0.45454545 14:0.21052629 15:0.66365008 16:25 
-1 1:0.18323074 2:0.42857143 3:0.45770197 4:0.43795621 5:0.26307107 6:0.46335571 7:0.040915123 8:0.53031411 9:0 10:0.0076960442 13:0.077134986 14:0.2758621 15:0.24476651 16:54 
1 1:0.69306927 2:1 3:0.85150199 4:0.26347303 5:0.78679207 6:0.42239894 7:0.12945519 8:1 9:1 10:0.82725405 13:0.46857143 14:0.2758621 15:0.88461538 16:13 
1 1:0.46720888 2:0 3:0.51703125 4:0.32999998 5:0.45583669 6:0 7:0 8:0.845434 9:1 10:0.10707124 13:0.26666667 14:0.21052629 15:0.64327485 16:3 
-1 1:0.49633599 2:1 3:0.53085372 4:0.78260869 5:0.35061962 6:1 7:0.046811873 8:0.85093102 9:1 10:0.032617273 13:0.58823529 14:0.63157892 15:0.82670906 16:2 
-1 1:0.2488616 2:0 3:0.57480232 4:0.33884299 5:0.20034095 6:0 7:0 8:0 9:0 10:0 13:0.18181818 14:-0.81818187 15:0.81290323 16:49 
-1 1:0.39330148 2:1 3:0.56639649 4:0.29670328 5:0.42619017 6:0 7:0.095194139 8:0.94351911 9:1 10:0.052411807 13:0.26666667 14:0.13333333 15:0.51724138 16:0 
1 1:0.91651861 2:1 3:0.91418897 4:0.64024389 5:0.97457801 6:0.54294551 7:0.18827622 8:0.97269478 9:0 10:0.71625239 13:0.94276094 14:0.48148149 15:1.0877193 16:15 
-1 1:0.61125581 2:0.8650794 3:0.70156674 4:0.5333333 5:0.6945658 6:0.59526639 7:0.14617021 8:0.97422401 9:1 10:0.43614696 13:0.51851852 14:0.5 15:0.70086043 16:16 
1 1:0.47318231 2:1 3:0.67332096 4:0.375 5:0.54071966 6:0 7:0.059945691 8:0.84135257 9:1 10:0.74245037 13:0.26959248 14:0.066666663 15:0.71794872 16:43 
1 1:0.2568196 2:0 3:0.5138982 4:0.39999998 5:0.28601469 6:0.6076339 7:0 8:0.8445944 9:1 10:0.051459574 13:0.13537118 14:0.20833331 15:0.31882784 16:32 
-1 1:0.7691888 2:1 3:0.82161056 4:0.76300579 5:0.71782941 6:1 7:0.049465599 8:0.95440465 9:1 10:0.21130015 13:0.68888889 14:0.60714287 15:0.83809524 16:17 
0.5031511864800314 1:0.72143906 2:1 3:0.7644566 4:0.41176468 5:0.79838406 6:0.85934504 7:0.018424991 8:0.98349307 9:1 10:0.79621523 13:0.5112782 14:0.43589741 15:0.83783784 16:13 
1 1:0.55747171 2:0 3:0.63699961 4:0.62105262 5:0.59635163 6:0.42955083 7:0 8:0.89853019 9:1 10:0.47131566 13:0.57594937 14:0.52631581 15:0.78018576 16:12 
1 1:0.23508789 2:0.87857145 3:0.55080906 4:0.43317974 5:0.31776108 6:0.32687971 7:0.12370504 8:0.94528542 9:0.032695472 10:0.25910107 13:0.12354312 14:0.25 15:0.28846154 16:68 
1 1:0.2702479 2:0 3:0.57738118 4:0.30496454 5:0.39487053 6:0.53467945 7:0 8:0.3363559 9:0 10:0.20872025 13:0.06360424 14:0.11538464 15:0.29612221 16:58 
1 1:0.3382011 2:0 3:0.56106652 4:0.28260869 5:0.30432897 6:1 7:0 8:0.87514108 9:1 10:0.053016979 13:0.094202899 14:0.055555582 15:0.4233871 16:5 
-1 1:0.19811292 2:0 3:0.44286782 4:0.3586207 5:0.17617202 6:0 7:0 8:0.99636251 9:1 10:0.00088662869 13:0.14121037 14:0.30000001 15:0.2254902 16:47 
-1 1:0.66834322 2:1 3:0.75206319 4:0.78102189 5:0.79657383 6:1 7:0.086338544 8:0.93693874 9:1 10:0.73676977 13:0.51452282 14:0.66666663 15:0.62745098 16:22 
-1 1:0.48267218 2:0.71249998 3:0.69643467 4:0.60106385 5:0.65636514 6:1 7:0.10521445 8:0.89303229 9:1 10:0.12118653 13:0.48275862 14:0.67500001 15:0.62671367 16:12 
-1 1:0.49910645 2:0.88095236 3:0.72064282 4:0.64864862 5:0.59821253 6:1 7:0.20972229 8:0.75988285 9:0 10:0.02758418 13:0.34482759 14:0.60000002 15:0.62745098 16:15 
1 1:0.44062819 2:0.48343214 3:0.56251987 4:0.51948053 5:0.49051291 6:0.43899316 7:1.6679913e-07 8:0.50432897 9:1 10:0.22179046 13:0.4806867 14:0.46428573 15:0.59733333 16:10 
-1 1:0.41071597 2:0 3:0.64296087 4:0.42975205 5:0.43547633 6:1 7:0 8:0.89895114 9:1 10:0.067473696 13:0.32116788 14:0.15789473 15:0.75753228 16:34 
0.3743792450301376 1:0.1983063 2:1 3:0.4990418 4:0.33333331 5:0.3575011 6:0 7:0.062013128 8:1 9:1 10:0.19802639 13:0.070588235 14:0.14285713 15:0.26666667 16:26 
-1 1:0.29011958 2:1 3:0.51504748 4:0.46666664 5:0.19395086 6:1 7:0.098654589 8:0.90692549 9:1 10:0.24073717 13:0.16666667 14:0.33333331 15:0.46783626 16:1 
-1 1:0.53135536 2:0.77679586 3:0.61251977 4:0.54887217 5:0.52966341 6:0.74000224 7:0.1601676 8:0.89903481 9:0 10:0.43726429 13:0.50632911 14:0.40909094 15:0.92415711 16:17 
-1 1:0.38585106 2:1 3:0.53641066 4:0.71134019 5:0.33524453 6:0.40990228 7:0.043782353 8:0.91487831 9:1 10:0.19403482 13:0.47619048 14:0.61904764 15:0.68421053 16:7 
-1 1:0.22688063 2:0.76402116 3:0.43682281 4:0.36885244 5:0.14094364 6:0.31640046 7:0.082696079 8:0.93868037 9:0.96351717 10:0.45244485 13:0.14222222 14:0.16666669 15:0.29166667 16:22 
-1 1:0.64850836 2:1 3:0.73142091 4:0.42477876 5:0.61033691 6:1 7:0.074026021 8:0.69831085 9:1 10:0.042785663 13:0.72 14:0.125 15:1.0320513 16:42 
-1 1:0.44840308 2:1 3:0.5481845 4:0.32530123 5:0.45147851 6:0.66784908 7:0.08771033 8:0.88903838 9:1 10:0.3913962 13:0.29824561 14:0.16666669 15:0.73426573 16:8 
-1 1:0.48334109 2:0 3:0.66471755 4:0.39583331 5:0.52355679 6:1 7:0 8:0.97193759 9:1 10:0.61731966 13:0.22875817 14:0.22222221 15:0.70588235 16:11 
-1 1:0.34017249 2:0.68425924 3:0.68017106 4:0.5 5:0.5539235 6:0.43718892 7:0.14199109 8:0.67150378 9:1 10:0.75896917 13:0.2081448 14:0.4285714 15:0.47736917 16:41 
-1 1:0.55402319 2:1 3:0.73155842 4:0.54491019 5:0.67364201 6:1 7:0.16522664 8:0.69877116 9:1 10:0.48025042 13:0.50980392 14:0.39999998 15:0.80232558 16:24 
1 1:0.56646978 2:1 3:0.67674744 4:0.25454545 5:0.76085487 6:1 7:0.071018544 8:0.99128523 9:1 10:0.49965937 13:0.31034483 14:0.14285713 15:0.75036075 16:5 
1 1:0.50320567 2:0 3:0.69893208 4:0.234375 5:0.60927449 6:1 7:0 8:0.92169229 9:1 10:0.43246753 13:0.30357143 14:0.20833331 15:0.80632411 16:3 
-1 1:0.82622163 2:1 3:0.85036036 4:0.59183669 5:0.78072515 6:1 7:0.11640176 8:0.99019769 9:1 10:0.29375387 13:1 14:0.35714287 15:1.0215054 16:38 
-1 1:0.61038824 2:0 3:0.74011729 4:0.70718229 5:0.73654893 6:0 7:0 8:0.74317533 9:0 10:0.36269398 13:0.51295337 14:0.60000002 15:0.62259887 16:10 
-1 1:0.42107914 2:0.75194806 3:0.64543072 4:0.6394558 5:0.53933846 6:1 7:0.16664497 8:0.8458069 9:1 10:0.15691809 13:0.39072848 14:0.62068963 15:0.61333333 16:24 
-1 1:0.42420245 2:0.51249999 3:0.53823552 4:0.46258503 5:0.37753142 6:0.82713705 7:0.035940396 8:0.85666182 9:1 10:0.39691233 13:0.22222222 14:0 15:0.90277778 16:19 
-1 1:0.28116515 2:1 3:0.63381461 4:0.31818181 5:0.41494621 6:0.8231394 7:0.11296874 8:0.95255783 9:1 10:0.4523674 13:0.12921348 14:0.30000001 15:0.35879912 16:39 
0.8918945288657223 1:0.26170869 2:0 3:0.61996548 4:0.5364238 5:0.50095745 6:1 7:0 8:0.79915851 9:1 10:0.19321118 13:0.11290323 14:0.20833331 15:0.40652174 16:27 
1 1:0.30973408 2:0.39103234 3:0.51075525 4:0.30088496 5:0.42055713 6:0.66543996 7:0.11288766 8:0.75635443 9:0 10:0.0023159061 13:0.15277778 14:0.1111111 15:0.41830065 16:29 
1 1:0.19092137 2:0.16639611 3:0.51376277 4:0.39999998 5:0.26845769 6:0.50678818 7:2.4086692e-09 8:0.79338163 9:1 10:0.22701206 13:0.16521739 14:0.39999998 15:0.37878788 16:3 
-1 1:0.37920607 2:0 3:0.5225183 4:0.25773197 5:0.47229199 6:0 7:0 8:0.45833333 9:1 10:0.015176697 13:0.14189189 14:-0.055555582 15:0.41666667 16:4 
-1 1:0.25613599 2:0 3:0.39575414 4:0.44117647 5:0.23521945 6:0 7:0 8:0.76784819 9:1 10:0.00096916592 13:0.20704846 14:0.47826087 15:0.27874564 16:6 
1 1:0.18201008 2:0 3:0.51704725 4:0.27027029 5:0.27936062 6:0.61940364 7:0 8:0.72517564 9:1 10:0.17439482 13:0.1474359 14:0.19047618 15:0.46495468 16:6 
-1 1:0.21221762 2:1 3:0.43486206 4:0.21929824 5:0.19417521 6:0.38922287 7:0.038314418 8:0.74695588 9:1 10:0.40687946 13:0.1754386 14:0.13043481 15:0.44194012 16:11 
-1 1:0.23748184 2:0.15138888 3:0.5735725 4:0.44954127 5:0.32576326 6:0 7:4.0529229e-09 8:0.78380658 9:0 10:0.031680912 13:0.19444444 14:0.375 15:0.24901186 16:19 
1 1:0.15248503 2:0.10666667 3:0.37554201 4:0.21917808 5:0.13931183 6:0 7:1.1514582e-09 8:0 9:1 10:0 13:0.045454545 14:0.083333313 15:0.32727273 16:5 
1 1:0.33166555 2:1 3:0.50126378 4:0.31132078 5:0.39136959 6:0 7:0.069466639 8:0.86832512 9:1 10:0.38853193 13:0.14851485 14:0.23809522 15:0.28520499 16:10 
-1 1:0.61694076 2:1 3:0.79341677 4:0.76428568 5:0.67251701 6:0.6466988 7:0.051938181 8:0.8903843 9:1 10:0.06620008 13:0.42372881 14:0.65517241 15:0.59259259 16:8 
1 1:0.52711844 2:1 3:0.696251 4:0.47663552 5:0.63249005 6:0 7:0.14092521 8:0.9299999 9:1 10:0.12504467 13:0.55333333 14:0.25 15:0.8820315 16:15 
1 1:0.37223371 2:0 3:0.55580902 4:0.38636363 5:0.47509598 6:1 7:0 8:0.92091246 9:1 10:0.017835885 13:0.3030303 14:-0.083333373 15:0.55194805 16:14 
-1 1:0.40983889 2:1 3:0.62451378 4:0.53932583 5:0.34966141 6:1 7:0.1277976 8:0.84005877 9:1 10:0.32810318 13:0.31578947 14:0.52380955 15:0.52631579 16:7 
-1 1:0.4484242 2:1 3:0.6840276 4:0.72519088 5:0.57035015 6:1 7:0.10656514 8:0.94283751 9:1 10:0.42799091 13:0.49122807 14:0.65384614 15:0.68673267 16:9 
-1 1:0.68154478 2:1 3:0.70996461 4:0.75384617 5:0.80587211 6:0.87363879 7:0.11195413 8:0.80535419 9:1 10:0.3571855 13:0.60384615 14:0.64864862 15:0.80555556 16:10 
-1 1:0.49637857 2:1 3:0.62932018 4:0.40196079 5:0.64834142 6:0.68962894 7:0.14256352 8:0.98483388 9:1 10:0.41724921 13:0.34615385 14:0.41176468 15:0.66532258 16:13 
0.9897767636666904 1:0.42540356 2:1 3:0.68303323 4:0.36153847 5:0.63925021 6:1 7:0.1225533 8:0.9366723 9:1 10:0.78358136 13:0.24671053 14:0.21875 15:0.4918239 16:16 
-1 1:0.3048351 2:1 3:0.41068465 4:0.51724136 5:0.364902 6:0 7:0.080066279 8:0.94255539 9:1 10:0.0010954813 13:0.16470588 14:0.36842108 15:0.47058824 16:10 
-1 1:0.64554336 2:1 3:0.6001115 4:0.6509434 5:0.62323561 6:0 7:0.025260806 8:0.72296229 9:1 10:0.72749413 13:0.68072289 14:0.31578946 15:0.67647059 16:7 
-1 1:0.56244954 2:0.55207068 3:0.65976419 4:0.72072071 5:0.57338877 6:0.8228454 7:0.11294636 8:1 9:0 10:0.075727284 13:0.46486486 14:0.63636363 15:0.59090909 16:4 
-1 1:0.48225021 2:1 3:0.62309569 4:0.60576922 5:0.42773988 6:1 7:0.11781361 8:0.93962178 9:1 10:0.36285855 13:0.41011236 14:0.60000002 15:0.61111111 16:19 
-1 1:0.42354021 2:0.58035713 3:0.64735522 4:0.38532108 5:0.54883734 6:0 7:0.10224024 8:0.9447738 9:1 10:0.052225126 13:0.38356164 14:0.30000001 15:0.5 16:10 
-1 1:0.50724387 2:0.49444443 3:0.57642759 4:0.3611111 5:0.53513061 6:1 7:3.8762796e-07 8:0.92966388 9:0 10:0.05963923 13:0.24242424 14:0 15:0.58333333 16:22 
-1 1:0.78885376 2:1 3:0.75527035 4:0.71134019 5:0.85621353 6:0.74669474 7:0.078834812 8:1 9:1 10:0.44676355 13:0.6173913 14:0.47058821 15:1.0185185 16:3 
-1 1:0.56640147 2:1 3:0.6076744 4:0.30882353 5:0.44262385 6:1 7:0.070423275 8:0.93277365 9:1 10:0.38308674 13:0.45833333 14:0 15:0.86195286 16:20 
-1 1:0.22707841 2:0.14727513 3:0.5050505 4:0.33707863 5:0.20912997 6:0 7:8.4581978e-09 8:0.955561 9:0 10:0.0041834557 13:0.10714286 14:0.071428597 15:0.48214286 16:13 
-1 1:0.3226082 2:0.44642857 3:0.65231467 4:0.51020408 5:0.52100909 6:0 7:3.2140701e-09 8:0.6069326 9:1 10:0.19041038 13:0.23828921 14:0.45945948 15:0.39880359 16:55 
-1 1:0.31830023 2:0.68575758 3:0.46046709 4:0.57936507 5:0.35311422 6:0.58419824 7:0.067191573 8:0.87225154 9:1 10:0.16379928 13:0.208 14:0.33333331 15:0.28201161 16:21 
1 1:0.17468145 2:0.53035712 3:0.51634699 4:0.30263156 5:0.23579793 6:0.24973699 7:0.11374967 8:0.78696878 9:1 10:0.39508729 13:0.069767442 14:0.14814812 15:0.19433198 16:66 
1 1:0.45601241 2:0.3968254 3:0.68784791 4:0.23809522 5:0.5887638 6:1 7:9.1206556e-09 8:0.86364755 9:1 10:0.48555314 13:0.2962963 14:0.12 15:0.50555556 16:17 
-1 1:0.57574215 2:0 3:0.67593286 4:0.71341467 5:0.79393399 6:0 7:0 8:0.88180931 9:1 10:0.54806777 13:0.37984496 14:0.55882353 15:0.60876809 16:16 
-1 1:0.49119367 2:0.6111111 3:0.61461786 4:0.5 5:0.60070715 6:0.32765921 7:0.076945127 8:0.50618801 9:1 10:0.092693046 13:0.30337079 14:0.4285714 15:0.49707602 16:13 
-1 1:0.16946973 2:1 3:0.33465345 4:0.26890755 5:0.22388836 6:1 7:0.027520834 8:0.90353177 9:1 10:0.12914769 13:0.090032154 14:0.23076922 15:0.27036304 16:48 
-1 1:0.59207625 2:1 3:0.67090465 4:0.44791669 5:0.66145258 6:1 7:0.065945858 8:0.97763558 9:0 10:0.32886219 13:0.46153846 14:0.16666669 15:0.67058824 16:2 
-1 1:0.31942304 2:0.44966197 3:0.56400718 4:0.44262296 5:0.31201765 6:0 7:1.1452262e-07 8:0.63221992 9:0 10:0.0040616755 13:0.20886076 14:-0.15789473 15:0 16:29 
-1 1:0.21516993 2:0 3:0.51970973 4:0.42016804 5:0.31012631 6:1 7:0 8:0.83085321 9:1 10:0.013867879 13:0.095541401 14:0.31578946 15:0.26794258 16:42 
1 1:0.29773587 2:0.78787881 3:0.55367704 4:0.43298972 5:0.39719005 6:0.84614083 7:0.14462474 8:0 9:1 10:0.00042446076 13:0.13924051 14:0.36842108 15:0.35846373 16:2 
1 1:0.47838028 2:0.745 3:0.60779453 4:0.31360948 5:0.56259516 6:0 7:0.046000019 8:0.91395465 9:1 10:0.034935342 13:0.37387387 14:0.17391306 15:0.87991718 16:46 
-1 1:0.21756642 2:0 3:0.49727906 4:0.43678159 5:0.28080471 6:0.98889501 7:0 8:1 9:0 10:0.41812729 13:0.14516129 14:0.41176468 15:0.55384615 16:34 
-1 1:0.37480939 2:0.85357141 3:0.49957562 4:0.35576922 5:0.38075508 6:0.9483038 7:0.12118917 8:0.93156916 9:1 10:0.0047126167 13:0.11413043 14:0.09523809 15:0.32162162 16:19 
1 1:0.24423563 2:0.32786795 3:0.49202175 4:0.36538464 5:0.23824396 6:1 7:1.0617931e-06 8:0.99323427 9:1 10:0.083103298 13:0.087719298 14:0.15789473 15:0.23529412 16:8 
1 1:0.77330605 2:1 3:0.77907512 4:0.4391892 5:0.85714974 6:1 7:0.21123685 8:0.7873188 9:1 10:0.35242605 13:0.60368664 14:0.47058821 15:0 16:11 
1 1:0.51315276 2:0.049382716 3:0.62273214 4:0.56875002 5:0.70122787 6:0.5829474 7:1.4070904e-10 8:0.89394942 9:0 10:0.034988936 13:0.34745763 14:0.46428573 15:0.49242424 16:27 
-1 1:0.1986974 2:0 3:0.49473444 4:0.45945948 5:0.16141909 6:0 7:0 8:0 9:1 10:2.8331964e-06 13:0.16845878 14:0.38461536 15:0.20222447 16:6 
-0.7202291089035324 1:0.81730634 2:1 3:0.86173061 4:0.59154928 5:0.84527554 6:1 7:0.12577203 8:1 9:1 10:0.75086522 13:0.8277512 14:0.40909094 15:0.96020539 16:20 
-1 1:0.2871977 2:0.53174603 3:0.43983409 4:0.43373495 5:0.26383093 6:1 7:0.11100666 8:1 9:1 10:0.88149315 13:0.12820513 14:0.30769229 15:0.52 16:5 
-1 1:0.51305396 2:1 3:0.74805903 4:0.58762884 5:0.52769077 6:1 7:0.037778571 8:0.9354229 9:1 10:0.36572561 13:0.58510638 14:0.26666665 15:0.87207207 16:26 
1 1:0.33625641 2:0 3:0.60555805 4:0.33980584 5:0.3766819 6:0.75431791 7:0 8:1 9:1 10:0.002718272 13:0.2519084 14:0.11764705 15:0.59558824 16:20 
-1 1:0.20161368 2:0 3:0.48164069 4:0.45871562 5:0.17062823 6:0 7:0 8:0.85375072 9:1 10:0.0038263752 13:0.15932203 14:0.42307693 15:0.23333333 16:6 
0.5901526670848456 1:0.37963622 2:0 3:0.60557935 4:0.48453611 5:0.56840787 6:0.30910464 7:0 8:0.61266585 9:1 10:0.59730011 13:0.18431373 14:0.35135138 15:0.3368984 16:73 
1 1:0.42428145 2:1 3:0.78688306 4:0.62068963 5:0.57663997 6:1 7:0.10185184 8:0.9425063 9:1 10:0.3003743 13:0.26861702 14:0.48387098 15:0.47407407 16:50 
1 1:0.42399188 2:1 3:0.68041855 4:0.33175355 5:0.62473043 6:1 7:0.12846765 8:0.94685695 9:1 10:0.04776131 13:0.30585106 14:0.2647059 15:0.70967742 16:6 
1 1:0.47217564 2:0 3:0.63738912 4:0.4037267 5:0.56223606 6:0.88928851 7:0 8:0.94909838 9:1 10:0.67242421 13:0.40776699 14:0.23333335 15:0.55423197 16:7 
-1 1:0.55955587 2:1 3:0.55283449 4:0.2903226 5:0.64668978 6:0.42613617 7:0.13292144 8:0.68912299 9:1 10:0.30559807 13:0.34437086 14:0.23076922 15:0.66176471 16:13 
-1 1:0.49661575 2:0.45871913 3:0.7058899 4:0.69620252 5:0.69544782 6:0.38901621 7:2.8046863e-08 8:1 9:0.23116189 10:0.43685605 13:0.37931034 14:0.68421054 15:0.5751634 16:7 
1 1:0.279436 2:0.13333334 3:0.63859793 4:0.49315071 5:0.40861494 6:0 7:6.2276903e-10 8:0.95797176 9:0 10:0.21343416 13:0.18442623 14:0.33333331 15:0.35403727 16:14 
1 1:0.61672326 2:0.91383219 3:0.81218494 4:0.7087912 5:0.82371064 6:0.74834291 7:0.1631184 8:0.98917674 9:1 10:0.67550095 13:0.5518732 14:0.68888891 15:0.58453803 16:50 
-1 1:0.29099043 2:0.32142857 3:0.44476739 4:0.30769229 5:0.25007222 6:0.39140829 7:7.6275856e-09 8:0.8443894 9:1 10:0.12472854 13:0.18181818 14:0.17391306 15:0.56935818 16:6 
-1 1:0.63794027 2:1 3:0.73166994 4:0.4233129 5:0.76885709 6:0.36321084 7:0.120742 8:1 9:1 10:0.0029869102 13:0.43145161 14:0.27999997 15:0.66604995 16:7 
-1 1:0.58497829 2:1 3:0.78651619 4:0.63829792 5:0.6718706 6:1 7:0.13080408 8:0.81590501 9:1 10:0.0024411555 13:0.62037037 14:0.58620691 15:0 16:2 
1 1:0.31234135 2:1 3:0.68030441 4:0.23809522 5:0.49119471 6:0.30077631 7:0.15397592 8:0.92702438 9:1 10:0.26786977 13:0.20681265 14:0.125 15:0.54907162 16:25 
-1 1:0.1667663 2:1 3:0.3900644 4:0.17741936 5:0.18221168 6:0.38922287 7:0.039937445 8:0.68239939 9:1 10:0.0080164307 13:0.11788618 14:-0.038461566 15:0.36330796 16:14 
-1 1:0.4028084 2:0 3:0.62962085 4:0.33018869 5:0.57141655 6:1 7:0 8:0.6547489 9:0 10:0.17786048 13:0.32653061 14:-0.0625 15:0.52156863 16:31 
-1 1:0.34355977 2:0.80246913 3:0.49110924 4:0.36134452 5:0.36623172 6:0 7:0.054971194 8:0.77442454 9:0 10:0.026289073 13:0.17578125 14:0.20833331 15:0.50092764 16:12 
-1 1:0.75012995 2:1 3:0.86955779 4:0.81818181 5:0.87430059 6:1 7:0.058883426 8:0.96509512 9:1 10:0.35668033 13:0.50707547 14:0.6875 15:0.59499662 16:20 
0.8008597784984618 1:0.42837173 2:1 3:0.52764003 4:0.39240509 5:0.42954956 6:1 7:0.090986043 8:0.97313901 9:1 10:0.10525656 13:0.3 14:0.4375 15:0.48148148 16:11 
-1 1:0.15639977 2:0 3:0.37957002 4:0.27433628 5:0.18575317 6:1 7:0 8:0 9:1 10:1.0459129e-06 13:0.078947368 14:0.050000012 15:0.32388664 16:6 
-1 1:0.36941713 2:0.63999999 3:0.59740265 4:0.47058821 5:0.43793762 6:0 7:1.6696311e-07 8:0.89795195 9:1 10:0.10803238 13:0.23943662 14:0.31818181 15:0.48837209 16:22 
-1 1:0.57186322 2:1 3:0.77719247 4:0.52380955 5:0.68386703 6:0.78367453 7:0.14398291 8:0.91911449 9:1 10:0.067575646 13:0.585209 14:0.46428573 15:0.7977208 16:1 
1 1:0.36144357 2:0 3:0.65013571 4:0.47482014 5:0.4198766 6:1 7:0 8:0.87421831 9:1 10:0.087174288 13:0.185 14:0.38095236 15:0.42606516 16:45 
-1 1:0.25468793 2:0.81481481 3:0.48725195 4:0.33108109 5:0.25552881 6:1 7:0.10776893 8:0.89793046 9:1 10:0.0007964801 13:0.16117216 14:0.076923072 15:0.40784314 16:23 
1 1:0.20382103 2:0 3:0.328384 4:0.29166669 5:0.20337574 6:0.53964887 7:0 8:0.93478295 9:0 10:0.0065803404 13:0.076923077 14:0.15384614 15:0.46666667 16:3 
1 1:0.25371779 2:0.7508418 3:0.49385724 4:0.42982459 5:0.24222444 6:0.91147635 7:0.13943569 8:1 9:1 10:0.1888857 13:0.12962963 14:0.2631579 15:0.27642276 16:7 
-1 1:0.29183001 2:0.063492067 3:0.45854117 4:0.35384613 5:0.35158994 6:0.75737787 7:2.8964305e-10 8:0.90723508 9:0 10:0.15370976 13:0.17127072 14:0.14285713 15:0.37894737 16:4 
1 1:0.26732898 2:0 3:0.48345241 4:0.28318584 5:0.33617283 6:0.80131777 7:0 8:0.90121197 9:1 10:0.16115277 13:0.085561497 14:0.14285713 15:0.49122807 16:29 
-1 1:0.58668973 2:1 3:0.73260632 4:0.32291669 5:0.71555791 6:0.48259817 7:0.046020967 8:0.98861872 9:1 10:0.43556479 13:0.55357143 14:0 15:0.83333333 16:14 
-1 1:0.37616802 2:0.25252524 3:0.54751079 4:0.20610684 5:0.46845713 6:0 7:1.9009663e-09 8:0.87617842 9:1 10:0.044740355 13:0.30044843 14:0.23076922 15:0.41501976 16:2 
-1 1:0.50190815 2:1 3:0.66170791 4:0.43448275 5:0.58874038 6:0.54932519 7:0.070915121 8:0.81482202 9:1 10:0.020263008 13:0.26133333 14:0.22580647 15:0.72413793 16:5 
-1 1:0.12446435 2:1 3:0.4595307 4:0.25882351 5:0.099070775 6:0 7:0.043532578 8:0.62204581 9:0 10:0.22654823 13:0.095238095 14:0 15:0.27292111 16:5 
-1 1:0.5640185 2:0.79166669 3:0.64602731 4:0.53416145 5:0.49807123 6:1 7:0.034621583 8:0.96127882 9:1 10:0.38949812 13:0.34736842 14:0.10000002 15:0.85345345 16:56 
1 1:0.68895128 2:1 3:0.76548786 4:0.53205132 5:0.68796112 6:0.84951205 7:0.026383914 8:0 9:0 10:2.7423989e-06 13:0.5 14:0.047619045 15:0.79019608 16:49 
-1 1:0.3895541 2:1 3:0.56426919 4:0.2087912 5:0.46513415 6:1 7:0.088680706 8:0.90654713 9:0 10:0.0035924987 13:0.15238095 14:-0.20000005 15:0.53333333 16:7 
1 1:0.41259192 2:1 3:0.63307792 4:0.47619045 5:0.48210696 6:0 7:0.042660493 8:0.83326152 9:1 10:0.062394945 13:0.26153846 14:0.28571427 15:0.45945946 16:3 
-1 1:0.43402738 2:0.89814812 3:0.52755169 4:0.3125 5:0.3817906 6:0 7:0.17098863 8:0.58790895 9:1 10:0.21845333 13:0.39726027 14:0.071428597 15:0.62531017 16:18 
-1 1:0.56706381 2:1 3:0.6763036 4:0.62 5:0.64024034 6:1 7:0.10771315 8:0.97829406 9:1 10:0.73353074 13:0.49393939 14:0.5 15:0.70880162 16:2 
-1 1:0.39264239 2:0.61363637 3:0.46183155 4:0.3142857 5:0.38918443 6:0.74889677 7:0.079925113 8:1 9:0 10:0.00093666445 13:0.23364486 14:0.0625 15:0.53141946 16:14 
-1 1:0.21853659 2:0 3:0.46371936 4:0.44954127 5:0.20588512 6:0 7:0 8:0 9:1 10:2.5399932e-06 13:0.21860465 14:0.43478262 15:0.28571429 16:7 
1 1:0.63607459 2:0.83673471 3:0.75541217 4:0.76047903 5:0.82485891 6:1 7:0.094458771 8:1 9:1 10:0.59080819 13:0.53707865 14:0.72727275 15:0.68095238 16:19 
1 1:0.32167228 2:1 3:0.56826604 4:0.25 5:0.39412882 6:0.30313228 7:0.14981736 8:0.51663856 9:0 10:0.016193508 13:0.26 14:0.09375 15:0.55464612 16:11 
1 1:0.21107802 2:0.18000001 3:0.54390066 4:0.26999998 5:0.30944631 6:0 7:6.766451e-10 8:0.89757727 9:0 10:0.079471497 13:0.11111111 14:0.10526317 15:0.34027778 16:4 
1 1:0.41668463 2:0.42108583 3:0.59698058 4:0.48148149 5:0.62189244 6:0 7:8.2098042e-09 8:0.8571105 9:0 10:0.16286837 13:0.41129032 14:0.25 15:0.67272727 16:31 
1 1:0.44490604 2:0.81800002 3:0.63243545 4:0.58757061 5:0.54233986 6:0 7:0.16679629 8:0.84749053 9:0 10:0.358201 13:0.39812646 14:0.4848485 15:0.5814116 16:3 
-1 1:0.54726855 2:0.63257575 3:0.94020386 4:0.6875 5:0.7695792 6:1 7:0.081583576 8:0.9197803 9:0 10:0.15740729 13:0.48657718 14:0.66666663 15:0.5952381 16:47 
-1 1:0.17317876 2:0 3:0.41063562 4:0.3888889 5:0.24477882 6:1 7:0 8:0 9:1 10:0 13:0.064981949 14:0.23076922 15:0.14906832 16:53 
-1 1:0.25318137 2:0.76041663 3:0.506923 4:0.45360827 5:0.39518647 6:1 7:0.08684844 8:0.8628492 9:1 10:0.24961844 13:0.061728395 14:0.2631579 15:0.20373514 16:37 
-1 1:0.63871965 2:1 3:0.70203281 4:0.5866667 5:0.70670767 6:1 7:0.074613045 8:0.93178953 9:1 10:0.38842014 13:0.54696133 14:0.33333331 15:0.73333333 16:11 
1 1:0.69639405 2:1 3:0.86620192 4:0.85365856 5:0.73222114 6:0.39374846 7:0.10130523 8:0.96953157 9:1 10:0.80451587 13:0.75925926 14:0.80769229 15:0.93537415 16:9 
1 1:0.18233167 2:0 3:0.44179321 4:0.29239768 5:0.35821623 6:1 7:0 8:0.88902305 9:1 10:0.064193502 13:0.13253012 14:0.0625 15:0.41290323 16:8 
0.9574041853586286 1:0.69387053 2:1 3:0.75104659 4:0.6134969 5:0.88543484 6:0.37160546 7:0.051335298 8:0.94064947 9:0 10:0.22607703 13:0.82899628 14:0.53571427 15:0.9478022 16:11 
-1 1:0.76563273 2:1 3:0.89134371 4:0.62992126 5:0.74899857 6:1 7:0.13864309 8:0.95683176 9:1 10:0.45121505 13:0.77472527 14:0.60000002 15:0.92230576 16:15 
1 1:0.21356779 2:0 3:0.46033746 4:0.25316453 5:0.15571697 6:0.74711392 7:0 8:0.97909584 9:1 10:0.51171697 13:0.08974359 14:0.076923072 15:0.46153846 16:2 
-1 1:0.37449022 2:0.83333331 3:0.69998125 4:0.38028169 5:0.54904224 6:0.52282734 7:0.082428203 8:0.95641039 9:1 10:0.60616686 13:0.26744186 14:0.09677422 15:0.8403183 16:40 
-1 1:0.6641747 2:1 3:0.84097841 4:0.26851851 5:0.82879472 6:1 7:0.039143642 8:0.87337779 9:1 10:0.2329769 13:0.35294118 14:0.055555582 15:0.99346405 16:4 
1 1:0.23109265 2:0.20454545 3:0.53716432 4:0.33333331 5:0.26322089 6:0 7:1.1950272e-09 8:0 9:0 10:0.00032350788 13:0.10153846 14:-0.15384614 15:0.56655738 16:60 
-1 1:0.32758775 2:0.4697237 3:0.56812032 4:0.47468352 5:0.44352298 6:1 7:0.038540256 8:0.94177877 9:1 10:0.010043566 13:0.22160665 14:0.35483873 15:0.35686275 16:55 
-1 1:0.22933018 2:0.94214875 3:0.57057163 4:0.44292235 5:0.38059173 6:0.43298588 7:0.059971368 8:0.85471498 9:0.22504988 10:0.35837319 13:0.11486486 14:0.32432431 15:0.40131664 16:45 
-1 1:0.49732489 2:0.59000003 3:0.64817186 4:0.6875 5:0.59770634 6:1 7:0.060063686 8:1 9:1 10:0.24149373 13:0.34814815 14:0.57894737 15:0.56330014 16:8 
-1 1:0.3733356 2:0.49794236 3:0.71617753 4:0.46956521 5:0.56514117 6:0.31812922 7:0.061599927 8:0.95218991 9:1 10:0.31063073 13:0.33112583 14:0.25 15:0.71517028 16:9 
0.2761863662141124 1:0.42303803 2:0.40000001 3:0.70301281 4:0.48630136 5:0.42183376 6:0 7:8.9821859e-09 8:0.57235924 9:0 10:0.094456833 13:0.26618705 14:0.055555582 15:0.58139535 16:50 
1 1:0.30894077 2:0 3:0.53539947 4:0.31481481 5:0.46506316 6:0 7:0 8:0.83848989 9:0 10:0.25437707 13:0.18699187 14:0.19999999 15:0.41438356 16:20 
1 1:0.37659527 2:0 3:0.59390193 4:0.28409094 5:0.38733914 6:0.39133762 7:0 8:0.87313541 9:1 10:0.016461953 13:0.27272727 14:-0.18181813 15:0.81666667 16:21 
1 1:0.29186845 2:0 3:0.57508964 4:0.3142857 5:0.40137402 6:0 7:0 8:0.96204094 9:1 10:0.18627865 13:0.14035088 14:0.10526317 15:0.61111111 16:15 
1 1:0.23364161 2:0 3:0.52293133 4:0.31355929 5:0.25004583 6:1 7:0 8:0.8989563 9:1 10:0.18423515 13:0.051282051 14:0.10526317 15:0.35353535 16:25 
-1 1:0.50741183 2:1 3:0.45256905 4:0.41666669 5:0.45487525 6:0.82807334 7:0.060068482 8:1 9:1 10:0.12501326 13:0.34545455 14:0.18181819 15:0.84370861 16:18 
1 1:0.43908277 2:0.26990739 3:0.63313713 4:0.39716309 5:0.69482912 6:0 7:7.8162484e-09 8:0.91807648 9:0 10:0.013507257 13:0.2755418 14:0.28125 15:0.3542062 16:44 
-1 1:0.40349185 2:0.83680558 3:0.50159769 4:0.2972973 5:0.38599868 6:1 7:0.22894848 8:0.96802979 9:1 10:0.2246198 13:0.23170732 14:0.21428573 15:0.64285714 16:6 
-1 1:0.39135858 2:1 3:0.68539331 4:0.60897434 5:0.37441838 6:0.91712193 7:0.073798947 8:0.96997192 9:1 10:0.037317699 13:0.385 14:0.53125 15:0.74179983 16:4 
1 1:0.39115026 2:1 3:0.62611389 4:0.2474227 5:0.44988401 6:1 7:0.090857503 8:0.98832286 9:1 10:0.25253721 13:0.24468085 14:-0.066666722 15:0.68571429 16:5 
-1 1:0.30342589 2:0 3:0.54452854 4:0.4727273 5:0.26963572 6:0 7:0 8:0.90666485 9:1 10:0.0025064744 13:0.25128205 14:0.33333331 15:0.38684211 16:15 
-1 1:0.65824149 2:1 3:0.49966217 4:0.4741379 5:0.6344652 6:0.71826349 7:0.30807348 8:0.90105516 9:1 10:0.47457045 13:0.69642857 14:0.4285714 15:0.76829268 16:28 
1 1:0.32658952 2:0.54444444 3:0.55126618 4:0.2986111 5:0.50908432 6:1 7:0.061118383 8:0 9:1 10:5.1671863e-06 13:0.25694444 14:-0.36842108 15:0.65789474 16:18 
-1 1:0.68514998 2:0 3:0.84643135 4:0.72477067 5:0.52123124 6:0 7:0 8:0.96739766 9:1 10:0.52164919 13:0.57352941 14:0.58823526 15:0.96862745 16:20 
-1 1:0.25751354 2:0 3:0.52806039 4:0.34265733 5:0.2543368 6:0 7:0 8:0 9:1 10:0 13:0.14619883 14:-0.15789473 15:0.482066 16:47 
-1 1:0.38559879 2:0 3:0.589668 4:0.47572815 5:0.48884698 6:1 7:0 8:0.87507096 9:1 10:0.22681826 13:0.15830116 14:0.31999999 15:0.34285714 16:37 
-1 1:0.51231483 2:1 3:0.68109647 4:0.67924529 5:0.5755432 6:1 7:0.11103551 8:0.98735239 9:1 10:0.4693767 13:0.38983051 14:0.65384614 15:0.53333333 16:42 
-1 1:0.22453937 2:0 3:0.45688786 4:0.30769229 5:0.1984931 6:0 7:0 8:0.74814229 9:0 10:0.082613194 13:0.19047619 14:0.19999999 15:0.33157895 16:7 
-1 1:0.20949583 2:0.58420944 3:0.46940411 4:0.30894309 5:0.21499699 6:0.38922287 7:0.037927233 8:0.9074645 9:1 10:0.097983535 13:0.084745763 14:0.13043481 15:0.41515554 16:13 
-1 1:0.33485369 2:0 3:0.43934072 4:0.49056602 5:0.28681205 6:0 7:0 8:0.76848342 9:1 10:0.015769889 13:0.26976744 14:0.39130437 15:0.35555556 16:8 
1 1:0.53833275 2:0 3:0.75962487 4:0.52112675 5:0.53201454 6:1 7:0 8:0.97353954 9:1 10:0.070513103 13:0.56470588 14:0.5 15:0.7977208 16:2 
-1 1:0.45050306 2:0.53174603 3:0.62543035 4:0.57718122 5:0.50864748 6:0.78283743 7:0.028698979 8:0.87273792 9:1 10:0.056318942 13:0.34602076 14:0.46153843 15:0.67806268 16:18 
-1 1:0.34037326 2:1 3:0.56654506 4:0.41509432 5:0.63664042 6:1 7:0.052192638 8:0.8281172 9:1 10:0.43248374 13:0.30136986 14:0.035714269 15:0.50943396 16:11 
-1 1:0.45406744 2:1 3:0.72122935 4:0.60909092 5:0.63484927 6:1 7:0.074816657 8:0.57693474 9:1 10:0.18305423 13:0.32544379 14:0.5454545 15:0.49420849 16:36 
-1 1:0.46573717 2:0.64029181 3:0.5895694 4:0.4678899 5:0.40966055 6:0.43141631 7:0.09477628 8:0.95842305 9:1 10:0.38879253 13:0.29411765 14:0.11764705 15:0.76670507 16:33 
1 1:0.18711902 2:0.3773109 3:0.44877614 4:0.44444442 5:0.21237098 6:0 7:0.072717094 8:0 9:1 10:0 13:0.10429448 14:0.28571427 15:0.40566741 16:14 
-1 1:0.18950486 2:0.64285713 3:0.50339274 4:0.42307693 5:0.15755845 6:1 7:7.9355939e-08 8:0.93348034 9:0 10:0.10707278 13:0.065934066 14:0 15:0.49450549 16:34 
-1 1:0.60133678 2:1 3:0.76676239 4:0.59493673 5:0.44603046 6:0.78705082 7:0.12806927 8:0.99046285 9:1 10:0.58706008 13:0.53448276 14:0.41666669 15:0.83333333 16:19 
1 1:0.42934037 2:1 3:0.57736941 4:0.50314462 5:0.47900334 6:0 7:0.14290984 8:0 9:1 10:3.8171176e-05 13:0.31122449 14:0.16666669 15:0.45289855 16:25 
-1 1:0.465326 2:0.73333335 3:0.62481758 4:0.49253732 5:0.55278182 6:0.80254225 7:0.067005007 8:0.95996416 9:1 10:0.23323212 13:0.36764706 14:0.40909094 15:0.79191919 16:16 
-1 1:0.29762671 2:0.77380955 3:0.60939342 4:0.47311831 5:0.38472036 6:0.6393693 7:0.085352383 8:0.73377654 9:1 10:0.63904704 13:0.21686747 14:0.23333335 15:0.5320197 16:14 
-1 1:0.49261574 2:0 3:0.5964201 4:0.49494952 5:0.46049792 6:0.56885127 7:0 8:0.92519688 9:0 10:0.29976758 13:0.42857143 14:0.26666665 15:0.69545325 16:24 
-1 1:0.13321891 2:0 3:0.39614057 4:0.32038838 5:0.13096361 6:0 7:0 8:0.86769211 9:1 10:0.0051670225 13:0.12676056 14:0.26086956 15:0.23228804 16:19 
-1 1:0.64650221 2:0.76041663 3:0.76698207 4:0.62820512 5:0.68967883 6:0 7:0.11198717 8:0.71255916 9:1 10:0.50434007 13:0.34615385 14:0.58823526 15:0.45833333 16:12 
-1 1:0.47070156 2:1 3:0.69869771 4:0.52153111 5:0.75646258 6:0.73300371 7:0.035715548 8:0.99798164 9:1 10:0.89514701 13:0.39428571 14:0.44736844 15:0.67685342 16:56 
-1 1:0.69529213 2:0 3:0.78825443 4:0.65178573 5:0.59392579 6:1 7:0 8:0.90460699 9:1 10:0.46221343 13:0.69 14:0.375 15:1.0770788 16:29 
-1 1:0.2544038 2:0 3:0.47574741 4:0.39682537 5:0.30598057 6:0.78805263 7:0 8:0.75687384 9:1 10:0.15908061 13:0.15025907 14:0.14285713 15:0.47619048 16:4 
1 1:0.25604967 2:1 3:0.47957503 4:0.36448598 5:0.16122496 6:1 7:0.19624425 8:0.8362124 9:1 10:0.15768348 13:0.18095238 14:0 15:0.61025641 16:33 
-1 1:0.59889762 2:0.68783069 3:0.79606603 4:0.84090912 5:0.73278399 6:0.81259774 7:0.084342258 8:0.94593592 9:1 10:0.46977203 13:0.57 14:0.73333335 15:0.84694495 16:16 
-1 1:0.52765449 2:1 3:0.63215595 4:0.3162393 5:0.75501257 6:0.78801156 7:0.082550069 8:0.88144854 9:1 10:0.042986877 13:0.32191781 14:0.30000001 15:0.72907679 16:2 
-1 1:0.51361691 2:0.52721089 3:0.65457827 4:0.48717946 5:0.77482196 6:0 7:0.092362194 8:0.87409358 9:1 10:0.031299104 13:0.24683544 14:0.47619045 15:0.52105263 16:19 
-1 1:0.89423151 2:1 3:0.87438675 4:0.6855346 5:0.91451779 6:1 7:0.071020756 8:0.72313506 9:1 10:0.23515711 13:0.84347826 14:0.52173913 15:1.08 16:28 
-1 1:0.32676466 2:0.28409091 3:0.61112924 4:0.35593218 5:0.50860024 6:1 7:1.1584811e-08 8:0.6812716 9:1 10:0.0032287566 13:0.19760479 14:0.30000001 15:0.35846373 16:35 
-1 1:0.62366314 2:1 3:0.56382884 4:0.23762375 5:0.6309235 6:1 7:0.070760079 8:0.91856366 9:1 10:0.015607368 13:0.44736842 14:0.19999999 15:0.82539683 16:6 
1 1:0.29778328 2:0 3:0.39350515 4:0.50632912 5:0.41186078 6:1 7:0 8:1 9:1 10:0.11129219 13:0.063829787 14:0.33333331 15:0.33444816 16:14 
-1 1:0.3282926 2:0.69523811 3:0.62181244 4:0.44366199 5:0.47990315 6:1 7:0.053603684 8:0.83727379 9:0.14440966 10:0.02159318 13:0.38150289 14:0.25 15:0.70501836 16:43 
-1 1:0.53189339 2:1 3:0.64895767 4:0.49685532 5:0.46565973 6:1 7:0.063386629 8:0.81924637 9:1 10:0.53619948 13:0.42631579 14:0.18181819 15:0.72370766 16:46 
-1 1:0.44449982 2:0 3:0.6504731 4:0.58510637 5:0.47393665 6:0.59525872 7:0 8:0.97749689 9:1 10:0.0072994369 13:0.34814815 14:0.44444442 15:0.51351351 16:6 
1 1:0.43746526 2:1 3:0.48832563 4:0.45794392 5:0.44976586 6:1 7:0.065902831 8:0.82234199 9:1 10:0.085521829 13:0.33088235 14:0.11764705 15:0.93333333 16:34 
1 1:0.51210642 2:0 3:0.72705267 4:0.56896555 5:0.53797955 6:1 7:0 8:0.82205351 9:1 10:0.37352016 13:0.359447 14:0.43478262 15:0.58809524 16:6 
-1 1:0.40707734 2:1 3:0.55898992 4:0.42148763 5:0.54307914 6:0.58991308 7:0.026484539 8:0.78581838 9:1 10:0.018187754 13:0.3220339 14:0.3214286 15:0.53019825 16:20 
-1 1:0.24129527 2:0 3:0.52672258 4:0.28735632 5:0.2254828 6:1 7:0 8:0.80149462 9:1 10:0.21449579 13:0.11627907 14:-0.066666722 15:0.48214286 16:7 
-1 1:0.56302078 2:0 3:0.58014783 4:0.5 5:0.54663287 6:0.46150427 7:0 8:0.76410557 9:0 10:0.19624921 13:0.55072464 14:0.33333331 15:0.82670906 16:19 
-1 1:0.21670793 2:0 3:0.4627724 4:0.45945948 5:0.20394539 6:0 7:0 8:0.93718715 9:1 10:0.0048589009 13:0.21860465 14:0.43478262 15:0.28571429 16:9 
1 1:0.46201453 2:1 3:0.51603146 4:0.3888889 5:0.57910195 6:1 7:0.10916279 8:1 9:1 10:0.40784367 13:0.43119266 14:0.5 15:0.84615385 16:3 
1 1:0.33056909 2:0.125 3:0.5879492 4:0.56185567 5:0.46540949 6:1 7:7.527036e-10 8:0.88893957 9:1 10:0.36102128 13:0.22573363 14:0.37837839 15:0.40178571 16:34 
-1 1:0.39478417 2:0 3:0.57372648 4:0.38461536 5:0.51587022 6:1 7:0 8:0.95957778 9:1 10:0.00060221332 13:0.057142857 14:0.26666665 15:0.27950311 16:33 
1 1:0.42587828 2:1 3:0.64622962 4:0.23333335 5:0.4867316 6:0.68115177 7:0.10046798 8:0.84404326 9:1 10:0.4134042 13:0.24840764 14:0.2631579 15:0.49658597 16:22 
-1 1:0.61824796 2:0.8839286 3:0.67235903 4:0.55868542 5:0.74214362 6:0 7:0.24110405 8:0.59963997 9:1 10:0.016580595 13:0.46938776 14:0.44117647 15:0.55416667 16:23 
-1 1:0.3586747 2:0 3:0.63934817 4:0.63302755 5:0.41141171 6:1 7:0 8:0.95192982 9:1 10:0.028354026 13:0.29746835 14:0.57142854 15:0.54285714 16:3 
-1 1:0.34486121 2:0.73416662 3:0.61844008 4:0.50251257 5:0.43864982 6:0 7:0.038257133 8:0.58355062 9:0.36902399 10:0.1459158 13:0.36797753 14:0.35483873 15:0.57037037 16:23 
-1 1:0.32943405 2:1 3:0.4590868 4:0.34285712 5:0.281072 6:0.5218036 7:0.17509233 8:0.7484501 9:0 10:0.0063257632 13:0.25454545 14:-0.18181813 15:0.5037037 16:51 
-1 1:0.42072114 2:0.10416667 3:0.54727937 4:0.43790847 5:0.38723896 6:0 7:1.0145797e-09 8:0.79408651 9:1 10:0.075022263 13:0.21794872 14:0 15:0.5643897 16:58 
-1 1:0.56077877 2:0.72222221 3:0.74987106 4:0.58267713 5:0.57352345 6:0.41894783 7:0.04561234 8:0.99261001 9:1 10:0.32747187 13:0.41911765 14:0.3888889 15:0.74796748 16:29 
-1 1:0.62537588 2:1 3:0.67827289 4:0.62820512 5:0.80197468 6:0.66184254 7:0.095791364 8:1 9:1 10:0.46132978 13:0.48351648 14:0.57142854 15:0.76923077 16:19 
1 1:0.37927496 2:0 3:0.54921854 4:0.43150687 5:0.43368101 6:1 7:0 8:0.65081587 9:1 10:0.24491732 13:0.29824561 14:-0.15789473 15:0.74198473 16:56 
1 1:0.50062547 2:0 3:0.87423983 4:0.67808223 5:0.51858599 6:1 7:0 8:0.94588611 9:1 10:0.045101198 13:0.36111111 14:0.53846157 15:0.53571429 16:7 
1 1:0.29771055 2:0 3:0.61633684 4:0.4710744 5:0.38921717 6:1 7:0 8:0.96139306 9:1 10:0.065684867 13:0.19565217 14:0.43478262 15:0.47272727 16:49 
1 1:0.49648703 2:0 3:0.68350773 4:0.58677685 5:0.66320302 6:1 7:0 8:0.95667215 9:1 10:0.082161734 13:0.45652174 14:0.56521738 15:0.64324324 16:28 
0.1025066047416827 1:0.72592839 2:0 3:0.74794375 4:0.7647059 5:0.66825698 6:0.74056051 7:0 8:0 9:1 10:0 13:0.66666667 14:0.83333331 15:1.0909091 16:7 
0.3241188324584066 1:0.34750572 2:0.68611109 3:0.68881457 4:0.59251559 5:0.64885641 6:1 7:0.041176934 8:0.62636115 9:1 10:0.50102837 13:0.27516439 14:0.39999998 15:0.62581586 16:73 
1 1:0.3316144 2:0.65999997 3:0.61646607 4:0.54012346 5:0.65578389 6:0.32439519 7:0.039582802 8:0.78641669 9:1 10:0.10072314 13:0.3744186 14:0.31481481 15:0.73390895 16:41 
1 1:0.55598457 2:0 3:0.72298438 4:0.5763889 5:0.59999339 6:1 7:0 8:0.91487388 9:1 10:0.24736521 13:0.43537415 14:0.38461536 15:0.66006601 16:12 
-1 1:0.21204229 2:1 3:0.59117469 4:0.46031743 5:0.30745493 6:1 7:0.069426241 8:0.9806026 9:1 10:0.078668704 13:0.11494253 14:0.25 15:0.3250774 16:33 
1 1:0.49483726 2:1 3:0.56841508 4:0.31645572 5:0.55722933 6:1 7:0.13057338 8:0.98756248 9:1 10:0.25354319 13:0.23170732 14:0 15:0.74175824 16:1 
1 1:0.20392163 2:0 3:0.61302195 4:0.41924399 5:0.3530327 6:1 7:0 8:0.66342321 9:0 10:0.10121954 13:0.15678392 14:0.28846157 15:0.36761144 16:70 
1 1:0.43470592 2:0.84920639 3:0.7795435 4:0.61971831 5:0.72062954 6:0.78955582 7:0.11290254 8:0.84607389 9:0.19447269 10:0.39288659 13:0.41468459 14:0.58928573 15:0 16:68 
1 1:0.27415829 2:1 3:0.65117094 4:0.44041449 5:0.58323092 6:0.53924359 7:0.048689819 8:0.64952128 9:0 10:0.055321608 13:0.20833333 14:0.35135138 15:0 16:71 
1 1:0.42182461 2:1 3:0.52186829 4:0.45578229 5:0.51346457 6:1 7:0.12398802 8:0.82094705 9:1 10:0.22728461 13:0.38244514 14:0.3214286 15:0 16:5 
1 1:0.40392933 2:0 3:0.60312528 4:0.44696969 5:0.47277201 6:1 7:0 8:0.89903661 9:1 10:0.18178399 13:0.26870748 14:0.30769229 15:0.46938776 16:3 
1 1:0.18555237 2:0.86734694 3:0.51422079 4:0.437751 5:0.31343448 6:1 7:0.032139112 8:0.50559971 9:1 10:0.44174011 13:0.12481645 14:0.29166669 15:0.30332681 16:60 
1 1:0.23774393 2:0.83342594 3:0.60951774 4:0.45070422 5:0.52406041 6:0.27734227 7:0.064798028 8:0.91013381 9:1 10:0.27765744 13:0.17052023 14:0.29487181 15:0 16:92 
1 1:0.35712911 2:0.87272727 3:0.66381019 4:0.56839621 5:0.66135054 6:0.78815849 7:0.098740555 8:0.69872978 9:1 10:0.45168349 13:0.34348865 14:0.43421054 15:0 16:9 
1 1:0.37704788 2:1 3:0.68185628 4:0.36206895 5:0.47343312 6:0.53483905 7:0.045683125 8:0.95273951 9:1 10:0.16851634 13:0.21311475 14:0.13793105 15:0 16:19 
1 1:0.43459697 2:0.85714287 3:0.60263922 4:0.71428573 5:0.55534821 6:1 7:1.1038555e-08 8:0.8480116 9:1 10:0.072656184 13:0.36253776 14:0.5925926 15:0.02967033 16:12 
