svm_type nu_svr
kernel_type rbf
gamma 0.0625
nr_class 2
total_sv 3493
rho -2.14656
SV
-1 1:0.16679093 2:0.82407409 3:0.4937984 4:0.56701028 5:0.21518681 6:0.092718234 7:0.26353569 8:0.90006308 9:1 10:0.03821804 11:0.32227642 12:0.89666006 13:0.24342105 14:0.36842108 15:0.54285714 16:10 
-1 1:0.23220739 2:0.44606242 3:0.38996295 4:0.27659577 5:0.36003362 6:0.27530224 7:0.15971254 8:0.66567874 9:0 10:0.37065932 11:0.33388035 12:0.76491674 13:0.07751938 14:0 15:0 16:34 
1 1:0.58115318 2:0.79610026 3:0.67633214 4:0.52688169 5:0.76303249 6:0.90727754 7:0.30460511 8:0.95067978 9:1 10:0.50458033 11:0.5972225 12:0.89322225 13:0.38004246 14:0.40625 15:0.84836116 16:4 
-1 1:0.46644965 2:0.65231478 3:0.46796088 4:0.36190474 5:0.46258077 6:0.29550265 7:0.29454139 8:0.81465139 9:0 10:0.1035154 11:0.059641259 12:0.8010338 13:0.38571429 14:0 15:0.71272727 16:37 
-1 1:0.60000394 2:0.89826846 3:0.64059944 4:0.63513517 5:0.85806519 6:0.73028061 7:0.37344903 8:0.96240928 9:1 10:0.37420721 11:0.21175684 12:0.86474753 13:0.47147147 14:0.55172414 15:0.7804878 16:20 
1 1:0.70036049 2:0.9201389 3:0.63958663 4:0.59340656 5:0.7675916 6:1 7:0.29152066 8:0.87675551 9:1 10:0.79101664 11:0.44096966 12:0.81043555 13:0.57291667 14:0.5333333 15:0.97777778 16:16 
1 1:0.48139028 2:0.75899476 3:0.58543178 4:0.71717173 5:0.3689081 6:1 7:0.30762865 8:0.91979163 9:1 10:0.2358188 11:0.78120994 12:0.88687293 13:0.42342342 14:0.6875 15:0.86811024 16:15 
1 1:0.30267235 2:0.87812501 3:0.54548708 4:0.65486729 5:0.25246021 6:0 7:0.27075087 8:0.85393725 9:1 10:0.10813099 11:0.60007576 12:0.87813432 13:0.28484848 14:0.5 15:0.65934066 16:16 
-1 1:0.61439376 2:0.92098773 3:0.36791946 4:0.16666669 5:0.7319284 6:0.94299092 7:0.29233566 8:0.92768446 9:1 10:0.70616544 11:0.27501852 12:0.94814844 13:0.20588235 14:-0.058823586 15:0.88888889 16:2 
-1 1:0.48223713 2:0.88033235 3:0.77842634 4:0.60784316 5:0.6841881 6:1 7:0.35854281 8:0.73023871 9:1 10:0.13792335 11:0.36882596 12:0.79042786 13:0.29189189 14:0.55172414 15:0.44821732 16:40 
-1 1:0.4305192 2:0.7142269 3:0.59706831 4:0.29299361 5:0.45140942 6:0.54484857 7:0.31588282 8:0.86294504 9:0.39881065 10:0.40402653 11:0.11586852 12:0.85866112 13:0.26717557 14:0.26666665 15:0.42319993 16:23 
-1 1:0.5172269 2:0.92798352 3:0.56947274 4:0.28571427 5:0.59211994 6:0 7:0.34163273 8:0.92179749 9:1 10:0.17342786 11:0.21777462 12:0.92401335 13:0.34545455 14:0.14285713 15:0.64367816 16:28 
1 1:0.33400011 2:0.62437373 3:0.42333667 4:0.41463417 5:0.5475012 6:0.59265591 7:0.30736049 8:0.87857122 9:0.057465123 10:0.60425213 11:0.25546297 12:0.92697455 13:0.14166667 14:0.125 15:0 16:24 
1 1:0.73455746 2:0.91666657 3:0.86556711 4:0.83928573 5:0.86815063 6:1 7:0.57540727 8:0.9453572 9:1 10:0.5559405 11:0.87437285 12:0.96217208 13:0.63157895 14:0.75 15:0.89417989 16:4 
-1 1:0.31726049 2:0.87222224 3:0.45074562 4:0.46315789 5:0.41965935 6:0 7:0.38010701 8:0.84447335 9:1 10:0.30777387 11:0 12:0.76868882 13:0.17241379 14:0.26666665 15:0.4743083 16:26 
-1 1:0.52816402 2:0.63455349 3:0.47479896 4:0.43442625 5:0.72659903 6:0.1898077 7:0.23247374 8:0.80254778 9:0 10:0.0029100036 11:0.51170427 12:0.8602622 13:0.24464832 14:0.48148149 15:0.6 16:5 
1 1:0.28039983 2:0.73365074 3:0.39689994 4:0.44047618 5:0.32046218 6:0.64314413 7:0.22952355 8:0.90948712 9:0.2140319 10:0.40223295 11:0.31041238 12:0.84987417 13:0.24615385 14:0.3888889 15:0.24561404 16:16 
1 1:0.41636687 2:0.54099166 3:0.55171589 4:0.27999997 5:0.31046936 6:0.38342274 7:0.18799221 8:0.78922516 9:0 10:0.001805644 11:0.25778519 12:0.91451246 13:0.27659574 14:0.33333331 15:0.45454545 16:6 
1 1:0.65856205 2:1 3:0.70515991 4:0.62758625 5:0.82724026 6:1 7:0.48996851 8:0.88249398 9:1 10:0.4107908 11:0.49632647 12:0.88670885 13:0.71900826 14:0.52173913 15:1.04 16:27 
-1 1:0.22156473 2:0.63072914 3:0.48112914 4:0.43697476 5:0.30443162 6:0.25930877 7:0.22192108 8:0.72990604 9:1 10:0.12158515 11:0.082975972 12:0.6187219 13:0.15384615 14:0.39130437 15:0.25142857 16:28 
-1 1:0.34341401 2:0.78180116 3:0.46286088 4:0.42592591 5:0.33286714 6:0.71204087 7:0.37123598 8:0.79436305 9:1 10:0.30551506 11:0.31410038 12:0.95943458 13:0.16935484 14:0.29411763 15:0.42857143 16:26 
-1 1:0.42052024 2:0.74938273 3:0.4832639 4:0.28037381 5:0.47071804 6:1 7:0.44000469 8:0.87093606 9:1 10:0.14765905 11:0 12:0.79619548 13:0.23529412 14:0.16666669 15:0.78787879 16:3 
-0.6546081446011086 1:0.70174468 2:0.94307661 3:0.85017336 4:0.54421771 5:0.82803614 6:0.88663803 7:0.61392991 8:0.88654071 9:0 10:0.22706179 11:0.20636116 12:0.84960851 13:0.58008658 14:0.5454545 15:1.3317972 16:29 
-1 1:0.47588856 2:0.8226155 3:0.73039434 4:0.34375 5:0.5072605 6:0.85554965 7:0.43776903 8:0.89725157 9:1 10:0.12834938 11:0.052982737 12:0.88358906 13:0.42857143 14:0.20833331 15:0.57692308 16:13 
-1 1:0.69100405 2:0.92777777 3:0.66884274 4:0.39999998 5:0.83964641 6:1 7:0.36901285 8:0.91683175 9:1 10:0.68736269 11:0.40364702 12:0.93654882 13:0.45454545 14:0.25 15:0.75 16:2 
-1 1:0.47495119 2:0.91904765 3:0.62070668 4:0.53521127 5:0.56260487 6:1 7:0.59388483 8:0.93235759 9:1 10:0.63117882 11:0.75696788 12:0.91100031 13:0.14102564 14:0.38461536 15:0.71428571 16:11 
-1 1:0.61086113 2:1 3:0.44409642 4:0.58510637 5:0.66230551 6:0 7:0.35790329 8:0.85690686 9:0 10:0.68326614 11:0.056365668 12:0.8650419 13:0.43137255 14:0.5 15:0 16:4 
-1 1:0.50676867 2:0.79006189 3:0.71323751 4:0.64150941 5:0.54789969 6:0.38566345 7:0.61309378 8:0.86121867 9:1 10:0.23736701 11:0.82931224 12:0.93462836 13:0.37688442 14:0.61904764 15:0.59259259 16:13 
-1 1:0.40907571 2:0.8065201 3:0.55547437 4:0.43298972 5:0.21979908 6:0.35651701 7:0.35231315 8:0.71645055 9:1 10:0.14870882 11:0.42348778 12:0.82192978 13:0.26373626 14:0.071428597 15:0.83333333 16:24 
-1 1:0.63774781 2:0.76202983 3:0.78803838 4:0.61313868 5:0.68082448 6:0.7252695 7:0.26889762 8:0.9283126 9:0 10:0.2873674 11:0.39443613 12:0.91173823 13:0.41052632 14:0.39999998 15:0.72605042 16:16 
-1 1:0.69076668 2:0.87786335 3:0.61554883 4:0.4236111 5:0.684333 6:0.80447439 7:0.45819233 8:0.82046076 9:1 10:0.12767415 11:0.28465302 12:0.72588262 13:0.63265306 14:0.36000001 15:0.9047619 16:17 
-1 1:0.45087914 2:0.75209439 3:0.45401365 4:0.46385545 5:0.31105221 6:0.36164603 7:0.2047773 8:0.53406394 9:0 10:0.3903314 11:0.23803574 12:0.87223494 13:0.37142857 14:0.14285713 15:1.1666667 16:61 
-1 1:0.12317957 2:0.69444448 3:0.37079592 4:0.47916669 5:0.090975801 6:0.087398413 7:0.14492791 8:0.90944475 9:1 10:0.058855142 11:0.32033327 12:0.83214216 13:0.17159763 14:0.30000001 15:0.33333333 16:6 
-1 1:0.34663884 2:0.69262189 3:0.34111685 4:0.34693879 5:0.38525931 6:0.28270968 7:0.3252017 8:0.87397435 9:1 10:0.011030858 11:0.14224693 12:0.80352295 13:0.21134021 14:0.14285713 15:0.4233871 16:7 
-1 1:0.39933302 2:0.7323907 3:0.50842311 4:0.41836733 5:0.36661705 6:1 7:0.34317081 8:0.8936917 9:1 10:0.52161563 11:0.35427933 12:0.91161601 13:0.26666667 14:0.26666665 15:0.56521739 16:14 
-1 1:0.60368317 2:0.93571889 3:0.49618358 4:0.61538458 5:0.64094753 6:0.71380006 7:0.43775545 8:0.78832184 9:0.38091009 10:0.47720116 11:0.46299605 12:0.87691455 13:0.40993789 14:0.46428573 15:0.64718615 16:15 
-1 1:0.61718676 2:0.91364086 3:0.6640728 4:0.40993786 5:0.66371021 6:0.60091704 7:0.42521126 8:0.85881621 9:0.74335164 10:0.33804618 11:0.25888225 12:0.80691737 13:0.52608696 14:0.086956501 15:0.97683398 16:55 
1 1:0.74799681 2:0.86069018 3:0.8088752 4:0.79824561 5:0.84660849 6:1 7:0.67001232 8:0.91103541 9:1 10:0.41288295 11:0.82899325 12:0.8891894 13:0.59574468 14:0.72727275 15:0.82539683 16:13 
-1 1:0.33085485 2:0.56248289 3:0.53678416 4:0.24590164 5:0.20829732 6:0.24212219 7:0.2543312 8:0.88207552 9:1 10:0.001691374 11:0.18667481 12:0.8794887 13:0.26966292 14:-0.049999952 15:0.49583333 16:22 
-1 1:0.69578921 2:0.8748461 3:0.79472412 4:0.69346738 5:0.79759432 6:0.85279405 7:0.41213516 8:0.93660891 9:1 10:0.82728178 11:0.67444871 12:0.93735689 13:0.57701149 14:0.65625 15:0.7826087 16:8 
-1 1:0.43349266 2:0.73233056 3:0.45154067 4:0.21359223 5:0.49360332 6:0.86927328 7:0.29764765 8:0.92337365 9:1 10:0.10174269 11:0.17453543 12:0.93810402 13:0.19444444 14:0.29166669 15:0.60483871 16:20 
-1 1:0.83593821 2:1 3:0.79575127 4:0.67142856 5:0.85321895 6:1 7:0.55985128 8:0.74654794 9:1 10:0.41794355 11:0.67203323 12:0.8907295 13:0.79012346 14:0.42105263 15:1.1724138 16:35 
-1 1:0.31550399 2:0.63814926 3:0.56403782 4:0.55140185 5:0.47355675 6:0.31280315 7:0.29761284 8:0.65071453 9:1 10:0.49427842 11:0.25726961 12:0.95890165 13:0.10429448 14:0.35000002 15:0.25 16:33 
-1 1:0.41503562 2:0.66925776 3:0.59041478 4:0.5408805 5:0.64197701 6:0.68482421 7:0.33548209 8:0.90960774 9:1 10:0.06871772 11:0.62553837 12:0.92937719 13:0.18857143 14:0.41379309 15:0.74955908 16:19 
-1 1:0.38814475 2:0.73958331 3:0.40240315 4:0.41791046 5:0.47224146 6:0.57598317 7:0.15036706 8:0.82033259 9:1 10:0.35573094 11:0.29854401 12:0.91759589 13:0.16483516 14:0.35714287 15:0.54545455 16:8 
1 1:0.33007644 2:0.75195312 3:0.71277258 4:0.57333332 5:0.31430473 6:1 7:0.45016911 8:0.92145149 9:1 10:0.33627706 11:0.43153601 12:0.93072215 13:0.25714286 14:0.39999998 15:0.68644068 16:2 
1 1:0.65927734 2:0.95185184 3:0.49311211 4:0.33333331 5:0.80600644 6:1 7:0.44289107 8:0.90430156 9:1 10:0.49901133 11:0.56606114 12:0.96030369 13:0.4516129 14:0.17647058 15:0.99683143 16:14 
-1 1:0.55283418 2:0.90549678 3:0.59422809 4:0.32999998 5:0.63782596 6:0.5892644 7:0.32977968 8:0.73736635 9:1 10:0.18539815 11:0.1936516 12:0.77745072 13:0.4 14:0 15:0.71272727 16:28 
-1 1:0.55641759 2:0.85267854 3:0.70550942 4:0.5363636 5:0.58687326 6:0.90261935 7:0.28193657 8:0.66086889 9:1 10:0.32268833 11:0 12:0.62646835 13:0.27619048 14:0.26666665 15:0.87301587 16:28 
-1 1:0.68535265 2:0.8605442 3:0.6855566 4:0.61842108 5:0.86713475 6:0.44075221 7:0.43759643 8:0.83954882 9:1 10:0.45532092 11:0.48249047 12:0.76391182 13:0.46875 14:0.46666664 15:0.75889328 16:2 
-1 1:0.8038086 2:0.97395831 3:0.75900432 4:0.69032258 5:0.80626124 6:1 7:0.53653093 8:0.70369719 9:1 10:0.16420151 11:0.45482233 12:0.7547592 13:0.66818182 14:0.5 15:0.96428571 16:35 
-1 1:0.15557124 2:0.67444336 3:0.48850787 4:0.47000003 5:0.096049313 6:0.088673118 7:0.1509382 8:0.936439 9:1 10:0.10929785 11:0.041456608 12:0.90181908 13:0.15591398 14:0.33333331 15:0.30725462 16:16 
-1 1:0.35303852 2:0.74481034 3:0.51426651 4:0.18539327 5:0.41158262 6:0.64416548 7:0.20385651 8:0.8983764 9:0 10:0.31282479 11:0.36880342 12:0.8787364 13:0.2037037 14:-0.033333302 15:1.027267 16:0 
-1 1:0.61689994 2:0.84825295 3:0.645595 4:0.4586466 5:0.46325332 6:0.4656946 7:0.39610353 8:0.85555464 9:0.71526147 10:0.23121013 11:0.68294915 12:0.88908296 13:0.41304348 14:0.16666669 15:0.6763285 16:38 
-1 1:0.43005349 2:0.88748056 3:0.67110773 4:0.41290325 5:0.38617079 6:0.574523 7:0.44393969 8:0.57152424 9:1 10:0.4654856 11:0.19661514 12:0.80135539 13:0.31451613 14:0.125 15:0.91429385 16:31 
-1 1:0.48650203 2:0.97916669 3:0.61381807 4:0.23333335 5:0.56219487 6:0.69973701 7:0.40178913 8:0.93257419 9:1 10:0.75730457 11:0 12:0.93029899 13:0.15652174 14:0.1111111 15:0.55026455 16:6 
-1 1:0.22585662 2:0.78363633 3:0.57292121 4:0.27083331 5:0.28972548 6:0.28923105 7:0.2228466 8:0.90771611 9:1 10:0.075137939 11:0.11315994 12:0.93698264 13:0.21333333 14:0.14999998 15:0.54435484 16:8 
-1 1:0.51938671 2:0.83833331 3:0.62877156 4:0.49166667 5:0.5492523 6:0 7:0.43297992 8:0.88236093 9:1 10:0.37545025 11:0.43458356 12:0.85083216 13:0.26484018 14:0.40909094 15:0.76392573 16:13 
-1 1:0.49130678 2:0.83999997 3:0.47858807 4:0.30851066 5:0.49195137 6:1 7:0.41364427 8:0.69377538 9:1 10:0.065723073 11:0.37812675 12:0.76659597 13:0.15151515 14:-0.16666663 15:0.48888889 16:38 
-1 1:0.57314249 2:0.8177399 3:0.7372412 4:0.22608697 5:0.7024109 6:0.72973246 7:0.32409454 8:0.83344236 9:1 10:0.75644142 11:0.30260025 12:0.80684068 13:0.23371648 14:0.23076922 15:0.60661765 16:15 
1 1:0.37348874 2:0.78602338 3:0.80313135 4:0.45614034 5:0.4890109 6:1 7:0.22462762 8:0.71789018 9:1 10:0.1151491 11:0.106559 12:0.80509549 13:0.26966292 14:0.55000001 15:0.53472222 16:40 
1 1:0.424481 2:0.81299603 3:0.67068232 4:0.6373626 5:0.58459067 6:0.86153562 7:0.50925042 8:0.87553223 9:1 10:0.66059842 11:0.53545161 12:0.77486442 13:0.31858407 14:0.5625 15:0.68181818 16:8 
-1 1:0.30860802 2:0.81914043 3:0.44187561 4:0.33333331 5:0.38002933 6:1 7:0.34255548 8:0.72971919 9:1 10:0.53129253 11:0.37890458 12:0.68837317 13:0.12048193 14:0.28571427 15:0.45933014 16:10 
-1 1:0.65647822 2:0.949 3:0.54930771 4:0.61739135 5:0.71626912 6:0.85357942 7:0.72052585 8:0.98166489 9:1 10:0.60205182 11:0 12:0.96956427 13:0.46666667 14:0.56521738 15:0.89634146 16:4 
-1 1:0.5853371 2:0.92636681 3:0.74006064 4:0.46153843 5:0.68218967 6:1 7:0.48398085 8:0.84501856 9:1 10:0.15831808 11:0.40044129 12:0.9083419 13:0.51648352 14:0.14285713 15:0.97777778 16:27 
-1 1:0.32359135 2:0.78633434 3:0.20670822 4:0.38356167 5:0.49367352 6:1 7:0.40167907 8:0.88754766 9:1 10:0.34861506 11:0 12:0.85717328 13:0.082644628 14:0.17647058 15:0.22727273 16:14 
-1 1:0.24878918 2:0.74952418 3:0.44332955 4:0.36666667 5:0.257241 6:0.56259724 7:0.2140559 8:0.72691998 9:1 10:0.35064582 11:0.16438501 12:0.83648718 13:0.11170213 14:0.19047618 15:0.76923077 16:31 
-1 1:0.57282765 2:0.8649351 3:0.72937195 4:0.77173913 5:0.72847618 6:0.12369341 7:0.17666637 8:0.92982943 9:1 10:0.48370913 11:0.79300772 12:0.94116926 13:0.30128205 14:0.57894737 15:0 16:6 
-1 1:0.32686661 2:0.79062498 3:0.54055919 4:0.4520548 5:0.36227089 6:0.29617414 7:0.33563616 8:0.89112701 9:1 10:0.30075045 11:0.27804032 12:0.85720116 13:0.24390244 14:0.071428597 15:0.39855072 16:20 
-1 1:0.55714045 2:1 3:0.67362181 4:0.53103447 5:0.40162551 6:0.36813829 7:0.24392773 8:0.63536193 9:1 10:0.18464295 11:0.34227574 12:0.66153489 13:0.53977273 14:0.25 15:1.0233918 16:57 
-1 1:0.33353336 2:0.71897018 3:0.72943859 4:0.54455447 5:0.42364023 6:0.23273563 7:0.30037109 8:0.65322357 9:1 10:0.0034238627 11:0.17216402 12:0.61145198 13:0.29032258 14:0.52631581 15:0.46226415 16:38 
-1 1:0.82625788 2:0.95185184 3:0.7595791 4:0.51333332 5:0.78971856 6:1 7:0.2847469 8:0.92075191 9:1 10:0.44534469 11:0.23128573 12:0.91806746 13:0.49673203 14:0.055555582 15:0.95897436 16:34 
-1 1:0.35387153 2:0.66865081 3:0.62825827 4:0.57142854 5:0.55737769 6:0.27891097 7:0.17323517 8:0.96200542 9:0 10:0.054026756 11:0.10043426 12:0.94014093 13:0.38432836 14:0.46428573 15:0.60631579 16:3 
-1 1:0.85368199 2:0.96200001 3:0.87064397 4:0.64761901 5:0.87742754 6:1 7:0.44506939 8:0.88698714 9:1 10:0.450988 11:0.25948114 12:0.90028597 13:0.56435644 14:0.5 15:0.98188792 16:20 
1 1:0.3893241 2:0.79674113 3:0.65258416 4:0.625 5:0.44509049 6:0.56416849 7:0.31525794 8:0.87227741 9:1 10:0.31420263 11:0.57821027 12:0.89463094 13:0.28776978 14:0.56 15:0 16:5 
-1 1:0.356629 2:0.89993256 3:0.55636883 4:0.34591192 5:0.29234294 6:0.55241542 7:0.41631428 8:0.81638565 9:0.75628749 10:0.29920977 11:0.57918325 12:0.85904957 13:0.21661721 14:0.21428573 15:0.62130937 16:10 
-1 1:0.40313792 2:0.59455359 3:0.52633508 4:0.19512194 5:0.45475796 6:1 7:0.22622295 8:0.69917266 9:1 10:0.070018796 11:0 12:0.83318816 13:0.17582418 14:0.071428597 15:0.55555556 16:13 
-1 1:0.46230309 2:0.8839286 3:0.57376413 4:0.48039216 5:0.70665995 6:0.6891143 7:0.33050541 8:0.94262329 9:1 10:0.0036009686 11:0.3545828 12:0.85447084 13:0.27777778 14:0.40909094 15:0.65641026 16:6 
-1 1:0.33246722 2:0.62361115 3:0.35250177 4:0.29213482 5:0.46959417 6:0.40332951 7:0.12840294 8:0.87358331 9:1 10:0.060434333 11:0 12:0.87040568 13:0.15286624 14:0.36842108 15:0.49450549 16:4 
-1 1:0.61151654 2:0.94345242 3:0.68585109 4:0.3186813 5:0.58220566 6:0.4299583 7:0.53380323 8:0.86955854 9:0 10:0.026039389 11:0.12854499 12:0.91220922 13:0.28 14:0.19999999 15:0.62857143 16:2 
-0.03729374828044583 1:0.51583091 2:0.78920072 3:0.53982771 4:0.31707317 5:0.38446692 6:0 7:0.42014744 8:0.86707112 9:1 10:0.12993412 11:0.052053458 12:0.76911104 13:0.23188406 14:-0.30769229 15:0.77380952 16:23 
-1 1:0.13230264 2:0.82278275 3:0.4638449 4:0.25 5:0.1654555 6:0.19639109 7:0.37609216 8:0.76790874 9:1 10:0.015628533 11:0.096496159 12:0.78527285 13:0.073529412 14:0.11764705 15:0.46153846 16:14 
-1 1:0.45577603 2:0.86334503 3:0.62691344 4:0.34759361 5:0.45380814 6:0.43903286 7:0.41962867 8:0.7002892 9:1 10:0.098581259 11:0.33123114 12:0.61844134 13:0.23157895 14:0.13793105 15:1.2198356 16:45 
1 1:0.58417037 2:0.96190476 3:0.778557 4:0.61240309 5:0.76943542 6:0.64787059 7:0.35652327 8:0.85016426 9:1 10:0.57467569 11:0.49375111 12:0.89458185 13:0.41433022 14:0.61538458 15:0 16:3 
-1 1:0.810621 2:0.92825401 3:0.71168178 4:0.70967746 5:0.83483391 6:1 7:0.42851815 8:0.92596328 9:1 10:0.64106353 11:0.4697788 12:0.94231213 13:0.59745763 14:0.65217388 15:0.89030207 16:23 
-1 1:0.46797815 2:0.73333335 3:0.4442599 4:0.43269229 5:0.77559296 6:0 7:0.24873806 8:0.6531191 9:1 10:0.39619751 11:0.31571511 12:0.57966199 13:0.36363636 14:-0.083333373 15:0.6 16:39 
-1 1:0.164909 2:0.86591834 3:0.51732835 4:0.16279072 5:0.17687689 6:0.22702028 7:0.40781523 8:0.85312212 9:1 10:0.015598397 11:0.10967489 12:0.8539821 13:0.12820513 14:-0.15384614 15:0.58333333 16:4 
-1 1:0.54610026 2:0.88928568 3:0.42796491 4:0.62 5:0.52403202 6:0.39376854 7:0.26389283 8:0.88145443 9:1 10:0.56611369 11:0.61365108 12:0.75790676 13:0.19230769 14:-0.076923132 15:0.9 16:24 
-1 1:0.52096331 2:0.75729167 3:0.74399956 4:0.62820512 5:0.75797679 6:0.8730469 7:0.536938 8:0.93807294 9:0.14558316 10:0.19563204 11:0.6829469 12:0.95575161 13:0.54545455 14:0.60000002 15:0.65454545 16:19 
-1 1:0.66798057 2:0.79555553 3:0.67677728 4:0.5 5:0.57663805 6:0.49484442 7:0.40663265 8:0.8489594 9:0 10:0.19656956 11:0.17941697 12:0.97329011 13:0.47252747 14:0.21428573 15:0.94405594 16:34 
-1 1:0.32447709 2:0.92777777 3:0.53352284 4:0.58823526 5:0.70106341 6:0.098130089 7:0.16705593 8:0.94988611 9:1 10:0.42124002 11:0.31699919 12:0.94715092 13:0.18650794 14:0.45833331 15:0 16:10 
-1 1:0.43830319 2:0.77638221 3:0.57387935 4:0.36936939 5:0.42256437 6:0.38815441 7:0.43042576 8:0.94457508 9:1 10:0.016787961 11:0.28562269 12:0.88762815 13:0.37558685 14:0.45454544 15:0.62745098 16:2 
1 1:0.4150681 2:0.79341686 3:0.41534401 4:0.3974359 5:0.50028208 6:1 7:0.28955612 8:0.90004597 9:1 10:0.015493022 11:0.23853066 12:0.87115244 13:0.2 14:0.26666665 15:0.63636364 16:17 
1 1:0.45894341 2:0.66811222 3:0.65778891 4:0.33333331 5:0.81813764 6:1 7:0.16785739 8:0.85351945 9:1 10:0.14184497 11:0.21517177 12:0.85019227 13:0.17582418 14:0.21428573 15:0.84033613 16:7 
-1 1:0.39626439 2:0.95185184 3:0.65018992 4:0.4351145 5:0.38050368 6:1 7:0.35466081 8:0.84967854 9:1 10:0.29945743 11:0.16811211 12:0.89155319 13:0.42857143 14:0.33333331 15:0.99502488 16:51 
-0.6302085645873723 1:0.38384592 2:0.72056884 3:0.31541965 4:0.48550725 5:0.46177736 6:0.86470767 7:0.36746612 8:0.87978574 9:0 10:0.36892791 11:0.28859183 12:0.90475646 13:0.14469453 14:0.38461536 15:0.65789474 16:18 
-1 1:0.47890856 2:0.79678619 3:0.71455669 4:0.62135923 5:0.56388574 6:0.63390589 7:0.45485214 8:0.93514635 9:1 10:0.4839819 11:0.47304642 12:0.91845849 13:0.43333333 14:0.57142854 15:0.59340659 16:19 
-1 1:0.44674854 2:0.84183675 3:0.68242815 4:0.45555556 5:0.37483711 6:0.82237082 7:0.30644276 8:0.86877951 9:1 10:0.23634319 11:0.47154655 12:0.89033286 13:0.2967033 14:0.21428573 15:0.8115942 16:15 
-1 1:0.16648566 2:0.68988091 3:0.47774244 4:0.51041663 5:0.095435549 6:0.083382101 7:0.13145755 8:0.83506069 9:1 10:0.0038773689 11:0.089647519 12:0.86236473 13:0.18145161 14:0.45833331 15:0.42631579 16:2 
-1 1:0.36133402 2:0.72526461 3:0.49745869 4:0.33070868 5:0.44221539 6:0.57088625 7:0.30161119 8:0.92438795 9:1 10:0.40608123 11:0.46096433 12:0.88106295 13:0.23913043 14:0.20833331 15:0.69230769 16:25 
-1 1:0.53143923 2:0.84311217 3:0.88876732 4:0.63302755 5:0.56356091 6:0.76440968 7:0.45106142 8:0.8373265 9:1 10:0.3689772 11:0.48777929 12:0.83303854 13:0.43103448 14:0.61904764 15:0.63461538 16:17 
-1 1:0.42151292 2:0.72197747 3:0.66025796 4:0.55238092 5:0.59417814 6:1 7:0.56592504 8:0.91627763 9:1 10:0.51408363 11:0.42684388 12:0.91431145 13:0.18300654 14:0.3888889 15:0.32307692 16:40 
-1 1:0.36773433 2:0.69414139 3:0.47775302 4:0.52631581 5:0.43230876 6:1 7:0.44866613 8:0.71233394 9:1 10:0.08066119 11:0 12:0.71431796 13:0.20588235 14:0.2352941 15:0.47235239 16:8 
-1 1:0.13615228 2:0.6566326 3:0.37687423 4:0.45833331 5:0.08265709 6:0.08252653 7:0.13838759 8:0.91501689 9:1 10:0.023985377 11:0.16525771 12:0.90342512 13:0.13716814 14:0.39130437 15:0.21848739 16:3 
-1 1:0.28209874 2:0.87244898 3:0.75011168 4:0.375 5:0.19613277 6:0.15148306 7:0.17366749 8:0.85268759 9:0 10:0.030429827 11:0.12304981 12:0.83538999 13:0.25806452 14:0.33333331 15:0.74566656 16:19 
0.6896989684970711 1:0.6795203 2:0.74785715 3:0.78403206 4:0.73636365 5:0.38378888 6:0.69458763 7:0.21327969 8:0.93487822 9:1 10:0.14405035 11:0.29876374 12:0.93640955 13:0.63402062 14:0.72727275 15:0.88669951 16:21 
-1 1:0.50721038 2:0.95634925 3:0.80394551 4:0.46853149 5:0.47281301 6:1 7:0.50363645 8:0.49737357 9:1 10:0.19850119 11:0.44201771 12:0.89444203 13:0.41044776 14:0.33333331 15:0.8115942 16:49 
-1 1:0.23279451 2:0.73148155 3:0.42120368 4:0.26530612 5:0.28333452 6:0 7:0.24856752 8:0.84314843 9:1 10:0.041799476 11:0 12:0.88750555 13:0.11557789 14:0.14285713 15:0.26140231 16:13 
-1 1:0.31370745 2:0.8073743 3:0.62659036 4:0.21951222 5:0.41112852 6:0.46055616 7:0.33008668 8:0.91117181 9:1 10:0.023433818 11:0 12:0.96415268 13:0.12380952 14:-0.066666722 15:0.61538462 16:7 
-1 1:0.4052186 2:0.80000001 3:0.48994805 4:0.30379748 5:0.51751931 6:0.72690351 7:0.4256559 8:0.94983945 9:0 10:0.2376172 11:0 12:0.93646446 13:0.13186813 14:0.14285713 15:0.76190476 16:6 
-1 1:0.52230338 2:0.94588751 3:0.75414173 4:0.67532468 5:0.56222126 6:1 7:0.46723149 8:0.91213384 9:1 10:0.17976458 11:0.36897511 12:0.87489319 13:0.3956044 14:0.64285713 15:0.77777778 16:14 
-1 1:0.3149949 2:0.74084473 3:0.58997251 4:0.35772359 5:0.49362891 6:0.88454337 7:0.36157701 8:0.93695353 9:1 10:0.68019488 11:0.29783 12:0.84578792 13:0.11111111 14:0.21052629 15:0.37762238 16:44 
-1 1:0.49658967 2:0.72321427 3:0.26077644 4:0.15909094 5:0.70120924 6:0.87982352 7:0.1549187 8:0.78639567 9:1 10:0.0019851203 11:0 12:0.76390104 13:0.18181818 14:0 15:0.38461538 16:1 
-1 1:0.68425843 2:1 3:0.75668321 4:0.3963964 5:0.69075848 6:0.59776284 7:0.49244341 8:0.81857448 9:1 10:0.40072688 11:0.2648978 12:0.88339046 13:0.60185185 14:0.125 15:1.2222222 16:40 
-1 1:0.43860054 2:0.77461433 3:0.7691694 4:0.57738096 5:0.52358296 6:0.70598516 7:0.33168461 8:0.67839654 9:1 10:0.0040545897 11:0.2329694 12:0 13:0.30473373 14:0.48275864 15:0.49090909 16:48 
-1 1:0.14765941 2:0.70488423 3:0.50638302 4:0.51020408 5:0.10595952 6:0.063220456 7:0.070642651 8:0.9131239 9:1 10:0.039781827 11:0.32719393 12:0.9154355 13:0.21754386 14:0.4074074 15:0.34108527 16:5 
-1 1:0.33739342 2:0.72557759 3:0.50383865 4:0.56944442 5:0.31965805 6:0 7:0.22969493 8:0.70266858 9:0 10:0.077332962 11:0.32969119 12:0.71803501 13:0.27777778 14:0.38095236 15:0.74175824 16:18 
-1 1:0.5703054 2:0.83749998 3:0.78966385 4:0.3012048 5:0.64384482 6:0.57685556 7:0.36068729 8:0.75992899 9:0 10:0.099858473 11:0.19220476 12:0.88542515 13:0.33 14:0.125 15:0.63817664 16:18 
-1 1:0.4951942 2:0.80222225 3:0.66402037 4:0.29411763 5:0.6153508 6:1 7:0.27608959 8:0.85053408 9:1 10:0.5867724 11:0.42646831 12:0.69913177 13:0.24166667 14:0 15:0.74175824 16:22 
1 1:0.49835934 2:0.83749998 3:0.52275125 4:0.42708331 5:0.77700291 6:0.74447842 7:0.17485917 8:0.9453435 9:1 10:0.42644003 11:0 12:0.8725855 13:0.17613636 14:0.30000001 15:0.62051282 16:26 
-1 1:0.84214418 2:1 3:0.89831977 4:0.75324678 5:0.86958272 6:0.83945758 7:0.60268118 8:0.9690532 9:1 10:0.7609761 11:0.65332021 12:0.88944126 13:0.79574468 14:0.60869563 15:1.1883289 16:14 
-1 1:0.31709432 2:0.52585036 3:0.28793054 4:0.40845072 5:0.4369296 6:0.85817282 7:0.12415696 8:0.46577232 9:0 10:0.0070408771 11:0.10866314 12:0.91411344 13:0.19230769 14:0.30769229 15:0.32142857 16:15 
-1 1:0.28158012 2:0.84424239 3:0.73578004 4:0.45384616 5:0.2067875 6:0.34466821 7:0.19657785 8:0.83738999 9:1 10:0.0037723803 11:0.086087356 12:0.83911075 13:0.24472574 14:0.41666669 15:0.43308271 16:44 
-1 1:0.81915031 2:0.87954545 3:0.82896637 4:0.67630059 5:0.7761287 6:0.42640987 7:0.56592791 8:0.88487455 9:1 10:0.34661726 11:0.066683798 12:0.94792612 13:0.69230769 14:0.39999998 15:0.8974359 16:43 
1 1:0.52684399 2:1 3:0.70652847 4:0.82716048 5:0.73102111 6:1 7:0.51526311 8:0.92895019 9:1 10:0.08511871 11:0.52626442 12:0.9597983 13:0.46969697 14:0.72222221 15:1 16:6 
0.5872759548291676 1:0.46457308 2:0.86666667 3:0.69782648 4:0.44578314 5:0.52848064 6:1 7:0.51284496 8:0.8288333 9:0 10:0.21798211 11:0.19001259 12:0.90618645 13:0.19230769 14:0.15384614 15:0.76190476 16:5 
1 1:0.81601463 2:0.95512813 3:0.83085264 4:0.71270716 5:0.78675733 6:0.80738873 7:0.70147242 8:0.93858006 9:1 10:0.67595906 11:0.74028266 12:0.90866093 13:0.6984127 14:0.56 15:0.87719298 16:34 
-1 1:0.56944917 2:0.84644097 3:0.75341192 4:0.58024693 5:0.74621544 6:0.84205574 7:0.63317409 8:0.83613052 9:1 10:0.47715105 11:0.42779643 12:0.86558887 13:0.34603175 14:0.44444442 15:0.86928105 16:5 
-1 1:0.43357203 2:0.84297615 3:0.90157631 4:0.59677422 5:0.46232264 6:0.37609967 7:0.23044683 8:0.93814653 9:1 10:0.51990031 11:0.76470741 12:0.89290269 13:0.27076923 14:0.53571427 15:0.5 16:41 
-1 1:0.36004375 2:0.71273869 3:0.72119594 4:0.5 5:0.33039025 6:0.38278721 7:0.24907108 8:0.91236409 9:1 10:0.05739423 11:0.2063452 12:0.86054089 13:0.25114155 14:0.45454544 15:0.53333333 16:23 
-1 1:0.69633022 2:1 3:0.76669916 4:0.5826087 5:0.6377722 6:1 7:0.30498817 8:0.84075305 9:1 10:0.53286284 11:0.40744159 12:0.85284271 13:0.5035461 14:0.3888889 15:0.73891626 16:32 
1 1:0.40254821 2:0.80725306 3:0.68067016 4:0.63636363 5:0.32967998 6:1 7:0.30981393 8:0.92433817 9:1 10:0.55632912 11:0.55362647 12:0.92854396 13:0.31034483 14:0.4285714 15:0.7977208 16:8 
-1 1:0.44463003 2:0.67548358 3:0.51347918 4:0.43809521 5:0.39823432 6:0.67097941 7:0.15039581 8:0.60270976 9:1 10:0.47069407 11:0.062703395 12:0.93959146 13:0.20588235 14:0.29411763 15:0.55840456 16:12 
-0.9400150364566863 1:0.84364869 2:1 3:0.94038501 4:0.75862068 5:0.67014911 6:0.68812788 7:0.47961187 8:0.88012671 9:1 10:0.45027239 11:0.7175655 12:0.96534766 13:0.82208589 14:0.60000002 15:0.89462366 16:24 
-1 1:0.56588589 2:0.89747471 3:0.8716829 4:0.46399999 5:0.74757771 6:0.60921801 7:0.68370684 8:0.92027544 9:1 10:0.27343022 11:0.087132573 12:0.85957766 13:0.53216374 14:0.52173913 15:0.53257621 16:33 
-1 1:0.43353489 2:0.81539112 3:0.56171128 4:0.26415092 5:0.46609634 6:0.81969438 7:0.51152384 8:0.77837012 9:1 10:0.043258244 11:0 12:0.79845519 13:0.14285714 14:-0.071428537 15:0.8781362 16:22 
-1 1:0.48250876 2:1 3:0.69582077 4:0.6875 5:0.42915109 6:0.76681876 7:0.43238931 8:0.90802329 9:1 10:0.22833273 11:0.5701025 12:0.93155926 13:0.42857143 14:0.5333333 15:0.85375494 16:13 
1 1:0.65630087 2:0.6879465 3:0.59740201 4:0.59722221 5:0.78917813 6:1 7:0.3924039 8:0.90699789 9:1 10:0.44561221 11:0.4449523 12:0.96482962 13:0.30555556 14:0.4375 15:0.52287582 16:1 
-0.2598242238324147 1:0.63773319 2:0.92407411 3:0.56039089 4:0.39855075 5:0.71580663 6:0.47519326 7:0.38316031 8:0.79430971 9:1 10:0.064730867 11:0.56313147 12:0.78835162 13:0.3986014 14:0.1111111 15:1.1623932 16:48 
-1 1:0.3915312 2:0.94999999 3:0.37868355 4:0.18518519 5:0.4642525 6:0.27006845 7:0.425019 8:0.89994748 9:0.24544586 10:0.14170342 11:0.12514462 12:0.88974764 13:0.16666667 14:0.083333313 15:0.38888889 16:5 
-1 1:0.39327067 2:0.81951058 3:0.75303421 4:0.48648649 5:0.34959767 6:0.69321303 7:0.49784879 8:0.81857652 9:1 10:0.11071179 11:0.33389253 12:0.88122843 13:0.3255814 14:0.5 15:0.48214286 16:23 
-1 1:0.72816663 2:1 3:0.77294476 4:0.68292683 5:0.57549792 6:0.71841679 7:0.28597662 8:0.92908246 9:1 10:0.42612539 11:0.40082711 12:0.91772218 13:0.68807339 14:0.47826087 15:1.1764706 16:17 
-1 1:0.30946709 2:0.73231918 3:0.66464301 4:0.56410253 5:0.32976763 6:0 7:0.39794584 8:0.69077283 9:0 10:0.057899214 11:0.20313394 12:0.64863715 13:0.2029703 14:0.5 15:0.5 16:26 
-1 1:0.60842314 2:0.84523809 3:0.61858975 4:0.57777774 5:0.50197841 6:0 7:0.26792702 8:0.78800761 9:1 10:0.4919569 11:0.23535853 12:0.74336561 13:0.35 14:0.35714287 15:0.72368421 16:28 
-1 1:0.71073591 2:0.90929502 3:0.66934002 4:0.42727274 5:0.71850381 6:0.90546869 7:0.35842374 8:0.93713623 9:1 10:0.0054709809 11:0.18658957 12:0.85161113 13:0.47727273 14:0.22222221 15:0.87179487 16:19 
-1 1:0.29356457 2:0.72656924 3:0.63712884 4:0.35135138 5:0.23904061 6:0.088723786 7:0.30448682 8:0.89473909 9:1 10:0.46985607 11:0.30645891 12:0.93710589 13:0.26470588 14:0 15:0.67904509 16:22 
-1 1:0.29887389 2:0.92929286 3:0.64384195 4:0.42063493 5:0.34647312 6:0.30500044 7:0.30004068 8:0.9399116 9:0 10:0.16917997 11:0.065935083 12:0.89008335 13:0.41258741 14:0.22222221 15:0.76392573 16:31 
-1 1:0.5513865 2:0.80515695 3:0.60200387 4:0.28776979 5:0.63174432 6:0.69381633 7:0.39026978 8:0.85204754 9:1 10:0.79904724 11:0.21004366 12:0.88137383 13:0.34649123 14:-0.043478251 15:0.88636364 16:31 
1 1:0.63951667 2:0.97777778 3:0.61301219 4:0.68103445 5:0.82587997 6:0 7:0.69693749 8:0.93993018 9:1 10:0.28276606 11:0.50400075 12:0.81462118 13:0.59195402 14:0.60000002 15:0.86580087 16:6 
1 1:0.50283984 2:0.9236111 3:0.64991567 4:0.63265306 5:0.65715602 6:1 7:0.5526303 8:0.9252612 9:1 10:0.42941291 11:0.7140533 12:0.92797007 13:0.28571429 14:0.28571427 15:0.75 16:10 
-1 1:0.56791455 2:0.9366883 3:0.68568171 4:0.39784944 5:0.55961676 6:0.78218435 7:0.62152339 8:0.82620137 9:1 10:0.56078627 11:0.19733356 12:0.88222611 13:0.375 14:0.33333331 15:0.83333333 16:4 
1 1:0.60374957 2:1 3:0.60806731 4:0.38842976 5:0.77773818 6:1 7:0.40525571 8:0.6938316 9:0 10:0.22912924 11:0.38136272 12:0.73688208 13:0.32941176 14:0 15:1.2727273 16:38 
-1 1:0.51990121 2:0.75467533 3:0.59417851 4:0.60479045 5:0.59686408 6:0.6814971 7:0.29550632 8:0.86845681 9:1 10:0.63953808 11:0.25035967 12:0.81405612 13:0.25242718 14:0.5 15:0.61111111 16:45 
-1 1:0.53928104 2:0.8650794 3:0.78438377 4:0.4752475 5:0.70735987 6:0 7:0.13164729 8:0.95358889 9:1 10:0.14851334 11:0.26217725 12:0.9590371 13:0.36758893 14:0.47826087 15:0.59393939 16:26 
-1 1:0.42868824 2:0.92436868 3:0.67329397 4:0.57499999 5:0.5655064 6:0.4948949 7:0.48890181 8:0.97452845 9:1 10:0.36301445 11:0 12:0.93142246 13:0.39285714 14:0.6111111 15:0.53511706 16:38 
-1 1:0.44881523 2:0.79595238 3:0.45017489 4:0.43518519 5:0.34471374 6:0.54768268 7:0.27580139 8:0.73285123 9:0 10:0.037169786 11:0.12193869 12:0.74455264 13:0.25301205 14:0.071428597 15:1.512605 16:31 
-1 1:0.4807378 2:0.7166667 3:0.3437865 4:0.43529409 5:0.48980076 6:0.86769116 7:0.15535426 8:0.91855977 9:1 10:0.3603105 11:0.27195537 12:0.91386903 13:0.3 14:0.375 15:0.6504065 16:24 
-1 1:0.71832691 2:0.80815971 3:0.68471869 4:0.54961836 5:0.78857962 6:1 7:0.23071579 8:0.85261629 9:1 10:0.45692788 11:0.20461558 12:0.87450751 13:0.52966102 14:0.43478262 15:0.89260563 16:41 
-1 1:0.68548991 2:1 3:0.53477812 4:0.51748252 5:0.49957413 6:1 7:0.57075638 8:0.93648128 9:1 10:0.80548607 11:0.40289098 12:0.96758678 13:0.72413793 14:0.055555582 15:0.95833333 16:58 
-1 1:0.3990528 2:0.89642859 3:0.34728613 4:0.23076922 5:0.50758709 6:1 7:0.55337292 8:0.93702191 9:0 10:0.57647899 11:0.22687694 12:0.94593006 13:0.1978022 14:0.071428597 15:0.56842105 16:4 
-1 1:0.39051101 2:1 3:0.52328627 4:0.421875 5:0.57422568 6:0.69037441 7:0.45867767 8:0.84396503 9:1 10:0.67074502 11:0.30568327 12:0.82070631 13:0.234375 14:0.35294116 15:0.7 16:1 
0.05176897919417391 1:0.42475025 2:0.81354874 3:0.42892361 4:0.36781609 5:0.5193968 6:0 7:0.57250083 8:0.61661596 9:1 10:0.32302034 11:0.1491075 12:0.54940768 13:0.14102564 14:0 15:0.65454545 16:18 
-1 1:0.36842297 2:0.81666112 3:0.6094035 4:0.39215684 5:0.39046718 6:0.47593144 7:0.42233685 8:0.94977472 9:1 10:0.29143289 11:0 12:0.84503858 13:0.17582418 14:0.23809522 15:0.53472222 16:3 
-1 1:0.35735968 2:0.82935256 3:0.71510993 4:0.6859504 5:0.23048893 6:0.2909229 7:0.28126978 8:0.94380935 9:1 10:0.024315415 11:0.42440873 12:0.92554273 13:0.37349398 14:0.64285713 15:0.51948052 16:1 
-1 1:0.3353229 2:1 3:0.77060085 4:0.59200001 5:0.27681267 6:0.71732233 7:0.45748974 8:0.82252731 9:1 10:0.033935666 11:0.44502712 12:0.85149446 13:0.42857143 14:0.13333333 15:1.0909091 16:33 
1 1:0.35352475 2:0.76975417 3:0.56785102 4:0.56470585 5:0.42596136 6:1 7:0.35650692 8:0.61500419 9:1 10:0.54982271 11:0.095862644 12:0.57762736 13:0.32848837 14:0.58620691 15:0.40740741 16:47 
1 1:0.50978567 2:0.88892937 3:0.65702176 4:0.32984293 5:0.66032729 6:0.39789227 7:0.4177113 8:0.92978801 9:0 10:0.68215337 11:0.54846227 12:0.92346 13:0.21484375 14:0.083333313 15:0.63157895 16:18 
-1 1:0.70999988 2:0.84278643 3:0.64147188 4:0.50833333 5:0.82670892 6:0.91958915 7:0.34944657 8:0.8862218 9:1 10:0.01141818 11:0.49722585 12:0.82377364 13:0.41071429 14:0.25 15:0.76190476 16:37 
-1 1:0.34794316 2:0.86103648 3:0.46857807 4:0.30769229 5:0.3840162 6:0.61931391 7:0.20061997 8:0.95935677 9:1 10:0.55919349 11:0.14535037 12:0.90974866 13:0.32484076 14:0 15:0.97843666 16:25 
-1 1:0.3913143 2:0.74149042 3:0.74703217 4:0.57723576 5:0.42070346 6:0.77034659 7:0.36694441 8:0.91024684 9:0 10:0.72450373 11:0.27407817 12:0.91641241 13:0.19480519 14:0.45454544 15:0.46995995 16:34 
-1 1:0.30516846 2:0.75983453 3:0.64695623 4:0.36363637 5:0.23418782 6:0.57934788 7:0.2411981 8:0.83416234 9:1 10:0.04196444 11:0.24628545 12:0.80400079 13:0.18018018 14:0.125 15:0.56916996 16:5 
-1 1:0.19596125 2:0.64574826 3:0.38189312 4:0.44318181 5:0.11528835 6:0.085413524 7:0.16709136 8:0.86994532 9:1 10:0.041176716 11:0.17486618 12:0.87450979 13:0.15591398 14:0.38095236 15:0.31259968 16:5 
-1 1:0.40886808 2:0.88333338 3:0.50237704 4:0.42424244 5:0.45189883 6:0 7:0.3034848 8:0.8731389 9:0 10:0.02806182 11:0.15316196 12:0.85231914 13:0.26470588 14:0.17647058 15:0.32727273 16:8 
-1 1:0.33409355 2:0.86724991 3:0.6794737 4:0.31132078 5:0.40496093 6:0 7:0.55264054 8:0.83177537 9:0.54588929 10:0.62586622 11:0.196278 12:0.78514789 13:0.14736842 14:0.10000002 15:0.64285714 16:5 
-1 1:0.61132179 2:1 3:0.51516328 4:0.30666667 5:0.6128417 6:0.51547971 7:0.45157605 8:0.68330629 9:1 10:0.58937953 11:0.26304379 12:0.78156735 13:0.26666667 14:-0.39999998 15:1.0131579 16:16 
-1 1:0.40692883 2:0.74222225 3:0.53049885 4:0.47142857 5:0.63179298 6:0.8671655 7:0.35047311 8:0.82554529 9:1 10:0.57368036 11:0.12932716 12:0.8328679 13:0.19230769 14:0.23076922 15:0.57647059 16:18 
1 1:0.58924578 2:0.7954545 3:0.6702073 4:0.65432096 5:0.82706627 6:1 7:0.37574506 8:0.88612135 9:1 10:0.58157477 11:0.8257809 12:0.83395101 13:0.3956044 14:0.64285713 15:0.58333333 16:16 
-1 1:0.28366865 2:0.82041669 3:0.49291602 4:0.28155339 5:0.23726599 6:0.65093285 7:0.33074272 8:0.82170371 9:0 10:0.12971471 11:0.32300596 12:0.7303567 13:0.15079365 14:0.16666669 15:0.33333333 16:39 
1 1:0.68257505 2:0.87272727 3:0.79055419 4:0.67441857 5:0.84825491 6:1 7:0.3080094 8:0.93246286 9:1 10:0.24514979 11:0.65481671 12:0.92592439 13:0.57352941 14:0.52941179 15:1.05 16:25 
-1 1:0.64344329 2:0.96209913 3:0.81116397 4:0.67256641 5:0.62699641 6:1 7:0.58439767 8:0.91174162 9:1 10:0.40431867 11:0.25439018 12:0.89162964 13:0.52564103 14:0.30769229 15:1.0173913 16:29 
-1 1:0.59896811 2:0.84655982 3:0.71702582 4:0.71428573 5:0.68892469 6:1 7:0.41890648 8:0.72277618 9:1 10:0.45628289 11:0.68338503 12:0.77326794 13:0.50833333 14:0.66666663 15:0.83712121 16:1 
1 1:0.54121302 2:0.72043645 3:0.53385542 4:0.30000001 5:0.59397715 6:0.68873567 7:0.22163388 8:0.77362714 9:1 10:0.074221567 11:0.52742447 12:0.79254891 13:0.46315789 14:0.066666663 15:0.90166976 16:25 
1 1:0.3241422 2:0.92563629 3:0.61292353 4:0.54054058 5:0.26305232 6:0.59671422 7:0.29045428 8:0.9287707 9:1 10:0.065263653 11:0.59522547 12:0.88590476 13:0.30769231 14:0.5 15:0.9 16:3 
-1 1:0.70075651 2:1 3:0.71742957 4:0.62721896 5:0.85393137 6:0.56666615 7:0.4910614 8:0.56388921 9:1 10:0.58475575 11:0.46866464 12:0.68820784 13:0.68715084 14:0.45833331 15:1.1555556 16:49 
-1 1:0.41667104 2:0.86013258 3:0.67502167 4:0.58955228 5:0.48629016 6:0.27783453 7:0.37824067 8:0.82504282 9:0.16222294 10:0.2316705 11:0 12:0.79832008 13:0.18900344 14:0.46153843 15:0.45882353 16:28 
1 1:0.52488328 2:0.56838626 3:0.40448444 4:0.48648649 5:0.63013247 6:1 7:0.077048395 8:0.9331177 9:1 10:0.40686923 11:0.61902321 12:0.866916 13:0.31818182 14:0.33333331 15:0.7 16:5 
-1 1:0.56744533 2:0.62579364 3:0.56601707 4:0.55752212 5:0.64146059 6:0.9519091 7:0.12676201 8:0.953031 9:1 10:0.87274459 11:0.19932582 12:0.88247083 13:0.38596491 14:0.42105263 15:0.81454545 16:3 
-1 1:0.1508799 2:0.70070153 3:0.55378559 4:0.49462366 5:0.10898729 6:0.10101663 7:0.15720315 8:0.95084052 9:1 10:0.074102007 11:0.14856157 12:0.89087008 13:0.15591398 14:0.33333331 15:0.30725462 16:7 
-1 1:0.37365094 2:0.81530613 3:0.34461904 4:0.38793105 5:0.44529566 6:0.23633734 7:0.43459073 8:0.77330862 9:1 10:0.31054595 11:0.23828201 12:0.71623342 13:0.23391813 14:0.10526317 15:0.5 16:16 
1 1:0.30905904 2:0.89087301 3:0.34526002 4:0.4818182 5:0.50575972 6:0.7561741 7:0.23783296 8:0.6837318 9:1 10:0.15910188 11:0.21871054 12:0.74541458 13:0.30057803 14:0.40909094 15:0.2258932 16:3 
1 1:0.48609021 2:0.80344588 3:0.712756 4:0.55045873 5:0.40375221 6:0.42785032 7:0.3479523 8:0.80173267 9:0.30135661 10:0.041877696 11:0.34397167 12:0.87645309 13:0.40167364 14:0.41666669 15:0.84677419 16:1 
-1 1:0.44264954 2:0.66999996 3:0.31450689 4:0.16853935 5:0.50174742 6:0.5142658 7:0.1483297 8:0.8933701 9:0.3978105 10:0.015115736 11:0 12:0.89067285 13:0.20952381 14:-0.066666722 15:0.95632184 16:14 
1 1:0.45856515 2:0.96373624 3:0.74693105 4:0.56603777 5:0.47621144 6:0.57537533 7:0.38962562 8:0.8971993 9:1 10:0.50830658 11:0.38549781 12:0.81877785 13:0.42196532 14:0.39999998 15:0.93125464 16:12 
-1 1:0.39374542 2:0.89356059 3:0.59230316 4:0.45762712 5:0.51207424 6:0.43749339 7:0.22478105 8:0.91773029 9:1 10:0.2222522 11:0.12278347 12:0.84498147 13:0.22027972 14:0.42307693 15:0.48387097 16:8 
-1 1:0.48589495 2:0.95873016 3:0.50421339 4:0.6179775 5:0.50256873 6:0.69801447 7:0.51341806 8:0.77184322 9:1 10:0.12153146 11:0.058556182 12:0.90409159 13:0.32432432 14:0.375 15:0.7173913 16:10 
-1 1:0.53964131 2:0.98197114 3:0.87904779 4:0.7368421 5:0.43236302 6:0.86673452 7:0.55982207 8:0.88744579 9:1 10:0.38894068 11:0.40904205 12:0.92492063 13:0.70645161 14:0.65384614 15:0.97222222 16:29 
-1 1:0.26021671 2:0.82708335 3:0.53674444 4:0.45360827 5:0.18637699 6:0.42179122 7:0.33491792 8:0.94182595 9:1 10:0.1595047 11:0.24533705 12:0.91761582 13:0.3 14:0.1875 15:0.86666667 16:17 
1 1:0.28146347 2:0.66058677 3:0.44292781 4:0.55882353 5:0.27627337 6:0 7:0.228465 8:0.83815433 9:1 10:0.0031416431 11:0.3971608 12:0 13:0.16374269 14:0.42105263 15:0.42307692 16:16 
-1 1:0.47578733 2:0.76062608 3:0.7033054 4:0.58333337 5:0.46104886 6:0 7:0.41740469 8:0.92981133 9:1 10:0.11409645 11:0.44410893 12:0.93938311 13:0.44444444 14:0.42105263 15:0 16:17 
-1 1:0.71903609 2:0.97222221 3:0.76343926 4:0.67164183 5:0.73856873 6:1 7:0.47896013 8:0.93370366 9:1 10:0.54391535 11:0.48678761 12:0.92784797 13:0.67692308 14:0.5454545 15:1.1076923 16:28 
-0.7553723972357651 1:0.52951538 2:0.85757124 3:0.67658948 4:0.30526316 5:0.79763377 6:0.5688214 7:0.36928208 8:0.90935653 9:1 10:0.59407499 11:0.097287266 12:0.90581341 13:0.34 14:0.13333333 15:0.59393939 16:14 
1 1:0.67481435 2:0.87714285 3:0.76880645 4:0.5350877 5:0.78473197 6:1 7:0.47730493 8:0.93480086 9:0 10:0.50660408 11:0.54392462 12:0.94973477 13:0.56363636 14:0.63157892 15:0.72727273 16:10 
-1 1:0.28632893 2:0.81841266 3:0.57106402 4:0.45081967 5:0.33673944 6:0.15322407 7:0.23362494 8:0.8912354 9:1 10:0.358561 11:0.20547566 12:0.91890013 13:0.36986301 14:0.25 15:0.59558824 16:22 
-1 1:0.54248545 2:0.834957 3:0.71364721 4:0.48888886 5:0.65284394 6:1 7:0.56058463 8:0.86425034 9:1 10:0.2437815 11:0.029294463 12:0.8365486 13:0.44354839 14:0.47058821 15:0.53030303 16:14 
-1 1:0.47351781 2:0.90493828 3:0.58401563 4:0.38235295 5:0.51809354 6:0.78864234 7:0.68114277 8:0.93707612 9:1 10:0.56293103 11:0 12:0.91019422 13:0.14545455 14:0.18181819 15:0.75 16:14 
-1 1:0.31427506 2:0.82908165 3:0.5288476 4:0.60740745 5:0.34406307 6:0.43423924 7:0.25156714 8:0.94824912 9:1 10:0.32660617 11:0.50465324 12:0.95396777 13:0.28 14:0.42307693 15:0.71364271 16:2 
1 1:0.39182097 2:0.58749998 3:0.7568437 4:0.49295777 5:0.41765433 6:1 7:0.11986452 8:0.91585169 9:1 10:0.0027528431 11:0.270652 12:0 13:0.34567901 14:0.5 15:0.29166667 16:0 
-0.3065739045756811 1:0.63540536 2:0.84427088 3:0.8315223 4:0.5648855 5:0.65861319 6:0.2034139 7:0.25781087 8:0.75602918 9:0 10:0.026809967 11:0.39435316 12:0.75531396 13:0.5751634 14:0.16666669 15:0.93944954 16:42 
-1 1:0.34631828 2:0.89259261 3:0.3690132 4:0.41584158 5:0.31081769 6:0 7:0.36592288 8:0 9:1 10:0.00086347805 11:0.1571342 12:0 13:0.26829268 14:0.21428573 15:0.43333333 16:19 
-1 1:0.50526923 2:0.75640231 3:0.55546759 4:0.42073172 5:0.71376889 6:0.55040181 7:0.3487968 8:0.86047486 9:0.62891332 10:0.18213614 11:0.1453803 12:0.9392651 13:0.2972973 14:0.31034482 15:0.7875808 16:1 
-1 1:0.2449774 2:0.93312502 3:0.61584267 4:0.35051548 5:0.1430159 6:0.36655327 7:0.19848446 8:0.9256777 9:1 10:0.018217349 11:0.41450849 12:0.90997818 13:0.28225806 14:0.11764705 15:0.60952381 16:22 
-1 1:0.72288656 2:0.96651787 3:0.83104546 4:0.70866144 5:0.68145955 6:0.54375819 7:0.45790351 8:0.70834848 9:1 10:0.22061606 11:0.35501771 12:0.87216432 13:0.61111111 14:0.52631581 15:0.83916084 16:21 
-1 1:0.63881324 2:0.9222222 3:0.7432702 4:0.71153843 5:0.50657632 6:1 7:0.60079503 8:0.91670222 9:0.47837952 10:0.32491675 11:0.59971395 12:0.90768875 13:0.56542056 14:0.63636363 15:0.83809524 16:15 
-1 1:0.45551124 2:0.82464582 3:0.68184554 4:0.38129497 5:0.71637373 6:0.31602741 7:0.48376802 8:0.93128393 9:0 10:0.67379868 11:0.3738414 12:0.91686637 13:0.39583333 14:0.25925928 15:0.56065574 16:10 
1 1:0.40439089 2:0.8394711 3:0.6487213 4:0.37640452 5:0.5718846 6:0.52834335 7:0.67917261 8:0.85882063 9:1 10:0.38710758 11:0.2930949 12:0.82664596 13:0.28686327 14:0.24137932 15:0.55566905 16:31 
1 1:0.70127544 2:0.93203706 3:0.70298644 4:0.73548388 5:0.78623289 6:0.6459877 7:0.40199997 8:0.96348552 9:1 10:0.64374358 11:0.18798164 12:0.93871962 13:0.57425743 14:0.67647058 15:0.75757576 16:21 
-1 1:0.83853499 2:0.91229171 3:0.92695449 4:0.57971013 5:0.8105857 6:0.880516 7:0.43144139 8:0.85023799 9:1 10:0.80223639 11:0.40563235 12:0.93729908 13:0.80446927 14:0.55000001 15:0.90659341 16:26 
-1 1:0.48323011 2:0.90674603 3:0.64881039 4:0.43697476 5:0.44374277 6:1 7:0.45761068 8:0.81249306 9:1 10:0.18640995 11:0.34358079 12:0.90493165 13:0.4015748 14:0.27777779 15:0.72368421 16:41 
-1 1:0.22243105 2:0.7192592 3:0.3911018 4:0.46153843 5:0.162824 6:0.15080876 7:0.092500323 8:0.83307174 9:1 10:0.059715429 11:0.057906056 12:0.89321303 13:0.20710059 14:0.27272725 15:0.57233704 16:33 
-1 1:0.23495308 2:0.7665714 3:0.69381816 4:0.27710843 5:0.17458829 6:0.12277574 7:0.16255164 8:0 9:0.0039882591 10:8.5861741e-05 11:0.30881814 12:0.80214814 13:0.26666667 14:0.066666663 15:0 16:8 
1 1:0.41850144 2:0.80580086 3:0.61746135 4:0.4893617 5:0.49476024 6:1 7:0.39723487 8:0.86991253 9:1 10:0.08075337 11:0.24178621 12:0 13:0.28865979 14:0.39999998 15:0.74116966 16:11 
-1 1:0.48687135 2:1 3:0.64645959 4:0.55056179 5:0.42391579 6:0 7:0.43739825 8:0.91777186 9:0 10:0.0024155763 11:0 12:0.88947545 13:0.36363636 14:0.25 15:1.047619 16:27 
-1 1:0.58354718 2:0.86565661 3:0.54867469 4:0.30666667 5:0.71263976 6:0 7:0.51702785 8:0.94093633 9:0 10:0.47111281 11:0.31353495 12:0.94718819 13:0.53246753 14:0.13636363 15:0.97335344 16:20 
-1 1:0.54587824 2:0.98611116 3:0.67187404 4:0.25806451 5:0.59313828 6:0.51209586 7:0.4503235 8:0.92559896 9:1 10:0.38771799 11:0.33301487 12:0.9653688 13:0.3030303 14:-0.16666663 15:1.2 16:23 
-1 1:0.63624304 2:0.93905985 3:0.60671253 4:0.52671754 5:0.76590969 6:0.79624819 7:0.44259076 8:0.89550542 9:1 10:0.59465664 11:0.55930337 12:0.89424328 13:0.37142857 14:0.33333331 15:1.0756098 16:1 
-1 1:0.60874436 2:0.87702996 3:0.69536924 4:0.59146345 5:0.69368671 6:0.55308747 7:0.605235 8:0.79081393 9:1 10:0.4092491 11:0.4944724 12:0.81258051 13:0.5 14:0.33333331 15:0.66176471 16:25 
1 1:0.77415119 2:0.82334709 3:0.91172645 4:0.71942449 5:0.33586301 6:0.80287444 7:0.44408532 8:0.93018297 9:0.14967797 10:0.0087691465 11:0.66320139 12:0.94038899 13:0.73515982 14:0.39130437 15:1.1432927 16:26 
-1 1:0.88930441 2:0.92708331 3:0.8708894 4:0.7265625 5:0.85046099 6:1 7:0.3180765 8:0.911099 9:0.23701579 10:0.29215289 11:0.74938302 12:0.94977432 13:0.82638889 14:0.6111111 15:1.0173913 16:23 
-1 1:0.80011983 2:1 3:0.69480064 4:0.48598129 5:0.75755433 6:1 7:0.42603536 8:0.89504393 9:1 10:0.027879452 11:0.33450348 12:0.89213513 13:0.67307692 14:0.36842108 15:1.05 16:33 
-1 1:0.40205043 2:0.69703627 3:0.49866735 4:0.23157895 5:0.51810748 6:0.44002304 7:0.46417072 8:0.91631538 9:1 10:0.0070889108 11:0 12:0.81728344 13:0.16666667 14:0.1875 15:0.60606061 16:5 
1 1:0.49214752 2:0.73996598 3:0.73430741 4:0.6695652 5:0.50337066 6:0.39277062 7:0.20416886 8:0.89515019 9:1 10:0.033674121 11:0.58504588 12:0.81718284 13:0.30845771 14:0.57142854 15:0.66315789 16:18 
1 1:0.70993735 2:0.47789118 3:0.48469585 4:0.530303 5:0.84137206 6:0.82416358 7:0.11169281 8:0.76600947 9:1 10:0.43064983 11:0.65259046 12:0.84518499 13:0.39726027 14:0.35714287 15:0.69264069 16:6 
-1 1:0.16865862 2:0.68988091 3:0.4640786 4:0.47916669 5:0.11222778 6:0.095161588 7:0.14046719 8:0.90944475 9:1 10:0.058855142 11:0.095411732 12:0.83214216 13:0.18145161 14:0.45833331 15:0.42631579 16:4 
-1 1:0.50099631 2:0.64704078 3:0.51209402 4:0.42647058 5:0.65176964 6:0.92621666 7:0.20981561 8:0.74934954 9:0 10:0.51499101 11:0.15522358 12:0.89598037 13:0.2875 14:0.4285714 15:0.5 16:6 
-1 1:0.49083527 2:0.83723021 3:0.670427 4:0.5625 5:0.56726331 6:0.7040882 7:0.3997626 8:0.95785728 9:1 10:0.76774339 11:0.47747497 12:0.95780284 13:0.20588235 14:0.41176468 15:0.76923077 16:4 
-1 1:0.26526241 2:0.77625 3:0.39824912 4:0.29761904 5:0.37618277 6:0 7:0.30588793 8:0.8046941 9:1 10:0.010900661 11:0 12:0 13:0.062111801 14:0.052631557 15:0.28205128 16:13 
-1 1:0.6806452 2:0.95061725 3:0.73446892 4:0.51773047 5:0.63150297 6:0.42897448 7:0.45483266 8:0.8584333 9:1 10:0.43897078 11:0.76567007 12:0.8875729 13:0.55263158 14:0.39999998 15:0.98701299 16:32 
-1 1:0.36530501 2:0.81157404 3:0.55216291 4:0.21686745 5:0.52875876 6:0.37153228 7:0.21769815 8:0.91274626 9:1 10:0.53305515 11:0.26268844 12:0.91075821 13:0.11764706 14:0.055555582 15:0.50909091 16:1 
-1 1:0.71224321 2:0.66088438 3:0.52092311 4:0.27941179 5:0.67896755 6:1 7:0.23007333 8:0.93047854 9:1 10:0.69414997 11:0.27797344 12:0.93804948 13:0.38983051 14:0 15:1.0821256 16:14 
1 1:0.58787402 2:0.98000002 3:0.72873899 4:0.34523809 5:0.77058163 6:1 7:0.34547827 8:0.85802881 9:1 10:0.13495056 11:0.07985142 12:0.83700289 13:0.23076923 14:-0.14285719 15:0.85375494 16:14 
-1 1:0.53637698 2:0.97222215 3:0.88370257 4:0.46739131 5:0.47294798 6:0.2128851 7:0.41572356 8:0.92175682 9:1 10:0.13584517 11:0.14283434 12:0.8580556 13:0.43809524 14:0.13333333 15:0.76363636 16:16 
-1 1:0.4810572 2:0.90653348 3:0.61624062 4:0.62962961 5:0.60958893 6:0 7:0.69295338 8:0.88561656 9:1 10:0.40066308 11:0.32866449 12:0.90992762 13:0.42191781 14:0.61290324 15:0.55477855 16:51 
-1 1:0.48148841 2:0.77974206 3:0.65003942 4:0.2972973 5:0.46214275 6:0 7:0.45144384 8:0.8168565 9:1 10:0.26006341 11:0.28519493 12:0.95344767 13:0.3 14:0.1875 15:0.44307692 16:18 
-1 1:0.18416866 2:0.87032312 3:0.57559159 4:0.30434781 5:0.22397189 6:0 7:0.23122605 8:0.74721722 9:1 10:0.0033261626 11:0.17429807 12:0.60466279 13:0.19148936 14:0.22727275 15:0 16:1 
-1 1:0.6228943 2:0.91810971 3:0.81103185 4:0.5925926 5:0.6267317 6:1 7:0.47283738 8:0.91238994 9:0 10:0.11778187 11:0.31861599 12:0.99046737 13:0.53164557 14:0.56521738 15:0.91636364 16:15 
-1 1:0.10875743 2:0.79609877 3:0.38342723 4:0.37837839 5:0.05801728 6:0.19004367 7:0.20084706 8:0.90230361 9:1 10:0.20296735 11:0.079805974 12:0.8316717 13:0.12244898 14:0.31818181 15:0.39928699 16:13 
-1 1:0.46253486 2:0.8142857 3:0.69089934 4:0.53435111 5:0.64273781 6:0.63755892 7:0.32084114 8:0.81754753 9:1 10:0.46421763 11:0.29651429 12:0.79882657 13:0.25416667 14:0.375 15:0.48 16:27 
-1 1:0.58421952 2:0.87020206 3:0.76365096 4:0.70408165 5:0.44589381 6:1 7:0.4716249 8:0.82785374 9:1 10:0.48812565 11:0.29217662 12:0.8946914 13:0.4092827 14:0.60869563 15:0.82580645 16:6 
-0.8394810966970615 1:0.40406988 2:0.83960694 3:0.67803029 4:0.3923077 5:0.40406709 6:0.38134548 7:0.27889826 8:0.67430289 9:1 10:0.54247988 11:0.31593644 12:0.67261731 13:0.29411765 14:0.40909094 15:0.41666667 16:32 
-1 1:0.6141613 2:0.87477952 3:0.82371806 4:0.70769227 5:0.71891005 6:0.93301063 7:0.56539181 8:0.91793977 9:1 10:0.44055084 11:0.33385215 12:0.94575565 13:0.5 14:0.71428573 15:0.72527473 16:37 
-1 1:0.39266753 2:0.88020831 3:0.56986063 4:0.31645572 5:0.58343618 6:1 7:0.64058408 8:0.80706264 9:1 10:0.064394247 11:0.19751248 12:0.86934539 13:0.23076923 14:0.21428573 15:0.58333333 16:6 
-1 1:0.47404911 2:0.9201389 3:0.7604338 4:0.61068702 5:0.52188106 6:1 7:0.37755605 8:0.87455011 9:1 10:0.072203393 11:0.69833585 12:0.8214871 13:0.32537313 14:0.57142854 15:0.66315789 16:26 
-1 1:0.40260451 2:0.66138119 3:0.55467731 4:0.48148149 5:0.50002229 6:0.90519693 7:0.13000066 8:0.90366287 9:0 10:0.7265085 11:0.45104997 12:0.82179086 13:0.24757282 14:0.43478262 15:0.61538462 16:12 
-0.258195486345403 1:0.60719796 2:0.88095236 3:0.66196618 4:0.43589741 5:0.41411976 6:1 7:0.30324666 8:0.6682867 9:1 10:0.25412846 11:0 12:0.65801107 13:0.31818182 14:0.16666669 15:0.66666667 16:59 
-1 1:0.35396544 2:0.9354167 3:0.68429954 4:0.58156025 5:0.29221815 6:0.28168351 7:0.23207512 8:0.88282302 9:1 10:0.2577956 11:0.63230614 12:0.73755231 13:0.28802589 14:0.53571427 15:0.51515152 16:45 
-0.4598224354788193 1:0.59161818 2:0.95436507 3:0.68707269 4:0.58156025 5:0.63687819 6:0.44869456 7:0.36307927 8:0.71543687 9:1 10:0.30521971 11:0.36179733 12:0.71826648 13:0.5748503 14:0.39999998 15:1.5454545 16:43 
-1 1:0.1388859 2:0.78888893 3:0.35713472 4:0.48514849 5:0.093272898 6:0.079941354 7:0.13710151 8:0.91365451 9:1 10:0.026472623 11:0.086290547 12:0.90372917 13:0.24468085 14:0.33333331 15:0.37254902 16:6 
1 1:0.59393154 2:0.84102565 3:0.74284276 4:0.60843372 5:0.62004907 6:0.37716125 7:0.47531584 8:0.83823076 9:0.77491711 10:0.022203734 11:0.32564289 12:0.75306191 13:0.51912568 14:0.56666666 15:0.59649123 16:12 
1 1:0.64686741 2:0.86136365 3:0.56089095 4:0.35555553 5:0.83643094 6:1 7:0.37367443 8:0.955776 9:1 10:0.88728307 11:0.67930011 12:0.94694256 13:0.25 14:0.1111111 15:0.5952381 16:2 
-1 1:0.40038102 2:0.49375001 3:0.43387326 4:0.375 5:0.52502431 6:0.35773137 7:0.059000642 8:0.78517012 9:1 10:0.03557112 11:0.31676392 12:0.86399502 13:0.14788732 14:0.22222221 15:0.3525641 16:7 
1 1:0.75414803 2:0.97959179 3:0.97351123 4:0.27222222 5:0.98102972 6:0.83095173 7:0.62935946 8:0.97326374 9:1 10:0.6310593 11:0.36715577 12:0.97810817 13:0.44764398 14:0.16666669 15:0.92176387 16:18 
-1 1:0.69020332 2:0.92126626 3:0.74004527 4:0.62903225 5:0.74040464 6:1 7:0.35273571 8:0.92605091 9:1 10:0.31986511 11:0.27386197 12:0.94143663 13:0.51948052 14:0.5454545 15:0.78 16:13 
1 1:0.69909908 2:1 3:0.66931436 4:0.68055558 5:0.7501848 6:1 7:0.60893879 8:0.91662792 9:1 10:0.43089323 11:0.57797521 12:0.9224709 13:0.57065217 14:0.4285714 15:0.98484848 16:30 
-1 1:0.2210786 2:0.95833331 3:0.49528832 4:0.23076922 5:0.33552889 6:0.40155505 7:0.28913674 8:0.91636117 9:1 10:0.10089671 11:0 12:0.91794431 13:0.16666667 14:0.1111111 15:0.5 16:1 
-1 1:0.60215284 2:0.86277056 3:0.84116196 4:0.7241379 5:0.71337059 6:0.71731019 7:0.38697053 8:0.88281516 9:1 10:0.28956557 11:0.65800872 12:0.89790108 13:0.6875 14:0.69999999 15:0.94742729 16:15 
1 1:0.51910068 2:0.56427312 3:0.5997975 4:0.50476193 5:0.84377074 6:0.95528281 7:0.2852553 8:0.867848 9:1 10:0.66364904 11:0.25561523 12:0.76488486 13:0.24757282 14:0.45454544 15:0.48214286 16:39 
-1 1:0.11440457 2:0.74709874 3:0.48374732 4:0.5 5:0.077586665 6:0.079314325 7:0.13528104 8:0.95106741 9:1 10:0.065936219 11:0.44066078 12:0.88715002 13:0.21893491 14:0.35000002 15:0.34234234 16:7 
1 1:0.56684825 2:0.840388 3:0.49695759 4:0.43859649 5:0.82751487 6:1 7:0.49362018 8:0.87091309 9:1 10:0.61113577 11:0.1738444 12:0.89952294 13:0.27058824 14:0.35000002 15:0.84097859 16:29 
-1 1:0.69186734 2:1 3:0.57057723 4:0.47297299 5:0.40724789 6:1 7:0.23728919 8:0 9:1 10:0 11:0 12:0 13:0.58333333 14:0.1111111 15:1.5384615 16:35 
-1 1:0.66503882 2:0.92250001 3:0.71104268 4:0.71069181 5:0.81365201 6:0.49128926 7:0.40851118 8:0.79830476 9:0.99998969 10:0.57059849 11:0.14532608 12:0.94141212 13:0.41846154 14:0.65384614 15:0.75757576 16:35 
1 1:0.62307522 2:0.88935667 3:0.92638565 4:0.26666665 5:0.88136024 6:0.93904251 7:0.47301651 8:0.8769139 9:0 10:0.68868805 11:0.27766153 12:0.93974722 13:0.35736677 14:0.13793105 15:0.65656566 16:27 
-1 1:0.51384934 2:0.88759923 3:0.66023859 4:0.21739131 5:0.62266515 6:0.89734541 7:0.37513052 8:0.94611155 9:1 10:0.34819777 11:0 12:0.90803498 13:0.18300654 14:-0.16666663 15:0.41481481 16:12 
-1 1:0.30089484 2:0.90334147 3:0.57179033 4:0.46766168 5:0.56840525 6:0.36039047 7:0.28522449 8:0.94524382 9:0 10:0.1928276 11:0.54692689 12:0.90397954 13:0.15825688 14:0.3125 15:0.46457607 16:43 
-1 1:0.57947911 2:0.95578235 3:0.77679392 4:0.27777779 5:0.55046131 6:0.8551017 7:0.61335565 8:0.82071999 9:1 10:0.31766827 11:0.12573325 12:0.78762479 13:0.33333333 14:-0.15384614 15:1.0833333 16:19 
-1 1:0.49509281 2:0.88033235 3:0.77016233 4:0.61589408 5:0.68937039 6:0.91769381 7:0.36234873 8:0.77901726 9:1 10:0.094977798 11:0.32529268 12:0.78325213 13:0.31395349 14:0.57142854 15:0.48888889 16:38 
-1 1:0.69021108 2:0.87368101 3:0.72841267 4:0.52071005 5:0.80226011 6:0.85963663 7:0.42429219 8:0.78623329 9:1 10:0.41663402 11:0.096892757 12:0.83629577 13:0.57 14:0.36000001 15:0.8908221 16:16 
-1 1:0.26313859 2:0.92098773 3:0.4513932 4:0.46666664 5:0.39239064 6:0.25830392 7:0.37266622 8:0.81216045 9:1 10:0.25645225 11:0.49839123 12:0.91136805 13:0.1627907 14:0.35294116 15:0.55555556 16:15 
-1 1:0.58505678 2:0.74543083 3:0.6866859 4:0.67826086 5:0.56819513 6:0.89207905 7:0.4502408 8:0.94323241 9:1 10:0.28535666 11:0.1690874 12:0.93809589 13:0.43137255 14:0.66666663 15:0.56410256 16:20 
-1 1:0.34499119 2:0.83815193 3:0.56990843 4:0.20987654 5:0.19112469 6:1 7:0.24183477 8:0.74148783 9:1 10:0.13065095 11:0.16049341 12:0.79301376 13:0.18181818 14:0 15:0.55555556 16:23 
-1 1:0.77176921 2:0.73866212 3:0.50242042 4:0.43396229 5:0.85787746 6:1 7:0.06623055 8:0.64032238 9:1 10:0.5675786 11:0.28934323 12:0.67900939 13:0.26666667 14:0 15:0.59076923 16:31 
1 1:0.60564238 2:0.86250001 3:0.74498418 4:0.75 5:0.76890406 6:0.39160543 7:0.17995193 8:0.92781149 9:1 10:0.43962758 11:0.86968622 12:0.92415359 13:0.45957447 14:0.65217388 15:0 16:2 
1 1:0.52896067 2:0.57392591 3:0.57338745 4:0.31884056 5:0.63165924 6:1 7:0.28199101 8:0.869469 9:1 10:0.036023842 11:0.29541208 12:0.82791215 13:0.11538462 14:0.15384614 15:0.58420268 16:6 
-1 1:0.32867044 2:0.75094777 3:0.66021416 4:0.58771932 5:0.32754218 6:0 7:0.30132961 8:0.83611983 9:0.043953763 10:0.45074211 11:0.4840657 12:0.94262441 13:0.26428571 14:0.5 15:0 16:14 
-1 1:0.33503705 2:0.5552454 3:0.54634771 4:0.26506025 5:0.46486194 6:0.67436763 7:0.09607609 8:0.81239472 9:1 10:0.29568598 11:0.12442167 12:0.89392172 13:0.10989011 14:0.14285713 15:0.35353535 16:28 
1 1:0.79703664 2:0.92613637 3:0.81279499 4:0.79259259 5:0.9369858 6:1 7:0.47413811 8:0.951859 9:1 10:0.71736632 11:0.55566359 12:0.91894639 13:0.68910256 14:0.74074078 15:0.74383302 16:7 
1 1:0.51110153 2:0.94444442 3:0.7770159 4:0.40714288 5:0.52194488 6:0.53440187 7:0.40452129 8:0.93974811 9:1 10:0.52131795 11:0.38485788 12:0.94765558 13:0.59633028 14:0.45833331 15:0.81865646 16:1 
-1 1:0.40345124 2:0.83589208 3:0.78005948 4:0.60975611 5:0.3750766 6:0.45581408 7:0.26402786 8:0.86824568 9:1 10:0.085994952 11:0.74841075 12:0.91106812 13:0.32739421 14:0.60606062 15:0.56818182 16:35 
-1 1:0.58366377 2:0.70687497 3:0.3555793 4:0.29069769 5:0.69482918 6:0.91734876 7:0.25934425 8:0.8628103 9:0 10:0.76600357 11:0.16761375 12:0.90677681 13:0.14102564 14:-0.076923132 15:0.93396226 16:16 
1 1:0.63044493 2:0.98461539 3:0.79012079 4:0.74193549 5:0.63447325 6:0.88483119 7:0.52067233 8:0.8473584 9:1 10:0.3711568 11:0.27027248 12:0.78622037 13:0.55440415 14:0.68965518 15:0.91767881 16:9 
-1 1:0.66778894 2:0.91666669 3:0.69952478 4:0.61983472 5:0.67683601 6:0.9106256 7:0.36159748 8:0.9070392 9:1 10:0.35611259 11:0.54674078 12:0.91871696 13:0.62055336 14:0.47826087 15:0.8974359 16:25 
-1 1:0.48241103 2:0.85977006 3:0.50935118 4:0.50387597 5:0.57065255 6:0.56906417 7:0.50534429 8:0.82047247 9:1 10:0.48265385 11:0.1084575 12:0.89203155 13:0.34529148 14:0.36363637 15:0.53333333 16:0 
0.8915470963848257 1:0.61359607 2:0.95246035 3:0.80970548 4:0.73142856 5:0.7105785 6:0 7:0.66923497 8:0.91299472 9:1 10:0.69309203 11:0.27043556 12:0.95392169 13:0.46623094 14:0.58823526 15:0.55727554 16:12 
-1 1:0.53664877 2:0.84982634 3:0.60333062 4:0.29752064 5:0.59236871 6:0.24061427 7:0.25849733 8:0.61045259 9:1 10:0.24540437 11:0.2515971 12:0.80704818 13:0.31410256 14:0.2631579 15:1.32 16:19 
-1 1:0.63703932 2:1 3:0.68489132 4:0.56818181 5:0.65101705 6:1 7:0.3849527 8:0.80689446 9:1 10:0.12723335 11:0 12:0.89615503 13:0.36363636 14:0.18181819 15:1.0416667 16:23 
-0.50975381379036 1:0.36428997 2:0.72327626 3:0.61223793 4:0.54135334 5:0.48287954 6:1 7:0.2570617 8:0.91069171 9:1 10:0.048925745 11:0 12:0 13:0.20416667 14:0.44 15:0.39210347 16:40 
-1 1:0.33299507 2:0.75017494 3:0.6303296 4:0.44680852 5:0.35383533 6:0.41932227 7:0.35348506 8:0.89362756 9:1 10:0.022075096 11:0.49836071 12:0.83724186 13:0.26530612 14:0.38095236 15:0.4952381 16:15 
1 1:0.55932356 2:0.77208334 3:0.5801768 4:0.66666663 5:0.74016382 6:1 7:0.4020728 8:0.93831943 9:1 10:0.60042939 11:0.46744725 12:0.91525078 13:0.48626374 14:0.63333333 15:0.86666667 16:29 
-1 1:0.43517063 2:0.812213 3:0.67942171 4:0.5625 5:0.52667103 6:0.6413534 7:0.517806 8:0.94898416 9:1 10:0.55507444 11:0.52713626 12:0.92943151 13:0.27906977 14:0.5 15:0.65587045 16:33 
1 1:0.69623125 2:0.90740734 3:0.89584638 4:0.70909095 5:0.78103503 6:0.95743867 7:0.41473149 8:0.91572592 9:1 10:0.30622193 11:0.39049672 12:0.92411243 13:0.69117647 14:0.61538458 15:1.0588235 16:12 
1 1:0.50461892 2:0.77147067 3:0.65682138 4:0.49056602 5:0.65806062 6:0.58196415 7:0.43465772 8:0.88824358 9:1 10:0.41379712 11:0.50868268 12:0.87183758 13:0.34285714 14:0.4285714 15:0.60606061 16:18 
1 1:0.16764573 2:0.56347317 3:0.26571194 4:0.54651165 5:0.14469641 6:0.26061828 7:0.20962175 8:0.75746883 9:0 10:0.024470128 11:0.12514184 12:0 13:0.13475177 14:0.44444442 15:0.3338301 16:18 
-1 1:0.33009411 2:0.72184497 3:0.60217688 4:0.54639173 5:0.44441105 6:1 7:0.28926119 8:0.63173148 9:1 10:0.21265457 11:0.40703776 12:0.76516426 13:0.21875 14:0.47058821 15:0.33333333 16:34 
-1 1:0.47353862 2:0.78571427 3:0.45120013 4:0.39999998 5:0.56888425 6:0.87468479 7:0.50211743 8:0.90343833 9:1 10:0.13164726 11:0.26283485 12:0.88500787 13:0.20833333 14:0.125 15:0.69333333 16:16 
-1 1:0.73436098 2:1 3:0.76094661 4:0.66216218 5:0.90476248 6:0.56025777 7:0.69828655 8:0.94432756 9:1 10:0.61989188 11:0.40482287 12:0.93510594 13:0.57185629 14:0.55555558 15:0.78616352 16:6 
-1 1:0.54776955 2:0.58611113 3:0.48119273 4:0.21428573 5:0.64504558 6:1 7:0.11524082 8:0.9454209 9:1 10:0.52361292 11:0.10181997 12:0.91293175 13:0.15151515 14:-0.41666663 15:0.63492063 16:10 
-1 1:0.41477014 2:0.83579928 3:0.66888651 4:0.58762884 5:0.56767009 6:1 7:0.29506457 8:0.80644181 9:1 10:0.47140013 11:0.074161424 12:0.70531143 13:0.1958042 14:0.42105263 15:0.36940837 16:13 
-1 1:0.34621 2:0.65435916 3:0.51293586 4:0.38926172 5:0.37515794 6:0.33044771 7:0.10647019 8:0.75875767 9:0 10:0.32193359 11:0.52060805 12:0.85074887 13:0.23549488 14:0.21428573 15:0.85895118 16:11 
1 1:0.20864365 2:0.86888885 3:0.28811339 4:0.32857144 5:0.30982772 6:0 7:0.3642502 8:0.82263811 9:1 10:0.31956551 11:0.088103034 12:0 13:0.083333333 14:0.30769229 15:0.3 16:12 
-1 1:0.21618163 2:0.6723901 3:0.60979158 4:0.58558559 5:0.25239614 6:0.2840328 7:0.13500902 8:0 9:1 10:0.00011048817 11:0.59510578 12:0.85709917 13:0.19909502 14:0.47826087 15:0.51336898 16:23 
-1 1:0.14402718 2:0.7623257 3:0.30067 4:0.43010753 5:0.091823306 6:0.20410891 7:0.26846561 8:0.94664172 9:1 10:0.14688095 11:0.12317641 12:0.88755115 13:0.12244898 14:0.42105263 15:0.48387097 16:11 
-1 1:0.61995905 2:0.70591927 3:0.25002546 4:0.29870129 5:0.80762709 6:0.6616943 7:0.10064981 8:0.9280343 9:1 10:0.27143452 11:0.33167636 12:0.89324588 13:0.2 14:0.0625 15:0.61538462 16:4 
-1 1:0.5880102 2:0.67132938 3:0.44482736 4:0.16513759 5:0.68541705 6:1 7:0.15134654 8:0.73312687 9:1 10:0.20332712 11:0.4657226 12:0.80990933 13:0.17834395 14:0.15789473 15:0.57692308 16:2 
-1 1:0.24130223 2:0.87455022 3:0.46216391 4:0.43478262 5:0.27305733 6:0.12009769 7:0.38767585 8:0.65110746 9:1 10:0.53212018 11:0.11034385 12:0.80683664 13:0.1991342 14:0.31818181 15:0.41596639 16:41 
-1 1:0.65511704 2:0.9375 3:0.78373466 4:0.23622048 5:0.85093339 6:0.90896676 7:0.47628534 8:0.99478339 9:1 10:0.72324099 11:0.16507867 12:0.99297 13:0.35335689 14:0.14285713 15:0.8490099 16:16 
-1 1:0.51872044 2:0.81123459 3:0.46792205 4:0.51999998 5:0.51156229 6:0.70062127 7:0.240716 8:0.93452966 9:0.016648974 10:0.23386529 11:0 12:0.93310119 13:0.42028986 14:0.38461536 15:0.67226891 16:17 
-1 1:0.57544308 2:0.69999313 3:0.4373215 4:0.26041669 5:0.75172214 6:0.86857817 7:0.15983001 8:0.89883923 9:1 10:0.57519397 11:0.080079025 12:0.91949366 13:0.2739726 14:0.052631557 15:0.55714286 16:9 
-1 1:0.2533026 2:0.92592591 3:0.28827714 4:0.41095889 5:0.191675 6:0.15229201 7:0.17719443 8:0 9:0 10:2.4684038e-05 11:0.43464676 12:0.73991774 13:0.076923077 14:0.28571427 15:0 16:7 
1 1:0.36109313 2:0.73428571 3:0.4941145 4:0.28089887 5:0.41189683 6:0.4437497 7:0.20264887 8:0.92825607 9:1 10:0.024413014 11:0.24508429 12:0.85359153 13:0.20740741 14:-0.055555582 15:0.5 16:3 
-1 1:0.37637603 2:0.85714287 3:0.49924961 4:0.67424244 5:0.33146648 6:0.100128 7:0.27686271 8:0.86824818 9:1 10:0.29151939 11:0.25815348 12:0.96123049 13:0.41100324 14:0.57692307 15:0.55749129 16:6 
0.7457594675922429 1:0.71704625 2:0.94949496 3:0.94075311 4:0.81005585 5:0.63723495 6:1 7:0.53028453 8:0.92842801 9:1 10:0.27915507 11:0.74850459 12:0.93571038 13:0.81132075 14:0.75999999 15:1.037037 16:29 
-1 1:0.15468509 2:0.68275505 3:0.46194608 4:0.47727275 5:0.10769184 6:0.07714464 7:0.16214284 8:0.85268926 9:1 10:0.056547393 11:0.44225718 12:0.8912776 13:0.19892473 14:0.47619045 15:0.37151703 16:5 
-1 1:0.39222729 2:0.87552911 3:0.67302684 4:0.63999999 5:0.43390846 6:0.45596392 7:0.49395828 8:0.78579437 9:1 10:0.40970374 11:0.46286081 12:0.90663183 13:0.30769231 14:0.57142854 15:0.53030303 16:10 
-1 1:0.49168399 2:0.83388448 3:0.65588862 4:0.3820225 5:0.75770333 6:0.6384786 7:0.36196964 8:0.91705805 9:1 10:0.24329804 11:0.21019313 12:0.93348667 13:0.35251799 14:0.1111111 15:0.91636364 16:1 
1 1:0.42995443 2:0.9354167 3:0.8657563 4:0.54285717 5:0.29489786 6:0.15334849 7:0.24025273 8:0.91469034 9:1 10:0.22658492 11:0 12:0.85982176 13:0.49473684 14:0.64999998 15:0.59340659 16:6 
-1 1:0.38155473 2:0.73575336 3:0.70794641 4:0.47019869 5:0.39258359 6:0.66115658 7:0.36676708 8:0.7972726 9:0 10:0.78235506 11:0.35410433 12:0.77897947 13:0.25641026 14:0.37037039 15:0.44827586 16:18 
-1 1:0.68533279 2:0.89333338 3:0.71781368 4:0.37391305 5:0.45697288 6:0.3646594 7:0.34538161 8:0.87850077 9:1 10:0.039507986 11:0.046551421 12:0 13:0.59848485 14:0.21052629 15:0.96 16:36 
-1 1:0.20496467 2:0.68657404 3:0.45522934 4:0.56302524 5:0.12902761 6:0.16968599 7:0.11240154 8:0.84787725 9:1 10:0.15903658 11:0.3069952 12:0.93290147 13:0.2372093 14:0.13636363 15:0 16:13 
1 1:0.61161846 2:0.8125 3:0.77307154 4:0.48453611 5:0.63749617 6:0.73689236 7:0.19972928 8:0.73960525 9:1 10:0.03878848 11:0.3378305 12:0.84474589 13:0.49137931 14:0.35294116 15:0.83809524 16:30 
-1 1:0.40959456 2:0.95797259 3:0.63573157 4:0.26666665 5:0.41976928 6:0.69092322 7:0.5364199 8:0.88371697 9:1 10:0.4137602 11:0.15944477 12:0.89000555 13:0.19433198 14:-0.25 15:0.83448276 16:45 
-1 1:0.3211214 2:0.78940481 3:0.5683757 4:0.49137932 5:0.19410831 6:0.14090122 7:0.14121145 8:0.92477826 9:0 10:0.089380899 11:0.2611293 12:0.87539307 13:0.26315789 14:0.36842108 15:0.53846154 16:14 
-1 1:0.21332789 2:0.74684697 3:0.63794158 4:0.43333334 5:0.32464373 6:0.11436815 7:0.3511088 8:0.68687552 9:0 10:0.032784078 11:0.29551752 12:0.68335819 13:0.15594059 14:0.41935486 15:0.44347826 16:45 
-1 1:0.33846848 2:0.89930558 3:0.66628187 4:0.4375 5:0.3139543 6:0.69729512 7:0.42937645 8:0.95106715 9:1 10:0.084498091 11:0.16812368 12:0.91285703 13:0.27868852 14:0.16666669 15:0.87301587 16:20 
-1 1:0.40103177 2:0.76895833 3:0.72087955 4:0.57425743 5:0.52779234 6:0.31797596 7:0.44236905 8:0.79030085 9:1 10:0.053607018 11:0.1639408 12:0.57112087 13:0.26717557 14:0.42307693 15:0.324 16:32 
-1 1:0.4500124 2:0.85876983 3:0.58857358 4:0.24358976 5:0.54682184 6:0 7:0.46842636 8:0.9144855 9:0.81975821 10:0.37966431 11:0 12:0.90910833 13:0.10606061 14:0 15:0.3 16:13 
-1 1:0.39988779 2:0.91666669 3:0.48504093 4:0.66666663 5:0.27272183 6:0.45034359 7:0.24188982 8:0.88498919 9:1 10:0.26689416 11:0.47879239 12:0.90572629 13:0.47340426 14:0.52380955 15:0.79444444 16:19 
-1 1:0.4373173 2:0.79076481 3:0.68566775 4:0.60869563 5:0.57427394 6:0.22343329 7:0.18846118 8:0.82524869 9:0 10:0.081426941 11:0.29152361 12:0.67220871 13:0.27530364 14:0.5 15:0 16:21 
-1 1:0.67674944 2:0.95436507 3:0.54805396 4:0.66666663 5:0.68538274 6:0.71701387 7:0.54286176 8:0.88552372 9:1 10:0.19977986 11:0.21356373 12:0.70484585 13:0.55284553 14:0.47058821 15:1.1071191 16:30 
1 1:0.61989824 2:0.89608383 3:0.90848108 4:0.34710741 5:0.84112852 6:1 7:0.48974632 8:0.72407601 9:1 10:0.31698286 11:0.61752031 12:0.78831369 13:0.35622318 14:0.29166669 15:0.46886447 16:29 
-1 1:0.35057668 2:0.86003089 3:0.54590005 4:0.38947368 5:0.47736459 6:0.29449482 7:0.45989382 8:0.9047845 9:1 10:0.042661195 11:0.14839116 12:0.92184879 13:0.13157895 14:0.25 15:0.55026455 16:23 
-1 1:0.89223418 2:1 3:0.93329522 4:0.64285713 5:0.61233165 6:1 7:0.39707758 8:0.87906575 9:1 10:0.069238569 11:0.21695161 12:0.86620295 13:0.91304348 14:0.52173913 15:1.3125 16:54 
1 1:0.81538235 2:0.97306401 3:0.71758597 4:0.69536424 5:0.84547162 6:0.84533615 7:0.46190361 8:0.89893565 9:1 10:0.23278161 11:0.64434374 12:0.90419633 13:0.72340426 14:0.56521738 15:0.99264706 16:30 
-1 1:0.58259129 2:0.85495627 3:0.56018502 4:0.41044778 5:0.46853535 6:1 7:0.37800673 8:0.78131188 9:1 10:0.039887733 11:0.39247003 12:0.72473969 13:0.48695652 14:0.17647058 15:0.86782377 16:44 
-1 1:0.26025809 2:0.875 3:0.41924435 4:0.30136985 5:0.57573065 6:0.34842587 7:0.4728291 8:0.84851021 9:1 10:0.59872314 11:0 12:0.823864 13:0.13888889 14:0 15:0.70175439 16:2 
-1 1:0.4478991 2:0.78490257 3:0.61249744 4:0.58333337 5:0.49823017 6:0.20413106 7:0.35340543 8:0.82192898 9:1 10:0.19657305 11:0.62090707 12:0.92797313 13:0.27990431 14:0.43333334 15:0.70900076 16:1 
1 1:0.3055903 2:0.81795633 3:0.48647883 4:0.42105263 5:0.31392206 6:0.72347728 7:0.17224766 8:0 9:1 10:6.64183e-06 11:0.10237818 12:0.79971925 13:0.2012987 14:0.39999998 15:0.35714286 16:7 
-1 1:0.3924075 2:0.76216888 3:0.46072829 4:0.18471336 5:0.38855937 6:0.81670361 7:0.28936288 8:0.87461115 9:0.21868564 10:0.32442443 11:0.44338056 12:0.80563768 13:0.28980892 14:0.1111111 15:0.55555556 16:0 
-1 1:0.21431259 2:0.74464285 3:0.46150342 4:0.37096775 5:0.1803668 6:0.39869201 7:0.30451412 8:0.83409106 9:1 10:0.28006724 11:0.070987082 12:0.91517308 13:0.065934066 14:0.28571427 15:0.6 16:0 
1 1:0.63301062 2:0.82440478 3:0.75067385 4:0.48571426 5:0.93765052 6:1 7:0.30926058 8:0.96290929 9:1 10:0.76882269 11:0.46552675 12:0.94937056 13:0.46015424 14:0.43333334 15:0.51809524 16:36 
-1 1:0.50309387 2:0.76859504 3:0.70403981 4:0.50505054 5:0.64420262 6:0.71702575 7:0.18972724 8:0.83662365 9:0 10:0.34339448 11:0.61018969 12:0.89265625 13:0.38235294 14:0.11764705 15:0.83333333 16:13 
1 1:0.30569101 2:0.68452388 3:0.62405163 4:0.28888887 5:0.58086731 6:0.82485717 7:0.20402243 8:0.89031947 9:0 10:0.45642801 11:0.20558668 12:0 13:0.15441176 14:0.11764705 15:0.40909091 16:6 
-1 1:0.39646986 2:0.79272729 3:0.61297074 4:0.29761904 5:0.33951582 6:0.32128847 7:0.3432388 8:0.91676457 9:1 10:0.24946561 11:0 12:0.95764592 13:0.22580645 14:0.23076922 15:0.41830065 16:15 
-1 1:0.2666628 2:0.89821434 3:0.61217406 4:0.41600001 5:0.22587461 6:0.36560343 7:0.25780969 8:0.85527094 9:1 10:0.52574444 11:0.43075352 12:0.93362232 13:0.16091954 14:0.30000001 15:0.51336898 16:29 
1 1:0.60977499 2:0.65625 3:0.81233282 4:0.66071427 5:0.29054114 6:1 7:0.18784636 8:0.81008593 9:1 10:0.19035738 11:0.10906975 12:0.97295101 13:0.38461538 14:-0.16666663 15:0.93333333 16:17 
1 1:0.25329903 2:0.76547617 3:0.42997036 4:0.4727273 5:0.3586125 6:1 7:0.38016354 8:0.69671172 9:1 10:0.019281062 11:0.042511294 12:0 13:0.054545455 14:0.16666669 15:0.21428571 16:14 
0.3970103720135972 1:0.15969225 2:0.66071427 3:0.5061483 4:0.3035714 5:0.30231576 6:1 7:0.42201009 8:0.7132965 9:0 10:0.00090754996 11:0.31367484 12:0 13:0.022222222 14:0.19999999 15:0.17777778 16:22 
1 1:0.11321331 2:0.5 3:0.36016742 4:0.22857141 5:0.01212568 6:1 7:3.4402074e-08 8:0 9:1 10:0 11:0 12:0.96932299 13:0 14:-1.6666667 15:0.77777778 16:16 
1 1:0.027995931 2:0.74603176 3:0.099995971 4:0.19999999 5:0.0051252226 6:1 7:0.22047908 8:0 9:1 10:0 11:0 12:0 13:0 14:0.1111111 15:0.33333333 16:12 
1 1:0.26730993 2:0.68065113 3:0.64786535 4:0.43103451 5:0.35555334 6:1 7:0.30177244 8:0 9:1 10:0.00011966367 11:0.096999882 12:0 13:0.14285714 14:0.41666669 15:0.15 16:21 
-0.4027529154381537 1:0 2:0.9375 3:0.5029428 4:0.13333333 5:0.43203653 6:1 7:0.41359251 8:0 9:1 10:5.0799865e-06 11:0 12:0.58079869 13:0 14:-1.3333333 15:0.38095238 16:19 
1 1:0.1762705 2:0.66551024 3:0.53017141 4:0.25 5:0.37394546 6:1 7:0.3491086 8:0 9:1 10:8.1489502e-05 11:0.098699586 12:0.63302565 13:0 14:0.1111111 15:0.083333333 16:34 
1 1:0.067403789 2:0.73883927 3:0.58546143 4:0.35294116 5:0.047727662 6:1 7:1.997577e-06 8:0 9:0 10:0 11:0 12:0 13:0.042553191 14:0.083333313 15:0 16:3 
1 1:0.19699844 2:0.83936548 3:0.55659634 4:0.21951222 5:0.12142773 6:1 7:0.15047928 8:0.96817712 9:1 10:0.083926002 11:0 12:0.97490875 13:0 14:-1.4000001 15:0.46666667 16:49 
1 1:0.34724633 2:0.94054383 3:0.66282028 4:0.38961041 5:0.39815909 6:1 7:0.49271416 8:0.72826821 9:1 10:0.060626596 11:0.5221852 12:0.75374513 13:0.11904762 14:0.28571427 15:0.55555556 16:1 
1 1:0.028794276 2:0.36430776 3:0.31387333 4:0.21428573 5:0.011091703 6:1 7:0.18862359 8:0.68300757 9:1 10:0.0028630523 11:0.1551893 12:0.82389116 13:0 14:0.1111111 15:0.2 16:1 
1 1:0.27927701 2:0.85185188 3:0.56521441 4:0.24390244 5:0.087071015 6:1 7:0.12889256 8:0 9:1 10:0 11:0 12:0 13:0.095238095 14:-0.42857146 15:0.44444444 16:2 
1 1:0.025118587 2:0.53256804 3:0.34032927 4:0.28947371 5:0.0013843815 6:1 7:2.6125694e-07 8:0 9:1 10:0 11:0 12:0 13:0 14:-0.25 15:0.46666667 16:28 
1 1:0.12682777 2:0.52037042 3:0.78562683 4:0.26984125 5:0.25943487 6:0 7:0.52689169 8:0.71677736 9:1 10:0.20724403 11:0.53231362 12:0.80156066 13:0.032967033 14:0.28571427 15:0.11688312 16:45 
-0.4778192170005924 1:0.11406415 2:0.59523809 3:0.43003296 4:0.16666669 5:0.053534819 6:1 7:3.125902e-07 8:0 9:1 10:2.0498122e-05 11:0 12:0.8328389 13:0 14:-2 15:0.71428571 16:34 
1 1:0.76450618 2:0.875 3:0.60809973 4:0.19999999 5:0.86923235 6:1 7:0.08540464 8:0 9:1 10:0 11:0 12:0 13:0.21428571 14:-0.5 15:0.46666667 16:37 
-1 1:0.21371432 2:0.71695155 3:0.52563798 4:0.29310346 5:0.051830079 6:1 7:2.1423673e-06 8:0 9:1 10:0 11:0 12:0 13:0.14285714 14:-0.28571427 15:0 16:28 
-1 1:0.035751396 2:0.66769546 3:0.43395953 4:0.41666669 5:0.0068132299 6:1 7:0.21415679 8:0 9:1 10:1.2087801e-05 11:0 12:0 13:0 14:0 15:0.38095238 16:5 
1 1:0.39531089 2:0.5714286 3:0.29373571 4:0.45238096 5:0.58801456 6:1 7:1.2708029e-08 8:0.88151147 9:1 10:0.075686704 11:0 12:0.92292846 13:0.15625 14:0.30000001 15:0.28846154 16:12 
-1 1:0.090412585 2:0.64338624 3:0.30041441 4:0.17307693 5:0.074340836 6:1 7:0.12447493 8:0 9:1 10:0 11:0 12:0.99785444 13:0.047619048 14:-0.42857146 15:0.33333333 16:31 
0.7345555724777694 1:0.3577986 2:0.75238091 3:0.71246973 4:0.22784811 5:0.22257654 6:1 7:0.19003916 8:0 9:1 10:1.0675302e-05 11:0 12:0.8567982 13:0 14:-2.25 15:0.93333333 16:53 
1 1:0.19694121 2:0.83379626 3:0.42868696 4:0.23711342 5:0.12559686 6:1 7:0.14722117 8:0 9:1 10:3.453283e-05 11:0 12:0 13:0 14:-1.8333333 15:0 16:62 
1 1:0.22518918 2:0.66142857 3:0.24180266 4:0.3018868 5:0.25117379 6:1 7:0.32077452 8:0.84945577 9:1 10:0.005162342 11:0 12:0.85757789 13:0.035714286 14:0 15:0.35555556 16:2 
1 1:0 2:0 3:0.27498501 4:0.3888889 5:0 6:1 7:0 8:0.83701847 9:1 10:0.16234575 11:0 12:0.880071 13:0 14:-0.5 15:0.5 16:2 
1 1:0.021737688 2:0.53382128 3:0.32768717 4:0.16981131 5:0.0034704955 6:1 7:8.1138826e-08 8:0 9:1 10:0 11:0 12:0 13:0 14:0 15:0 16:2 
1 1:0.69853187 2:1 3:0.86318559 4:0.265625 5:0.27042364 6:1 7:0.36623882 8:0 9:1 10:0.0010200888 11:0 12:0.66855136 13:0.52380952 14:-2.4285715 15:1.125 16:76 
1 1:0.15770393 2:0.75523806 3:0.74256094 4:0.33999997 5:0.22430395 6:1 7:0.51622337 8:0 9:1 10:4.1208931e-06 11:0 12:0 13:0.023809524 14:0.19999999 15:0.22222222 16:22 
1 1:0.12208968 2:0.44965982 3:0.50530836 4:0.22222221 5:0.09297814 6:1 7:0.25869783 8:0.81497841 9:1 10:0.034630791 11:0 12:0 13:0 14:0 15:0.31168831 16:14 
1 1:0.19222563 2:0.865125 3:0.56291602 4:0.36363637 5:0.19122187 6:1 7:0.15224424 8:0 9:1 10:0.00051551279 11:0.15531325 12:0 13:0.027027027 14:0.10000002 15:0.4 16:6 
1 1:0.28704743 2:0.70476192 3:0.36060419 4:0.25 5:0.32397075 6:1 7:0.25552653 8:0 9:1 10:0.0013124314 11:0 12:0 13:0.027777778 14:0.1111111 15:0.33333333 16:17 
-1 1:0.015575793 2:0.84027779 3:0.23601846 4:0.39999998 5:0.088398671 6:1 7:0.17472901 8:0 9:1 10:1.0061059e-05 11:0 12:0 13:0.1 14:0 15:0 16:7 
-0.4870618805156358 1:0.92360802 2:1 3:0.35784124 4:0.086419761 5:0.13828984 6:1 7:0.48615601 8:0 9:1 10:1.6165187e-05 11:0 12:0 13:0 14:-7.5 15:1.8181818 16:72 
1 1:0.04407634 2:0.76543212 3:0.7924623 4:0.35593218 5:0.002598317 6:1 7:0.43594102 8:0 9:1 10:0.00037311353 11:0 12:0 13:0 14:-1.5 15:0.46666667 16:28 
1 1:0.34076979 2:0.69841272 3:0.6637164 4:0.39285713 5:0.29349035 6:1 7:0.19145315 8:0 9:0 10:0 11:0 12:0 13:0.083333333 14:0.16666669 15:0.17777778 16:4 
0.2215464019718014 1:0.4649135 2:0.875 3:0.7879468 4:0.19387758 5:0.25865898 6:1 7:0.3693481 8:0 9:0 10:2.3938712e-05 11:0.13044333 12:0.4107107 13:0.47619048 14:-3.4285712 15:1.7391304 16:148 
1 1:0.073409148 2:0.72869164 3:0.24428966 4:0.23364484 5:0.042119902 6:1 7:0.06803624 8:0 9:1 10:3.1244664e-05 11:0.17891869 12:0.81295463 13:0.053097345 14:-0.125 15:0.26666667 16:17 
0.201888305797589 1:0.13717526 2:0.75 3:0.31797287 4:0.2027027 5:0.028054222 6:1 7:6.2735359e-08 8:0 9:1 10:0 11:0 12:0 13:0 14:-1.5 15:0.75 16:50 
1 1:0.17663737 2:0.86394554 3:0.45941478 4:0.25862068 5:0.098536418 6:1 7:0.12362334 8:0.95903847 9:1 10:0.0014257522 11:0 12:0 13:0.14285714 14:-0.42857146 15:0.27777778 16:7 
1 1:0.12508327 2:0.56190479 3:0.50616186 4:0.19565219 5:0.041771954 6:1 7:1.1494253e-07 8:0 9:1 10:0 11:0 12:0 13:0 14:-1 15:0 16:27 
-1 1:0.15789578 2:0.71527779 3:0.50783941 4:0.26829267 5:0.056830771 6:1 7:9.8012689e-07 8:0 9:1 10:0.00027295071 11:0 12:0.97531588 13:0.066666667 14:-0.33333337 15:0.41666667 16:7 
-1 1:0.027995655 2:0.74259257 3:0.4871057 4:0.26666665 5:0.0090253503 6:1 7:0.11431886 8:0 9:1 10:0 11:0.54703222 12:0 13:0 14:-0.33333337 15:0.19047619 16:25 
1 1:0.052236634 2:0.60952383 3:0.2863277 4:0.25373137 5:0.052716457 6:1 7:1.3295882e-06 8:0 9:1 10:0 11:0 12:0 13:0.04 14:0.15384614 15:0.66666667 16:14 
1 1:0.15989897 2:0.61666667 3:0.70148161 4:0.2647059 5:0.021971878 6:1 7:1.8815408e-06 8:0 9:0 10:0 11:0 12:0 13:0.16666667 14:-0.25 15:0.66666667 16:17 
0.4246456658879736 1:0.59381075 2:1 3:0.89403734 4:0.15322578 5:0.28044528 6:1 7:0.49789594 8:0.40250419 9:0 10:0.24419895 11:0.42909212 12:0.40390261 13:0.6 14:-3.8000002 15:1.7142857 16:104 
1 1:0.073200703 2:0.59365076 3:0.33924435 4:0.28571427 5:0.02116998 6:1 7:1.7474783e-07 8:0 9:1 10:0 11:0 12:0 13:0 14:-0.16666663 15:0 16:3 
1 1:0.068906045 2:0.9375 3:0.48959573 4:0.22222221 5:0.019579356 6:1 7:0.18610302 8:0 9:1 10:6.3926782e-05 11:0.46253394 12:0 13:0.035714286 14:-0.5 15:0.49230769 16:20 
-1 1:0.03321785 2:0.49294531 3:0.23950656 4:0.21666664 5:0.0015798824 6:1 7:4.1831007e-08 8:0 9:1 10:0 11:0 12:0 13:0.066666667 14:-1.3333333 15:0.25714286 16:27 
1 1:0.029644028 2:0.62222224 3:0.2921825 4:0.33333331 5:0.0035659819 6:1 7:1.1831043e-06 8:0 9:1 10:0 11:0 12:0 13:0 14:0 15:0 16:14 
1 1:0.051525119 2:0.56299603 3:0.49359925 4:0.27868855 5:0.0033864317 6:1 7:2.4388588e-06 8:0 9:1 10:0 11:0.4390193 12:0 13:0.066666667 14:-1 15:0.34615385 16:21 
-1 1:0.069436906 2:0.52142859 3:0.37426434 4:0.21276593 5:0.0095792342 6:1 7:8.4878014e-08 8:0 9:0 10:0 11:0 12:0 13:0.026315789 14:0 15:0 16:4 
-1 1:0.46569186 2:0.51020408 3:0.36221262 4:0.38461536 5:0.41147902 6:1 7:1.1967877e-08 8:0.75526582 9:1 10:0.0018972759 11:0.46361208 12:0.72835639 13:0.16666667 14:-1.25 15:0 16:17 
-1 1:0.44738793 2:0.65111834 3:0.39512496 4:0.32203388 5:0.55926553 6:1 7:0.15982072 8:0.81203537 9:1 10:0.0088026754 11:0.42302939 12:0.76027431 13:0.047619048 14:-0.28571427 15:0.88888889 16:16 
-0.6451099259650847 1:0.32223593 2:0.80158728 3:0.43016914 4:0.28205127 5:0.23934204 6:1 7:0.2351532 8:0 9:1 10:9.7779739e-05 11:0 12:0 13:0 14:-0.57142854 15:0.34615385 16:43 
-1 1:0.4196929 2:0.8888889 3:0.37843568 4:0.29545456 5:0.26889044 6:1 7:0.30157011 8:0.94813175 9:1 10:0.00091670247 11:0.11879543 12:0.84002616 13:0 14:-2.5 15:1.5 16:26 
-1 1:0.27563751 2:0.7723214 3:0.5290916 4:0.19999999 5:0.46862978 6:1 7:0.40374941 8:0.86441405 9:1 10:0.01833096 11:0 12:0.84234035 13:0.21052632 14:0 15:0.55555556 16:4 
1 1:0.4148927 2:0.84761906 3:0.48131547 4:0.27397263 5:0.27631076 6:1 7:0.30021851 8:0.71749293 9:1 10:0.19734799 11:0.050702738 12:0.75590444 13:0.14285714 14:-0.85714281 15:0.27777778 16:42 
1 1:0.29294737 2:0.76666665 3:0.65945808 4:0.19512194 5:0.24331699 6:1 7:0.22911327 8:0 9:1 10:1.7660989e-05 11:0 12:0 13:0.1 14:-0.39999998 15:0.83333333 16:4 
1 1:0.1865784 2:0.68488282 3:0.63452303 4:0.23636365 5:0.098046735 6:1 7:0.14910163 8:0 9:1 10:1.8198023e-07 11:0 12:0 13:0.1 14:-0.79999995 15:0.41666667 16:21 
-1 1:0.028209286 2:0.60451388 3:0.31156968 4:0.30000001 5:0.0081204283 6:1 7:1.3294677e-06 8:0 9:1 10:0 11:0 12:0 13:0 14:-0.29999995 15:0.38095238 16:13 
-1 1:0.3224941 2:0.91666669 3:0.54827951 4:0.29411763 5:0.11711189 6:1 7:0.24219576 8:0 9:1 10:0.00010950946 11:0.40279407 12:0.7054966 13:0.27027027 14:-0.70000005 15:0.96969697 16:75 
1 1:0.18919088 2:0.55793649 3:0.64014355 4:0.4074074 5:0.051232986 6:1 7:0.091778234 8:0 9:1 10:3.7208842e-05 11:0.083179214 12:0 13:0.10714286 14:-0.5 15:0.25 16:5 
1 1:0.24615153 2:0.66542655 3:0.490299 4:0.45833331 5:0.27168985 6:1 7:0.20419603 8:0 9:0 10:0 11:0.2086051 12:0.97938703 13:0.088235294 14:0.28571427 15:0.2 16:8 
1 1:0.30919699 2:0.74350655 3:0.70655686 4:0.47368419 5:0.40273009 6:1 7:0.36043803 8:0 9:1 10:0 11:0 12:0 13:0.10714286 14:0.375 15:0.5 16:10 
1 1:0.080259417 2:0.49484128 3:0.32750761 4:0.17500001 5:0.046124835 6:1 7:3.2077358e-06 8:0 9:1 10:0.00013280804 11:0 12:0 13:0 14:0 15:0 16:23 
1 1:0.060410978 2:0.64603174 3:0.34444585 4:0.32653064 5:0.021430321 6:1 7:6.0747753e-06 8:0 9:1 10:0 11:0 12:0 13:0 14:-0.125 15:0 16:7 
1 1:0.17889605 2:0.8298611 3:0.49648905 4:0.36986303 5:0.13260238 6:1 7:0.2761689 8:0.8280489 9:1 10:0.012010876 11:0.45636633 12:0.69759041 13:0 14:-0.875 15:0.49230769 16:24 
-1 1:0.59111219 2:0.71726191 3:0.46211261 4:0.26666665 5:0.52925198 6:1 7:0.47869166 8:0 9:1 10:3.9572905e-05 11:0.1213834 12:0.53760608 13:0.066666667 14:-0.5 15:0.88888889 16:9 
1 1:0.17989645 2:0.59897959 3:0.42290232 4:0.24489796 5:0.21464654 6:1 7:2.3340062e-06 8:0 9:1 10:4.6147009e-05 11:0.76458087 12:0 13:0.038461538 14:0 15:0.5 16:11 
-1 1:0.19192331 2:0.7571429 3:0.73115021 4:0.32432431 5:0.22190399 6:1 7:0.42028448 8:0.81165448 9:1 10:0.0016350352 11:0 12:0 13:0 14:0.14285713 15:0.17777778 16:14 
1 1:0.1742847 2:0.46026784 3:0.51479843 4:0.3888889 5:0.18877398 6:1 7:0.16573333 8:0.8389942 9:1 10:0.027115678 11:0.51474694 12:0 13:0.020408163 14:0.090909064 15:0 16:25 
-1 1:0.56036478 2:0.76666665 3:0.87914737 4:0.35135138 5:0.22609848 6:1 7:0.33856328 8:0.72930331 9:1 10:0.10750213 11:0 12:0.78162598 13:0.33333333 14:-0.33333337 15:0.66666667 16:20 
1 1:0.075285442 2:0.59212017 3:0.39687082 4:0.20588237 5:0.029149941 6:1 7:1.8563308e-06 8:0 9:1 10:0 11:0 12:0 13:0 14:0 15:0.13333333 16:8 
1 1:0.29098154 2:1 3:0.7548997 4:0.43396229 5:0.18362826 6:1 7:0.38400006 8:0.75377374 9:1 10:0.0035566507 11:0 12:0 13:0.13333333 14:-0.33333337 15:0.6 16:15 
1 1:0.070875246 2:0.68087298 3:0.44655078 4:0.19607842 5:0.057870443 6:1 7:0.17058245 8:0 9:1 10:0 11:0 12:0 13:0.018867925 14:0.083333313 15:0.085714286 16:13 
1 1:0.29600741 2:0.76735538 3:0.42652676 4:0.26530612 5:0.3793788 6:1 7:0.34541852 8:0.90675259 9:1 10:0.16239289 11:0 12:0.67619717 13:0.13888889 14:0.1111111 15:0.23809524 16:3 
0.2956603920922742 1:0.089318107 2:0.5 3:0.36284784 4:0.23364484 5:0.037769357 6:1 7:5.3252894e-08 8:0 9:1 10:0 11:0 12:0 13:0.047619048 14:-1.7142856 15:0 16:66 
1 1:0.28930551 2:0.72261906 3:0.42507905 4:0.25925928 5:0.37236225 6:1 7:0.60186519 8:0 9:1 10:0.0005753848 11:0.64745909 12:0 13:0 14:-0.20000005 15:0.35555556 16:1 
0.5688228139292916 1:0.40227438 2:0.92857146 3:0.56573605 4:0.17567569 5:0.11037399 6:1 7:0.23466164 8:0.3808763 9:1 10:0.0007683537 11:0 12:0.51440359 13:0 14:-4 15:1.6 16:57 
-1 1:0.054753729 2:0.48190475 3:0.30428792 4:0.1964286 5:0.032971724 6:1 7:1.3531046e-07 8:0 9:1 10:0 11:0 12:0 13:0 14:0.10000002 15:0 16:37 
-1 1:0.1700177 2:0.77380955 3:0.51261295 4:0.26923078 5:0.098628178 6:1 7:1.3982032e-06 8:0 9:1 10:0 11:0 12:0 13:0.066666667 14:-1.3333333 15:0 16:39 
1 1:0.12681111 2:0.69134921 3:0.27112677 4:0.28333336 5:0.32516407 6:1 7:0.097811591 8:0.95289215 9:1 10:0.00559389 11:0 12:0.89317266 13:0.066666667 14:-0.29999995 15:0.3956044 16:6 
0.0625885343243886 1:0.077510411 2:0.77901781 3:0.42023895 4:0.23728812 5:0.01701664 6:1 7:0.25909048 8:0 9:0 10:7.9864263e-05 11:0 12:0.79470641 13:0.11538462 14:-1.125 15:0.75 16:78 
0.9098144306630814 1:0.35900195 2:0.95833331 3:0.56411555 4:0.26206899 5:0.21301985 6:1 7:0.41351593 8:0 9:1 10:0 11:0.37346359 12:0.61164625 13:0.26829268 14:-1.4000001 15:1.2272727 16:91 
1 1:0.083577519 2:0.6802721 3:0.65862931 4:0.26666665 5:0.057095704 6:1 7:0.18982231 8:0 9:1 10:0 11:0 12:0 13:0 14:0 15:0 16:2 
1 1:0.094175796 2:0.44278723 3:0.4974397 4:0.25806451 5:0.115128 6:1 7:1.0912126e-07 8:0 9:1 10:0 11:0 12:0 13:0 14:0.14285713 15:0.17777778 16:3 
1 1:0.43902288 2:0.85555553 3:0.56160511 4:0.22727275 5:0.59167753 6:1 7:0.40536694 8:0.68338484 9:1 10:0.022789697 11:0 12:0 13:0.2 14:0 15:0.5 16:1 
-1 1:0.16081226 2:0.80344677 3:0.54018866 4:0.29310346 5:0.50308635 6:1 7:0.46238357 8:0.73834357 9:1 10:0.12581885 11:0 12:0.76664771 13:0.012820513 14:0.15384614 15:0.13636364 16:37 
-1 1:0.063154229 2:0.76190472 3:0.56524605 4:0.24528301 5:0.050882758 6:1 7:1.5208022e-05 8:0 9:1 10:0 11:0 12:0 13:0.047619048 14:-0.57142854 15:0 16:25 
0.2633315723300469 1:0.28673861 2:0 3:0.29997477 4:0.1025641 5:0.048656862 6:1 7:0 8:0.42239982 9:1 10:0.0077249936 11:0 12:0 13:0 14:-7 15:0 16:68 
1 1:0.40762911 2:0.56696427 3:0.64584627 4:0.4375 5:0.48375619 6:1 7:9.0238888e-08 8:0 9:1 10:0.00010454058 11:0 12:0.97696364 13:0.14285714 14:0.4285714 15:0.33333333 16:11 
1 1:0.031258362 2:0.61041665 3:0.26503064 4:0.32558137 5:0.005284723 6:1 7:5.7625345e-07 8:0 9:0 10:0 11:0 12:0 13:0.035714286 14:0.125 15:0.35555556 16:7 
0.2726095319118835 1:0.079079405 2:0.86250001 3:0.56233978 4:0.37179488 5:0.22292835 6:1 7:0.41348484 8:0 9:1 10:0 11:0 12:0 13:0.21428571 14:-0.625 15:0.96969697 16:24 
-1 1:0.050932978 2:0.921875 3:0.51295976 4:0.30909091 5:0.039699147 6:1 7:0.35032468 8:0 9:0 10:0 11:0 12:0 13:0.05 14:-0.42857146 15:0.75 16:21 
0.7828887870204226 1:0.64932408 2:0.85657138 3:0.5580004 4:0.19075143 5:0.40813572 6:0 7:0.37276941 8:0.77209416 9:1 10:0.066427906 11:0.057857606 12:0.71880135 13:0.21428571 14:-2 15:0.59627329 16:126 
-1 1:0.068983959 2:0.31683671 3:0.36776687 4:0.28571427 5:0.015334041 6:1 7:2.467438e-08 8:0 9:1 10:0 11:0 12:0 13:0 14:0 15:0 16:4 
-1 1:0.046317707 2:1 3:0.49725689 4:0.2631579 5:0.15681649 6:1 7:0.21479185 8:0.72421365 9:1 10:0.019945838 11:0 12:0 13:0.16666667 14:-1.5 15:0.77777778 16:38 
0.6321318205374111 1:0.024170491 2:0.63188243 3:0.68726564 4:0.39393938 5:0.16366594 6:1 7:0.19181176 8:0 9:1 10:0 11:0 12:0 13:0.047619048 14:0.14285713 15:0.35555556 16:1 
1 1:0.71657225 2:0.87896824 3:0.60428792 4:0.58461535 5:0.90230528 6:1 7:0.23637847 8:0.7934334 9:1 10:0.018257562 11:0.59273619 12:0.78660388 13:0.35897436 14:0.53846157 15:0.75 16:0 
0.5665147003859903 1:0.5459188 2:0.84027779 3:0.83183447 4:0.14814812 5:0.31209724 6:1 7:0.30263315 8:0.58052887 9:1 10:0.023628438 11:0.35403901 12:0.56426119 13:0 14:-2.6666667 15:0.8 16:40 
1 1:0.027558182 2:0.44222412 3:0.21732976 4:0.13157892 5:0.0038516221 6:1 7:7.1881864e-08 8:0 9:1 10:0 11:0 12:0 13:0 14:-0.14285719 15:0 16:2 
0.4171771449451785 1:0.044709266 2:0.55009919 3:0.53032846 4:0.36363637 5:0.012826407 6:1 7:5.9713304e-08 8:0 9:1 10:0 11:0 12:0 13:0.027777778 14:0.22222221 15:0.4 16:19 
0.2620657321092312 1:0 2:1 3:0.67358234 4:0.13725489 5:0 6:1 7:0.5889874 8:0 9:1 10:0.00025593794 11:0 12:0 14:-10 15:1.6 16:42 
-1 1:0.19969167 2:0.67142856 3:0.40794837 4:0.26666665 5:0.27158926 6:1 7:3.6451177e-08 8:0 9:1 10:0.00019008455 11:0 12:0.51333213 13:0 14:0.14285713 15:0 16:28 
-1 1:0.050129412 2:0.44642857 3:0.45383225 4:0.18947369 5:0.014748692 6:1 7:1.0054999e-07 8:0 9:1 10:0 11:0 12:0 13:0.11111111 14:-3 15:0.86666667 16:71 
-1 1:0.27827041 2:0.7517857 3:0.59672062 4:0.30097085 5:0.18798173 6:0 7:0.16031203 8:0 9:1 10:1.9856152e-06 11:0 12:0 13:0.047619048 14:-1.2857144 15:0.5 16:60 
1 1:0.20397564 2:0.52083331 3:0.2593543 4:0.39999998 5:0.17210681 6:1 7:2.2564483e-06 8:0 9:1 10:0 11:0 12:0 13:0.16666667 14:-0.5 15:0 16:11 
1 1:0.057820931 2:0.51325399 3:0.54760235 4:0.37209302 5:0.025862303 6:1 7:0.31703004 8:0.82951566 9:1 10:0.0007322075 11:0.23763381 12:0 13:0 14:0.1111111 15:0.085714286 16:22 
1 1:0.044898216 2:0.26253006 3:0.23444851 4:0.32258064 5:0.042624531 6:1 7:3.6012523e-08 8:0.76820718 9:1 10:0.042461692 11:0.10074171 12:0.88761343 13:0.022222222 14:0.19999999 15:0.3 16:6 
1 1:0.27105212 2:0.84453124 3:0.45361957 4:0.27272725 5:0.22747066 6:1 7:0.30144772 8:0.837257 9:1 10:0.07720903 11:0.32660241 12:0.78844677 13:0.18518519 14:-0.625 15:0.77142857 16:14 
1 1:0.096296234 2:0.46127406 3:0.33517297 4:0.25806451 5:0.036055155 6:1 7:2.7875593e-07 8:0 9:1 10:0 11:0 12:0 13:0 14:-0.79999995 15:0 16:7 
1 1:0.13873761 2:0.82102776 3:0.3120021 4:0.34482759 5:0.15518215 6:1 7:0.45830544 8:0 9:1 10:1.4505786e-06 11:0 12:0 13:0.023255814 14:0 15:0.15 16:2 
1 1:0.19116302 2:0.79166669 3:0.48389599 4:0.26415092 5:0.33305186 6:1 7:0.3453538 8:0.71955059 9:1 10:0.0083641203 11:0.40123853 12:0 13:0.15789474 14:-0.42857146 15:0.35897436 16:14 
0.9721971999266132 1:0.02921734 2:0.47732425 3:0.5452668 4:0.25 5:0.0016793211 6:1 7:1.8736845e-07 8:0 9:1 10:0 11:0 12:0 13:0 14:-1 15:0 16:14 
1 1:0 2:0.70714283 3:0.28490265 4:0.19512194 5:0.31012865 6:1 7:0.34148145 8:0 9:1 10:7.0483714e-06 11:0 12:0 13:0 14:0.14285713 15:0 16:28 
1 1:0.041118236 2:0.47288358 3:0.4135964 4:0.26666665 5:0.0081299094 6:1 7:0.30403076 8:0 9:1 10:0 11:0.36655829 12:0 13:0 14:0.14285713 15:0 16:7 
1 1:0.053535752 2:0.72214162 3:0.62837265 4:0.14772725 5:0.08800274 6:1 7:0.50622144 8:0 9:1 10:3.1052285e-06 11:0 12:0 13:0.0058823529 14:0.10000002 15:0.028846154 16:72 
-1 1:0.071064202 2:0.71913576 3:0.42595961 4:0.17741936 5:0.01130364 6:1 7:1.636903e-07 8:0 9:1 10:0 11:0 12:0 13:0 14:-2.25 15:0 16:47 
0.6389774614741173 1:0.22192647 2:0.78451389 3:0.44159297 4:0.19999999 5:0.34502311 6:1 7:0.28127836 8:0 9:1 10:6.826816e-05 11:0.24260897 12:0.90195217 13:0.0625 14:0 15:0.53333333 16:10 
1 1:0.21785124 2:0.72023809 3:0.48606706 4:0.34615386 5:0.11291116 6:1 7:0.28998401 8:0 9:1 10:0.00023130565 11:0.097716227 12:0 13:0.14285714 14:-0.28571427 15:0.66666667 16:17 
1 1:0.29876503 2:0.5177778 3:0.51791291 4:0.31034482 5:0.46999529 6:1 7:0.15386095 8:0.83300287 9:1 10:0.12069713 11:0.069273187 12:0.64212043 13:0.054545455 14:0.18181819 15:0.33333333 16:27 
-1 1:0.57229336 2:1 3:0.59963222 4:0.53125 5:0.53503134 6:1 7:0.48518647 8:0.63504801 9:1 10:0.024882075 11:0 12:0.64453481 13:0.3 14:-0.20000005 15:1.6 16:6 
1 1:0.52417731 2:0.94444442 3:0.63782457 4:0.40909094 5:0.25638046 6:1 7:0.33587873 8:0 9:1 10:0.0011634297 11:0 12:0 13:0.16666667 14:-0.5 15:0.71428571 16:20 
1 1:0.052113254 2:0.45798609 3:0.25739103 4:0.19148934 5:0.018419256 6:1 7:1.9138394e-07 8:0 9:1 10:0 11:0 12:0 13:0 14:0 15:0 16:7 
1 1:0.16811427 2:0.076322757 3:0.5783469 4:0.14666665 5:0.39302115 6:1 7:9.9307283e-08 8:0 9:1 10:0.00013893074 11:0 12:0 13:0 14:0.0625 15:0.038961039 16:60 
1 1:0.2017404 2:0.64112103 3:0.64016421 4:0.2962963 5:0.071361685 6:1 7:0.12619551 8:0 9:0 10:0.00010344859 11:0.29125824 12:0 13:0.11538462 14:-0.75 15:0.66666667 16:42 
1 1:0.33731615 2:0.72619051 3:0.52997205 4:0.36363637 5:0.32512907 6:1 7:0.2748056 8:0 9:0 10:1.9315825e-05 11:0 12:0 13:0.1 14:-0.60000002 15:0.41666667 16:16 
-1 1:0.33429921 2:0.80324072 3:0.355997 4:0.17391306 5:0.1081041 6:1 7:0.20386752 8:0.62139221 9:1 10:0.00084414277 11:0 12:0 13:0 14:-1.75 15:0.8 16:25 
1 1:0.32173943 2:0.8888889 3:0.24072366 4:0.375 5:0.22633485 6:1 7:0.00011150365 8:0 9:1 10:0 11:0 12:0 13:0 14:-0.5 15:0 16:14 
1 1:0.34116966 2:0.68738091 3:0.47483913 4:0.2037037 5:0.32728069 6:1 7:0.31321952 8:0.77729441 9:1 10:0.0043598508 11:0.58569727 12:0.78892631 13:0.088235294 14:-0.11111116 15:0.43636364 16:11 
1 1:0.12819845 2:0 3:0.30551819 4:0.22222221 5:0.14469416 6:1 7:0 8:0 9:1 10:0 11:0 12:0 13:0 14:0.14285713 15:0 16:19 
1 1:0.36250409 2:0.70999998 3:0.72635642 4:0.22916669 5:0.40388742 6:1 7:0.37715858 8:0.93351091 9:1 10:0.0007323663 11:0 12:0 13:0.047619048 14:-0.14285719 15:0.55555556 16:8 
0.2935126715783052 1:0.54208171 2:0.94999999 3:0.7555344 4:0.11764705 5:0.27671305 6:1 7:0.2408436 8:0.50871409 9:1 10:0.00051853732 11:0 12:0.2804288 13:0.33333333 14:-6.3333335 15:0.88235294 16:119 
-0.3360662464026384 1:0 2:1 3:0.59997813 4:0.18333334 5:0.20202975 6:1 7:0.29351798 8:0.81567284 9:1 10:0.029385335 11:0 12:0 13:0 14:-3 15:0.48484848 16:44 
0.3314410095691258 1:0.63587896 2:1 3:0.50610479 4:0.14285713 5:0.12607971 6:1 7:0.55432092 8:0.51140221 9:1 10:0.26837498 11:0 12:0.3764442 13:0.33333333 14:-5.3333335 15:1.6842105 16:107 
-0.5139600240360327 1:0.020158843 2:0.57023811 3:0.52640648 4:0.3018868 5:0.0030438919 6:1 7:0.33864053 8:0 9:1 10:6.5032093e-05 11:0 12:0.64523027 13:0 14:0.125 15:0.42857143 16:19 
1 1:0.15944574 2:0.59098643 3:0.24386558 4:0.30434781 5:0.088775449 6:1 7:3.0506741e-05 8:0 9:0 10:2.0082841e-08 11:0 12:0 13:0.022222222 14:0 15:0 16:18 
1 1:0.0086598033 2:0.48035717 3:0.22921439 4:0.25 5:0.00053007058 6:1 7:1.1096164e-07 8:0 9:1 10:0 11:0 12:0.80602663 13:0 14:0.125 15:0.45 16:11 
-1 1:0.11637738 2:0.51615822 3:0.31184824 4:0.30508476 5:0.040340146 6:1 7:1.4541749e-07 8:0 9:1 10:0 11:0 12:0 13:0.035714286 14:-0.125 15:0 16:23 
1 1:0.1964375 2:0.73140794 3:0.26678846 4:0.35185188 5:0.1535802 6:1 7:5.8553176e-06 8:0 9:0 10:0 11:0.33870729 12:0.87087526 13:0 14:-0.33333337 15:0.38095238 16:18 
-1 1:0.096163222 2:0.47837302 3:0.22233246 4:0.20408165 5:0.023536106 6:1 7:1.8154896e-07 8:0 9:1 10:0 11:0 12:0 13:0 14:-1.2 15:0 16:14 
-1 1:0.59033495 2:1 3:0.69516694 4:0.22727275 5:0.61246642 6:1 7:0.87715515 8:0.82896147 9:1 10:0.023000631 11:0.14895963 12:0.82554416 13:0 14:-0.33333337 15:1.2 16:1 
1 1:0.33542572 2:0.59687501 3:0.50983745 4:0.47368419 5:0.45010881 6:1 7:0.26517697 8:0.94549633 9:1 10:0.097163738 11:0.21178303 12:0 13:0.14285714 14:-0.28571427 15:0.49230769 16:18 
1 1:0.39156375 2:0.96296293 3:0.54087508 4:0.2758621 5:0.4688402 6:1 7:0.59667696 8:0 9:1 10:0 11:0 12:0 13:0.066666667 14:0 15:0.5 16:6 
-1 1:0.054999343 2:0.26979592 3:0.267384 4:0.25 5:0.018741352 6:1 7:2.3767938e-06 8:0.9980351 9:1 10:0.002010713 11:0 12:0 13:0 14:0.125 15:0.17777778 16:16 
1 1:0.2834286 2:0.86154515 3:0.64845639 4:0.37837839 5:0.28448637 6:1 7:0.32287982 8:0.78240687 9:1 10:0.010495462 11:0.52124748 12:0.75511907 13:0.2 14:0.44444442 15:0.20779221 16:2 
1 1:0.59336993 2:0.32467532 3:0.61828066 4:0.38297874 5:0.24711627 6:1 7:7.8472467e-09 8:0 9:1 10:1.438935e-05 11:0 12:0 13:0.5 14:-0.25 15:0 16:26 
0.04952604095746406 1:0.46432669 2:0.8214286 3:0.41980384 4:0.60000002 5:0.67690606 6:1 7:0.73294384 8:0.7608797 9:1 10:0.17165955 11:0.25841794 12:0.88172072 13:0.20408163 14:0.36363637 15:0.60606061 16:17 
1 1:0.2039569 2:0.66233766 3:0.80767802 4:0.52173913 5:0.71878592 6:1 7:0.45369843 8:0.56220144 9:1 10:0.18097448 11:0 12:0.55935203 13:0.2 14:0.33333331 15:0 16:9 
1 1:0.62708192 2:1 3:0.77695771 4:0.390625 5:0.62493307 6:0 7:0.43954219 8:0.91320929 9:1 10:0.81117952 11:0 12:0.88256824 13:0.33333333 14:-0.33333337 15:1.2307692 16:28 
-0.7683130773710218 1:0.64765254 2:0.90558219 3:0.73604414 4:0.29292929 5:0.26789555 6:0.46470077 7:0.42547218 8:0.87178988 9:1 10:0.013304151 11:0 12:0.82213369 13:0.41666667 14:-0.44444442 15:0.75 16:40 
-1 1:0.92125751 2:1 3:0.78016382 4:0.51999998 5:0.85209114 6:1 7:0.74978075 8:0.98293994 9:1 10:0.82454674 11:0.38127747 12:0.97658078 13:0.6 14:-0.20000005 15:1.3333333 16:22 
1 1:0.49151721 2:0.92857146 3:0.65932777 4:0.36363637 5:0.5462271 6:1 7:0.3380592 8:0.8028659 9:1 10:0.10708103 11:0.38361981 12:0.90659658 13:0.28571429 14:0.28571427 15:0.21428571 16:3 
1 1:0.27774264 2:1 3:0.25854908 4:0.45238096 5:0.27460994 6:1 7:0.44191912 8:0.83108766 9:1 10:0.36804165 11:0.32411692 12:0.81466403 13:0.31944444 14:0.30769229 15:0.48611111 16:14 
1 1:0.2298894 2:0.73004121 3:0.22772955 4:0.5945946 5:0.24016572 6:1 7:0.19713946 8:0.89884301 9:1 10:0.00719116 11:0 12:0.92261663 13:0.10714286 14:0.25 15:0.42857143 16:7 
1 1:0.20213585 2:0.39259258 3:0.2240206 4:0.61818182 5:0.57398795 6:1 7:0.22197158 8:0.74919236 9:1 10:0.21344994 11:0 12:0.86133254 13:0.16666667 14:0.46153843 15:0.3968254 16:15 
1 1:0.53171073 2:0.65432096 3:0.60701923 4:0.53571427 5:0.49520354 6:1 7:0.33053893 8:0 9:1 10:5.8393148e-06 11:0 12:0 13:0.2 14:0.33333331 15:0.33333333 16:7 
1 1:0.1650433 2:1 3:0.60708848 4:0.28571427 5:0.27966212 6:1 7:0.33755587 8:0.8200034 9:1 10:0.3148411 11:0.70552297 12:0.79138945 13:0.2 14:-0.16666663 15:0.4 16:10 
0.6187457982107001 1:0.59632203 2:0.98148149 3:0.7692026 4:0.29577464 5:0.40321691 6:1 7:0.48699594 8:0.76471883 9:1 10:0.30399571 11:0 12:0.64704292 13:0.21818182 14:-1.1818182 15:1.1666667 16:81 
1 1:0.37481467 2:0.77148145 3:0.35906989 4:0.42465752 5:0.19631498 6:1 7:0.21493667 8:0.72982442 9:1 10:0.0048381014 11:0.21405843 12:0.76178936 13:0.10909091 14:0.18181819 15:0.27777778 16:15 
1 1:0.6342079 2:0.8888889 3:0.63497635 4:0.7241379 5:0.568683 6:1 7:0.27865493 8:0 9:1 10:8.009396e-06 11:0.72437158 12:0.83660533 13:0.4 14:0.66666663 15:0.6 16:0 
1 1:0.76129287 2:0.79166669 3:0.60842012 4:0.375 5:0.29327521 6:1 7:0.2558324 8:0.94969935 9:1 10:0.064248964 11:0.094943804 12:0.84919951 13:0.66666667 14:0 15:0.9 16:18 
1 1:0.48085716 2:1 3:0.68858131 4:0.36363637 5:0.30715778 6:1 7:0.38154259 8:0.55556197 9:1 10:0.022466407 11:0.23739422 12:0.89781782 13:0.46666667 14:-0.5 15:0.93333333 16:28 
-1 1:0.37204378 2:0.94999999 3:0.68522696 4:0.54347825 5:0.34951561 6:1 7:0.56529055 8:0.94810204 9:1 10:0.033584141 11:0.69841692 12:0.95544623 13:0.16393443 14:0.5 15:0.71794872 16:0 
1 1:0.55829789 2:0.86831278 3:0.59088895 4:0.4130435 5:0.18303564 6:1 7:0.31031514 8:0.8843678 9:1 10:0.069768151 11:0.15330451 12:0.84101165 13:0.47619048 14:0 15:0.6 16:16 
1 1:0.39073859 2:0.69345242 3:0.62108506 4:0.47727275 5:0.10192075 6:1 7:0.11388754 8:0 9:1 10:0 11:0 12:0 13:0.28571429 14:0.14285713 15:0.63636364 16:2 
1 1:0.47289349 2:1 3:0.7921849 4:0.41379309 5:0.19081798 6:1 7:0.39789462 8:0.47416399 9:1 10:0.050795889 11:0 12:0.42958088 13:0.33333333 14:0 15:1.5 16:15 
1 1:0.31331697 2:1 3:0.82586005 4:0.2962963 5:0.097924644 6:1 7:0.20304978 8:0 9:1 10:9.288183e-06 11:0 12:0 13:0.33333333 14:-1 15:0 16:3 
1 1:0.37546788 2:0.86250001 3:0.70421823 4:0.41071427 5:0.36477164 6:1 7:0.60086843 8:0.91946646 9:1 10:0.19864654 11:0.2589721 12:0.88298041 13:0.33333333 14:0.30000001 15:0.66666667 16:4 
1 1:0.57597063 2:0.81547618 3:0.51684413 4:0.56603777 5:0.53000039 6:1 7:0.46599192 8:0 9:1 10:3.5191274e-06 11:0.46985341 12:0.96067014 13:0.32 14:0.375 15:0.43636364 16:9 
1 1:0.014817666 2:1 3:0.34825296 4:0.60000002 5:0.13828842 6:1 7:0.38605282 8:0 9:1 10:0 11:0 12:0.64984485 13:0.2 14:0 15:0.38095238 16:8 
1 1:1 2:0 3:0.9977971 4:0.39999998 5:0.65388552 6:1 7:0 8:0 9:1 10:0 11:0 12:0 13:1 14:-0.5 15:1.5 16:15 
1 1:0.34890881 2:0.87083334 3:0.85292688 4:0.71428573 5:0.23744906 6:1 7:0.55308137 8:0 9:1 10:8.6563902e-05 11:0 12:0 13:0.3 14:0.80000001 15:0.75 16:3 
1 1:0.43293304 2:0.875 3:0.52517497 4:0.38333333 5:0.62829773 6:1 7:0.55278359 8:0.72233168 9:1 10:0.72459671 11:0.40523605 12:0.79885285 13:0.33333333 14:-0.44444442 15:0.6 16:24 
1 1:0.54926266 2:0.94999999 3:0.87669161 4:0.5 5:0.41781694 6:1 7:0.1782711 8:0 9:1 10:8.5833903e-05 11:0.82693526 12:0 13:0.66666667 14:-0.16666663 15:0.75 16:25 
1 1:0.53643451 2:0.90909094 3:0.4933262 4:0.71428573 5:0.5180433 6:1 7:0.37762731 8:0.95682767 9:1 10:0.1115045 11:0.28393319 12:0.93521639 13:0.46666667 14:0.69999999 15:0.71111111 16:10 
0.4741783982206804 1:0.4730775 2:0.76666665 3:0.77270776 4:0.35000002 5:0.62324563 6:1 7:0.51861201 8:0.97444566 9:1 10:0.26469534 11:0 12:0.95203067 13:0.13333333 14:0.16666669 15:0.5 16:3 
1 1:0.14667878 2:0.83809525 3:0.45657816 4:0.36986303 5:0.4977292 6:1 7:0.28084634 8:0 9:1 10:0.00026896121 11:0 12:0.45801598 13:0.28846154 14:0.63636363 15:0.48076923 16:45 
1 1:0.73915085 2:0.90476197 3:0.94866573 4:0.73170733 5:0.88081325 6:1 7:0.47475003 8:0.93532692 9:1 10:0.060619267 11:0.33630774 12:0.81115115 13:0.41666667 14:0.66666663 15:0.45 16:11 
1 1:0.2620578 2:0.88499999 3:0.72776493 4:0.41176468 5:0.25614184 6:1 7:0.33308989 8:0.93822387 9:1 10:0.0018853321 11:1 12:0.8443931 13:0.21428571 14:0.375 15:0.35555556 16:14 
0.6338201292512897 1:0.47569448 2:0.96296293 3:0.59208864 4:0.45454544 5:0.43634922 6:1 7:0.38765066 8:0.88810109 9:1 10:0.0061721236 11:0.4371063 12:0 13:0.28571429 14:0.14285713 15:0.83333333 16:14 
1 1:0.2344687 2:1 3:0.89707113 4:0.92307693 5:0.15329658 6:1 7:0.2473108 8:0 9:1 10:0 11:0.80922336 12:0 13:0.16666667 14:0.75 15:0.79411765 16:1 
1 1:0.22206539 2:0.78916717 3:0.34575519 4:0.31818181 5:0.44789485 6:1 7:0.38710244 8:0.97712604 9:1 10:0.051675617 11:0.096925119 12:0.80338859 13:0.12820513 14:0.10000002 15:0.35714286 16:0 
1 1:0.3673715 2:1 3:0.51836965 4:0.2903226 5:0.42379527 6:1 7:0.37588294 8:0.91394907 9:1 10:0.018553043 11:0 12:0 13:0.2 14:0.19999999 15:0.76190476 16:16 
-1 1:1 2:1 3:0.44952863 4:0.68000001 5:0.97743498 6:1 7:0.91592429 8:1 9:1 10:0.9999631 11:0 12:1 13:1 14:-0.5 15:1.2 16:8 
1 1:0.36366486 2:1 3:0.63114399 4:0.26923078 5:0.11485464 6:1 7:0.37187117 8:0.80376256 9:0 10:0.47919096 11:0.10987433 12:0.79906588 13:0.38461538 14:-0.41666663 15:0.92857143 16:20 
-1 1:0.93044495 2:1 3:0.89967231 4:0.63380283 5:0.75273197 6:1 7:0.65871258 8:0.70778375 9:1 10:0.23891211 11:0.64043313 12:0.68942968 13:0.77777778 14:0.44444442 15:1.2307692 16:25 
1 1:0.42153157 2:1 3:0.73576381 4:0.58823526 5:0.43169869 6:1 7:0.16312476 8:0.82331594 9:1 10:0.0021592931 11:1 12:0 13:0.33333333 14:0.69999999 15:0.56842105 16:17 
-1 1:0.92912981 2:1 3:0.24999278 4:0.55000001 5:0.86408352 6:1 7:0.80387774 8:0.9337088 9:1 10:0.50150761 11:0.18030059 12:0.84405582 13:0.33333333 14:-0.33333337 15:1.3333333 16:7 
