svm_type nu_svr
kernel_type rbf
gamma 0.0625
nr_class 2
total_sv 2218
rho -2.97991
SV
1 1:0.8921588 2:1 3:0.84219233 4:0.8611111 5:0.86871594 6:1 7:0.70244666 8:0.78395339 9:1 10:0.46469932 11:1 12:0.83198316 13:0.77777778 14:0.8888889 15:1.0769231 16:3 
1 1:0.86815543 2:1 3:0.9333039 4:0.81481481 5:0.7794981 6:1 7:0.4999168 8:0.75400277 9:1 10:0.26226729 11:0 12:0.75999423 13:0.66666667 14:0.66666663 15:1.1111111 16:5 
-1 1:0.78146694 2:0.84523809 3:0.96173935 4:0.80645162 5:0.92606082 6:1 7:0.70118441 8:0.97866913 9:1 10:0.82537286 11:0.7463545 12:0.96543807 13:0.75 14:0.875 15:0.75757576 16:6 
-1 1:0.78635229 2:1 3:0.91127328 4:0.85714287 5:0.80710886 6:0 7:0.70031882 8:0.96204029 9:1 10:0.65205875 11:0.7349241 12:0.96851043 13:0.66666667 14:0.83333331 15:0.8 16:2 
-1 1:0.66415402 2:0.89351851 3:0.91636825 4:0.80000001 5:0.76196198 6:1 7:0.54914539 8:0.94317588 9:0 10:0.30842791 11:0.31476632 12:0.97632634 13:0.47619048 14:0.71428573 15:0.6 16:6 
-1 1:0.67735362 2:0.89351851 3:0.84701059 4:0.82758617 5:0.80608381 6:1 7:0.57072203 8:0.95416257 9:0 10:0.75224762 11:0.66905116 12:0.99035297 13:0.47619048 14:0.71428573 15:0.6 16:4 
-1 1:0.39511285 2:0.89351851 3:0.91675271 4:0.78571427 5:0.36957558 6:1 7:0.56897957 8:0.9983205 9:0 10:0.85333754 11:0.52579285 12:1 13:0.28571429 14:0.57142854 15:0.6 16:4 
-1 1:0.67525096 2:0.87999994 3:0.86401845 4:0.83333331 5:0.57918071 6:1 7:0.4909045 8:0 9:1 10:0.0002227116 11:0.54180002 12:0.99331032 13:0.71428571 14:0.85714287 15:0.8 16:1 
-1 1:0.69112716 2:0.9201389 3:0.76012525 4:0.80000001 5:0.70168723 6:1 7:0.53497134 8:0.77142797 9:0 10:0.19354566 11:0.57565846 12:0.76316442 13:0.46666667 14:0.69999999 15:0.71794872 16:9 
1 1:0.77578602 2:0.97727275 3:0.92565754 4:0.83720928 5:0.74418042 6:1 7:0.53355496 8:0.92014805 9:1 10:0.14584625 11:1 12:1 13:0.775 14:0.89999998 15:0.83333333 16:4 
-1 1:0.70092138 2:0.9191919 3:0.8472126 4:0.82758617 5:0.66871026 6:1 7:0.48387243 8:0.7287998 9:1 10:0.022943903 11:0.89809868 12:0.74272685 13:0.47619048 14:0.71428573 15:0.8 16:3 
1 1:0.85796884 2:1 3:0.87814014 4:0.80000001 5:0.91309031 6:1 7:0.78282095 8:0.94160753 9:1 10:0.69535456 11:1 12:0.96768393 13:0.58333333 14:0.77777779 15:0.83333333 16:2 
-1 1:0.64896367 2:0.80246913 3:0.82768112 4:0.80000001 5:0.51539558 6:1 7:0.33698593 8:0 9:1 10:0.00020477233 11:1 12:0 13:0.6 14:0.80000001 15:0.75 16:1 
1 1:0.6686733 2:1 3:0.9140983 4:0.80769229 5:0.68393209 6:1 7:0.65445838 8:0.95455379 9:1 10:0.44390521 11:1 12:0.95683313 13:0.47619048 14:0.71428573 15:0.8 16:1 
-1 1:0.714981 2:0.86060601 3:0.89204667 4:0.80769229 5:0.55122035 6:1 7:0.44263168 8:0.77244836 9:1 10:0.0082636297 11:0.80397096 12:0.99503087 13:0.71428571 14:0.85714287 15:0.8 16:1 
1 1:0.65288391 2:0.95833331 3:0.51687232 4:0.80555558 5:0.72709841 6:1 7:0.48956213 8:0.89304524 9:1 10:0.35558191 11:0.57968261 12:0.86725303 13:0.62222222 14:0.80000001 15:0.83333333 16:0 
1 1:0.52177055 2:1 3:0.91561531 4:0.80000001 5:0.78642012 6:0 7:0.64346434 8:0.96234234 9:1 10:0.74740819 11:0.36242865 12:0.96564797 13:0.375 14:0.66666663 15:0.85714286 16:6 
-1 1:0.98045089 2:1 3:0.79870528 4:0.75 5:0.92188565 6:1 7:0.71781424 8:0.98354154 9:1 10:0.88397251 11:0.31173261 12:0.98077326 13:1 14:0.85714287 15:1.0909091 16:8 
-1 1:0.4671805 2:0.83749998 3:0.55886014 4:0.8125 5:0.7769526 6:1 7:0.64296407 8:0.87883138 9:1 10:0.37567767 11:0.44090857 12:0.912509 13:0.46666667 14:0.69999999 15:0.83333333 16:5 
1 1:0.41544101 2:0.64274693 3:0.71452081 4:0.79310346 5:0.27854127 6:1 7:1.0673943e-07 8:0 9:0 10:4.7296552e-05 11:0.64263574 12:0 13:0.4 14:0.66666663 15:0.25 16:2 
-1 1:0.63942447 2:0.796875 3:0.83844446 4:0.80769229 5:0.61330013 6:1 7:0.48456057 8:0.86447921 9:1 10:0.086622044 11:0.69863578 12:0.94976186 13:0.47619048 14:0.71428573 15:0.8 16:3 
1 1:0.79610778 2:0.97222227 3:0.95554617 4:0.80555558 5:0.69399475 6:1 7:0.28333186 8:0.88914227 9:1 10:0.052866343 11:1 12:0 13:0.77777778 14:0.8888889 15:1 16:4 
1 1:0.46581067 2:0.86574078 3:0.89924454 4:0.78571427 5:0.45470869 6:1 7:0.27247638 8:0.76484941 9:0 10:0.3084354 11:0.68361363 12:0.75580496 13:0.47619048 14:0.71428573 15:0.4 16:2 
1 1:0.58908047 2:1 3:0.92319148 4:0.83333331 5:0.54224419 6:1 7:0.47577866 8:0.89800135 9:1 10:0.024979379 11:0.58008578 12:0.82772683 13:0.66666667 14:0.83333331 15:1 16:1 
-1 1:0.70833496 2:0.93666667 3:0.85039486 4:0.79411763 5:0.78892771 6:1 7:0.55535732 8:0.95557473 9:1 10:0.36871376 11:0.69985292 12:0.95256765 13:0.47619048 14:0.71428573 15:1 16:2 
1 1:0.5887321 2:0.97222227 3:0.93438786 4:0.77419353 5:0.60673785 6:1 7:0.46412884 8:0.79932857 9:1 10:0.56856205 11:0.76275909 12:0.78892083 13:0.53571429 14:0.75 15:0.8 16:3 
-1 1:0.67105776 2:0.83809525 3:0.81492146 4:0.76666665 5:0.66289024 6:1 7:0.4950188 8:0.90998207 9:1 10:0.016520595 11:0.78852528 12:0.97644665 13:0.47619048 14:0.71428573 15:0.8 16:1 
-1 1:0.67925645 2:0.93004113 3:0.9639779 4:0.79310346 5:0.55695745 6:1 7:0.40369866 8:0.95750575 9:1 10:0.026527902 11:0.56777126 12:0.96254515 13:0.53571429 14:0.75 15:0.8 16:1 
1 1:0.54251402 2:0.7326389 3:0.81144974 4:0.71428573 5:0.56224775 6:1 7:0.42010591 8:0 9:1 10:5.9172254e-05 11:0 12:0 13:0.35714286 14:0.625 15:0.87272727 16:8 
-1 1:0.67035514 2:0.77380955 3:0.9398955 4:0.72222221 5:0.85808513 6:1 7:0.67698077 8:0.99600164 9:1 10:0.65482034 11:0.5359151 12:0.93422838 13:0.53571429 14:0.75 15:0.75757576 16:10 
1 1:0.37446303 2:0.86574078 3:0.6388949 4:0.75 5:0.4217418 6:1 7:0.2837481 8:0.76484941 9:0 10:0.3084354 11:0.45193266 12:0.75580496 13:0.28571429 14:0.57142854 15:0.4 16:1 
-1 1:0.70487209 2:0.87999994 3:0.87022923 4:0.78571427 5:0.57430724 6:1 7:0.46532477 8:0.90811475 9:1 10:0.0057284346 11:0.81599156 12:0.94506603 13:0.71428571 14:0.85714287 15:0.8 16:1 
-1 1:0.6709531 2:0.87999994 3:0.87022923 4:0.78571427 5:0.57430724 6:1 7:0.46532477 8:0.90811475 9:1 10:0.0057284346 11:0.81599156 12:0.94506603 13:0.71428571 14:0.85714287 15:0.8 16:1 
1 1:0.34708517 2:1 3:0.71833081 4:0.74074078 5:0.24317865 6:1 7:0.81252353 8:1 9:1 10:0.9999631 11:0.62480517 12:1 13:0.28571429 14:0.57142854 15:1 16:6 
1 1:0.34833773 2:0.86018515 3:0.77373943 4:0.77419353 5:0.30254796 6:1 7:0.20685426 8:0 9:0.051817592 10:2.1753467e-05 11:0.19985841 12:0 13:0.21428571 14:0.5 15:0.3030303 16:2 
1 1:0.63467426 2:0.84423077 3:0.59220673 4:0.75 5:0.70312816 6:1 7:0.51606507 8:0.91191696 9:1 10:0.3518585 11:0.12777379 12:0.85065273 13:0.62222222 14:0.80000001 15:1 16:7 
-1 1:0.76439762 2:0.95833331 3:0.94643656 4:0.75 5:0.70471493 6:1 7:0.54868136 8:0.90205146 9:1 10:0.40776189 11:0 12:0.93879258 13:0.75 14:0.75 15:1 16:7 
-1 1:0.73676733 2:0.89351851 3:0.90293866 4:0.75862068 5:0.71488192 6:1 7:0.53494356 8:0.91960639 9:0 10:0.20481837 11:0.31476632 12:0.98225188 13:0.66666667 14:0.66666663 15:0.6 16:5 
-1 1:0.70311264 2:0.77777785 3:0.84540456 4:0.75862068 5:0.65672016 6:1 7:0.48645647 8:0.92970497 9:1 10:0.00064262542 11:0.91042955 12:0 13:0.71428571 14:0.85714287 15:0.8 16:5 
-1 1:0.70311264 2:0.77777785 3:0.84540456 4:0.75862068 5:0.65672016 6:1 7:0.48645647 8:0.92970497 9:1 10:0.00064262542 11:0.91042955 12:0 13:0.71428571 14:0.85714287 15:0.8 16:5 
-1 1:0.82667473 2:1 3:0.90663224 4:0.77777779 5:0.76327305 6:1 7:0.46735093 8:0.96256431 9:0 10:0.4409107 11:0.45092258 12:0.96711308 13:0.71428571 14:0.57142854 15:1.2 16:2 
-1 1:0.56832977 2:0.8828125 3:0.82994392 4:0.82352942 5:0.43627648 6:1 7:0.29809346 8:0 9:1 10:2.2467863e-06 11:1 12:0.7807643 13:0.6 14:0.80000001 15:0.75 16:0 
-1 1:0.73378981 2:0.89285713 3:0.93015125 4:0.69999999 5:0.8226162 6:1 7:0.66780792 8:0.75850403 9:1 10:0.10782015 11:0.57039383 12:0.7406749 13:0.58333333 14:0.77777779 15:0.75757576 16:12 
1 1:0.48117397 2:0.97222227 3:0.88403461 4:0.75862068 5:0.46457734 6:1 7:0.37676913 8:0.79914718 9:1 10:0.081975608 11:1 12:0.73325614 13:0.53571429 14:0.75 15:0.60606061 16:2 
-1 1:0.34399895 2:0.89351851 3:0.8524074 4:0.7241379 5:0.17258018 6:1 7:0.45072487 8:0.94253813 9:1 10:0.26900512 11:0.84112316 12:0.97395167 13:0.4 14:0.5 15:0.8 16:2 
-1 1:0.68817564 2:0.86060601 3:0.86054338 4:0.75862068 5:0.52714864 6:1 7:0.45144946 8:0.97298154 9:1 10:0.0011927507 11:0.54631194 12:0.90512823 13:0.71428571 14:0.85714287 15:0.8 16:2 
-1 1:0.6818885 2:0.83333331 3:0.85705274 4:0.75 5:0.67733058 6:1 7:0.51280416 8:0.85306068 9:1 10:0.017249419 11:0.90149246 12:0.95044305 13:0.47619048 14:0.71428573 15:1 16:0 
1 1:0.465364 2:1 3:0.78085399 4:0.68571424 5:0.32782491 6:1 7:0.37890126 8:0.51712839 9:1 10:0.38014294 11:0.10576608 12:0.54671614 13:0.66666667 14:0.5 15:0.65454545 16:9 
-1 1:0.73516144 2:0.89351851 3:0.92651741 4:0.78125 5:0.63043168 6:1 7:0.46873867 8:0.76474183 9:1 10:0.010733653 11:0.47583086 12:0 13:0.71428571 14:0.85714287 15:0.8 16:3 
1 1:0.58110096 2:1 3:0.99312691 4:0.75 5:0.59305142 6:1 7:0.7324943 8:0.98463661 9:1 10:0.28479596 11:1 12:0.93374247 13:0.47619048 14:0.71428573 15:1 16:4 
-1 1:0.67488893 2:0.89285713 3:0.70529667 4:0.69230771 5:0.84404716 6:1 7:0.68785386 8:0.83576816 9:1 10:0.085229224 11:0.40575725 12:0.76676415 13:0.58333333 14:0.77777779 15:0.75757576 16:12 
1 1:0.54669232 2:0.86979169 3:0.77135195 4:0.68421054 5:0.41911295 6:1 7:0.37759212 8:0.9393693 9:1 10:0.1421421 11:0.6211334 12:0.89546221 13:0.47619048 14:0.4285714 15:0.83333333 16:10 
-1 1:0.42285872 2:0.89351851 3:0.90589663 4:0.71428573 5:0.43750641 6:1 7:0.55331309 8:0.94317588 9:0 10:0.30842791 11:0.30822584 12:0.97632634 13:0.28571429 14:0.57142854 15:0.6 16:7 
-1 1:0.61192587 2:0.86060601 3:0.93792012 4:0.72000003 5:0.54340571 6:1 7:0.45512072 8:0.77244836 9:1 10:0.0082636297 11:0.57894192 12:0.99503087 13:0.47619048 14:0.71428573 15:0.8 16:1 
-1 1:0.49081312 2:0.78703707 3:0.88498094 4:0.73076922 5:0.5336664 6:1 7:0.34959617 8:0.96006896 9:0 10:0.18288362 11:0.20581197 12:0.98318883 13:0.4 14:0.66666663 15:0.4 16:3 
-1 1:0.71377935 2:0.81666666 3:0.85337464 4:0.76923078 5:0.62142772 6:1 7:0.49480905 8:0.82260232 9:1 10:0.060956124 11:0.79261596 12:0.83461317 13:0.71428571 14:0.85714287 15:0.8 16:3 
-1 1:0.40878686 2:0.84027779 3:0.91476553 4:0.70967746 5:0.42596322 6:1 7:0.32878496 8:0.9659681 9:0 10:0.62005649 11:0.57417992 12:0.99071607 13:0.3 14:0.39999998 15:0.6 16:8 
-1 1:0.62808508 2:0.87083334 3:0.74150043 4:0.78571427 5:0.58541838 6:1 7:0.46038929 8:0.7916189 9:1 10:0.020328629 11:1 12:0.92784146 13:0.47619048 14:0.71428573 15:0.8 16:2 
-1 1:0.714981 2:0.87083334 3:0.89713039 4:0.78571427 5:0.60375546 6:1 7:0.45636796 8:0.87939933 9:1 10:0.0015554408 11:0.80709597 12:0.90640715 13:0.71428571 14:0.85714287 15:0.8 16:2 
1 1:0.61109415 2:0.76420456 3:0.80796145 4:0.70967746 5:0.71159137 6:1 7:0.58417196 8:1 9:1 10:0.0033153815 11:0.27118069 12:0.82237461 13:0.53571429 14:0.75 15:0.8 16:3 
1 1:0.61745954 2:0.87083334 3:0.80279768 4:0.77272725 5:0.4802361 6:1 7:0.4553666 8:0 9:1 10:0.00050449738 11:1 12:0.65354424 13:0.66666667 14:0.83333331 15:0.8 16:2 
-1 1:0.65109598 2:0.93939394 3:0.80311795 4:0.74074078 5:0.77504202 6:1 7:0.52028415 8:0.96959868 9:0 10:0.23242576 11:0.19478366 12:0.91922369 13:0.53571429 14:0.75 15:0.6 16:2 
1 1:0.57058735 2:0.89351851 3:0.89139026 4:0.73076922 5:0.32757229 6:1 7:0.4415823 8:0.92141266 9:0 10:0.3253681 11:0 12:0.87717968 13:0.28571429 14:0.57142854 15:0.53333333 16:0 
-1 1:0.6040193 2:0.86060601 3:0.78415015 4:0.73333335 5:0.49324595 6:1 7:0.46786043 8:0.77244836 9:1 10:0.0082636297 11:0.80397096 12:0.99503087 13:0.47619048 14:0.71428573 15:0.6 16:3 
-1 1:0.54412614 2:0.83164984 3:0.68738637 4:0.75 5:0.46233397 6:1 7:0.37574452 8:0.95162942 9:1 10:0.066861557 11:0.61519936 12:0.93877195 13:0.53571429 14:0.75 15:0.8 16:2 
1 1:0.45898047 2:0.94230771 3:0.85263223 4:0.72972977 5:0.46267973 6:1 7:0.61429503 8:0.78191106 9:1 10:0.24877355 11:1 12:0.77405329 13:0.35714286 14:0.625 15:1 16:7 
-1 1:0.70040898 2:0.9336735 3:0.79215955 4:0.75 5:0.58199697 6:1 7:0.54092262 8:0.86959874 9:1 10:0.18243716 11:0 12:0.9357731 13:0.53571429 14:0.625 15:0.71794872 16:3 
1 1:0.66358964 2:0.95833331 3:0.87898415 4:0.73333335 5:0.79922379 6:1 7:0.5551916 8:0.92213753 9:0 10:0.45318895 11:0.68467377 12:0.93711948 13:0.47619048 14:0.71428573 15:1 16:5 
1 1:0.61509994 2:0.97222227 3:0.87241204 4:0.7241379 5:0.56980248 6:1 7:0.45898123 8:0.77626076 9:1 10:0.18339611 11:1 12:0.72720243 13:0.47619048 14:0.71428573 15:0.8 16:3 
1 1:0.41383418 2:0.59758967 3:0.63912633 4:0.74193549 5:0.32921351 6:1 7:0.2251661 8:0.94618085 9:1 10:0.10767011 11:0.44802834 12:0 13:0.47619048 14:0.57142854 15:1 16:2 
1 1:0.37250141 2:0.92307693 3:0.88840041 4:0.71428573 5:0.2355976 6:1 7:0.4882044 8:0.73621082 9:1 10:0.038701889 11:0.84112316 12:0.74431727 13:0.28571429 14:0.57142854 15:1 16:1 
-1 1:0.78898343 2:0.83164978 3:0.88002337 4:0.69444442 5:0.73292841 6:1 7:0.56652947 8:0.91935618 9:1 10:0.55472986 11:0.47487565 12:0.9676357 13:0.66666667 14:0.66666663 15:0.65454545 16:7 
1 1:0.46491307 2:0.81539351 3:0.84817627 4:0.68965518 5:0.50643211 6:1 7:0.32234264 8:0 9:0 10:0.00032828358 11:0.36810732 12:0 13:0.28571429 14:0.57142854 15:0.4 16:3 
-1 1:0.97047656 2:1 3:0.97521661 4:0.66666663 5:0.85356555 6:1 7:0.61763986 8:0.78530094 9:1 10:0.35526498 11:0 12:0.69150051 13:1 14:0.60000002 15:1.1111111 16:9 
-1 1:0.59165541 2:0.94675922 3:0.9647414 4:0.75 5:0.52727539 6:1 7:0.47580007 8:0.94385951 9:1 10:0.069018421 11:0.4932362 12:0.9796804 13:0.66666667 14:0.66666663 15:0.8 16:1 
-0.01411916273783499 1:0.65966332 2:0.86060601 3:0.89204667 4:0.80000001 5:0.53384974 6:1 7:0.43733862 8:0 9:1 10:0.0001042663 11:0.5420313 12:0.88431339 13:0.71428571 14:0.85714287 15:0.8 16:0 
-1 1:0.63117683 2:0.83000004 3:0.9002848 4:0.71111107 5:0.77505602 6:1 7:0.58722478 8:0.91207322 9:0 10:0.22640652 11:0.2064635 12:0.89526602 13:0.46666667 14:0.69999999 15:1 16:5 
-1 1:0.35064902 2:0.90312499 3:0.82559485 4:0.7027027 5:0.30530055 6:1 7:0.60329465 8:0.99610811 9:0 10:0.86888484 11:0.60837385 12:0.99890202 13:0.27777778 14:0.55555558 15:0.66666667 16:1 
1 1:0.56503217 2:0.796875 3:0.6776872 4:0.72727275 5:0.66172206 6:1 7:0.50208253 8:0.8699643 9:1 10:0.40096008 11:0.72993991 12:0.87237744 13:0.53571429 14:0.75 15:1 16:3 
1 1:0.39830735 2:0.90370369 3:0.78067258 4:0.71875 5:0.29900544 6:1 7:0.46310706 8:0.93291491 9:1 10:0.032729962 11:0.70179121 12:0.67705169 13:0.21428571 14:0.5 15:0.8 16:6 
-1 1:0.72312374 2:0.89351851 3:0.84097371 4:0.66666663 5:0.6081985 6:1 7:0.50828461 8:0.72393438 9:0 10:0.11413945 11:0.20416997 12:0.78597965 13:0.66666667 14:0.5 15:0.65454545 16:8 
1 1:0.44181269 2:0.75333333 3:0.80707978 4:0.75999999 5:0.279658 6:1 7:0.20062363 8:0 9:1 10:4.9312522e-06 11:1 12:0 13:0.47619048 14:0.71428573 15:0.6 16:2 
1 1:0.50682357 2:1 3:0.63918922 4:0.673913 5:0.41302075 6:1 7:0.6270146 8:0.73875011 9:1 10:0.14856107 11:0.25127657 12:0.78928011 13:0.47619048 14:0.4285714 15:1.2 16:11 
1 1:0.34135228 2:1 3:0.94488587 4:0.63333333 5:0.25514789 6:1 7:0.26342748 8:0 9:1 10:0 11:0.30002402 12:0 13:0.4 14:0.66666663 15:0.5 16:9 
-1 1:0.44195549 2:0.84666663 3:0.88562955 4:0.73076922 5:0.36943116 6:1 7:0.24067591 8:0.9098334 9:0.051817592 10:0.0066165176 11:0.19427582 12:0 13:0.47619048 14:0.71428573 15:0.4 16:1 
-1 1:0.4018995 2:0.76934522 3:0.7794061 4:0.63999999 5:0.55177612 6:1 7:0.40613772 8:0.907842 9:0 10:0.58852444 11:0.61210489 12:0.87817159 13:0.30612245 14:0.5454545 15:0.52747253 16:18 
-1 1:0.59300544 2:0.78125 3:0.87731279 4:0.63333333 5:0.77172856 6:1 7:0.67495788 8:0.93066932 9:1 10:0.52421867 11:0.50118316 12:0.92481173 13:0.41666667 14:0.66666663 15:0.5952381 16:11 
1 1:0.50168501 2:0.8611111 3:0.8064351 4:0.67307693 5:0.68515262 6:1 7:0.47499002 8:0.83260374 9:1 10:0.30423548 11:0.64529154 12:0.7977792 13:0.38181818 14:0.63636363 15:0.65934066 16:11 
1 1:0.26269609 2:0.93666667 3:0.45197373 4:0.63636363 5:0.16223092 6:1 7:0.53934765 8:0.82950379 9:1 10:0.20499274 11:0.28652717 12:0.78720729 13:0.2 14:0.5 15:0.8 16:0 
1 1:0.78070367 2:0.93611109 3:0.84892198 4:0.66101694 5:0.64417513 6:1 7:0.56666984 8:0.89273824 9:1 10:0.080183808 11:0.7958333 12:0.79314253 13:0.8 14:0.5 15:1.0666667 16:17 
1 1:0.43350626 2:0.75897437 3:0.59553236 4:0.63333333 5:0.44352363 6:1 7:0.45182892 8:0.90232888 9:1 10:0.065802143 11:1 12:0.93901519 13:0.28571429 14:0.57142854 15:0.6 16:3 
1 1:0.37050346 2:0.85714287 3:0.60879244 4:0.7037037 5:0.3698422 6:1 7:0.51239514 8:0 9:1 10:0.00023330447 11:0.32962566 12:0 13:0.2 14:0.5 15:0.6 16:2 
1 1:0.75490058 2:0.90476197 3:0.8911416 4:0.69230771 5:0.75652657 6:1 7:0.54039121 8:0.78437184 9:1 10:0.19676331 11:0.61801415 12:0.85836544 13:0.66666667 14:0.83333331 15:0.71111111 16:5 
-1 1:0.56796954 2:0.93666667 3:0.49512926 4:0.66666663 5:0.52801805 6:1 7:0.45823528 8:0.92025714 9:1 10:0.048278799 11:0 12:0.72419867 13:0.47619048 14:0.71428573 15:0.8 16:6 
0.8112618447700349 1:0.62946421 2:0.9163636 3:0.6526224 4:0.66666663 5:0.76307893 6:0 7:0.58576676 8:0.92390053 9:1 10:0.60561275 11:0.45471673 12:0.92141405 13:0.40909091 14:0.5 15:0.76190476 16:3 
-1 1:0.61968614 2:1 3:0.97623522 4:0.61290324 5:0.46914513 6:1 7:0.65760497 8:0.95614523 9:1 10:0.013715988 11:0 12:0.98527589 13:0.6 14:0.60000002 15:1.1111111 16:12 
1 1:0.3759899 2:0.60548943 3:0.56962227 4:0.68000001 5:0.19693591 6:1 7:0.19517349 8:0 9:1 10:5.2197175e-07 11:0.46922703 12:0 13:0.4 14:0.66666663 15:0.6 16:0 
1 1:0.64833136 2:0.90312499 3:0.77405374 4:0.6885246 5:0.43048366 6:1 7:0.38088078 8:0.78531003 9:1 10:0.15155235 11:0.53202005 12:0.74495336 13:0.50909091 14:0.45454544 15:1.2 16:6 
-1 1:0.46002476 2:1 3:0.8330535 4:0.68421054 5:0.51730645 6:1 7:0.78737567 8:1 9:1 10:0.9999631 11:0 12:1 13:0.16666667 14:0.5 15:1.1428571 16:1 
1 1:0.43389552 2:0.77284563 3:0.71022253 4:0.65909088 5:0.42382294 6:1 7:0.14486176 8:0.67821742 9:1 10:0.0028436456 11:0.55590165 12:0.87754177 13:0.41666667 14:0.66666663 15:0.45454545 16:6 
-1 1:0.4958622 2:0.78156567 3:0.89204667 4:0.65714288 5:0.49692024 6:1 7:0.39597727 8:0.83726397 9:1 10:0.058448473 11:0.67803282 12:0 13:0.38461538 14:0.60000002 15:0.60606061 16:9 
-1 1:0.53453766 2:0.83256948 3:0.87046457 4:0.65789473 5:0.41157584 6:1 7:0.32973702 8:0 9:1 10:0 11:0.40037663 12:0.90769285 13:0.55555556 14:0.55555558 15:0.66666667 16:1 
-0.3275477111888609 1:0.60582726 2:0.92777777 3:0.82020822 4:0.58333337 5:0.8519907 6:1 7:0.70765672 8:0.92579531 9:1 10:0.63788583 11:0.86968932 12:0.93881785 13:0.27777778 14:0.55555558 15:0.60606061 16:5 
-1 1:0.76128128 2:0.89351851 3:0.86873112 4:0.66666663 5:0.7286307 6:1 7:0.53084584 8:0.94640127 9:1 10:0.14051454 11:0 12:0.92243689 13:0.66666667 14:0.66666663 15:0.83333333 16:7 
-1 1:0.48440762 2:0.84666663 3:0.88556366 4:0.69230771 5:0.37789347 6:1 7:0.24293676 8:0.9714519 9:0 10:0.00073222759 11:0.19427582 12:0.99046548 13:0.47619048 14:0.71428573 15:0.8 16:1 
-1 1:0.36718325 2:0.84027779 3:0.61863973 4:0.66666663 5:0.53722168 6:0 7:0.40294238 8:0.85558082 9:0 10:0.080226545 11:0.37685344 12:0.8562121 13:0.1 14:0.39999998 15:0.5 16:5 
-1 1:0.64875454 2:0.87999994 3:0.82293038 4:0.63636363 5:0.61048028 6:1 7:0.51524298 8:0 9:1 10:0.0002227116 11:0.55732947 12:0.99331032 13:0.4 14:0.66666663 15:0.8 16:1 
0.6023126790442214 1:0.99877076 2:1 3:0.97455231 4:0.58823526 5:0.6898896 6:1 7:0.53709769 8:0.54220534 9:1 10:0.021745707 11:0.69706117 12:0 13:1 14:0.39999998 15:1.1111111 16:14 
1 1:0.5854456 2:0.90284091 3:0.8568724 4:0.63414633 5:0.55519121 6:1 7:0.42947115 8:0.84263389 9:0 10:0.24792032 11:0.5899905 12:0.86105101 13:0.53571429 14:0.625 15:1 16:9 
-1 1:0.37605068 2:0.92777777 3:0.95577506 4:0.65714288 5:0.46829179 6:1 7:0.6035065 8:0.85496409 9:1 10:0.23644148 11:0.079993499 12:0.9427819 13:0.16666667 14:0.55555558 15:0.60606061 16:5 
-1 1:0.99909789 2:1 3:0.97563599 4:0.58333337 5:0.85042289 6:1 7:0.6289734 8:0.95608004 9:1 10:0.51839311 11:0.74284772 12:0.96321666 13:1 14:0.39999998 15:1.1111111 16:15 
1 1:0.89540491 2:1 3:0.79411377 4:0.57575756 5:0.78742002 6:1 7:0.6996556 8:0.80981356 9:1 10:0.4060034 11:0.67067799 12:0.75514247 13:0.66666667 14:0.33333331 15:0.87272727 16:9 
-1 1:0.58835134 2:0.95454544 3:0.687864 4:0.60975611 5:0.76685285 6:1 7:0.55621079 8:0.72728569 9:0 10:0.38229233 11:0 12:0.95287002 13:0.41666667 14:0.44444442 15:0.66666667 16:6 
-1 1:0.64223994 2:0.9201389 3:0.76693462 4:0.66666663 5:0.73674888 6:1 7:0.55822598 8:0.92357386 9:0 10:0.1464018 11:0.20874521 12:0.92368819 13:0.41666667 14:0.55555558 15:0.71794872 16:9 
-1 1:0.54732615 2:0.6726191 3:0.74104834 4:0.61764705 5:0.51330014 6:1 7:0.40403016 8:0 9:1 10:0 11:0.44022538 12:0 13:0.47619048 14:0.71428573 15:0.53333333 16:8 
1 1:0.60524146 2:0.88611114 3:0.83027119 4:0.65217388 5:0.55772316 6:1 7:0.56361008 8:0.78547285 9:0 10:0.1504359 11:0 12:0.81568857 13:0.46153846 14:0.5 15:0.5 16:10 
1 1:0.47461963 2:0.72685182 3:0.5992321 4:0.63157892 5:0.56416031 6:1 7:0.40942536 8:0.9250403 9:1 10:0.10748972 11:0.37406886 12:0.89653521 13:0.41666667 14:0.55555558 15:0.83333333 16:2 
-1 1:0.50243336 2:0.87812501 3:0.76629245 4:0.65909088 5:0.43228306 6:1 7:0.5500621 8:0.91514707 9:1 10:0.065706983 11:0.53303503 12:0.96536837 13:0.46666667 14:0.60000002 15:0.66666667 16:3 
1 1:0.6102731 2:0.86060601 3:0.42678061 4:0.625 5:0.68828691 6:1 7:0.56824482 8:0.89381336 9:1 10:0.51241856 11:0.48880494 12:0.81109592 13:0.6 14:0.60000002 15:0.8 16:4 
-1 1:0.42926977 2:0.81156462 3:0.66222044 4:0.67857146 5:0.40161582 6:1 7:0.31086739 8:0 9:1 10:0 11:0.45073946 12:0 13:0.4 14:0.66666663 15:0.5 16:1 
-1 1:0.249409 2:0.81818181 3:0.55910888 4:0.58620691 5:0.23252028 6:1 7:0.2542947 8:0 9:1 10:0 11:0.42628678 12:0 13:0.2 14:0.5 15:0.35555556 16:3 
-1 1:0.31745875 2:0.76041663 3:0.56404679 4:0.63333333 5:0.28627385 6:1 7:0.28945379 8:0 9:1 10:0 11:0.48921629 12:0 13:0.3 14:0.60000002 15:0.5 16:5 
1 1:0.45552371 2:0.76547617 3:0.56906512 4:0.67567569 5:0.32805894 6:1 7:0.31922299 8:0.94888662 9:1 10:0.28532974 11:0 12:0.94435687 13:0.53571429 14:0.625 15:1 16:5 
-1 1:0.68463129 2:0.89351851 3:0.87409316 4:0.60606062 5:0.70207811 6:1 7:0.52979105 8:0.95276343 9:1 10:0.65470149 11:0.72466671 12:0.94977676 13:0.66666667 14:0.5 15:0.8 16:8 
-1 1:0.13149675 2:0.72291666 3:0.49366901 4:0.64285713 5:0.14538257 6:0 7:0.31499228 8:0.94715763 9:1 10:0.00095994903 11:0.46964621 12:0 13:0.083333333 14:0.33333331 15:0.4 16:1 
1 1:0.56544893 2:0.95000005 3:0.78764258 4:0.61538458 5:0.50041658 6:1 7:0.36566193 8:0.95758305 9:1 10:0.089427492 11:0.83705426 12:0.95722102 13:0.41666667 14:0.66666663 15:1.0769231 16:3 
1 1:0.43567634 2:0.97916669 3:0.93437676 4:0.57894737 5:0.52578081 6:1 7:0.5007552 8:0.71102992 9:1 10:0.29393782 11:0.86558085 12:0.65005764 13:0.41666667 14:0.66666663 15:0.75757576 16:12 
1 1:0.4941907 2:0.84523809 3:0.61240542 4:0.60000002 5:0.60960109 6:1 7:0.4963154 8:0.91612667 9:1 10:0.56930606 11:0.7054367 12:0.94696859 13:0.22222222 14:0.39999998 15:0.79120879 16:2 
-1 1:0.36485153 2:0.81027335 3:0.96651036 4:0.56862748 5:0.3864897 6:0 7:0.61800558 8:0.9619638 9:1 10:0.15962493 11:0 12:0.95890011 13:0.25862069 14:0.58333337 15:0.41558442 16:21 
1 1:0.37412129 2:1 3:0.80264965 4:0.60000002 5:0.38034661 6:1 7:0.83738866 8:0.94982161 9:1 10:0.33829059 11:0.50505469 12:0.96136305 13:0.2 14:0.5 15:0.71111111 16:4 
-1 1:0.38651884 2:0.76435184 3:0.85552346 4:0.625 5:0.26389826 6:1 7:0.22378329 8:0 9:1 10:0 11:0.73754794 12:0 13:0.28571429 14:0.57142854 15:0.53333333 16:6 
-1 1:0.064057503 2:0.71296293 3:0.71261488 4:0.57142854 5:0.0079010948 6:1 7:1.8770879e-06 8:0.92335152 9:1 10:0.021257957 11:0.21833909 12:0.91604105 13:0.066666667 14:0.33333331 15:0.25 16:0 
-1 1:0.43799579 2:0.73914605 3:0.68249628 4:0.60714287 5:0.32160171 6:1 7:0.20019969 8:0 9:1 10:0 11:0.63684723 12:0.79599503 13:0.35714286 14:0.625 15:0.6 16:0 
-1 1:0.58707371 2:0.84027779 3:0.74152477 4:0.57692307 5:0.28852348 6:1 7:0.25457051 8:0 9:1 10:7.4795272e-06 11:0.69713616 12:0 13:0.6 14:0.60000002 15:0.83333333 16:7 
-1 1:0.58707371 2:0.90499997 3:0.90456724 4:0.57692307 5:0.36237627 6:1 7:0.27412302 8:0 9:1 10:1.9856152e-06 11:0.68096711 12:0.67388597 13:0.6 14:0.60000002 15:0.83333333 16:7 
-1 1:0.29128651 2:0.59841275 3:0.60009083 4:0.66666663 5:0.1639104 6:1 7:0.13826423 8:0.9467561 9:1 10:0.00041966124 11:0.57847699 12:0 13:0.27777778 14:0.55555558 15:0.5 16:2 
1 1:0.52401331 2:0.93333334 3:0.72707403 4:0.64516127 5:0.5481262 6:1 7:0.40199111 8:0.80163319 9:1 10:0.045315135 11:1 12:0.82329372 13:0.35714286 14:0.625 15:0.8 16:0 
-1 1:0.32199801 2:0.83069038 3:0.79127751 4:0.60606062 5:0.20180824 6:1 7:0.18352037 8:0.88467803 9:1 10:0.028098195 11:0.78900874 12:0.92863772 13:0.28571429 14:0.57142854 15:0.6 16:4 
-1 1:0.49496484 2:0.70233583 3:0.86571642 4:0.57499999 5:0.45409879 6:1 7:0.384339 8:0.82797889 9:1 10:0.0015709579 11:0.52546458 12:0 13:0.35714286 14:0.625 15:0.60606061 16:15 
1 1:0.68829135 2:0.85000002 3:0.85873481 4:0.6388889 5:0.77637692 6:1 7:0.59251615 8:0.88533485 9:1 10:0.26140092 11:0.55237304 12:0.91173375 13:0.53571429 14:0.625 15:0.75757576 16:4 
-1 1:0.48796922 2:0.84027773 3:0.4059647 4:0.57142854 5:0.68003326 6:1 7:0.57695095 8:0.9170827 9:1 10:0.10797215 11:0 12:0.98788756 13:0.33333333 14:0.5 15:0.75 16:2 
-1 1:0.41950987 2:0.745 3:0.68781414 4:0.57142854 5:0.29933694 6:1 7:0.22778674 8:0 9:1 10:0 11:0.53441431 12:0 13:0.4 14:0.5 15:0.83333333 16:2 
1 1:0.4326857 2:0.89999992 3:0.89004405 4:0.5806452 5:0.36379349 6:1 7:0.23742676 8:0.80445069 9:0 10:0.10467027 11:0.46390044 12:0.94131939 13:0.28571429 14:0.57142854 15:0.8 16:5 
-1 1:0.48004379 2:0.8923611 3:0.85641285 4:0.54054058 5:0.5452923 6:1 7:0.42071976 8:0 9:1 10:0 11:0.15813574 12:0 13:0.20512821 14:0.39999998 15:0.38461538 16:14 
-1 1:0.34593796 2:0.75833338 3:0.47789731 4:0.60000002 5:0.46880961 6:1 7:0.20853907 8:0 9:1 10:3.5185684e-07 11:0.66424379 12:0.97063599 13:0.35714286 14:0.625 15:0.6 16:0 
1 1:0.46750933 2:0.85384619 3:0.4021795 4:0.53061223 5:0.57261422 6:1 7:0.54919154 8:0.87820989 9:1 10:0.40404384 11:0.48790366 12:0.91363132 13:0.27777778 14:0.44444442 15:0.60606061 16:9 
1 1:0.52183416 2:1 3:0.61036601 4:0.60526311 5:0.62128389 6:1 7:0.56019472 8:0.88947487 9:1 10:0.2526814 11:0.71326873 12:0.87363617 13:0.27777778 14:0.55555558 15:0.66666667 16:4 
-1 1:0.45724639 2:1 3:0.69882393 4:0.53846157 5:0.57607369 6:1 7:0.74923564 8:0.91601767 9:1 10:0.90852022 11:0.6426903 12:0.86741364 13:0.2 14:0.33333331 15:0.8 16:0 
1 1:0.072500257 2:0.66326529 3:0.39590086 4:0.5925926 5:0.17842404 6:1 7:0.2661651 8:0 9:1 10:2.3145117e-06 11:0 12:0 13:0.2 14:0.5 15:0.35555556 16:2 
-1 1:0.43899247 2:0.84309769 3:0.77411957 4:0.60714287 5:0.29656318 6:1 7:0.20384937 8:0 9:1 10:0 11:0.90430569 12:0 13:0.47619048 14:0.71428573 15:0.6 16:4 
-1 1:0.43172189 2:0.69996262 3:0.6610654 4:0.62068963 5:0.34771639 6:1 7:0.2277675 8:0.81033722 9:1 10:0.0064738222 11:0.19042046 12:0.8346957 13:0.47619048 14:0.57142854 15:0.4 16:3 
1 1:0.53537102 2:0.83164984 3:0.71465395 4:0.55882353 5:0.51446369 6:1 7:0.43365455 8:0.93778417 9:1 10:0.042493594 11:0 12:0.90682947 13:0.4 14:0.33333331 15:0.83333333 16:10 
-1 1:0.46346354 2:0.84876543 3:0.71848948 4:0.58333337 5:0.51719985 6:1 7:0.38933432 8:0.79308083 9:1 10:0.17316653 11:0.49516473 12:0.87084638 13:0.35714286 14:0.625 15:0.8 16:5 
1 1:0.39896933 2:1 3:0.58054375 4:0.6111111 5:0.37367738 6:1 7:0.71384179 8:0.90466296 9:1 10:0.33640442 11:0.5595831 12:0.85963118 13:0.27777778 14:0.55555558 15:0.83333333 16:2 
-1 1:0.37374552 2:0.84027773 3:0.70103226 4:0.56521738 5:0.36862323 6:0 7:0.3828061 8:0.96199229 9:1 10:0.39147565 11:0.35852776 12:0.93928467 13:0.21428571 14:0.375 15:0.66666667 16:7 
1 1:0.51812756 2:0.77551025 3:0.85542287 4:0.5625 5:0.73033087 6:1 7:0.596609 8:0.85868649 9:1 10:0.1151604 11:0 12:0 13:0.28571429 14:0.57142854 15:0.53333333 16:11 
1 1:0.31824427 2:0.89814812 3:0.7628455 4:0.53571427 5:0.35368193 6:1 7:0.28869003 8:0.75797137 9:1 10:0.33319211 11:0.37281219 12:0.757922 13:0.2 14:0.33333331 15:0.55555556 16:3 
-1 1:0.6039123 2:0.95833331 3:0.69900635 4:0.5625 5:0.49508481 6:1 7:0.39697642 8:0 9:1 10:0.00025535507 11:0.51621124 12:0 13:0.47619048 14:0.57142854 15:0.87272727 16:8 
1 1:0.1705287 2:0.70888895 3:0.7357973 4:0.56666666 5:0.054546891 6:1 7:1.3679523e-05 8:0 9:0 10:0 11:0.56638941 12:0 13:0.28571429 14:0.57142854 15:0.2 16:4 
-1 1:0.48404339 2:0.97777778 3:0.67166284 4:0.53125 5:0.39010591 6:1 7:0.36383018 8:0.91560173 9:1 10:0.021564751 11:0.7863042 12:0.93179358 13:0.35714286 14:0.5 15:0.87272727 16:5 
-1 1:0.42895899 2:0.91509265 3:0.73246199 4:0.56451613 5:0.61771084 6:1 7:0.54568929 8:0.67809795 9:1 10:0.46434014 11:0 12:0.73321783 13:0.25301205 14:0.4285714 15:0.64285714 16:16 
-1 1:0.42008329 2:0.8298611 3:0.74545445 4:0.51020408 5:0.46085655 6:1 7:0.34764214 8:0.72950648 9:1 10:0.0071002694 11:0.79378231 12:0.70988621 13:0.33333333 14:0.60000002 15:0.75757576 16:20 
-1 1:0.55871923 2:0.78571427 3:0.53929075 4:0.44444442 5:0.75251224 6:1 7:0.5962791 8:0.9875329 9:1 10:0.47338519 11:0.43473717 12:0.90772753 13:0.41666667 14:0.44444442 15:0.5952381 16:9 
1 1:0.3628755 2:0.82370377 3:0.82218026 4:0.57499999 5:0.13445493 6:1 7:0.19820136 8:0.89458452 9:1 10:0.08032787 11:0.76035419 12:0.91472194 13:0.44117647 14:0.66666663 15:0.83333333 16:2 
1 1:0.053579351 2:0.73160172 3:0.52761188 4:0.57575756 5:0.0078669759 6:1 7:0.24266928 8:0.83745783 9:1 10:0.007137469 11:0.15451192 12:0 13:0.047619048 14:0.28571427 15:0.6 16:9 
-1 1:0.32368797 2:0.74151236 3:0.7104018 4:0.5 5:0.2927558 6:1 7:0.1891733 8:0.80681277 9:0 10:0.051995627 11:0.47264746 12:0.91394419 13:0.22727273 14:0.5 15:0.26373626 16:13 
-1 1:0.56832977 2:0.8828125 3:0.85545777 4:0.45833331 5:0.33410214 6:1 7:0.24541847 8:0 9:1 10:0 11:0.75588593 12:0 13:0.6 14:0.39999998 15:0.83333333 16:6 
-1 1:0.41414027 2:0.64351851 3:0.69664699 4:0.55555558 5:0.25894823 6:1 7:0.19336567 8:0.95241896 9:1 10:0.0081408056 11:0.6585496 12:0 13:0.38095238 14:0.57142854 15:0.72 16:3 
0.371893237829001 1:0.34171543 2:0.81195527 3:0.61700938 4:0.43589741 5:0.32587025 6:0 7:0.28447777 8:0 9:1 10:0.00054549755 11:0.41180694 12:0 13:0.22222222 14:0.39999998 15:0.52747253 16:8 
-1 1:0.4934223 2:1 3:0.77986828 4:0.51428568 5:0.45022861 6:1 7:0.69049752 8:0.78477052 9:1 10:0.037552268 11:0.56102142 12:0.68630103 13:0.2 14:0.16666669 15:0.87272727 16:12 
1 1:0.40266981 2:0.88980716 3:0.52154667 4:0.55172414 5:0.59953171 6:1 7:0.47122126 8:0.58342646 9:1 10:0.13478691 11:0.47359338 12:0.69577643 13:0.47619048 14:0.57142854 15:0.8 16:0 
1 1:0.25085566 2:0.76455027 3:0.47809238 4:0.48000002 5:0.37293146 6:0 7:0.28729793 8:0.89239335 9:1 10:0.0014936998 11:0.15467422 12:0.83123124 13:0.17647059 14:0.45454544 15:0.46666667 16:8 
1 1:0.10115804 2:0.84027779 3:0.82767107 4:0.47826087 5:0.025664357 6:0 7:0.45287607 8:0.94526148 9:1 10:0.56412632 11:0.46127642 12:0.93622035 13:0.1 14:0.60000002 15:0.42857143 16:0 
-1 1:0.31411983 2:0.86831278 3:0.48890907 4:0.57692307 5:0.20178476 6:1 7:0.54012734 8:0.74512844 9:1 10:0.0034892469 11:0 12:0 13:0.2 14:0.5 15:0.8 16:6 
-1 1:0.29664004 2:1 3:0.37464866 4:0.4285714 5:0.2582935 6:1 7:0.71336241 8:1 9:1 10:0.9999631 11:0 12:1 13:0.095238095 14:0.28571427 15:0.71111111 16:4 
-1 1:0.28565582 2:0.56146824 3:0.55803882 4:0.53191489 5:0.24198109 6:1 7:0.16014767 8:0 9:1 10:7.9368137e-06 11:0.59320232 12:0 13:0.18181818 14:0.45454544 15:0.45454545 16:14 
-1 1:0.4426711 2:0.87530863 3:0.69960602 4:0.3611111 5:0.55734564 6:1 7:0.43293065 8:0.90642909 9:1 10:0.14257682 11:0.59286675 12:0.86562302 13:0.22222222 14:0.39999998 15:0.45454545 16:1 
-1 1:0.46772496 2:1 3:0.59568775 4:0.5 5:0.62535185 6:1 7:0.55502565 8:0.9403761 9:1 10:0.70760897 11:0.73198119 12:0.96093874 13:0.10714286 14:0.375 15:1.1428571 16:6 
1 1:0.44163882 2:0.58928567 3:0.36977459 4:0.5333333 5:0.44956158 6:1 7:0.31567534 8:0.95838742 9:0 10:0.15711177 11:0.64638318 12:0.88706662 13:0.28571429 14:0.57142854 15:0.8 16:1 
1 1:0.31314002 2:0.6953125 3:0.653914 4:0.48648649 5:0.39360397 6:1 7:0.33425084 8:1 9:0 10:0.01641895 11:0.43900344 12:0.61302711 13:0.10714286 14:0.375 15:0.71111111 16:18 
-1 1:0.49804254 2:0.74898994 3:0.99123094 4:0.4727273 5:0.70265877 6:1 7:0.60215363 8:0.91810067 9:1 10:0.27289034 11:0.74889901 12:0.88473833 13:0.25 14:0.5 15:0.48076923 16:29 
1 1:0.46918476 2:0.68941802 3:0.74490213 4:0.4222222 5:0.56178286 6:1 7:0.21487617 8:0.9329631 9:1 10:0.11289118 11:0.57975457 12:0.89372704 13:0.27777778 14:0.44444442 15:0.60606061 16:9 
1 1:0.46053735 2:0.93004113 3:0.68831214 4:0.51020408 5:0.69458086 6:1 7:0.38021603 8:0.97029732 9:0 10:0.71378124 11:0.74003369 12:0.96616369 13:0.66666667 14:0 15:0.8974359 16:20 
-1 1:0.46346354 2:0.84876543 3:0.69167739 4:0.54761904 5:0.4525145 6:1 7:0.34507697 8:0.85489556 9:1 10:0.2357455 11:0.40071888 12:0.91806492 13:0.35714286 14:0.25 15:0.87272727 16:6 
1 1:0.38839651 2:0.85142863 3:0.68316512 4:0.44 5:0.35281811 6:1 7:0.48967887 8:0.60943449 9:1 10:0.035588339 11:0.50735819 12:0 13:0.425 14:0.30000001 15:0.71428571 16:6 
1 1:0.48017376 2:0.88020831 3:0.94402834 4:0.44444442 5:0.60773405 6:1 7:0.35572846 8:0.67489582 9:0 10:0.048870597 11:0.28485821 12:0 13:0.28571429 14:0.57142854 15:0.71111111 16:7 
1 1:0.41962536 2:0.97727275 3:0.67689062 4:0.42500001 5:0.4694965 6:1 7:0.68563497 8:0.86655896 9:1 10:0.65230093 11:0.57039383 12:0.85309249 13:0.16666667 14:0.44444442 15:0.75757576 16:14 
1 1:0.31996465 2:0.72333336 3:0.72118199 4:0.48571426 5:0.37043718 6:1 7:0.26760832 8:0.89819124 9:0 10:0.24101192 11:0 12:0.85089205 13:0.28571429 14:0.4285714 15:0.65454545 16:4 
-1 1:0.35282617 2:0.80497938 3:0.78517986 4:0.52941179 5:0.27609997 6:1 7:0.23487747 8:0.77672419 9:1 10:0.0024582875 11:0.4856183 12:0.97515403 13:0.28571429 14:0.4285714 15:0.65454545 16:5 
-1 1:0.10671648 2:0.61539352 3:0.60617922 4:0.43478262 5:0.068643802 6:1 7:1.6831787e-07 8:0 9:0 10:5.0227507e-05 11:0.27538553 12:0.97677488 13:0.066666667 14:0.33333331 15:0.17777778 16:5 
-1 1:0.34828355 2:0.71547621 3:0.54878127 4:0.42424244 5:0.20139037 6:1 7:0.17478738 8:0 9:1 10:0 11:0.4252449 12:0 13:0.14285714 14:0.4285714 15:0.4 16:6 
-1 1:0.47608221 2:1 3:0.70891159 4:0.33333331 5:0.53043032 6:1 7:0.554767 8:0.93112209 9:1 10:0.086686966 11:0 12:0.96676763 13:0.3 14:0.19999999 15:1.25 16:3 
1 1:0.31754125 2:0.86805558 3:0.79121616 4:0.58620691 5:0.21473949 6:1 7:0.17969484 8:0.85589521 9:1 10:0.021640587 11:0.77501268 12:0 13:0.28571429 14:0.57142854 15:0.65454545 16:1 
-1 1:0.20687846 2:0.79894179 3:0.71565803 4:0.48648649 5:0.16786513 6:1 7:0.48766379 8:0.86580905 9:1 10:0.20055043 11:0.49734295 12:0.87564554 13:0.14285714 14:0.28571427 15:0.6 16:1 
-1 1:0.47581778 2:0.83364201 3:0.73322125 4:0.43243241 5:0.4461639 6:1 7:0.37540031 8:0.89905196 9:1 10:0.085074065 11:0.35472956 12:0.88530059 13:0.36111111 14:0.22222221 15:0.66666667 16:4 
1 1:0.3320616 2:0.66616321 3:0.5507552 4:0.53658533 5:0.46888845 6:1 7:0.36841263 8:0.81434807 9:1 10:0.14056963 11:0.39585724 12:0.74846156 13:0.20833333 14:0.45454544 15:0.47619048 16:12 
-1 1:0.46360332 2:0.921875 3:0.59866441 4:0.42307693 5:0.39462836 6:1 7:0.35068383 8:0.94669784 9:1 10:0.017882928 11:0.44944289 12:0 13:0.47619048 14:0.4285714 15:0.83333333 16:4 
-1 1:0.31343905 2:0.84027779 3:0.6059886 4:0.51851851 5:0.2471204 6:1 7:0.22810525 8:0.80025194 9:0 10:0.029071361 11:0.20946014 12:0.69764003 13:0.28571429 14:0.57142854 15:0.4 16:6 
1 1:0.32916151 2:0.54374999 3:0.52621367 4:0.45454544 5:0.32917902 6:1 7:0.21551564 8:0.67968658 9:0 10:0.013280809 11:0.10242056 12:0 13:0.28571429 14:0.4285714 15:0.53333333 16:5 
1 1:0.35334223 2:0.969697 3:0.7947889 4:0.5 5:0.23691301 6:1 7:0.39641082 8:0 9:1 10:0.0001272143 11:0 12:0 13:0.21428571 14:0 15:1.2857143 16:21 
-1 1:0.37982878 2:0.84760016 3:0.74388828 4:0.53125 5:0.33549485 6:0 7:0.23444426 8:0.85173229 9:1 10:0.0017987862 11:0.52840381 12:0.83434747 13:0.21428571 14:0.5 15:0.6 16:6 
1 1:0.25356075 2:0.73531747 3:0.7186726 4:0.44736844 5:0.16393832 6:1 7:0.39788683 8:0 9:1 10:1.0061059e-05 11:0.53233015 12:0 13:0.16666667 14:0.44444442 15:0.45454545 16:5 
-1 1:0.26439831 2:0.68176699 3:0.69736335 4:0.47826087 5:0.21538838 6:1 7:0.1593558 8:0 9:1 10:0 11:0.64628517 12:0 13:0.20833333 14:0.45454544 15:0.35714286 16:21 
-1 1:0.13928092 2:0.62457913 3:0.75753898 4:0.5 5:0.067092847 6:1 7:1.0560569e-06 8:0 9:0 10:0 11:0.20822078 12:0.97865374 13:0.2 14:0.33333331 15:0.2 16:1 
-1 1:0.33233788 2:0.80027777 3:0.5801659 4:0.4285714 5:0.39064231 6:1 7:0.42367482 8:0.75685413 9:1 10:0.08818771 11:0.29375695 12:0.77116878 13:0.14285714 14:0.4285714 15:0.6 16:5 
1 1:0.42311138 2:0.87999994 3:0.69138429 4:0.48148149 5:0.42838486 6:1 7:0.46510392 8:0.77906284 9:1 10:0.079272774 11:0.57245937 12:0.87847871 13:0.14285714 14:0.4285714 15:0.6 16:2 
-1 1:0.045889618 2:0.80624998 3:0.66255187 4:0.5 5:0.0081969247 6:1 7:0.22487502 8:0.96041179 9:0 10:0.64072395 11:0.66057048 12:0.94665878 13:0.047619048 14:0.28571427 15:0.6 16:0 
-1 1:0.38292659 2:0.8974359 3:0.77086028 4:0.5 5:0.36642377 6:1 7:0.51908944 8:0.96747827 9:1 10:0.0085748919 11:0.2318127 12:0.91686666 13:0.2 14:0.5 15:1 16:0 
-1 1:0.4777782 2:0.67814809 3:0.65980921 4:0.46938777 5:0.23399443 6:1 7:0.17805247 8:0.66109141 9:1 10:0.0049776286 11:0.73162129 12:0.6654788 13:0.53571429 14:0.125 15:0.65454545 16:20 
-1 1:0.371925 2:0.69791669 3:0.63772145 4:0.47222221 5:0.26487355 6:1 7:0.28962894 8:0 9:1 10:0 11:0.53171539 12:0 13:0.21428571 14:0.5 15:0.6 16:7 
-1 1:0.40683074 2:0.77469695 3:0.65804482 4:0.39999998 5:0.48344586 6:0 7:0.61689752 8:0.79366474 9:1 10:0.021196153 11:0.26947404 12:0.92069586 13:0.16666667 14:0.44444442 15:0.53333333 16:15 
1 1:0.38142342 2:1 3:0.37619711 4:0.44999999 5:0.31891717 6:1 7:0.41922307 8:0.72256951 9:0 10:0.35720066 11:0.37124076 12:0.77907834 13:0.21428571 14:0.375 15:0.95454545 16:8 
1 1:0.28742788 2:0.88020831 3:0.52536743 4:0.47058821 5:0.32498732 6:1 7:0.2017462 8:0.89248049 9:0 10:0.0022298521 11:0 12:0.91737437 13:0.4 14:0.16666669 15:0.55555556 16:9 
1 1:0.35837619 2:0.88974357 3:0.87840649 4:0.56666666 5:0.21547014 6:1 7:0.19118008 8:0 9:1 10:0.00010256795 11:0.54266901 12:0 13:0.28571429 14:0.57142854 15:0.8 16:1 
-1 1:0.3009327 2:0.55590278 3:0.55813877 4:0.5 5:0.18558069 6:1 7:0.15871067 8:0 9:1 10:0 11:0.53521916 12:0 13:0.21428571 14:0.5 15:0.45454545 16:9 
-1 1:0.40314505 2:0.73809522 3:0.69536363 4:0.5333333 5:0.24621723 6:1 7:0.22181294 8:0 9:0 10:0 11:0 12:0 13:0.2 14:0.33333331 15:0.6 16:1 
-1 1:0.23591175 2:0.70331889 3:0.64397916 4:0.45098037 5:0.15584465 6:1 7:0.12846399 8:0 9:1 10:0 11:0.46611737 12:0 13:0.18181818 14:0.45454544 15:0.3956044 16:20 
-1 1:0.23027719 2:0.72504586 3:0.69508181 4:0.5 5:0.14520158 6:1 7:0.12700582 8:0 9:1 10:0 11:0.33996467 12:0 13:0.13333333 14:0.39999998 15:0.5 16:10 
1 1:0.31059002 2:0.85416669 3:0.67611426 4:0.48780489 5:0.33690487 6:1 7:0.33848405 8:0 9:1 10:0.00037985299 11:0.4664032 12:0.81938269 13:0.15384615 14:0.39999998 15:0.5 16:13 
-1 1:0.26988164 2:0.78571433 3:0.43988685 4:0.51020408 5:0.19937113 6:1 7:0.24417608 8:0.91977312 9:1 10:0.012498007 11:0.90776705 12:0.7591356 13:0.30612245 14:0.5454545 15:0.5 16:6 
-0.8247932151238648 1:0.40591445 2:0.50370371 3:0.56903316 4:0.48979592 5:0.20013411 6:1 7:0.15825609 8:0 9:0.50242352 10:0 11:0.41095833 12:0 13:0.35714286 14:0.375 15:0.65454545 16:19 
-1 1:0.33282078 2:0.71646088 3:0.58462674 4:0.55172414 5:0.30157008 6:1 7:0.24587757 8:0.98960414 9:1 10:0.057464236 11:0.41297322 12:0 13:0.14285714 14:0.4285714 15:0.4 16:2 
1 1:0.4088908 2:0.74910712 3:0.66593843 4:0.43478262 5:0.26728803 6:1 7:0.17373352 8:0 9:0 10:1.1979624e-05 11:0.57651352 12:0.90966959 13:0.41666667 14:0.44444442 15:0.76190476 16:3 
-1 1:0.32671246 2:0.84375 3:0.75341895 4:0.47826087 5:0.21522585 6:1 7:0.16248746 8:0.97908859 9:1 10:0.0028622587 11:0.3732572 12:0.89821406 13:0.28571429 14:0.14285713 15:0.43636364 16:16 
-1 1:0.38258919 2:0.64166665 3:0.59602542 4:0.46428573 5:0.31782315 6:1 7:0.22703196 8:0 9:0 10:0 11:0.21546394 12:0 13:0.33333333 14:0.16666669 15:0.72 16:3 
-1 1:0.15078963 2:0.81158 3:0.58282822 4:0.47222221 5:0.14085625 6:1 7:0.17647643 8:0.76772105 9:1 10:0.010048542 11:0.43082295 12:0.8270961 13:0.035714286 14:0.25 15:0.3030303 16:9 
-1 1:0.20493503 2:0.68371212 3:0.48707172 4:0.44186044 5:0.15927216 6:1 7:0.14710505 8:0 9:1 10:9.4820862e-06 11:0.34585045 12:0 13:0.10909091 14:0.36363637 15:0.26373626 16:3 
1 1:0.4432189 2:0.92812502 3:0.71587939 4:0.37837839 5:0.52736052 6:1 7:0.5451539 8:0.8945438 9:1 10:0.35374412 11:0.40919365 12:0.94567446 13:0.27777778 14:0.44444442 15:1 16:4 
-1 1:0.5080979 2:0.83673471 3:0.51052165 4:0.46875 5:0.56756288 6:1 7:0.47520877 8:0.91328153 9:1 10:0.18880537 11:0.71259621 12:0.80198416 13:0.28571429 14:0.4285714 15:0.65454545 16:4 
-1 1:0.21857686 2:0.53749996 3:0.38014652 4:0.5 5:0.12922929 6:1 7:0.1432795 8:0.8953441 9:1 10:0.040058292 11:0.43195716 12:0.91302344 13:0.10714286 14:0.375 15:0.45454545 16:4 
-1 1:0.2626669 2:0.84444445 3:0.50263687 4:0.48275864 5:0.17758368 6:1 7:0.49374118 8:0.69834247 9:1 10:0.015036884 11:0 12:0.74317612 13:0.14285714 14:0.4285714 15:0.6 16:8 
1 1:0.20727674 2:0.91666669 3:0.59520705 4:0.33333331 5:0.15055964 6:1 7:0.57900313 8:0.95137176 9:1 10:0.17279726 11:0.12270197 12:0.93810907 13:0.066666667 14:0.16666669 15:0.53333333 16:1 
1 1:0.57403649 2:0.8650794 3:0.48238085 4:0.41025639 5:0.47619338 6:1 7:0.44432629 8:0.93183248 9:1 10:0.075561064 11:0.73639713 12:0.84981816 13:0.4 14:0 15:0.65454545 16:14 
-1 1:0.13284426 2:0.7343055 3:0.72749121 4:0.5 5:0.046859551 6:1 7:1.7771863e-06 8:0.5085367 9:0 10:0.0034997146 11:0.12674236 12:0.54085481 13:0.24390244 14:0.45454544 15:0.3956044 16:9 
-1 1:0.3488714 2:0.75189394 3:0.60175582 4:0.45652175 5:0.25342569 6:1 7:0.3495883 8:0.71628802 9:1 10:0.0488484 11:0.081597954 12:0.75099211 13:0.21428571 14:-0.125 15:1 16:13 
1 1:0.16557622 2:0.54351854 3:0.73687437 4:0.5 5:0.057809942 6:1 7:8.6177299e-07 8:0 9:1 10:5.556043e-06 11:0.22059261 12:0.77073277 13:0.2 14:0.5 15:0.6 16:6 
-1 1:0.99905943 2:1 3:0.98931279 4:0.42000002 5:0.64168224 6:1 7:0.43204116 8:0.4997435 9:1 10:0.00665619 11:0.58091637 12:0.41559425 13:1 14:-0.20000005 15:1.2727273 16:29 
-1 1:0.31096824 2:0.90312499 3:0.71916636 4:0.41463417 5:0.40013083 6:1 7:0.62771726 8:0.87628329 9:1 10:0.037989484 11:0 12:0.84100606 13:0.13333333 14:0.39999998 15:0.60606061 16:11 
1 1:0.55810721 2:0.88141024 3:0.82167801 4:0.5 5:0.50761845 6:1 7:0.36739337 8:0 9:1 10:0.00011508052 11:0.48172252 12:0 13:0.53571429 14:0.375 15:1 16:1 
-1 1:0.041157389 2:0.77777779 3:0.62790614 4:0.41463417 5:0.19653232 6:1 7:0.47524977 8:0.77575039 9:1 10:0.085265624 11:0 12:0.87318146 13:0.083333333 14:0.33333331 15:0.71111111 16:21 
-1 1:0.38033091 2:0.84444445 3:0.55983923 4:0.45454544 5:0.52889539 6:1 7:0.4694718 8:0.77192295 9:1 10:0.055051302 11:0.20860549 12:0.88170672 13:0.10714286 14:0.375 15:0.45454545 16:10 
1 1:0.39597876 2:0.85185188 3:0.72470993 4:0.5 5:0.40580041 6:1 7:0.14985877 8:0 9:1 10:1.1327006e-05 11:0.71555466 12:0 13:0.16666667 14:0.44444442 15:0.5 16:14 
-1 1:0.15184333 2:0.78653944 3:0.61687935 4:0.4285714 5:0.09483588 6:1 7:0.15985077 8:0.94443394 9:1 10:0.63105839 11:0.57930624 12:0.87401137 13:0.083333333 14:0.33333331 15:0.33333333 16:16 
1 1:0.25866097 2:0.61666667 3:0.84401654 4:0.45238096 5:0.22851974 6:1 7:0.18537523 8:0.5992049 9:1 10:0.025560009 11:0.38099535 12:0.6654506 13:0.10909091 14:0.36363637 15:0.35714286 16:16 
-1 1:0.26448293 2:0.66448408 3:0.6155329 4:0.47500002 5:0.2518984 6:0 7:0.20565924 8:0 9:0 10:0 11:0 12:0 13:0.10714286 14:0.375 15:0.55555556 16:12 
-1 1:0.39006478 2:0.88020831 3:0.7537582 4:0.53846157 5:0.28656794 6:1 7:0.21144875 8:0 9:1 10:3.2326627e-07 11:0.59074089 12:0 13:0.4 14:0.5 15:0.83333333 16:1 
-1 1:0.13178804 2:0.70092601 3:0.65174832 4:0.46875 5:0.05188059 6:1 7:6.3526857e-06 8:0.76187327 9:0 10:0.0054668397 11:0.19866171 12:0.84837125 13:0.14285714 14:0.4285714 15:0.2 16:6 
1 1:0.35126323 2:0.71319443 3:0.57335816 4:0.39393938 5:0.34659446 6:1 7:0.22284885 8:0.93152865 9:1 10:0.01317669 11:0.45279784 12:0.72854084 13:0.16666667 14:0.44444442 15:0.33333333 16:4 
-0.9412246068208547 1:0.48270271 2:0.70164609 3:0.61035206 4:0.44230771 5:0.47122732 6:1 7:0.29314583 8:0.92899952 9:1 10:0.18965757 11:0.25804985 12:0.78639897 13:0.28571429 14:0 15:0.46666667 16:21 
1 1:0.35435697 2:0.77103174 3:0.77588905 4:0.40816325 5:0.35987744 6:1 7:0.31261088 8:0 9:1 10:0.00021862044 11:0.49449503 12:0 13:0.3125 14:0.45454544 15:0.52747253 16:11 
-1 1:0.45295105 2:0.91880339 3:0.82636969 4:0.4285714 5:0.20332795 6:1 7:0.15794513 8:0.76468164 9:1 10:0.00044269246 11:0.44758503 12:0.57988858 13:0.47619048 14:0.14285713 15:0.93333333 16:21 
1 1:0.59055295 2:0.93004113 3:0.71546143 4:0.40425533 5:0.42887036 6:1 7:0.33771742 8:0.79558843 9:1 10:0.08685827 11:0.4157767 12:0 13:0.53571429 14:0.125 15:0.93333333 16:17 
1 1:0.0094480511 2:0.94999999 3:0.75135007 4:0.4285714 5:0.00035193259 6:1 7:0.31499307 8:1 9:1 10:0.73274789 11:0.62963181 12:0.99978051 13:0 14:0 15:0.8 16:0 
-1 1:0.32590321 2:0.92592591 3:0.80966319 4:0.48148149 5:0.33913603 6:1 7:0.67434032 8:0.99438632 9:1 10:0.95345319 11:0.7591697 12:0.99529362 13:0.1 14:0.19999999 15:0.6 16:5 
-1 1:0.34665394 2:0.76183128 3:0.67272454 4:0.44230771 5:0.16355633 6:1 7:0.14773948 8:0 9:1 10:2.3056907e-05 11:0.36576507 12:0.49180091 13:0.28571429 14:-0.14285719 15:0.73846154 16:23 
-1 1:0.44759749 2:0.95802468 3:0.77727106 4:0.39130437 5:0.61370216 6:1 7:0.61633228 8:0.64828201 9:1 10:0.16006834 11:0.85523555 12:0.63105716 13:0.10909091 14:0.36363637 15:0.52747253 16:18 
-1 1:0.013914142 2:0.76785713 3:0.45893999 4:0.375 5:0.00057556496 6:1 7:0.24204867 8:0 9:1 10:0 11:0 12:0.69457758 13:0 14:-0.20000005 15:0.6 16:4 
-1 1:0.1365291 2:0.63685393 3:0.56961393 4:0.39285713 5:0.057858792 6:1 7:3.7705443e-07 8:0 9:0 10:0 11:0.16903034 12:0 13:0.2 14:0 15:0.21818182 16:3 
1 1:0.29220719 2:0.76190472 3:0.70824758 4:0.39285713 5:0.38166636 6:1 7:0.74042138 8:0.57406737 9:1 10:0.013730883 11:0.46463218 12:0.54614172 13:0.066666667 14:0.33333331 15:0.64285714 16:10 
1 1:0.26281377 2:0.91329962 3:0.43049269 4:0.39999998 5:0.39466867 6:1 7:0.57980547 8:0.6590711 9:1 10:0.049600335 11:0.54978069 12:0.62473314 13:0.090909091 14:0.36363637 15:0.46489104 16:25 
1 1:0.46308174 2:1 3:0.53845423 4:0.44897962 5:0.21798762 6:1 7:0.18454084 8:0.46377346 9:1 10:0.0386796 11:0.37484094 12:0 13:0.4 14:0 15:1.2727273 16:20 
1 1:0.39036919 2:0.60164613 3:0.29352682 4:0.48888886 5:0.21514684 6:1 7:0.17820964 8:0 9:1 10:4.3754061e-06 11:0.11114057 12:0 13:0.35714286 14:0.375 15:0.7 16:12 
-1 1:0.5840594 2:0.84027779 3:0.44752504 4:0.39583331 5:0.5383149 6:1 7:0.17547499 8:0 9:1 10:1.9272108e-05 11:0.34354644 12:0.67916149 13:0.42105263 14:0 15:0.93333333 16:18 
-1 1:0.24840483 2:0.62627876 3:0.52414174 4:0.43103451 5:0.32121468 6:0.58151528 7:0.30199699 8:0.65387389 9:1 10:0.00057903386 11:0 12:0.76248882 13:0.10752688 14:0.33333331 15:0.22727273 16:25 
1 1:0.2044055 2:0.80796301 3:0.59953493 4:0.43396229 5:0.27595305 6:1 7:0.28493208 8:0.76726003 9:0 10:0.16045829 11:0.07582794 12:0.80647918 13:0.054545455 14:0.27272725 15:0.46666667 16:13 
-1 1:0.46664063 2:1 3:0.66484028 4:0.35000002 5:0.51564779 6:1 7:0.66259094 8:0.83818676 9:1 10:0.57779252 11:0.53494246 12:0.80836682 13:0.14285714 14:0 15:0.87272727 16:12 
-1 1:0.17785636 2:0.8414371 3:0.43856098 4:0.39622641 5:0.14539011 6:1 7:0.15454722 8:0.58819943 9:1 10:0.024374149 11:0.34847828 12:0 13:0.10714286 14:0 15:0.49230769 16:20 
-1 1:0.22864356 2:0.79324996 3:0.53206642 4:0.39130437 5:0.22367468 6:1 7:0.40937671 8:0.83527717 9:0 10:0.068027685 11:0 12:0.74433046 13:0.13333333 14:0.30000001 15:0.47619048 16:16 
1 1:0.32077018 2:0.63581049 3:0.61495884 4:0.38461536 5:0.27400055 6:1 7:0.18454608 8:0 9:0 10:0 11:0.075021001 12:0 13:0.28888889 14:0.30000001 15:0.5 16:2 
-0.3876514834928014 1:0.1356747 2:0.72309029 3:0.56786236 4:0.38095236 5:0.072601545 6:1 7:1.6370059e-07 8:0 9:0 10:0 11:0.28646157 12:0 13:0.1 14:0.19999999 15:0.27777778 16:2 
-1 1:0.55466584 2:0.921875 3:0.47448848 4:0.4848485 5:0.61739035 6:1 7:0.52853701 8:0.74835852 9:0 10:0.58078568 11:0 12:0.77773125 13:0.2 14:0.16666669 15:0.9 16:4 
-1 1:0.1439349 2:0.68740743 3:0.54766539 4:0.4285714 5:0.049607627 6:1 7:1.4534796e-06 8:0 9:0 10:0 11:0.16461795 12:0 13:0.14285714 14:0.14285713 15:0.21818182 16:18 
-1 1:0.051703356 2:0.52109057 3:0.46941057 4:0.38461536 5:0.012770183 6:1 7:1.9820774e-08 8:0 9:1 10:0 11:0 12:0 13:0.035714286 14:0.25 15:0.13333333 16:12 
-1 1:0.19989013 2:0.56511462 3:0.57611096 4:0.42592591 5:0.14695468 6:1 7:0.10409901 8:0.92571282 9:1 10:0.020746816 11:0.36317427 12:0 13:0.076923077 14:0.30769229 15:0.42857143 16:16 
-1 1:0.57050126 2:0.90000004 3:0.69902735 4:0.38181818 5:0.41180054 6:1 7:0.39989109 8:0.86544802 9:1 10:0.011707213 11:0.13215459 12:0.82302428 13:0.4 14:-0.16666663 15:1.2727273 16:29 
-1 1:0.36983476 2:0.84791666 3:0.45729294 4:0.43589741 5:0.35617037 6:1 7:0.30805313 8:0 9:1 10:0.00091572867 11:0.60882877 12:0.88284146 13:0.27777778 14:0.33333331 15:0.66666667 16:8 
-1 1:0.22900009 2:0.69802076 3:0.82926783 4:0.36144578 5:0.43811907 6:1 7:0.34999613 8:0.43992999 9:0.042599448 10:0.13424201 11:0.109254 12:0.47161291 13:0.087719298 14:0.31578946 15:0.2 16:48 
-1 1:0.36538838 2:0.87037039 3:0.82942944 4:0.42307693 5:0.25508003 6:1 7:0.2047021 8:0 9:1 10:0 11:0.56269599 12:0 13:0.4 14:0.5 15:0.6 16:4 
-1 1:0.53705758 2:0.97435898 3:0.72988994 4:0.41071427 5:0.40436982 6:0 7:0.36322968 8:0.85712603 9:1 10:0.15772663 11:0.091108599 12:0.97069712 13:0.4 14:-0.16666663 15:0.93333333 16:27 
1 1:0.050364264 2:0.68736035 3:0.53657272 4:0.30769229 5:0.015421515 6:1 7:0.21366387 8:0 9:0 10:0.00048850743 11:0.42622034 12:0 13:0.035714286 14:0.125 15:0.4 16:4 
1 1:0.34034429 2:0.61995465 3:0.51205861 4:0.375 5:0.24013808 6:1 7:0.16171505 8:0 9:0 10:0 11:0.092742725 12:0 13:0.21428571 14:0 15:0.49230769 16:17 
-1 1:0.1905178 2:0.68312758 3:0.6529152 4:0.40625 5:0.078156003 6:1 7:1.2529513e-06 8:0 9:0 10:0 11:0.17807603 12:0 13:0.2 14:0 15:0.65454545 16:8 
-1 1:0.30875283 2:0.7115646 3:0.58545745 4:0.37209302 5:0.19803818 6:1 7:0.17975825 8:0.82974513 9:1 10:0.016122081 11:0.42078383 12:0 13:0.2 14:0 15:0.65454545 16:15 
-1 1:0.18908154 2:0.74489796 3:0.50476377 4:0.3877551 5:0.14808514 6:1 7:0.12819761 8:0.73558127 9:1 10:0.034063946 11:0.29984591 12:0 13:0.10344828 14:0.25 15:0.3956044 16:8 
-1 1:0.35005292 2:0.94140625 3:0.56946108 4:0.43181819 5:0.36062882 6:1 7:0.53426311 8:0.94928548 9:1 10:0.3227247 11:0.41778124 12:0.93002953 13:0.083333333 14:0.1111111 15:0.93333333 16:13 
1 1:0.18249997 2:0.60416669 3:0.3122171 4:0.36842108 5:0.12160347 6:1 7:0.14429085 8:0.77060954 9:1 10:0.035391907 11:0.37301322 12:0.85854175 13:0.10714286 14:0.375 15:0.5 16:1 
-1 1:0.40470368 2:0.64499998 3:0.73764402 4:0.36585367 5:0.20133528 6:1 7:0.16418829 8:0 9:1 10:0 11:0.47460917 12:0 13:0.4 14:0 15:0.65454545 16:18 
1 1:0.19110551 2:0.88215488 3:0.4860419 4:0.28301889 5:0.21400556 6:1 7:0.55895714 8:0.85326593 9:0 10:0.11070805 11:0.30452495 12:0.70244372 13:0.060606061 14:0.16666669 15:0.32142857 16:8 
1 1:0.23949435 2:0.73330528 3:0.6384334 4:0.42105263 5:0.24443414 6:1 7:0.19231245 8:0.89527827 9:0.14456178 10:0.03539254 11:0.43464404 12:0 13:0.13333333 14:0.39999998 15:0.47619048 16:8 
-1 1:0.35898401 2:0.90589571 3:0.57450401 4:0.39473683 5:0.22622413 6:1 7:0.21643359 8:0.92592438 9:1 10:0.049357625 11:0.36863632 12:0.93762103 13:0.33333333 14:0.10000002 15:0.64285714 16:31 
-0.08040538340647567 1:0.24509552 2:0.81666666 3:0.40274947 4:0.375 5:0.21982984 6:1 7:0.60035872 8:0.95348032 9:1 10:0.16388093 11:0.48043451 12:0.97945161 13:0.047619048 14:0.28571427 15:0.6 16:11 
-1 1:0.14047498 2:0.63550824 3:0.5266197 4:0.41269839 5:0.044568456 6:1 7:9.2220968e-07 8:0 9:0 10:0 11:0.23244506 12:0 13:0.22222222 14:0.19999999 15:0.57142857 16:20 
-1 1:0.066830957 2:0.48446971 3:0.35617855 4:0.38235295 5:0.061023134 6:1 7:1.3007213e-07 8:0 9:1 10:0 11:0 12:0 13:0.047619048 14:0.28571427 15:0.13333333 16:15 
0.938306116609899 1:0.28078132 2:0.66640627 3:0.55101534 4:0.27027029 5:0.25169022 6:0 7:0.17131408 8:0.87349702 9:0 10:0.058193492 11:0.42344011 12:0.96024616 13:0.21428571 14:0.25 15:0.5 16:2 
-1 1:0.1013078 2:0.5031746 3:0.44572939 4:0.35555553 5:0.058069966 6:0 7:6.9341902e-07 8:0 9:1 10:0 11:0 12:0 13:0.10909091 14:0.27272725 15:0.3956044 16:10 
-1 1:0.22331409 2:0.757716 3:0.33737848 4:0.3125 5:0.13303086 6:1 7:0.17164241 8:0 9:1 10:0 11:0.47291927 12:0 13:0.047619048 14:0.14285713 15:0.43636364 16:3 
-1 1:0.31387332 2:0.76525068 3:0.77988925 4:0.34042555 5:0.4853873 6:1 7:0.3758387 8:0.77836767 9:1 10:0.37083893 11:0.73628797 12:0.65120115 13:0.090909091 14:0.33333331 15:0.35714286 16:25 
-1 1:0.23824349 2:0.5150038 3:0.53488538 4:0.39130437 5:0.21029596 6:1 7:0.17017305 8:0.71045083 9:1 10:0.0030295355 11:0.37135118 12:0 13:0.090909091 14:0.33333331 15:0.28846154 16:23 
1 1:0.32718984 2:0.56219339 3:0.69149808 4:0.34285712 5:0.31246541 6:1 7:0.22989086 8:0.91567313 9:1 10:0.040468635 11:0 12:0 13:0.14285714 14:0.14285713 15:0.45454545 16:1 
-0.1162390925789047 1:0.16894272 2:0.45642653 3:0.60047345 4:0.34782606 5:0.069288971 6:1 7:4.2600968e-07 8:0 9:0 10:0 11:0 12:0 13:0.14285714 14:0.28571427 15:0.2 16:0 
-1 1:0.18630571 2:0.5602721 3:0.45927235 4:0.39999998 5:0.19191785 6:1 7:0.18148606 8:0 9:1 10:0 11:0 12:0 13:0.066666667 14:0.30000001 15:0.23809524 16:17 
-1 1:0.17096914 2:0.61700338 3:0.57639587 4:0.38461536 5:0.073360979 6:1 7:9.8751281e-07 8:0 9:1 10:0 11:0.1747767 12:0.88759278 13:0.14285714 14:0.4285714 15:0.2 16:2 
-1 1:0.170561 2:0.6817857 3:0.4090866 4:0.39024389 5:0.20781533 6:1 7:0.18020332 8:0.60427842 9:1 10:0.073830506 11:0.36008338 12:0.64554975 13:0.022222222 14:0.19999999 15:0.3956044 16:5 
1 1:0.045735406 2:0.80833334 3:0.72674505 4:0.39285713 5:0.0069685131 6:1 7:1.3261648e-05 8:0.77093596 9:1 10:0.12451372 11:0.51892289 12:0.75982525 13:0.066666667 14:0.33333331 15:0.35555556 16:2 
-1 1:0.0701553 2:0.49768338 3:0.42101174 4:0.39999998 5:0.016009177 6:1 7:6.7241372e-08 8:0 9:1 10:0 11:0 12:0 13:0.066666667 14:0.16666669 15:0.25 16:6 
-1 1:0.1584266 2:0.63844508 3:0.71849515 4:0.41666669 5:0.05710552 6:1 7:7.4479478e-06 8:0 9:1 10:0 11:0.35496709 12:0 13:0.2 14:-0.16666663 15:0.21818182 16:14 
-1 1:0.15805044 2:0.56488281 3:0.59817143 4:0.34482759 5:0.075350145 6:1 7:1.0599459e-06 8:0 9:0 10:0 11:0.11244412 12:0 13:0.14285714 14:0.28571427 15:0.17777778 16:0 
-1 1:0.13251695 2:0.41896105 3:0.73799742 4:0.34545457 5:0.065202063 6:1 7:6.2213944e-07 8:0 9:1 10:0 11:0.26270723 12:0 13:0.12820513 14:0.38461536 15:0.096153846 16:21 
-1 1:0.060541631 2:0.58122194 3:0.4040196 4:0.3773585 5:0.014843136 6:1 7:1.8396474e-07 8:0 9:0 10:0 11:0 12:0 13:0.027777778 14:-0.11111116 15:0.17948718 16:17 
-1 1:0.4405525 2:1 3:0.68926672 4:0.34090906 5:0.39088418 6:1 7:0.66086952 8:0.96098807 9:1 10:0.67969039 11:0.19749541 12:0.95086324 13:0.21428571 14:0.25 15:0.87272727 16:18 
-1 1:0.32656504 2:0.61441797 3:0.57107332 4:0.33333331 5:0.29678517 6:1 7:0.25731838 8:0 9:1 10:0 11:0.727808 12:0 13:0.16666667 14:0.25 15:0.5 16:1 
-1 1:0.29015084 2:0.79265875 3:0.61865789 4:0.37777776 5:0.15605427 6:1 7:0.15106118 8:0.76180828 9:0 10:0.023597735 11:0.40624501 12:0.57505657 13:0.14285714 14:-0.14285719 15:0.73846154 16:16 
1 1:0.22420448 2:0.85123456 3:0.50091909 4:0.34146339 5:0.19265988 6:1 7:0.39192333 8:0.67891187 9:1 10:0.093876741 11:0.51890344 12:0.78649277 13:0.083333333 14:0.33333331 15:0.5 16:8 
1 1:0.24020613 2:0.58888888 3:0.53913101 4:0.34615386 5:0.086401803 6:1 7:1.3008567e-06 8:0.54971965 9:0 10:0.0022532398 11:0.21162072 12:0.5759327 13:0.3 14:0.19999999 15:1.1111111 16:9 
1 1:0.25051848 2:0.75132275 3:0.49992533 4:0.22857141 5:0.20689168 6:0 7:0.57082532 8:0.57424179 9:1 10:0.069521973 11:0 12:0.63737955 13:0.066666667 14:0 15:0.6 16:3 
-1 1:0.16874179 2:0.59880948 3:0.57999601 4:0.33333331 5:0.042822188 6:1 7:9.0441028e-07 8:0 9:0.051817592 10:0 11:0.15502224 12:0 13:0.2 14:-0.5 15:0.33333333 16:29 
1 1:0.19465371 2:0.69236112 3:0.52484725 4:0.375 5:0.10661596 6:1 7:0.12576795 8:0 9:0.1143036 10:0 11:0.59284535 12:0 13:0.083333333 14:0.33333331 15:0.35897436 16:9 
-1 1:0.24898018 2:0.57971799 3:0.48199544 4:0.35555553 5:0.17945284 6:1 7:0.13924861 8:0 9:1 10:0 11:0.37238465 12:0 13:0.17777778 14:0.30000001 15:0.51428571 16:3 
1 1:0.22390441 2:0.88496339 3:0.54474693 4:0.40350878 5:0.2322939 6:1 7:0.23847525 8:0.87403218 9:0 10:0.0098012545 11:0 12:0 13:0.054545455 14:0.090909064 15:0.71428571 16:6 
1 1:0.25264337 2:0.65777779 3:0.55720556 4:0.37209302 5:0.36428098 6:1 7:0.26304304 8:0.84443795 9:1 10:0.17932716 11:0.53110412 12:0.7896578 13:0.054545455 14:0.27272725 15:0.35714286 16:14 
-1 1:0.17639246 2:0.73690474 3:0.50461645 4:0.38297874 5:0.26604635 6:1 7:0.25754089 8:0 9:1 10:0 11:0.37875514 12:0 13:0.027777778 14:0.22222221 15:0.26666667 16:22 
-1 1:0.092399582 2:0.66758162 3:0.52697618 4:0.38461536 5:0.040879471 6:1 7:0.13332792 8:0 9:1 10:0 11:0.32698934 12:0 13:0.083333333 14:0.33333331 15:0.44334975 16:6 
-1 1:0.32457283 2:0.7330448 3:0.64736027 4:0.31034482 5:0.28226955 6:1 7:0.21286945 8:0 9:1 10:0 11:0.57017153 12:0.6574104 13:0.10714286 14:0.375 15:0.6 16:6 
1 1:0.60977499 2:0.65625 3:0.81233282 4:0.66071427 5:0.29054114 6:1 7:0.18784636 8:0.81008593 9:1 10:0.19035738 11:0.10906975 12:0.97295101 13:0.38461538 14:-0.16666663 15:0.93333333 16:17 
0.1021299832107466 1:0.26794748 2:0.67012984 3:0.3316092 4:0.23333335 5:0.41497186 6:1 7:0.36833589 8:0.9713073 9:1 10:0.00036059501 11:0 12:0 13:0.027777778 14:-0.11111116 15:0.35714286 16:17 
1 1:0.25329903 2:0.76547617 3:0.42997036 4:0.4727273 5:0.3586125 6:1 7:0.38016354 8:0.69671172 9:1 10:0.019281062 11:0.042511294 12:0 13:0.054545455 14:0.16666669 15:0.21428571 16:14 
1 1:0.15969225 2:0.66071427 3:0.5061483 4:0.3035714 5:0.30231576 6:1 7:0.42201009 8:0.7132965 9:0 10:0.00090754996 11:0.31367484 12:0 13:0.022222222 14:0.19999999 15:0.17777778 16:22 
1 1:0.11321331 2:0.5 3:0.36016742 4:0.22857141 5:0.01212568 6:1 7:3.4402074e-08 8:0 9:1 10:0 11:0 12:0.96932299 13:0 14:-1.6666667 15:0.77777778 16:16 
1 1:0.027995931 2:0.74603176 3:0.099995971 4:0.19999999 5:0.0051252226 6:1 7:0.22047908 8:0 9:1 10:0 11:0 12:0 13:0 14:0.1111111 15:0.33333333 16:12 
1 1:0.21851093 2:0.77910048 3:0.26782855 4:0.41025639 5:0.28000184 6:1 7:0.24959086 8:0.9202115 9:1 10:0.014113778 11:0 12:0.91752227 13:0 14:0.14285713 15:0.21428571 16:2 
1 1:0.26730993 2:0.68065113 3:0.64786535 4:0.43103451 5:0.35555334 6:1 7:0.30177244 8:0 9:1 10:0.00011966367 11:0.096999882 12:0 13:0.14285714 14:0.41666669 15:0.15 16:21 
1 1:0.1762705 2:0.66551024 3:0.53017141 4:0.25 5:0.37394546 6:1 7:0.3491086 8:0 9:1 10:8.1489502e-05 11:0.098699586 12:0.63302565 13:0 14:0.1111111 15:0.083333333 16:34 
1 1:0.067403789 2:0.73883927 3:0.58546143 4:0.35294116 5:0.047727662 6:1 7:1.997577e-06 8:0 9:0 10:0 11:0 12:0 13:0.042553191 14:0.083333313 15:0 16:3 
1 1:0.19699844 2:0.83936548 3:0.55659634 4:0.21951222 5:0.12142773 6:1 7:0.15047928 8:0.96817712 9:1 10:0.083926002 11:0 12:0.97490875 13:0 14:-1.4000001 15:0.46666667 16:49 
1 1:0.34724633 2:0.94054383 3:0.66282028 4:0.38961041 5:0.39815909 6:1 7:0.49271416 8:0.72826821 9:1 10:0.060626596 11:0.5221852 12:0.75374513 13:0.11904762 14:0.28571427 15:0.55555556 16:1 
1 1:0.028794276 2:0.36430776 3:0.31387333 4:0.21428573 5:0.011091703 6:1 7:0.18862359 8:0.68300757 9:1 10:0.0028630523 11:0.1551893 12:0.82389116 13:0 14:0.1111111 15:0.2 16:1 
1 1:0.27927701 2:0.85185188 3:0.56521441 4:0.24390244 5:0.087071015 6:1 7:0.12889256 8:0 9:1 10:0 11:0 12:0 13:0.095238095 14:-0.42857146 15:0.44444444 16:2 
1 1:0.025118587 2:0.53256804 3:0.34032927 4:0.28947371 5:0.0013843815 6:1 7:2.6125694e-07 8:0 9:1 10:0 11:0 12:0 13:0 14:-0.25 15:0.46666667 16:28 
1 1:0.12682777 2:0.52037042 3:0.78562683 4:0.26984125 5:0.25943487 6:0 7:0.52689169 8:0.71677736 9:1 10:0.20724403 11:0.53231362 12:0.80156066 13:0.032967033 14:0.28571427 15:0.11688312 16:45 
-1 1:0.11406415 2:0.59523809 3:0.43003296 4:0.16666669 5:0.053534819 6:1 7:3.125902e-07 8:0 9:1 10:2.0498122e-05 11:0 12:0.8328389 13:0 14:-2 15:0.71428571 16:34 
-0.5640491371363452 1:-3.2477205e-12 2:0.84027779 3:0.80867286 4:0.17283952 5:4.2820201e-24 6:1 7:0.30025657 8:0.46961655 9:0 10:0.0081646267 11:0.097191559 12:0.50523866 13:0 14:-2.4000001 15:0.48484848 16:62 
-0.1734344235763086 1:0.067350143 2:0.72023803 3:0.51254294 4:0.1081081 5:0.053869513 6:1 7:9.9864736e-07 8:0 9:0 10:0.00039857924 11:0 12:0 13:0.1 14:-6.8000002 15:0.42307692 16:160 
-1 1:0.21371432 2:0.71695155 3:0.52563798 4:0.29310346 5:0.051830079 6:1 7:2.1423673e-06 8:0 9:1 10:0 11:0 12:0 13:0.14285714 14:-0.28571427 15:0 16:28 
1 1:0.05674402 2:0.78474027 3:0.55456009 4:0.19512194 5:0.049537952 6:1 7:0.21560171 8:0 9:1 10:1.5970421e-05 11:0 12:0 13:0 14:0 15:0 16:10 
1 1:0.39531089 2:0.5714286 3:0.29373571 4:0.45238096 5:0.58801456 6:1 7:1.2708029e-08 8:0.88151147 9:1 10:0.075686704 11:0 12:0.92292846 13:0.15625 14:0.30000001 15:0.28846154 16:12 
-1 1:0.090412585 2:0.64338624 3:0.30041441 4:0.17307693 5:0.074340836 6:1 7:0.12447493 8:0 9:1 10:0 11:0 12:0.99785444 13:0.047619048 14:-0.42857146 15:0.33333333 16:31 
0.1002673976489191 1:0.3577986 2:0.75238091 3:0.71246973 4:0.22784811 5:0.22257654 6:1 7:0.19003916 8:0 9:1 10:1.0675302e-05 11:0 12:0.8567982 13:0 14:-2.25 15:0.93333333 16:53 
1 1:0.22518918 2:0.66142857 3:0.24180266 4:0.3018868 5:0.25117379 6:1 7:0.32077452 8:0.84945577 9:1 10:0.005162342 11:0 12:0.85757789 13:0.035714286 14:0 15:0.35555556 16:2 
1 1:0 2:0 3:0.27498501 4:0.3888889 5:0 6:1 7:0 8:0.83701847 9:1 10:0.16234575 11:0 12:0.880071 13:0 14:-0.5 15:0.5 16:2 
-0.446586901482751 1:0.21290668 2:0.67023814 3:0.47044427 4:0.2758621 5:0.55447456 6:1 7:0.42958093 8:0.51273565 9:1 10:0.10917585 11:0 12:0.49612073 13:0.13333333 14:0.39999998 15:0.53333333 16:42 
1 1:0.40556974 2:0.77604169 3:0.72705742 4:0.40322578 5:0.60525482 6:1 7:0.26097264 8:0.56847972 9:1 10:0.039971448 11:0 12:0.55038109 13:0.43333333 14:0 15:0.46666667 16:19 
1 1:0.021737688 2:0.53382128 3:0.32768717 4:0.16981131 5:0.0034704955 6:1 7:8.1138826e-08 8:0 9:1 10:0 11:0 12:0 13:0 14:0 15:0 16:2 
1 1:0.69853187 2:1 3:0.86318559 4:0.265625 5:0.27042364 6:1 7:0.36623882 8:0 9:1 10:0.0010200888 11:0 12:0.66855136 13:0.52380952 14:-2.4285715 15:1.125 16:76 
1 1:0.15770393 2:0.75523806 3:0.74256094 4:0.33999997 5:0.22430395 6:1 7:0.51622337 8:0 9:1 10:4.1208931e-06 11:0 12:0 13:0.023809524 14:0.19999999 15:0.22222222 16:22 
1 1:0.12208968 2:0.44965982 3:0.50530836 4:0.22222221 5:0.09297814 6:1 7:0.25869783 8:0.81497841 9:1 10:0.034630791 11:0 12:0 13:0 14:0 15:0.31168831 16:14 
1 1:0.19222563 2:0.865125 3:0.56291602 4:0.36363637 5:0.19122187 6:1 7:0.15224424 8:0 9:1 10:0.00051551279 11:0.15531325 12:0 13:0.027027027 14:0.10000002 15:0.4 16:6 
1 1:0.32924476 2:0.74365085 3:0.47597246 4:0.30000001 5:0.42470283 6:1 7:0.30030988 8:0.98174973 9:1 10:0.051710019 11:0 12:0.78828252 13:0.1 14:-0.083333373 15:0.57142857 16:11 
1 1:0.28704743 2:0.70476192 3:0.36060419 4:0.25 5:0.32397075 6:1 7:0.25552653 8:0 9:1 10:0.0013124314 11:0 12:0 13:0.027777778 14:0.1111111 15:0.33333333 16:17 
-1 1:0.92360802 2:1 3:0.35784124 4:0.086419761 5:0.13828984 6:1 7:0.48615601 8:0 9:1 10:1.6165187e-05 11:0 12:0 13:0 14:-7.5 15:1.8181818 16:72 
1 1:0.04407634 2:0.76543212 3:0.7924623 4:0.35593218 5:0.002598317 6:1 7:0.43594102 8:0 9:1 10:0.00037311353 11:0 12:0 13:0 14:-1.5 15:0.46666667 16:28 
1 1:0.34076979 2:0.69841272 3:0.6637164 4:0.39285713 5:0.29349035 6:1 7:0.19145315 8:0 9:0 10:0 11:0 12:0 13:0.083333333 14:0.16666669 15:0.17777778 16:4 
1 1:0.073409148 2:0.72869164 3:0.24428966 4:0.23364484 5:0.042119902 6:1 7:0.06803624 8:0 9:1 10:3.1244664e-05 11:0.17891869 12:0.81295463 13:0.053097345 14:-0.125 15:0.26666667 16:17 
1 1:0.17663737 2:0.86394554 3:0.45941478 4:0.25862068 5:0.098536418 6:1 7:0.12362334 8:0.95903847 9:1 10:0.0014257522 11:0 12:0 13:0.14285714 14:-0.42857146 15:0.27777778 16:7 
1 1:0.12508327 2:0.56190479 3:0.50616186 4:0.19565219 5:0.041771954 6:1 7:1.1494253e-07 8:0 9:1 10:0 11:0 12:0 13:0 14:-1 15:0 16:27 
1 1:0.2164326 2:0.701814 3:0.41969512 4:0.23333335 5:0.21379286 6:1 7:0.26642919 8:0.7718019 9:0 10:0.0023526068 11:0 12:0.63567557 13:0 14:-0.16666663 15:0.38095238 16:3 
-1 1:0.13997775 2:0.58714283 3:0.39302062 4:0.22500002 5:0.16374005 6:1 7:0.14581388 8:0 9:1 10:0 11:0.26225815 12:0 13:0.043478261 14:0.15384614 15:0.080808081 16:46 
1 1:0.052236634 2:0.60952383 3:0.2863277 4:0.25373137 5:0.052716457 6:1 7:1.3295882e-06 8:0 9:1 10:0 11:0 12:0 13:0.04 14:0.15384614 15:0.66666667 16:14 
1 1:0.15989897 2:0.61666667 3:0.70148161 4:0.2647059 5:0.021971878 6:1 7:1.8815408e-06 8:0 9:0 10:0 11:0 12:0 13:0.16666667 14:-0.25 15:0.66666667 16:17 
1 1:0.073200703 2:0.59365076 3:0.33924435 4:0.28571427 5:0.02116998 6:1 7:1.7474783e-07 8:0 9:1 10:0 11:0 12:0 13:0 14:-0.16666663 15:0 16:3 
1 1:0.068906045 2:0.9375 3:0.48959573 4:0.22222221 5:0.019579356 6:1 7:0.18610302 8:0 9:1 10:6.3926782e-05 11:0.46253394 12:0 13:0.035714286 14:-0.5 15:0.49230769 16:20 
-1 1:0.03321785 2:0.49294531 3:0.23950656 4:0.21666664 5:0.0015798824 6:1 7:4.1831007e-08 8:0 9:1 10:0 11:0 12:0 13:0.066666667 14:-1.3333333 15:0.25714286 16:27 
1 1:0.029644028 2:0.62222224 3:0.2921825 4:0.33333331 5:0.0035659819 6:1 7:1.1831043e-06 8:0 9:1 10:0 11:0 12:0 13:0 14:0 15:0 16:14 
1 1:0.033914203 2:0.71203703 3:0.45254449 4:0.31578946 5:0.0093762123 6:1 7:0.16893392 8:0.75022816 9:1 10:0.0065058632 11:0.10699958 12:0 13:0.027777778 14:-0.22222221 15:0.45714286 16:20 
1 1:0.051525119 2:0.56299603 3:0.49359925 4:0.27868855 5:0.0033864317 6:1 7:2.4388588e-06 8:0 9:1 10:0 11:0.4390193 12:0 13:0.066666667 14:-1 15:0.34615385 16:21 
-1 1:0.069436906 2:0.52142859 3:0.37426434 4:0.21276593 5:0.0095792342 6:1 7:8.4878014e-08 8:0 9:0 10:0 11:0 12:0 13:0.026315789 14:0 15:0 16:4 
-1 1:0.46569186 2:0.51020408 3:0.36221262 4:0.38461536 5:0.41147902 6:1 7:1.1967877e-08 8:0.75526582 9:1 10:0.0018972759 11:0.46361208 12:0.72835639 13:0.16666667 14:-1.25 15:0 16:17 
-1 1:0.44738793 2:0.65111834 3:0.39512496 4:0.32203388 5:0.55926553 6:1 7:0.15982072 8:0.81203537 9:1 10:0.0088026754 11:0.42302939 12:0.76027431 13:0.047619048 14:-0.28571427 15:0.88888889 16:16 
-1 1:0.32223593 2:0.80158728 3:0.43016914 4:0.28205127 5:0.23934204 6:1 7:0.2351532 8:0 9:1 10:9.7779739e-05 11:0 12:0 13:0 14:-0.57142854 15:0.34615385 16:43 
-1 1:0.4196929 2:0.8888889 3:0.37843568 4:0.29545456 5:0.26889044 6:1 7:0.30157011 8:0.94813175 9:1 10:0.00091670247 11:0.11879543 12:0.84002616 13:0 14:-2.5 15:1.5 16:26 
1 1:0.29294737 2:0.76666665 3:0.65945808 4:0.19512194 5:0.24331699 6:1 7:0.22911327 8:0 9:1 10:1.7660989e-05 11:0 12:0 13:0.1 14:-0.39999998 15:0.83333333 16:4 
1 1:0.1865784 2:0.68488282 3:0.63452303 4:0.23636365 5:0.098046735 6:1 7:0.14910163 8:0 9:1 10:1.8198023e-07 11:0 12:0 13:0.1 14:-0.79999995 15:0.41666667 16:21 
-0.6133815138438035 1:0.028209286 2:0.60451388 3:0.31156968 4:0.30000001 5:0.0081204283 6:1 7:1.3294677e-06 8:0 9:1 10:0 11:0 12:0 13:0 14:-0.29999995 15:0.38095238 16:13 
-1 1:0.3224941 2:0.91666669 3:0.54827951 4:0.29411763 5:0.11711189 6:1 7:0.24219576 8:0 9:1 10:0.00010950946 11:0.40279407 12:0.7054966 13:0.27027027 14:-0.70000005 15:0.96969697 16:75 
1 1:0.18919088 2:0.55793649 3:0.64014355 4:0.4074074 5:0.051232986 6:1 7:0.091778234 8:0 9:1 10:3.7208842e-05 11:0.083179214 12:0 13:0.10714286 14:-0.5 15:0.25 16:5 
1 1:0.24615153 2:0.66542655 3:0.490299 4:0.45833331 5:0.27168985 6:1 7:0.20419603 8:0 9:0 10:0 11:0.2086051 12:0.97938703 13:0.088235294 14:0.28571427 15:0.2 16:8 
1 1:0.30919699 2:0.74350655 3:0.70655686 4:0.47368419 5:0.40273009 6:1 7:0.36043803 8:0 9:1 10:0 11:0 12:0 13:0.10714286 14:0.375 15:0.5 16:10 
1 1:0.080259417 2:0.49484128 3:0.32750761 4:0.17500001 5:0.046124835 6:1 7:3.2077358e-06 8:0 9:1 10:0.00013280804 11:0 12:0 13:0 14:0 15:0 16:23 
1 1:0.060410978 2:0.64603174 3:0.34444585 4:0.32653064 5:0.021430321 6:1 7:6.0747753e-06 8:0 9:1 10:0 11:0 12:0 13:0 14:-0.125 15:0 16:7 
-0.2776318954712393 1:0.18645898 2:0.51838994 3:0.8231613 4:0.15584415 5:0.53357497 6:1 7:0.48493082 8:0.81682283 9:1 10:0.0014482538 11:0 12:0 13:0.011904762 14:0.125 15:0.055944056 16:65 
1 1:0.17889605 2:0.8298611 3:0.49648905 4:0.36986303 5:0.13260238 6:1 7:0.2761689 8:0.8280489 9:1 10:0.012010876 11:0.45636633 12:0.69759041 13:0 14:-0.875 15:0.49230769 16:24 
1 1:0.30688409 2:0.72420633 3:0.59864865 4:0.36486489 5:0.19318598 6:1 7:0.14372491 8:0 9:1 10:0.00015021553 11:0.56740273 12:0 13:0.21428571 14:-0.25 15:0.21818182 16:25 
1 1:0.17989645 2:0.59897959 3:0.42290232 4:0.24489796 5:0.21464654 6:1 7:2.3340062e-06 8:0 9:1 10:4.6147009e-05 11:0.76458087 12:0 13:0.038461538 14:0 15:0.5 16:11 
1 1:0 2:0.76473212 3:0.41566426 4:0.28260869 5:0.3271341 6:1 7:0.44712897 8:0.55183231 9:1 10:0.19248209 11:0 12:0.63096128 13:0 14:0.125 15:0.35555556 16:20 
1 1:0.1742847 2:0.46026784 3:0.51479843 4:0.3888889 5:0.18877398 6:1 7:0.16573333 8:0.8389942 9:1 10:0.027115678 11:0.51474694 12:0 13:0.020408163 14:0.090909064 15:0 16:25 
1 1:0.024429331 2:0.82087052 3:0.4908473 4:0.28787881 5:0.0058699816 6:1 7:0.13975268 8:0 9:1 10:0 11:0.23439373 12:0 13:0.025 14:0 15:0.15 16:19 
-1 1:0.56036478 2:0.76666665 3:0.87914737 4:0.35135138 5:0.22609848 6:1 7:0.33856328 8:0.72930331 9:1 10:0.10750213 11:0 12:0.78162598 13:0.33333333 14:-0.33333337 15:0.66666667 16:20 
1 1:0.075285442 2:0.59212017 3:0.39687082 4:0.20588237 5:0.029149941 6:1 7:1.8563308e-06 8:0 9:1 10:0 11:0 12:0 13:0 14:0 15:0.13333333 16:8 
1 1:0.29098154 2:1 3:0.7548997 4:0.43396229 5:0.18362826 6:1 7:0.38400006 8:0.75377374 9:1 10:0.0035566507 11:0 12:0 13:0.13333333 14:-0.33333337 15:0.6 16:15 
-0.4870384838005531 1:0.4731026 2:0.9545455 3:0.66565806 4:0.21212119 5:0.3527755 6:1 7:0.314987 8:0.75806218 9:1 10:0.008214671 11:0 12:0.58841313 13:0 14:-1.3333333 15:0.71428571 16:21 
1 1:0.070875246 2:0.68087298 3:0.44655078 4:0.19607842 5:0.057870443 6:1 7:0.17058245 8:0 9:1 10:0 11:0 12:0 13:0.018867925 14:0.083333313 15:0.085714286 16:13 
1 1:0.29600741 2:0.76735538 3:0.42652676 4:0.26530612 5:0.3793788 6:1 7:0.34541852 8:0.90675259 9:1 10:0.16239289 11:0 12:0.67619717 13:0.13888889 14:0.1111111 15:0.23809524 16:3 
1 1:0.03463818 2:0.74732149 3:0.70705213 4:0.22580647 5:0.0092825682 6:1 7:0.15748903 8:0 9:1 10:0 11:0.11923408 12:0 13:0.04 14:0.18181819 15:0 16:22 
1 1:0.28930551 2:0.72261906 3:0.42507905 4:0.25925928 5:0.37236225 6:1 7:0.60186519 8:0 9:1 10:0.0005753848 11:0.64745909 12:0 13:0 14:-0.20000005 15:0.35555556 16:1 
-1 1:0.054753729 2:0.48190475 3:0.30428792 4:0.1964286 5:0.032971724 6:1 7:1.3531046e-07 8:0 9:1 10:0 11:0 12:0 13:0 14:0.10000002 15:0 16:37 
-1 1:0.1700177 2:0.77380955 3:0.51261295 4:0.26923078 5:0.098628178 6:1 7:1.3982032e-06 8:0 9:1 10:0 11:0 12:0 13:0.066666667 14:-1.3333333 15:0 16:39 
1 1:0.08305734 2:0.72321427 3:0.54841557 4:0.29166669 5:0.019943331 6:1 7:1.3415501e-06 8:0 9:1 10:0 11:0 12:0 13:0 14:-0.75 15:0.71428571 16:18 
1 1:0.12681111 2:0.69134921 3:0.27112677 4:0.28333336 5:0.32516407 6:1 7:0.097811591 8:0.95289215 9:1 10:0.00559389 11:0 12:0.89317266 13:0.066666667 14:-0.29999995 15:0.3956044 16:6 
0.2123825777425474 1:0.35900195 2:0.95833331 3:0.56411555 4:0.26206899 5:0.21301985 6:1 7:0.41351593 8:0 9:1 10:0 11:0.37346359 12:0.61164625 13:0.26829268 14:-1.4000001 15:1.2272727 16:91 
1 1:0.45842633 2:0.90000004 3:0.46243788 4:0.38028169 5:0.35804628 6:1 7:0.27923702 8:0.85841826 9:1 10:0.0015327784 11:0 12:0.96541422 13:0.22222222 14:0 15:1.0893617 16:23 
1 1:0.083577519 2:0.6802721 3:0.65862931 4:0.26666665 5:0.057095704 6:1 7:0.18982231 8:0 9:1 10:0 11:0 12:0 13:0 14:0 15:0 16:2 
1 1:0.094175796 2:0.44278723 3:0.4974397 4:0.25806451 5:0.115128 6:1 7:1.0912126e-07 8:0 9:1 10:0 11:0 12:0 13:0 14:0.14285713 15:0.17777778 16:3 
1 1:0.43902288 2:0.85555553 3:0.56160511 4:0.22727275 5:0.59167753 6:1 7:0.40536694 8:0.68338484 9:1 10:0.022789697 11:0 12:0 13:0.2 14:0 15:0.5 16:1 
-1 1:0.16081226 2:0.80344677 3:0.54018866 4:0.29310346 5:0.50308635 6:1 7:0.46238357 8:0.73834357 9:1 10:0.12581885 11:0 12:0.76664771 13:0.012820513 14:0.15384614 15:0.13636364 16:37 
-1 1:0.063154229 2:0.76190472 3:0.56524605 4:0.24528301 5:0.050882758 6:1 7:1.5208022e-05 8:0 9:1 10:0 11:0 12:0 13:0.047619048 14:-0.57142854 15:0 16:25 
1 1:0.40762911 2:0.56696427 3:0.64584627 4:0.4375 5:0.48375619 6:1 7:9.0238888e-08 8:0 9:1 10:0.00010454058 11:0 12:0.97696364 13:0.14285714 14:0.4285714 15:0.33333333 16:11 
1 1:0.031258362 2:0.61041665 3:0.26503064 4:0.32558137 5:0.005284723 6:1 7:5.7625345e-07 8:0 9:0 10:0 11:0 12:0 13:0.035714286 14:0.125 15:0.35555556 16:7 
-0.868273486221292 1:0.038877363 2:0.47944444 3:0.4692675 4:0.22222221 5:0.0052088813 6:1 7:5.1358414e-08 8:0 9:0 10:0 11:0.56940259 12:0 13:0 14:-1.1428571 15:0.24615385 16:33 
1 1:0.079079405 2:0.86250001 3:0.56233978 4:0.37179488 5:0.22292835 6:1 7:0.41348484 8:0 9:1 10:0 11:0 12:0 13:0.21428571 14:-0.625 15:0.96969697 16:24 
-1 1:0.050932978 2:0.921875 3:0.51295976 4:0.30909091 5:0.039699147 6:1 7:0.35032468 8:0 9:0 10:0 11:0 12:0 13:0.05 14:-0.42857146 15:0.75 16:21 
-1 1:0.046317707 2:1 3:0.49725689 4:0.2631579 5:0.15681649 6:1 7:0.21479185 8:0.72421365 9:1 10:0.019945838 11:0 12:0 13:0.16666667 14:-1.5 15:0.77777778 16:38 
1 1:0.12097766 2:0.58375853 3:0.48289404 4:0.28846157 5:0.027349102 6:1 7:0.061980837 8:0 9:1 10:0.00018025452 11:0 12:0.72536422 13:0.069767442 14:0 15:0.38095238 16:6 
1 1:0.024170491 2:0.63188243 3:0.68726564 4:0.39393938 5:0.16366594 6:1 7:0.19181176 8:0 9:1 10:0 11:0 12:0 13:0.047619048 14:0.14285713 15:0.35555556 16:1 
1 1:0.71657225 2:0.87896824 3:0.60428792 4:0.58461535 5:0.90230528 6:1 7:0.23637847 8:0.7934334 9:1 10:0.018257562 11:0.59273619 12:0.78660388 13:0.35897436 14:0.53846157 15:0.75 16:0 
1 1:0.23339223 2:0.70880103 3:0.76384657 4:0.19047618 5:0.32736812 6:1 7:0.31023169 8:0 9:1 10:5.6656778e-05 11:0 12:0 13:0.035714286 14:0.125 15:0.11428571 16:24 
1 1:0.21827999 2:0.65966928 3:0.54532152 4:0.24324322 5:0.077960932 6:1 7:0.10139892 8:0 9:1 10:1.9694962e-05 11:0 12:0.6318039 13:0.15384615 14:-0.29999995 15:1.0285714 16:25 
1 1:0.027558182 2:0.44222412 3:0.21732976 4:0.13157892 5:0.0038516221 6:1 7:7.1881864e-08 8:0 9:1 10:0 11:0 12:0 13:0 14:-0.14285719 15:0 16:2 
-0.6384697383211417 1:0 2:1 3:0.6249779 4:0.13333333 5:0 6:1 7:0.6158034 8:0.86378935 9:1 10:0.19083096 11:0 12:0.76722717 14:-8 15:1.6666667 16:38 
1 1:0.21363658 2:0.9666667 3:0.63002044 4:0.34615386 5:0.65550769 6:1 7:0.7181746 8:0.61048183 9:1 10:0.0077942628 11:0 12:0.63063697 13:0.066666667 14:0.16666669 15:0.66666667 16:15 
1 1:0.044709266 2:0.55009919 3:0.53032846 4:0.36363637 5:0.012826407 6:1 7:5.9713304e-08 8:0 9:1 10:0 11:0 12:0 13:0.027777778 14:0.22222221 15:0.4 16:19 
1 1:0.029210055 2:0.45598763 3:0.37388634 4:0.19565219 5:0.0095219179 6:1 7:1.7603019e-07 8:0 9:1 10:1.2251404e-07 11:0 12:0 13:0 14:0.1111111 15:0 16:20 
-1 1:0.19969167 2:0.67142856 3:0.40794837 4:0.26666665 5:0.27158926 6:1 7:3.6451177e-08 8:0 9:1 10:0.00019008455 11:0 12:0.51333213 13:0 14:0.14285713 15:0 16:28 
-1 1:0.050129412 2:0.44642857 3:0.45383225 4:0.18947369 5:0.014748692 6:1 7:1.0054999e-07 8:0 9:1 10:0 11:0 12:0 13:0.11111111 14:-3 15:0.86666667 16:71 
0.928279645022983 1:0.69443197 2:0.78240746 3:0.63462189 4:0.2474227 5:0.3114254 6:1 7:0.42625086 8:0.8229544 9:1 10:0.25545419 11:0 12:0.77753746 13:0.33333333 14:-3 15:0.96969697 16:61 
1 1:0.1611262 2:0.66071427 3:0.36940714 4:0.22727275 5:0.26508401 6:1 7:0.25846781 8:0 9:1 10:0 11:0.59395263 12:0 13:0 14:0.1111111 15:0.15 16:25 
-1 1:0.27827041 2:0.7517857 3:0.59672062 4:0.30097085 5:0.18798173 6:0 7:0.16031203 8:0 9:1 10:1.9856152e-06 11:0 12:0 13:0.047619048 14:-1.2857144 15:0.5 16:60 
1 1:0.20397564 2:0.52083331 3:0.2593543 4:0.39999998 5:0.17210681 6:1 7:2.2564483e-06 8:0 9:1 10:0 11:0 12:0 13:0.16666667 14:-0.5 15:0 16:11 
1 1:0.057820931 2:0.51325399 3:0.54760235 4:0.37209302 5:0.025862303 6:1 7:0.31703004 8:0.82951566 9:1 10:0.0007322075 11:0.23763381 12:0 13:0 14:0.1111111 15:0.085714286 16:22 
1 1:0.044898216 2:0.26253006 3:0.23444851 4:0.32258064 5:0.042624531 6:1 7:3.6012523e-08 8:0.76820718 9:1 10:0.042461692 11:0.10074171 12:0.88761343 13:0.022222222 14:0.19999999 15:0.3 16:6 
1 1:0.27105212 2:0.84453124 3:0.45361957 4:0.27272725 5:0.22747066 6:1 7:0.30144772 8:0.837257 9:1 10:0.07720903 11:0.32660241 12:0.78844677 13:0.18518519 14:-0.625 15:0.77142857 16:14 
1 1:0.096296234 2:0.46127406 3:0.33517297 4:0.25806451 5:0.036055155 6:1 7:2.7875593e-07 8:0 9:1 10:0 11:0 12:0 13:0 14:-0.79999995 15:0 16:7 
-1 1:0.044285892 2:0.57752264 3:0.29437564 4:0.17741936 5:0.042539623 6:1 7:5.8201166e-08 8:0 9:1 10:0 11:0 12:0 13:0 14:0 15:0 16:40 
-0.1227130908015759 1:0.19173461 2:0.90277773 3:0.44586185 4:0.20689654 5:0.12968788 6:1 7:0.147137 8:0 9:0 10:1.0493654e-06 11:0 12:0 13:0.13043478 14:-1.25 15:0.41666667 16:79 
1 1:0.13873761 2:0.82102776 3:0.3120021 4:0.34482759 5:0.15518215 6:1 7:0.45830544 8:0 9:1 10:1.4505786e-06 11:0 12:0 13:0.023255814 14:0 15:0.15 16:2 
1 1:0.19116302 2:0.79166669 3:0.48389599 4:0.26415092 5:0.33305186 6:1 7:0.3453538 8:0.71955059 9:1 10:0.0083641203 11:0.40123853 12:0 13:0.15789474 14:-0.42857146 15:0.35897436 16:14 
1 1:0.02921734 2:0.47732425 3:0.5452668 4:0.25 5:0.0016793211 6:1 7:1.8736845e-07 8:0 9:1 10:0 11:0 12:0 13:0 14:-1 15:0 16:14 
0.2920656705521581 1:0 2:0.70714283 3:0.28490265 4:0.19512194 5:0.31012865 6:1 7:0.34148145 8:0 9:1 10:7.0483714e-06 11:0 12:0 13:0 14:0.14285713 15:0 16:28 
1 1:0.041118236 2:0.47288358 3:0.4135964 4:0.26666665 5:0.0081299094 6:1 7:0.30403076 8:0 9:1 10:0 11:0.36655829 12:0 13:0 14:0.14285713 15:0 16:7 
1 1:0.021755955 2:0.49342594 3:0.26665374 4:0.23076922 5:0.004135326 6:1 7:3.7705915e-06 8:0 9:1 10:0 11:0 12:0 13:0 14:0.083333313 15:0.28571429 16:22 
0.5153488509112094 1:0.053535752 2:0.72214162 3:0.62837265 4:0.14772725 5:0.08800274 6:1 7:0.50622144 8:0 9:1 10:3.1052285e-06 11:0 12:0 13:0.0058823529 14:0.10000002 15:0.028846154 16:72 
-1 1:0.071064202 2:0.71913576 3:0.42595961 4:0.17741936 5:0.01130364 6:1 7:1.636903e-07 8:0 9:1 10:0 11:0 12:0 13:0 14:-2.25 15:0 16:47 
1 1:0.54353726 2:1 3:0.99666751 4:0.45652175 5:0.27284115 6:1 7:0.63663311 8:0 9:1 10:0 11:0 12:0 13:0.5 14:-0.75 15:1.4285714 16:24 
-0.7060428804013457 1:0.11754443 2:0.74594903 3:0.93937448 4:0.39795917 5:0.20841433 6:1 7:0.21478218 8:0.8323949 9:1 10:0.13124443 11:0.13072285 12:0.90850742 13:0.091743119 14:0.3125 15:0.1015873 16:48 
1 1:0.22192647 2:0.78451389 3:0.44159297 4:0.19999999 5:0.34502311 6:1 7:0.28127836 8:0 9:1 10:6.826816e-05 11:0.24260897 12:0.90195217 13:0.0625 14:0 15:0.53333333 16:10 
1 1:0.21785124 2:0.72023809 3:0.48606706 4:0.34615386 5:0.11291116 6:1 7:0.28998401 8:0 9:1 10:0.00023130565 11:0.097716227 12:0 13:0.14285714 14:-0.28571427 15:0.66666667 16:17 
1 1:0.29876503 2:0.5177778 3:0.51791291 4:0.31034482 5:0.46999529 6:1 7:0.15386095 8:0.83300287 9:1 10:0.12069713 11:0.069273187 12:0.64212043 13:0.054545455 14:0.18181819 15:0.33333333 16:27 
1 1:0.52417731 2:0.94444442 3:0.63782457 4:0.40909094 5:0.25638046 6:1 7:0.33587873 8:0 9:1 10:0.0011634297 11:0 12:0 13:0.16666667 14:-0.5 15:0.71428571 16:20 
1 1:0.066762129 2:0.71464646 3:0.49046888 4:0.23076922 5:0.039534084 6:1 7:0.20616576 8:0 9:1 10:0 11:0 12:0 13:0.035714286 14:-0.5 15:0 16:22 
1 1:0.052113254 2:0.45798609 3:0.25739103 4:0.19148934 5:0.018419256 6:1 7:1.9138394e-07 8:0 9:1 10:0 11:0 12:0 13:0 14:0 15:0 16:7 
0.7286076623748304 1:0.16811427 2:0.076322757 3:0.5783469 4:0.14666665 5:0.39302115 6:1 7:9.9307283e-08 8:0 9:1 10:0.00013893074 11:0 12:0 13:0 14:0.0625 15:0.038961039 16:60 
1 1:0.2017404 2:0.64112103 3:0.64016421 4:0.2962963 5:0.071361685 6:1 7:0.12619551 8:0 9:0 10:0.00010344859 11:0.29125824 12:0 13:0.11538462 14:-0.75 15:0.66666667 16:42 
1 1:0.33731615 2:0.72619051 3:0.52997205 4:0.36363637 5:0.32512907 6:1 7:0.2748056 8:0 9:0 10:1.9315825e-05 11:0 12:0 13:0.1 14:-0.60000002 15:0.41666667 16:16 
-1 1:0.33429921 2:0.80324072 3:0.355997 4:0.17391306 5:0.1081041 6:1 7:0.20386752 8:0.62139221 9:1 10:0.00084414277 11:0 12:0 13:0 14:-1.75 15:0.8 16:25 
1 1:0.32173943 2:0.8888889 3:0.24072366 4:0.375 5:0.22633485 6:1 7:0.00011150365 8:0 9:1 10:0 11:0 12:0 13:0 14:-0.5 15:0 16:14 
1 1:0.34116966 2:0.68738091 3:0.47483913 4:0.2037037 5:0.32728069 6:1 7:0.31321952 8:0.77729441 9:1 10:0.0043598508 11:0.58569727 12:0.78892631 13:0.088235294 14:-0.11111116 15:0.43636364 16:11 
1 1:0.12819845 2:0 3:0.30551819 4:0.22222221 5:0.14469416 6:1 7:0 8:0 9:1 10:0 11:0 12:0 13:0 14:0.14285713 15:0 16:19 
1 1:0.36250409 2:0.70999998 3:0.72635642 4:0.22916669 5:0.40388742 6:1 7:0.37715858 8:0.93351091 9:1 10:0.0007323663 11:0 12:0 13:0.047619048 14:-0.14285719 15:0.55555556 16:8 
-0.9460725840471063 1:0 2:1 3:0.59997813 4:0.18333334 5:0.20202975 6:1 7:0.29351798 8:0.81567284 9:1 10:0.029385335 11:0 12:0 13:0 14:-3 15:0.48484848 16:44 
1 1:0.15944574 2:0.59098643 3:0.24386558 4:0.30434781 5:0.088775449 6:1 7:3.0506741e-05 8:0 9:0 10:2.0082841e-08 11:0 12:0 13:0.022222222 14:0 15:0 16:18 
1 1:0.0086598033 2:0.48035717 3:0.22921439 4:0.25 5:0.00053007058 6:1 7:1.1096164e-07 8:0 9:1 10:0 11:0 12:0.80602663 13:0 14:0.125 15:0.45 16:11 
-1 1:0.11637738 2:0.51615822 3:0.31184824 4:0.30508476 5:0.040340146 6:1 7:1.4541749e-07 8:0 9:1 10:0 11:0 12:0 13:0.035714286 14:-0.125 15:0 16:23 
1 1:0.32287902 2:0.84765625 3:0.2945367 4:0.20512819 5:0.39382665 6:1 7:0.65383506 8:0.86350996 9:1 10:0.0026985193 11:0 12:0.95510467 13:0 14:0 15:0.83333333 16:5 
1 1:0.051127345 2:0.57895237 3:0.40597541 4:0.25862068 5:0.02552647 6:1 7:8.6041598e-07 8:0 9:0 10:0 11:0 12:0 13:0 14:0 15:0.21818182 16:20 
-0.3581369157228638 1:1 2:1 3:0.49997986 4:0.21428573 5:0.62145132 6:1 7:0.67012702 8:0.51436607 9:1 10:0.011516174 11:0 12:0.47517521 14:-3 15:1.5 16:11 
1 1:0.1964375 2:0.73140794 3:0.26678846 4:0.35185188 5:0.1535802 6:1 7:5.8553176e-06 8:0 9:0 10:0 11:0.33870729 12:0.87087526 13:0 14:-0.33333337 15:0.38095238 16:18 
-1 1:0.096163222 2:0.47837302 3:0.22233246 4:0.20408165 5:0.023536106 6:1 7:1.8154896e-07 8:0 9:1 10:0 11:0 12:0 13:0 14:-1.2 15:0 16:14 
-0.3496862837917389 1:1 2:1 3:0.99982773 4:0.18644071 5:0.42602762 6:1 7:0.5900837 8:0.52651941 9:1 10:0.0053126985 11:0 12:0 14:-6 15:1.7142857 16:48 
-1 1:0.59033495 2:1 3:0.69516694 4:0.22727275 5:0.61246642 6:1 7:0.87715515 8:0.82896147 9:1 10:0.023000631 11:0.14895963 12:0.82554416 13:0 14:-0.33333337 15:1.2 16:1 
1 1:0.33542572 2:0.59687501 3:0.50983745 4:0.47368419 5:0.45010881 6:1 7:0.26517697 8:0.94549633 9:1 10:0.097163738 11:0.21178303 12:0 13:0.14285714 14:-0.28571427 15:0.49230769 16:18 
1 1:0.39156375 2:0.96296293 3:0.54087508 4:0.2758621 5:0.4688402 6:1 7:0.59667696 8:0 9:1 10:0 11:0 12:0 13:0.066666667 14:0 15:0.5 16:6 
-1 1:0.054999343 2:0.26979592 3:0.267384 4:0.25 5:0.018741352 6:1 7:2.3767938e-06 8:0.9980351 9:1 10:0.002010713 11:0 12:0 13:0 14:0.125 15:0.17777778 16:16 
1 1:0.2834286 2:0.86154515 3:0.64845639 4:0.37837839 5:0.28448637 6:1 7:0.32287982 8:0.78240687 9:1 10:0.010495462 11:0.52124748 12:0.75511907 13:0.2 14:0.44444442 15:0.20779221 16:2 
1 1:0.59336993 2:0.32467532 3:0.61828066 4:0.38297874 5:0.24711627 6:1 7:7.8472467e-09 8:0 9:1 10:1.438935e-05 11:0 12:0 13:0.5 14:-0.25 15:0 16:26 
1 1:0.46432669 2:0.8214286 3:0.41980384 4:0.60000002 5:0.67690606 6:1 7:0.73294384 8:0.7608797 9:1 10:0.17165955 11:0.25841794 12:0.88172072 13:0.20408163 14:0.36363637 15:0.60606061 16:17 
1 1:0.2039569 2:0.66233766 3:0.80767802 4:0.52173913 5:0.71878592 6:1 7:0.45369843 8:0.56220144 9:1 10:0.18097448 11:0 12:0.55935203 13:0.2 14:0.33333331 15:0 16:9 
1 1:0.62708192 2:1 3:0.77695771 4:0.390625 5:0.62493307 6:0 7:0.43954219 8:0.91320929 9:1 10:0.81117952 11:0 12:0.88256824 13:0.33333333 14:-0.33333337 15:1.2307692 16:28 
-0.1537865726801294 1:0.64765254 2:0.90558219 3:0.73604414 4:0.29292929 5:0.26789555 6:0.46470077 7:0.42547218 8:0.87178988 9:1 10:0.013304151 11:0 12:0.82213369 13:0.41666667 14:-0.44444442 15:0.75 16:40 
-1 1:0.92125751 2:1 3:0.78016382 4:0.51999998 5:0.85209114 6:1 7:0.74978075 8:0.98293994 9:1 10:0.82454674 11:0.38127747 12:0.97658078 13:0.6 14:-0.20000005 15:1.3333333 16:22 
1 1:0.49151721 2:0.92857146 3:0.65932777 4:0.36363637 5:0.5462271 6:1 7:0.3380592 8:0.8028659 9:1 10:0.10708103 11:0.38361981 12:0.90659658 13:0.28571429 14:0.28571427 15:0.21428571 16:3 
1 1:0.27774264 2:1 3:0.25854908 4:0.45238096 5:0.27460994 6:1 7:0.44191912 8:0.83108766 9:1 10:0.36804165 11:0.32411692 12:0.81466403 13:0.31944444 14:0.30769229 15:0.48611111 16:14 
1 1:0.3382552 2:0.55714285 3:0.74998173 4:0.46341461 5:0.79986544 6:1 7:0.27598881 8:0.81509776 9:1 10:0.3444985 11:0.31352293 12:0.72781613 13:0.16666667 14:0.4285714 15:0.66666667 16:21 
1 1:0.2298894 2:0.73004121 3:0.22772955 4:0.5945946 5:0.24016572 6:1 7:0.19713946 8:0.89884301 9:1 10:0.00719116 11:0 12:0.92261663 13:0.10714286 14:0.25 15:0.42857143 16:7 
1 1:0.59987774 2:0.92592591 3:0.76265633 4:0.35416669 5:0.53324033 6:0 7:0.43021018 8:0 9:1 10:0.00016138517 11:0 12:0.83793243 13:0.2 14:0 15:0.5 16:7 
1 1:0.32749976 2:0.69841272 3:0.36009667 4:0.23809522 5:0.52655964 6:1 7:0.26667708 8:0.56169767 9:1 10:0.27669816 11:0 12:0.64067326 13:0.2 14:-0.20000005 15:0.55555556 16:13 
1 1:0.20213585 2:0.39259258 3:0.2240206 4:0.61818182 5:0.57398795 6:1 7:0.22197158 8:0.74919236 9:1 10:0.21344994 11:0 12:0.86133254 13:0.16666667 14:0.46153843 15:0.3968254 16:15 
1 1:0.53171073 2:0.65432096 3:0.60701923 4:0.53571427 5:0.49520354 6:1 7:0.33053893 8:0 9:1 10:5.8393148e-06 11:0 12:0 13:0.2 14:0.33333331 15:0.33333333 16:7 
1 1:0.1650433 2:1 3:0.60708848 4:0.28571427 5:0.27966212 6:1 7:0.33755587 8:0.8200034 9:1 10:0.3148411 11:0.70552297 12:0.79138945 13:0.2 14:-0.16666663 15:0.4 16:10 
0.4504552014606231 1:0.59632203 2:0.98148149 3:0.7692026 4:0.29577464 5:0.40321691 6:1 7:0.48699594 8:0.76471883 9:1 10:0.30399571 11:0 12:0.64704292 13:0.21818182 14:-1.1818182 15:1.1666667 16:81 
1 1:0.37481467 2:0.77148145 3:0.35906989 4:0.42465752 5:0.19631498 6:1 7:0.21493667 8:0.72982442 9:1 10:0.0048381014 11:0.21405843 12:0.76178936 13:0.10909091 14:0.18181819 15:0.27777778 16:15 
1 1:0.31218721 2:1 3:0.78905108 4:0.58181822 5:0.35632522 6:1 7:0.31965075 8:0.91146141 9:1 10:0.24927971 11:0.17088305 12:0.92062884 13:0.41666667 14:0.33333331 15:0.66666667 16:11 
1 1:0.6342079 2:0.8888889 3:0.63497635 4:0.7241379 5:0.568683 6:1 7:0.27865493 8:0 9:1 10:8.009396e-06 11:0.72437158 12:0.83660533 13:0.4 14:0.66666663 15:0.6 16:0 
1 1:0.29636659 2:0.74764031 3:0.5571616 4:0.31578946 5:0.25170276 6:1 7:0.35028269 8:0.66183368 9:1 10:0.019923084 11:0.20158789 12:0.74151597 13:0.27083333 14:0.125 15:0.48888889 16:3 
1 1:0.76129287 2:0.79166669 3:0.60842012 4:0.375 5:0.29327521 6:1 7:0.2558324 8:0.94969935 9:1 10:0.064248964 11:0.094943804 12:0.84919951 13:0.66666667 14:0 15:0.9 16:18 
1 1:0.48085716 2:1 3:0.68858131 4:0.36363637 5:0.30715778 6:1 7:0.38154259 8:0.55556197 9:1 10:0.022466407 11:0.23739422 12:0.89781782 13:0.46666667 14:-0.5 15:0.93333333 16:28 
1 1:0.55829789 2:0.86831278 3:0.59088895 4:0.4130435 5:0.18303564 6:1 7:0.31031514 8:0.8843678 9:1 10:0.069768151 11:0.15330451 12:0.84101165 13:0.47619048 14:0 15:0.6 16:16 
1 1:0.39073859 2:0.69345242 3:0.62108506 4:0.47727275 5:0.10192075 6:1 7:0.11388754 8:0 9:1 10:0 11:0 12:0 13:0.28571429 14:0.14285713 15:0.63636364 16:2 
0.7287623373231576 1:0.62053406 2:0.74166662 3:0.88857289 4:0.86206895 5:0.5228991 6:1 7:0.57046699 8:1 9:1 10:0.9999631 11:0.68612045 12:1 13:0.5 14:0.5 15:1.1428571 16:0 
1 1:0.47289349 2:1 3:0.7921849 4:0.41379309 5:0.19081798 6:1 7:0.39789462 8:0.47416399 9:1 10:0.050795889 11:0 12:0.42958088 13:0.33333333 14:0 15:1.5 16:15 
1 1:0.31331697 2:1 3:0.82586005 4:0.2962963 5:0.097924644 6:1 7:0.20304978 8:0 9:1 10:9.288183e-06 11:0 12:0 13:0.33333333 14:-1 15:0 16:3 
1 1:0.35448425 2:1 3:0.96676326 4:0.8888889 5:0.31033088 6:1 7:0.91430047 8:0.92390495 9:1 10:0.053782832 11:0.80896717 12:0.85437264 13:0.3 14:0.80000001 15:1 16:2 
1 1:0.37546788 2:0.86250001 3:0.70421823 4:0.41071427 5:0.36477164 6:1 7:0.60086843 8:0.91946646 9:1 10:0.19864654 11:0.2589721 12:0.88298041 13:0.33333333 14:0.30000001 15:0.66666667 16:4 
1 1:0.47672699 2:1 3:0.93628234 4:0.75862068 5:0.58890456 6:1 7:0.81514568 8:0.92263743 9:1 10:0.2754919 11:1 12:0.94218709 13:0.3 14:0.80000001 15:0.82580645 16:1 
1 1:0.57597063 2:0.81547618 3:0.51684413 4:0.56603777 5:0.53000039 6:1 7:0.46599192 8:0 9:1 10:3.5191274e-06 11:0.46985341 12:0.96067014 13:0.32 14:0.375 15:0.43636364 16:9 
1 1:0.65790223 2:0.97346938 3:0.70974693 4:0.66129029 5:0.43524787 6:1 7:0.61476171 8:0.80314491 9:1 10:0.26514675 11:0.28152893 12:0.91695161 13:0.52592593 14:0.52631581 15:1.0505051 16:1 
1 1:0.014817666 2:1 3:0.34825296 4:0.60000002 5:0.13828842 6:1 7:0.38605282 8:0 9:1 10:0 11:0 12:0.64984485 13:0.2 14:0 15:0.38095238 16:8 
0.7377218078690666 1:1 2:0 3:0.9977971 4:0.39999998 5:0.65388552 6:1 7:0 8:0 9:1 10:0 11:0 12:0 13:1 14:-0.5 15:1.5 16:15 
1 1:0.34890881 2:0.87083334 3:0.85292688 4:0.71428573 5:0.23744906 6:1 7:0.55308137 8:0 9:1 10:8.6563902e-05 11:0 12:0 13:0.3 14:0.80000001 15:0.75 16:3 
1 1:0.43293304 2:0.875 3:0.52517497 4:0.38333333 5:0.62829773 6:1 7:0.55278359 8:0.72233168 9:1 10:0.72459671 11:0.40523605 12:0.79885285 13:0.33333333 14:-0.44444442 15:0.6 16:24 
1 1:0.54926266 2:0.94999999 3:0.87669161 4:0.5 5:0.41781694 6:1 7:0.1782711 8:0 9:1 10:8.5833903e-05 11:0.82693526 12:0 13:0.66666667 14:-0.16666663 15:0.75 16:25 
1 1:0.53643451 2:0.90909094 3:0.4933262 4:0.71428573 5:0.5180433 6:1 7:0.37762731 8:0.95682767 9:1 10:0.1115045 11:0.28393319 12:0.93521639 13:0.46666667 14:0.69999999 15:0.71111111 16:10 
1 1:0.4730775 2:0.76666665 3:0.77270776 4:0.35000002 5:0.62324563 6:1 7:0.51861201 8:0.97444566 9:1 10:0.26469534 11:0 12:0.95203067 13:0.13333333 14:0.16666669 15:0.5 16:3 
1 1:0.14667878 2:0.83809525 3:0.45657816 4:0.36986303 5:0.4977292 6:1 7:0.28084634 8:0 9:1 10:0.00026896121 11:0 12:0.45801598 13:0.28846154 14:0.63636363 15:0.48076923 16:45 
1 1:0.73915085 2:0.90476197 3:0.94866573 4:0.73170733 5:0.88081325 6:1 7:0.47475003 8:0.93532692 9:1 10:0.060619267 11:0.33630774 12:0.81115115 13:0.41666667 14:0.66666663 15:0.45 16:11 
1 1:0.2620578 2:0.88499999 3:0.72776493 4:0.41176468 5:0.25614184 6:1 7:0.33308989 8:0.93822387 9:1 10:0.0018853321 11:1 12:0.8443931 13:0.21428571 14:0.375 15:0.35555556 16:14 
1 1:0.47569448 2:0.96296293 3:0.59208864 4:0.45454544 5:0.43634922 6:1 7:0.38765066 8:0.88810109 9:1 10:0.0061721236 11:0.4371063 12:0 13:0.28571429 14:0.14285713 15:0.83333333 16:14 
1 1:0.2344687 2:1 3:0.89707113 4:0.92307693 5:0.15329658 6:1 7:0.2473108 8:0 9:1 10:0 11:0.80922336 12:0 13:0.16666667 14:0.75 15:0.79411765 16:1 
1 1:0.22206539 2:0.78916717 3:0.34575519 4:0.31818181 5:0.44789485 6:1 7:0.38710244 8:0.97712604 9:1 10:0.051675617 11:0.096925119 12:0.80338859 13:0.12820513 14:0.10000002 15:0.35714286 16:0 
1 1:0.16713341 2:0.83809525 3:0.36421673 4:0.40425533 5:0.18119424 6:1 7:0.21791118 8:0 9:0 10:6.7725376e-08 11:0 12:0 13:0.38461538 14:0 15:0.57142857 16:11 
1 1:0.3673715 2:1 3:0.51836965 4:0.2903226 5:0.42379527 6:1 7:0.37588294 8:0.91394907 9:1 10:0.018553043 11:0 12:0 13:0.2 14:0.19999999 15:0.76190476 16:16 
-1 1:1 2:1 3:0.44952863 4:0.68000001 5:0.97743498 6:1 7:0.91592429 8:1 9:1 10:0.9999631 11:0 12:1 13:1 14:-0.5 15:1.2 16:8 
1 1:0.36366486 2:1 3:0.63114399 4:0.26923078 5:0.11485464 6:1 7:0.37187117 8:0.80376256 9:0 10:0.47919096 11:0.10987433 12:0.79906588 13:0.38461538 14:-0.41666663 15:0.92857143 16:20 
0.661259073243918 1:0.54291546 2:1 3:0.8351784 4:0.41666669 5:0.19325796 6:1 7:0.35629407 8:0.65169475 9:1 10:0.0060373812 11:0 12:0.53524722 13:0.58333333 14:-0.55555558 15:0.96969697 16:37 
-0.8500473855035502 1:0.93044495 2:1 3:0.89967231 4:0.63380283 5:0.75273197 6:1 7:0.65871258 8:0.70778375 9:1 10:0.23891211 11:0.64043313 12:0.68942968 13:0.77777778 14:0.44444442 15:1.2307692 16:25 
1 1:0.42153157 2:1 3:0.73576381 4:0.58823526 5:0.43169869 6:1 7:0.16312476 8:0.82331594 9:1 10:0.0021592931 11:1 12:0 13:0.33333333 14:0.69999999 15:0.56842105 16:17 
-1 1:0.92912981 2:1 3:0.24999278 4:0.55000001 5:0.86408352 6:1 7:0.80387774 8:0.9337088 9:1 10:0.50150761 11:0.18030059 12:0.84405582 13:0.33333333 14:-0.33333337 15:1.3333333 16:7 
-1 1:0.84565879 2:1 3:0.99990126 4:0.6875 5:0.97861535 6:1 7:0.89981521 8:1 9:1 10:0.9999631 11:1 12:1 13:0.33333333 14:0.33333331 15:1.2 16:2 
-1 1:0.2679698 2:0.44687498 3:0.68626669 4:0.36842108 5:0.094747749 6:1 7:0.15597133 8:0.98984062 9:1 10:0.0013404631 11:0 12:0.90372938 13:0.2 14:0 15:0.3 16:4 
1 1:0.52971174 2:0.94999999 3:0.99979686 4:0.45714283 5:0.77928276 6:1 7:0.29102038 8:0.6531483 9:1 10:0.097737108 11:0 12:0 13:0.1 14:0.39999998 15:0.3 16:18 
-1 1:0.42412525 2:0.77664399 3:0.85031351 4:0.35714287 5:0.66729652 6:1 7:0.51217215 8:0.84553037 9:1 10:0.1186508 11:0 12:0.7704929 13:0.14285714 14:0.4285714 15:0.16666667 16:17 
1 1:0.64639373 2:0.9666667 3:0.68924051 4:0.63636363 5:0.64274475 6:1 7:0.33632066 8:0.90190371 9:1 10:0.21525874 11:0.097203471 12:0.89889475 13:0.77777778 14:0.33333331 15:1.1428571 16:13 
1 1:0.28291586 2:0.87083334 3:0.258801 4:0.53488374 5:0.36653307 6:1 7:0.39726238 8:0.89977673 9:1 10:0.25826385 11:0.44506858 12:0.84973073 13:0.22222222 14:0.5 15:0.75757576 16:9 
1 1:0.76963816 2:1 3:0.54846974 4:0.39473683 5:0.63462444 6:0.50859138 7:0.19350518 8:0.68395245 9:0 10:0.022123707 11:0.092345042 12:0.72614986 13:0.6 14:-0.20000005 15:1.5 16:18 
-1 1:0.30733529 2:0.70757931 3:0.82672049 4:0.33333331 5:0.36438528 6:1 7:0.58173276 8:0.85508567 9:1 10:0.024900132 11:0 12:0.95640205 13:0.10714286 14:0.375 15:0.35555556 16:26 
1 1:0.20525567 2:0.85000002 3:0.99665538 4:0.52941179 5:0.28279566 6:1 7:0.52188123 8:0.79104327 9:1 10:0.16870717 11:0.18301839 12:0.7310897 13:0.12 14:0.27272725 15:0.31168831 16:18 
1 1:0.37157519 2:0.82999998 3:0.73715895 4:0.44736844 5:0.30808754 6:1 7:0.32776472 8:0 9:1 10:0.00022244334 11:0 12:0 13:0.21428571 14:0.375 15:0.4 16:6 
1 1:0.69756865 2:0.91666663 3:0.91832861 4:0.72000003 5:0.87109236 6:1 7:0.23348628 8:0.84529087 9:1 10:0.19187965 11:0.53487484 12:0.81230898 13:0.41666667 14:0.66666663 15:0.45 16:14 
1 1:0.35912686 2:1 3:0.5055562 4:0.3888889 5:0.086063698 6:1 7:0.35840863 8:0.87933638 9:1 10:0.077572375 11:0.21344522 12:0 13:0.13333333 14:-0.16666663 15:0.93333333 16:12 
1 1:0.20317147 2:1 3:0.65058649 4:0.53488374 5:0.50868264 6:0 7:0.46916895 8:0.87801823 9:1 10:0.025966181 11:0.55357351 12:0.85194107 13:0.16666667 14:0.44444442 15:0.75 16:10 
1 1:0.61297083 2:0.87200004 3:0.71887072 4:0.57333332 5:0.73858666 6:1 7:0.48189065 8:0.89777638 9:1 10:0.22979155 11:0.58334754 12:0.90476656 13:0.38392857 14:0.70588231 15:0.68055556 16:31 
-1 1:0.5880278 2:0.46768704 3:0.89416894 4:0.5 5:0.85377122 6:1 7:0.36630902 8:0.92570607 9:1 10:0.27228188 11:0 12:0.94704094 13:0.14285714 14:0.4285714 15:0.66666667 16:20 
1 1:0.43428005 2:0.77777773 3:0.48330092 4:0.36363637 5:0.50702683 6:1 7:0.38122113 8:0 9:1 10:3.1420693e-06 11:0 12:0.83988213 13:0.31578947 14:-0.28571427 15:0.93333333 16:8 
-1 1:0.39718388 2:0.97727275 3:0.83630845 4:0.47368419 5:0.43650317 6:1 7:0.61551167 8:0.91903362 9:1 10:0.58141706 11:0.59528362 12:0.85437127 13:0.14285714 14:0.28571427 15:0.6 16:5 
1 1:0.23933741 2:0.90740734 3:0.64371483 4:0.41666669 5:0.31953657 6:1 7:0.32412807 8:0 9:1 10:1.2761484e-06 11:0.43825478 12:0 13:0.14285714 14:0.4285714 15:0.66666667 16:12 
1 1:0.26846523 2:0.81398809 3:0.50387467 4:0.33333331 5:0.22877189 6:1 7:0.59663674 8:0.87652866 9:1 10:0.20425517 11:0.40117311 12:0.90144573 13:0.14285714 14:0 15:0.76190476 16:6 
0.3845660648644245 1:0.66495061 2:0.87142861 3:0.71662026 4:0.36521739 5:0.29164927 6:1 7:0.40017174 8:0.51870788 9:0 10:0.35932266 11:0.32519117 12:0.44408797 13:0.75555556 14:-0.5 15:1.1789474 16:64 
1 1:0.60066101 2:0.9336735 3:0.91903393 4:0.60526311 5:0.89445001 6:1 7:0.30604185 8:0.7716002 9:1 10:0.025987508 11:0 12:0 13:0.35714286 14:0.5 15:0.4 16:9 
1 1:0.74741661 2:0.88611114 3:0.87787536 4:0.80000001 5:0.73919923 6:1 7:0.54898993 8:0.9567313 9:1 10:0.23686841 11:1 12:0.99408507 13:0.62222222 14:0.80000001 15:0.60606061 16:0 
1 1:0.21757272 2:0.81802464 3:0.96366603 4:0.45652175 5:0.17198131 6:1 7:0.52210141 8:0 9:1 10:4.4806739e-07 11:0 12:0 13:0.16666667 14:0.44444442 15:0.42857143 16:22 
1 1:0.31177809 2:0.79935724 3:0.68053663 4:0.58620691 5:0.2915848 6:1 7:0.5173221 8:0.82908146 9:1 10:0.10341069 11:0 12:0.81839537 13:0.22222222 14:0.30000001 15:0.87272727 16:4 
1 1:0.42717908 2:0.84814817 3:0.68423486 4:0.44117647 5:0.31165682 6:1 7:0.50266403 8:0 9:1 10:0 11:0 12:0 13:0.33333333 14:0 15:0.66666667 16:9 
1 1:0.058375987 2:0.60000002 3:0.27392361 4:0.51612902 5:0.0068301603 6:1 7:0.4161065 8:0.89781076 9:0 10:0.042854394 11:0.70175022 12:0.94346665 13:0.1 14:0.19999999 15:0.6 16:4 
1 1:0.36340466 2:0.62857145 3:0.93391764 4:0.34615386 5:0.55284265 6:1 7:0.5291359 8:0.40144572 9:1 10:0.0005096366 11:0 12:0 13:0.1 14:0.39999998 15:0.26666667 16:16 
1 1:0.67826993 2:1 3:0.68842674 4:0.69999999 5:0.9161445 6:1 7:0.37743406 8:0.90795007 9:1 10:0.51506322 11:1 12:0.91203023 13:0.3 14:0.39999998 15:1.2 16:7 
1 1:0.45034639 2:0.94444442 3:0.67894959 4:0.4893617 5:0.28946587 6:1 7:0.32765247 8:0 9:1 10:0.00020477233 11:0 12:0 13:0.26086957 14:0.375 15:0.3030303 16:12 
1 1:0.5720428 2:0.762963 3:0.77035518 4:0.51111114 5:0.49057168 6:1 7:0.20829421 8:0.86617981 9:1 10:0.030162161 11:0.24887156 12:0 13:0.53571429 14:0.5 15:0.38095238 16:2 
1 1:0.80292569 2:0.85238093 3:0.72871249 4:0.71111107 5:0.94109832 6:1 7:0.21258447 8:0.88057825 9:1 10:0.00493092 11:0.86116707 12:0 13:0.54545455 14:0.75 15:0.47619048 16:7 
1 1:0.2971476 2:0.94444442 3:0.59108659 4:0.52083337 5:0.36111776 6:1 7:0.53907946 8:0 9:1 10:3.9586593e-05 11:0.40744519 12:0 13:0.21428571 14:0.5 15:0.3 16:18 
-1 1:0.49966001 2:1 3:0.70335717 4:0.65217388 5:0.63139107 6:1 7:0.4716013 8:0.98875654 9:1 10:0.121226 11:0.58433838 12:0.99316807 13:0.16666667 14:0.5 15:1.5 16:3 
1 1:0.5411648 2:0.78938496 3:0.65156332 4:0.2631579 5:0.60220865 6:1 7:0.43718648 8:0.95276056 9:1 10:0.024451676 11:0 12:0.9236273 13:0.13043478 14:-0.125 15:0.26666667 16:6 
1 1:0.37884495 2:1 3:0.96799207 4:0.80000001 5:0.33317993 6:1 7:0.87111187 8:0 9:1 10:0 11:0 12:0 13:0.33333333 14:0.33333331 15:1.2 16:1 
1 1:0.32223625 2:0.70535713 3:0.54483677 4:0.58490562 5:0.2357623 6:1 7:0.44538569 8:0.94049126 9:1 10:0.18225319 11:0.14034345 12:0.85649544 13:0.27777778 14:0.55555558 15:0.8 16:7 
1 1:0.57512626 2:0.77419508 3:0.68138438 4:0.67857146 5:0.22655503 6:1 7:0.34294862 8:1 9:1 10:0.0012143171 11:0.46412913 12:0.80041632 13:0.41666667 14:0.44444442 15:0.65454545 16:6 
1 1:0.24587514 2:0.83636361 3:0.96590281 4:0.53846157 5:0.29524349 6:1 7:0.53404646 8:0.76639916 9:1 10:0.02880443 11:0.81593086 12:0.7848527 13:0.18181818 14:0.45454544 15:0.25 16:17 
1 1:0.4504783 2:0.8650794 3:0.47731479 4:0.5 5:0.38208424 6:1 7:0.36249291 8:0.9043722 9:1 10:0.020169788 11:0.74070941 12:0.91231486 13:0.19354839 14:0.22222221 15:0.4 16:7 
1 1:0.6157119 2:1 3:0.99972152 4:0.39024389 5:0.46105229 6:1 7:0.65148943 8:0.99146312 9:1 10:0.44266367 11:0 12:0.91108816 13:0.33333333 14:-1.3333333 15:1.3333333 16:24 
1 1:0.76861183 2:0.88333333 3:0.76980735 4:0.47169811 5:0.68993393 6:1 7:0.49133809 8:0.93299737 9:1 10:0.2220113 11:0.35977651 12:0.83753651 13:0.76923077 14:0.25 15:0.93333333 16:16 
1 1:0.28573988 2:0.79841262 3:0.70998444 4:0.35483873 5:0.53205452 6:1 7:0.23356882 8:0.80186375 9:0 10:0.016544027 11:0.29721611 12:0.72066394 13:0.2 14:0.16666669 15:0.42857143 16:2 
1 1:0.67288391 2:0.82142854 3:0.71096357 4:0.5945946 5:0.46421714 6:1 7:0.2992478 8:0.72581675 9:1 10:0.0012890149 11:0 12:0.8548303 13:0.6 14:0.19999999 15:0.71428571 16:14 
-1 1:0.6612759 2:1 3:0.73642806 4:0.51020408 5:0.47411922 6:1 7:0.6242537 8:0.75822889 9:1 10:0.095475574 11:0 12:0.86401579 13:0.5 14:-0.25 15:1.2727273 16:18 
1 1:0.14513285 2:1 3:0.49883529 4:0.36585367 5:0.108934 6:1 7:0.16731154 8:0.78422991 9:1 10:0.13732412 11:0 12:0.6857007 13:0 14:-1.25 15:1.3333333 16:8 
