svm_type nu_svr
kernel_type rbf
gamma 0.0625
nr_class 2
total_sv 2540
rho -2.16508
SV
1 1:0.60977499 2:0.65625 3:0.81233282 4:0.66071427 5:0.29054114 6:1 7:0.18784636 8:0.81008593 9:1 10:0.19035738 11:0.10906975 12:0.97295101 13:0.38461538 14:-0.16666663 15:0.93333333 16:17 
1 1:0.25329903 2:0.76547617 3:0.42997036 4:0.4727273 5:0.3586125 6:1 7:0.38016354 8:0.69671172 9:1 10:0.019281062 11:0.042511294 12:0 13:0.054545455 14:0.16666669 15:0.21428571 16:14 
1 1:0.11321331 2:0.5 3:0.36016742 4:0.22857141 5:0.01212568 6:1 7:3.4402074e-08 8:0 9:1 10:0 11:0 12:0.96932299 13:0 14:-1.6666667 15:0.77777778 16:16 
1 1:0.027995931 2:0.74603176 3:0.099995971 4:0.19999999 5:0.0051252226 6:1 7:0.22047908 8:0 9:1 10:0 11:0 12:0 13:0 14:0.1111111 15:0.33333333 16:12 
1 1:0.26730993 2:0.68065113 3:0.64786535 4:0.43103451 5:0.35555334 6:1 7:0.30177244 8:0 9:1 10:0.00011966367 11:0.096999882 12:0 13:0.14285714 14:0.41666669 15:0.15 16:21 
-0.584997624480067 1:0 2:0.9375 3:0.5029428 4:0.13333333 5:0.43203653 6:1 7:0.41359251 8:0 9:1 10:5.0799865e-06 11:0 12:0.58079869 13:0 14:-1.3333333 15:0.38095238 16:19 
1 1:0.1762705 2:0.66551024 3:0.53017141 4:0.25 5:0.37394546 6:1 7:0.3491086 8:0 9:1 10:8.1489502e-05 11:0.098699586 12:0.63302565 13:0 14:0.1111111 15:0.083333333 16:34 
1 1:0.067403789 2:0.73883927 3:0.58546143 4:0.35294116 5:0.047727662 6:1 7:1.997577e-06 8:0 9:0 10:0 11:0 12:0 13:0.042553191 14:0.083333313 15:0 16:3 
0.840242365312929 1:0.19699844 2:0.83936548 3:0.55659634 4:0.21951222 5:0.12142773 6:1 7:0.15047928 8:0.96817712 9:1 10:0.083926002 11:0 12:0.97490875 13:0 14:-1.4000001 15:0.46666667 16:49 
1 1:0.34724633 2:0.94054383 3:0.66282028 4:0.38961041 5:0.39815909 6:1 7:0.49271416 8:0.72826821 9:1 10:0.060626596 11:0.5221852 12:0.75374513 13:0.11904762 14:0.28571427 15:0.55555556 16:1 
1 1:0.028794276 2:0.36430776 3:0.31387333 4:0.21428573 5:0.011091703 6:1 7:0.18862359 8:0.68300757 9:1 10:0.0028630523 11:0.1551893 12:0.82389116 13:0 14:0.1111111 15:0.2 16:1 
1 1:0.27927701 2:0.85185188 3:0.56521441 4:0.24390244 5:0.087071015 6:1 7:0.12889256 8:0 9:1 10:0 11:0 12:0 13:0.095238095 14:-0.42857146 15:0.44444444 16:2 
1 1:0.025118587 2:0.53256804 3:0.34032927 4:0.28947371 5:0.0013843815 6:1 7:2.6125694e-07 8:0 9:1 10:0 11:0 12:0 13:0 14:-0.25 15:0.46666667 16:28 
1 1:0.12682777 2:0.52037042 3:0.78562683 4:0.26984125 5:0.25943487 6:0 7:0.52689169 8:0.71677736 9:1 10:0.20724403 11:0.53231362 12:0.80156066 13:0.032967033 14:0.28571427 15:0.11688312 16:45 
0.05521842929860421 1:0.84620778 2:1 3:0.84197901 4:0.19718307 5:0.54206817 6:1 7:0.55604873 8:0.54558566 9:1 10:0.010567311 11:0 12:0.47344904 13:0.6 14:-3.4000001 15:1.5714286 16:112 
-1 1:0.11406415 2:0.59523809 3:0.43003296 4:0.16666669 5:0.053534819 6:1 7:3.125902e-07 8:0 9:1 10:2.0498122e-05 11:0 12:0.8328389 13:0 14:-2 15:0.71428571 16:34 
1 1:0.76450618 2:0.875 3:0.60809973 4:0.19999999 5:0.86923235 6:1 7:0.08540464 8:0 9:1 10:0 11:0 12:0 13:0.21428571 14:-0.5 15:0.46666667 16:37 
-0.3786351019477783 1:-3.2477205e-12 2:0.84027779 3:0.80867286 4:0.17283952 5:4.2820201e-24 6:1 7:0.30025657 8:0.46961655 9:0 10:0.0081646267 11:0.097191559 12:0.50523866 13:0 14:-2.4000001 15:0.48484848 16:62 
-1 1:0 2:0.91666663 3:0.47523283 4:0.14814812 5:0 6:1 7:0.31936423 8:0 9:1 10:0 11:0 12:0 13:0 14:0 15:0.35555556 16:30 
-1 1:0.27378963 2:0.71718258 3:0.36903132 4:0.22857141 5:0.10414242 6:1 7:0.13860747 8:0 9:0 10:0 11:0.15334692 12:0 13:0.12280702 14:-0.16666663 15:0.13888889 16:16 
-1 1:0.21371432 2:0.71695155 3:0.52563798 4:0.29310346 5:0.051830079 6:1 7:2.1423673e-06 8:0 9:1 10:0 11:0 12:0 13:0.14285714 14:-0.28571427 15:0 16:28 
-1 1:0.035751396 2:0.66769546 3:0.43395953 4:0.41666669 5:0.0068132299 6:1 7:0.21415679 8:0 9:1 10:1.2087801e-05 11:0 12:0 13:0 14:0 15:0.38095238 16:5 
1 1:0.39531089 2:0.5714286 3:0.29373571 4:0.45238096 5:0.58801456 6:1 7:1.2708029e-08 8:0.88151147 9:1 10:0.075686704 11:0 12:0.92292846 13:0.15625 14:0.30000001 15:0.28846154 16:12 
-1 1:0.090412585 2:0.64338624 3:0.30041441 4:0.17307693 5:0.074340836 6:1 7:0.12447493 8:0 9:1 10:0 11:0 12:0.99785444 13:0.047619048 14:-0.42857146 15:0.33333333 16:31 
0.6986527658459446 1:0.3577986 2:0.75238091 3:0.71246973 4:0.22784811 5:0.22257654 6:1 7:0.19003916 8:0 9:1 10:1.0675302e-05 11:0 12:0.8567982 13:0 14:-2.25 15:0.93333333 16:53 
1 1:0.19694121 2:0.83379626 3:0.42868696 4:0.23711342 5:0.12559686 6:1 7:0.14722117 8:0 9:1 10:3.453283e-05 11:0 12:0 13:0 14:-1.8333333 15:0 16:62 
1 1:0.22518918 2:0.66142857 3:0.24180266 4:0.3018868 5:0.25117379 6:1 7:0.32077452 8:0.84945577 9:1 10:0.005162342 11:0 12:0.85757789 13:0.035714286 14:0 15:0.35555556 16:2 
1 1:0 2:0 3:0.27498501 4:0.3888889 5:0 6:1 7:0 8:0.83701847 9:1 10:0.16234575 11:0 12:0.880071 13:0 14:-0.5 15:0.5 16:2 
1 1:0.021737688 2:0.53382128 3:0.32768717 4:0.16981131 5:0.0034704955 6:1 7:8.1138826e-08 8:0 9:1 10:0 11:0 12:0 13:0 14:0 15:0 16:2 
1 1:0.69853187 2:1 3:0.86318559 4:0.265625 5:0.27042364 6:1 7:0.36623882 8:0 9:1 10:0.0010200888 11:0 12:0.66855136 13:0.52380952 14:-2.4285715 15:1.125 16:76 
1 1:0.15770393 2:0.75523806 3:0.74256094 4:0.33999997 5:0.22430395 6:1 7:0.51622337 8:0 9:1 10:4.1208931e-06 11:0 12:0 13:0.023809524 14:0.19999999 15:0.22222222 16:22 
1 1:0.12208968 2:0.44965982 3:0.50530836 4:0.22222221 5:0.09297814 6:1 7:0.25869783 8:0.81497841 9:1 10:0.034630791 11:0 12:0 13:0 14:0 15:0.31168831 16:14 
1 1:0.19222563 2:0.865125 3:0.56291602 4:0.36363637 5:0.19122187 6:1 7:0.15224424 8:0 9:1 10:0.00051551279 11:0.15531325 12:0 13:0.027027027 14:0.10000002 15:0.4 16:6 
1 1:0.28704743 2:0.70476192 3:0.36060419 4:0.25 5:0.32397075 6:1 7:0.25552653 8:0 9:1 10:0.0013124314 11:0 12:0 13:0.027777778 14:0.1111111 15:0.33333333 16:17 
-1 1:0.015575793 2:0.84027779 3:0.23601846 4:0.39999998 5:0.088398671 6:1 7:0.17472901 8:0 9:1 10:1.0061059e-05 11:0 12:0 13:0.1 14:0 15:0 16:7 
-0.6001334725683343 1:0.92360802 2:1 3:0.35784124 4:0.086419761 5:0.13828984 6:1 7:0.48615601 8:0 9:1 10:1.6165187e-05 11:0 12:0 13:0 14:-7.5 15:1.8181818 16:72 
1 1:0.04407634 2:0.76543212 3:0.7924623 4:0.35593218 5:0.002598317 6:1 7:0.43594102 8:0 9:1 10:0.00037311353 11:0 12:0 13:0 14:-1.5 15:0.46666667 16:28 
1 1:0.34076979 2:0.69841272 3:0.6637164 4:0.39285713 5:0.29349035 6:1 7:0.19145315 8:0 9:0 10:0 11:0 12:0 13:0.083333333 14:0.16666669 15:0.17777778 16:4 
0.2624980477728363 1:0.4649135 2:0.875 3:0.7879468 4:0.19387758 5:0.25865898 6:1 7:0.3693481 8:0 9:0 10:2.3938712e-05 11:0.13044333 12:0.4107107 13:0.47619048 14:-3.4285712 15:1.7391304 16:148 
1 1:0.073409148 2:0.72869164 3:0.24428966 4:0.23364484 5:0.042119902 6:1 7:0.06803624 8:0 9:1 10:3.1244664e-05 11:0.17891869 12:0.81295463 13:0.053097345 14:-0.125 15:0.26666667 16:17 
-1 1:0.043614738 2:0.67448562 3:0.40843968 4:0.24193549 5:0.0070464325 6:1 7:5.8509805e-07 8:0 9:0 10:5.3343575e-05 11:0 12:0 13:0 14:-0.85714281 15:0 16:27 
1 1:0.17663737 2:0.86394554 3:0.45941478 4:0.25862068 5:0.098536418 6:1 7:0.12362334 8:0.95903847 9:1 10:0.0014257522 11:0 12:0 13:0.14285714 14:-0.42857146 15:0.27777778 16:7 
1 1:0.12508327 2:0.56190479 3:0.50616186 4:0.19565219 5:0.041771954 6:1 7:1.1494253e-07 8:0 9:1 10:0 11:0 12:0 13:0 14:-1 15:0 16:27 
-1 1:0.15789578 2:0.71527779 3:0.50783941 4:0.26829267 5:0.056830771 6:1 7:9.8012689e-07 8:0 9:1 10:0.00027295071 11:0 12:0.97531588 13:0.066666667 14:-0.33333337 15:0.41666667 16:7 
-1 1:0.027995655 2:0.74259257 3:0.4871057 4:0.26666665 5:0.0090253503 6:1 7:0.11431886 8:0 9:1 10:0 11:0.54703222 12:0 13:0 14:-0.33333337 15:0.19047619 16:25 
-0.6010293369163603 1:0.13997775 2:0.58714283 3:0.39302062 4:0.22500002 5:0.16374005 6:1 7:0.14581388 8:0 9:1 10:0 11:0.26225815 12:0 13:0.043478261 14:0.15384614 15:0.080808081 16:46 
1 1:0.052236634 2:0.60952383 3:0.2863277 4:0.25373137 5:0.052716457 6:1 7:1.3295882e-06 8:0 9:1 10:0 11:0 12:0 13:0.04 14:0.15384614 15:0.66666667 16:14 
1 1:0.15989897 2:0.61666667 3:0.70148161 4:0.2647059 5:0.021971878 6:1 7:1.8815408e-06 8:0 9:0 10:0 11:0 12:0 13:0.16666667 14:-0.25 15:0.66666667 16:17 
0.476673865871574 1:0.59381075 2:1 3:0.89403734 4:0.15322578 5:0.28044528 6:1 7:0.49789594 8:0.40250419 9:0 10:0.24419895 11:0.42909212 12:0.40390261 13:0.6 14:-3.8000002 15:1.7142857 16:104 
-1 1:0.4139125 2:0.92857146 3:0.51131199 4:0.25490195 5:0.34994703 6:1 7:0.27857313 8:0.85117877 9:1 10:0.029789114 11:0 12:0.71952277 13:0.071428571 14:-0.66666663 15:0.77777778 16:23 
0.8192520554813844 1:0.073200703 2:0.59365076 3:0.33924435 4:0.28571427 5:0.02116998 6:1 7:1.7474783e-07 8:0 9:1 10:0 11:0 12:0 13:0 14:-0.16666663 15:0 16:3 
-1 1:0.50011832 2:1 3:0.41662688 4:0.17647058 5:0.47723965 6:1 7:0.6113465 8:0.9878877 9:1 10:0.054819533 11:0.53472442 12:0.83579924 13:0 14:-0.25 15:1.6 16:9 
1 1:0.068906045 2:0.9375 3:0.48959573 4:0.22222221 5:0.019579356 6:1 7:0.18610302 8:0 9:1 10:6.3926782e-05 11:0.46253394 12:0 13:0.035714286 14:-0.5 15:0.49230769 16:20 
-1 1:0.03321785 2:0.49294531 3:0.23950656 4:0.21666664 5:0.0015798824 6:1 7:4.1831007e-08 8:0 9:1 10:0 11:0 12:0 13:0.066666667 14:-1.3333333 15:0.25714286 16:27 
1 1:0.029644028 2:0.62222224 3:0.2921825 4:0.33333331 5:0.0035659819 6:1 7:1.1831043e-06 8:0 9:1 10:0 11:0 12:0 13:0 14:0 15:0 16:14 
1 1:0.051525119 2:0.56299603 3:0.49359925 4:0.27868855 5:0.0033864317 6:1 7:2.4388588e-06 8:0 9:1 10:0 11:0.4390193 12:0 13:0.066666667 14:-1 15:0.34615385 16:21 
-1 1:0.069436906 2:0.52142859 3:0.37426434 4:0.21276593 5:0.0095792342 6:1 7:8.4878014e-08 8:0 9:0 10:0 11:0 12:0 13:0.026315789 14:0 15:0 16:4 
-1 1:0.46569186 2:0.51020408 3:0.36221262 4:0.38461536 5:0.41147902 6:1 7:1.1967877e-08 8:0.75526582 9:1 10:0.0018972759 11:0.46361208 12:0.72835639 13:0.16666667 14:-1.25 15:0 16:17 
-1 1:0.44738793 2:0.65111834 3:0.39512496 4:0.32203388 5:0.55926553 6:1 7:0.15982072 8:0.81203537 9:1 10:0.0088026754 11:0.42302939 12:0.76027431 13:0.047619048 14:-0.28571427 15:0.88888889 16:16 
-1 1:0.32223593 2:0.80158728 3:0.43016914 4:0.28205127 5:0.23934204 6:1 7:0.2351532 8:0 9:1 10:9.7779739e-05 11:0 12:0 13:0 14:-0.57142854 15:0.34615385 16:43 
-1 1:0.4196929 2:0.8888889 3:0.37843568 4:0.29545456 5:0.26889044 6:1 7:0.30157011 8:0.94813175 9:1 10:0.00091670247 11:0.11879543 12:0.84002616 13:0 14:-2.5 15:1.5 16:26 
-1 1:0.27563751 2:0.7723214 3:0.5290916 4:0.19999999 5:0.46862978 6:1 7:0.40374941 8:0.86441405 9:1 10:0.01833096 11:0 12:0.84234035 13:0.21052632 14:0 15:0.55555556 16:4 
1 1:0.29294737 2:0.76666665 3:0.65945808 4:0.19512194 5:0.24331699 6:1 7:0.22911327 8:0 9:1 10:1.7660989e-05 11:0 12:0 13:0.1 14:-0.39999998 15:0.83333333 16:4 
1 1:0.1865784 2:0.68488282 3:0.63452303 4:0.23636365 5:0.098046735 6:1 7:0.14910163 8:0 9:1 10:1.8198023e-07 11:0 12:0 13:0.1 14:-0.79999995 15:0.41666667 16:21 
-1 1:0.028209286 2:0.60451388 3:0.31156968 4:0.30000001 5:0.0081204283 6:1 7:1.3294677e-06 8:0 9:1 10:0 11:0 12:0 13:0 14:-0.29999995 15:0.38095238 16:13 
-1 1:0.3224941 2:0.91666669 3:0.54827951 4:0.29411763 5:0.11711189 6:1 7:0.24219576 8:0 9:1 10:0.00010950946 11:0.40279407 12:0.7054966 13:0.27027027 14:-0.70000005 15:0.96969697 16:75 
1 1:0.18919088 2:0.55793649 3:0.64014355 4:0.4074074 5:0.051232986 6:1 7:0.091778234 8:0 9:1 10:3.7208842e-05 11:0.083179214 12:0 13:0.10714286 14:-0.5 15:0.25 16:5 
1 1:0.24615153 2:0.66542655 3:0.490299 4:0.45833331 5:0.27168985 6:1 7:0.20419603 8:0 9:0 10:0 11:0.2086051 12:0.97938703 13:0.088235294 14:0.28571427 15:0.2 16:8 
1 1:0.30919699 2:0.74350655 3:0.70655686 4:0.47368419 5:0.40273009 6:1 7:0.36043803 8:0 9:1 10:0 11:0 12:0 13:0.10714286 14:0.375 15:0.5 16:10 
1 1:0.060410978 2:0.64603174 3:0.34444585 4:0.32653064 5:0.021430321 6:1 7:6.0747753e-06 8:0 9:1 10:0 11:0 12:0 13:0 14:-0.125 15:0 16:7 
-1 1:0.072776037 2:0.64468497 3:0.43884006 4:0.22857141 5:0.029979768 6:1 7:3.2248309e-06 8:0 9:1 10:0 11:0 12:0 13:0 14:0.14285713 15:0.17777778 16:9 
-0.7478544436749299 1:0.18645898 2:0.51838994 3:0.8231613 4:0.15584415 5:0.53357497 6:1 7:0.48493082 8:0.81682283 9:1 10:0.0014482538 11:0 12:0 13:0.011904762 14:0.125 15:0.055944056 16:65 
1 1:0.17889605 2:0.8298611 3:0.49648905 4:0.36986303 5:0.13260238 6:1 7:0.2761689 8:0.8280489 9:1 10:0.012010876 11:0.45636633 12:0.69759041 13:0 14:-0.875 15:0.49230769 16:24 
-1 1:0.59111219 2:0.71726191 3:0.46211261 4:0.26666665 5:0.52925198 6:1 7:0.47869166 8:0 9:1 10:3.9572905e-05 11:0.1213834 12:0.53760608 13:0.066666667 14:-0.5 15:0.88888889 16:9 
1 1:0.17989645 2:0.59897959 3:0.42290232 4:0.24489796 5:0.21464654 6:1 7:2.3340062e-06 8:0 9:1 10:4.6147009e-05 11:0.76458087 12:0 13:0.038461538 14:0 15:0.5 16:11 
-1 1:0.19192331 2:0.7571429 3:0.73115021 4:0.32432431 5:0.22190399 6:1 7:0.42028448 8:0.81165448 9:1 10:0.0016350352 11:0 12:0 13:0 14:0.14285713 15:0.17777778 16:14 
-1 1:0.062278817 2:0.40590841 3:0.27881642 4:0.17500001 5:0.044405673 6:1 7:6.8929436e-07 8:0 9:1 10:0 11:0 12:0 13:0 14:0.1111111 15:0.15151515 16:0 
1 1:0.1742847 2:0.46026784 3:0.51479843 4:0.3888889 5:0.18877398 6:1 7:0.16573333 8:0.8389942 9:1 10:0.027115678 11:0.51474694 12:0 13:0.020408163 14:0.090909064 15:0 16:25 
-1 1:0.56036478 2:0.76666665 3:0.87914737 4:0.35135138 5:0.22609848 6:1 7:0.33856328 8:0.72930331 9:1 10:0.10750213 11:0 12:0.78162598 13:0.33333333 14:-0.33333337 15:0.66666667 16:20 
1 1:0.075285442 2:0.59212017 3:0.39687082 4:0.20588237 5:0.029149941 6:1 7:1.8563308e-06 8:0 9:1 10:0 11:0 12:0 13:0 14:0 15:0.13333333 16:8 
1 1:0.29098154 2:1 3:0.7548997 4:0.43396229 5:0.18362826 6:1 7:0.38400006 8:0.75377374 9:1 10:0.0035566507 11:0 12:0 13:0.13333333 14:-0.33333337 15:0.6 16:15 
-0.1893248885253095 1:0.4731026 2:0.9545455 3:0.66565806 4:0.21212119 5:0.3527755 6:1 7:0.314987 8:0.75806218 9:1 10:0.008214671 11:0 12:0.58841313 13:0 14:-1.3333333 15:0.71428571 16:21 
1 1:0.070875246 2:0.68087298 3:0.44655078 4:0.19607842 5:0.057870443 6:1 7:0.17058245 8:0 9:1 10:0 11:0 12:0 13:0.018867925 14:0.083333313 15:0.085714286 16:13 
1 1:0.29600741 2:0.76735538 3:0.42652676 4:0.26530612 5:0.3793788 6:1 7:0.34541852 8:0.90675259 9:1 10:0.16239289 11:0 12:0.67619717 13:0.13888889 14:0.1111111 15:0.23809524 16:3 
-1 1:0.040362073 2:0.85211641 3:0.41812702 4:0.27619046 5:0.025174162 6:1 7:0.23298721 8:0.79396303 9:1 10:0.03796092 11:0 12:0 13:0.032258065 14:-0.20000005 15:0.2705314 16:30 
1 1:0.28930551 2:0.72261906 3:0.42507905 4:0.25925928 5:0.37236225 6:1 7:0.60186519 8:0 9:1 10:0.0005753848 11:0.64745909 12:0 13:0 14:-0.20000005 15:0.35555556 16:1 
0.5808099087984931 1:0.40227438 2:0.92857146 3:0.56573605 4:0.17567569 5:0.11037399 6:1 7:0.23466164 8:0.3808763 9:1 10:0.0007683537 11:0 12:0.51440359 13:0 14:-4 15:1.6 16:57 
-1 1:0.054753729 2:0.48190475 3:0.30428792 4:0.1964286 5:0.032971724 6:1 7:1.3531046e-07 8:0 9:1 10:0 11:0 12:0 13:0 14:0.10000002 15:0 16:37 
-1 1:0.1700177 2:0.77380955 3:0.51261295 4:0.26923078 5:0.098628178 6:1 7:1.3982032e-06 8:0 9:1 10:0 11:0 12:0 13:0.066666667 14:-1.3333333 15:0 16:39 
1 1:0.12681111 2:0.69134921 3:0.27112677 4:0.28333336 5:0.32516407 6:1 7:0.097811591 8:0.95289215 9:1 10:0.00559389 11:0 12:0.89317266 13:0.066666667 14:-0.29999995 15:0.3956044 16:6 
0.9279439817219635 1:0.35900195 2:0.95833331 3:0.56411555 4:0.26206899 5:0.21301985 6:1 7:0.41351593 8:0 9:1 10:0 11:0.37346359 12:0.61164625 13:0.26829268 14:-1.4000001 15:1.2272727 16:91 
1 1:0.083577519 2:0.6802721 3:0.65862931 4:0.26666665 5:0.057095704 6:1 7:0.18982231 8:0 9:1 10:0 11:0 12:0 13:0 14:0 15:0 16:2 
0.1068158518996305 1:0.47270535 2:1 3:0.71673868 4:0.29545456 5:0.37325558 6:1 7:0.60961308 8:0 9:1 10:0 11:0 12:0 13:0 14:-1.6666667 15:0.44444444 16:27 
-1 1:0.22719694 2:0.55872446 3:0.24222552 4:0.16666669 5:0.28176088 6:1 7:0.2323387 8:0.91647553 9:1 10:0.021690133 11:0 12:0.91367198 13:0 14:-0.22222221 15:0.1038961 16:2 
1 1:0.094175796 2:0.44278723 3:0.4974397 4:0.25806451 5:0.115128 6:1 7:1.0912126e-07 8:0 9:1 10:0 11:0 12:0 13:0 14:0.14285713 15:0.17777778 16:3 
1 1:0.43902288 2:0.85555553 3:0.56160511 4:0.22727275 5:0.59167753 6:1 7:0.40536694 8:0.68338484 9:1 10:0.022789697 11:0 12:0 13:0.2 14:0 15:0.5 16:1 
-1 1:0.16081226 2:0.80344677 3:0.54018866 4:0.29310346 5:0.50308635 6:1 7:0.46238357 8:0.73834357 9:1 10:0.12581885 11:0 12:0.76664771 13:0.012820513 14:0.15384614 15:0.13636364 16:37 
-1 1:0.063154229 2:0.76190472 3:0.56524605 4:0.24528301 5:0.050882758 6:1 7:1.5208022e-05 8:0 9:1 10:0 11:0 12:0 13:0.047619048 14:-0.57142854 15:0 16:25 
0.3558764141413495 1:0.28673861 2:0 3:0.29997477 4:0.1025641 5:0.048656862 6:1 7:0 8:0.42239982 9:1 10:0.0077249936 11:0 12:0 13:0 14:-7 15:0 16:68 
1 1:0.40762911 2:0.56696427 3:0.64584627 4:0.4375 5:0.48375619 6:1 7:9.0238888e-08 8:0 9:1 10:0.00010454058 11:0 12:0.97696364 13:0.14285714 14:0.4285714 15:0.33333333 16:11 
1 1:0.031258362 2:0.61041665 3:0.26503064 4:0.32558137 5:0.005284723 6:1 7:5.7625345e-07 8:0 9:0 10:0 11:0 12:0 13:0.035714286 14:0.125 15:0.35555556 16:7 
-1 1:0.038877363 2:0.47944444 3:0.4692675 4:0.22222221 5:0.0052088813 6:1 7:5.1358414e-08 8:0 9:0 10:0 11:0.56940259 12:0 13:0 14:-1.1428571 15:0.24615385 16:33 
-1 1:0.050932978 2:0.921875 3:0.51295976 4:0.30909091 5:0.039699147 6:1 7:0.35032468 8:0 9:0 10:0 11:0 12:0 13:0.05 14:-0.42857146 15:0.75 16:21 
0.8883678893275949 1:0.64932408 2:0.85657138 3:0.5580004 4:0.19075143 5:0.40813572 6:0 7:0.37276941 8:0.77209416 9:1 10:0.066427906 11:0.057857606 12:0.71880135 13:0.21428571 14:-2 15:0.59627329 16:126 
-1 1:0.068983959 2:0.31683671 3:0.36776687 4:0.28571427 5:0.015334041 6:1 7:2.467438e-08 8:0 9:1 10:0 11:0 12:0 13:0 14:0 15:0 16:4 
-1 1:0.046317707 2:1 3:0.49725689 4:0.2631579 5:0.15681649 6:1 7:0.21479185 8:0.72421365 9:1 10:0.019945838 11:0 12:0 13:0.16666667 14:-1.5 15:0.77777778 16:38 
1 1:0.024170491 2:0.63188243 3:0.68726564 4:0.39393938 5:0.16366594 6:1 7:0.19181176 8:0 9:1 10:0 11:0 12:0 13:0.047619048 14:0.14285713 15:0.35555556 16:1 
0.4600508490230997 1:0.5459188 2:0.84027779 3:0.83183447 4:0.14814812 5:0.31209724 6:1 7:0.30263315 8:0.58052887 9:1 10:0.023628438 11:0.35403901 12:0.56426119 13:0 14:-2.6666667 15:0.8 16:40 
1 1:0.027558182 2:0.44222412 3:0.21732976 4:0.13157892 5:0.0038516221 6:1 7:7.1881864e-08 8:0 9:1 10:0 11:0 12:0 13:0 14:-0.14285719 15:0 16:2 
-1 1:0.030707797 2:0.43748677 3:0.40717657 4:0.19999999 5:0.0061324801 6:1 7:2.3076329e-07 8:0 9:1 10:0 11:0 12:0 13:0 14:0 15:0 16:11 
0.3229341306430767 1:0 2:1 3:0.67358234 4:0.13725489 5:0 6:1 7:0.5889874 8:0 9:1 10:0.00025593794 11:0 12:0 14:-10 15:1.6 16:42 
-1 1:0.19969167 2:0.67142856 3:0.40794837 4:0.26666665 5:0.27158926 6:1 7:3.6451177e-08 8:0 9:1 10:0.00019008455 11:0 12:0.51333213 13:0 14:0.14285713 15:0 16:28 
-1 1:0.050129412 2:0.44642857 3:0.45383225 4:0.18947369 5:0.014748692 6:1 7:1.0054999e-07 8:0 9:1 10:0 11:0 12:0 13:0.11111111 14:-3 15:0.86666667 16:71 
0.4688822098514364 1:0.69443197 2:0.78240746 3:0.63462189 4:0.2474227 5:0.3114254 6:1 7:0.42625086 8:0.8229544 9:1 10:0.25545419 11:0 12:0.77753746 13:0.33333333 14:-3 15:0.96969697 16:61 
-1 1:0.27827041 2:0.7517857 3:0.59672062 4:0.30097085 5:0.18798173 6:0 7:0.16031203 8:0 9:1 10:1.9856152e-06 11:0 12:0 13:0.047619048 14:-1.2857144 15:0.5 16:60 
1 1:0.044898216 2:0.26253006 3:0.23444851 4:0.32258064 5:0.042624531 6:1 7:3.6012523e-08 8:0.76820718 9:1 10:0.042461692 11:0.10074171 12:0.88761343 13:0.022222222 14:0.19999999 15:0.3 16:6 
1 1:0.096296234 2:0.46127406 3:0.33517297 4:0.25806451 5:0.036055155 6:1 7:2.7875593e-07 8:0 9:1 10:0 11:0 12:0 13:0 14:-0.79999995 15:0 16:7 
-0.6863263793594228 1:0.044285892 2:0.57752264 3:0.29437564 4:0.17741936 5:0.042539623 6:1 7:5.8201166e-08 8:0 9:1 10:0 11:0 12:0 13:0 14:0 15:0 16:40 
1 1:0.13873761 2:0.82102776 3:0.3120021 4:0.34482759 5:0.15518215 6:1 7:0.45830544 8:0 9:1 10:1.4505786e-06 11:0 12:0 13:0.023255814 14:0 15:0.15 16:2 
1 1:0.19116302 2:0.79166669 3:0.48389599 4:0.26415092 5:0.33305186 6:1 7:0.3453538 8:0.71955059 9:1 10:0.0083641203 11:0.40123853 12:0 13:0.15789474 14:-0.42857146 15:0.35897436 16:14 
1 1:0.02921734 2:0.47732425 3:0.5452668 4:0.25 5:0.0016793211 6:1 7:1.8736845e-07 8:0 9:1 10:0 11:0 12:0 13:0 14:-1 15:0 16:14 
-1 1:0.28562813 2:0.67619044 3:0.71571774 4:0.33898306 5:0.41972985 6:1 7:0.31458652 8:0 9:1 10:0 11:0 12:0 13:0.083333333 14:0.33333331 15:0.21428571 16:35 
1 1:0.041118236 2:0.47288358 3:0.4135964 4:0.26666665 5:0.0081299094 6:1 7:0.30403076 8:0 9:1 10:0 11:0.36655829 12:0 13:0 14:0.14285713 15:0 16:7 
1 1:0.053535752 2:0.72214162 3:0.62837265 4:0.14772725 5:0.08800274 6:1 7:0.50622144 8:0 9:1 10:3.1052285e-06 11:0 12:0 13:0.0058823529 14:0.10000002 15:0.028846154 16:72 
-1 1:0.071064202 2:0.71913576 3:0.42595961 4:0.17741936 5:0.01130364 6:1 7:1.636903e-07 8:0 9:1 10:0 11:0 12:0 13:0 14:-2.25 15:0 16:47 
1 1:0.54353726 2:1 3:0.99666751 4:0.45652175 5:0.27284115 6:1 7:0.63663311 8:0 9:1 10:0 11:0 12:0 13:0.5 14:-0.75 15:1.4285714 16:24 
-1 1:0.11754443 2:0.74594903 3:0.93937448 4:0.39795917 5:0.20841433 6:1 7:0.21478218 8:0.8323949 9:1 10:0.13124443 11:0.13072285 12:0.90850742 13:0.091743119 14:0.3125 15:0.1015873 16:48 
0.6056038817106805 1:0.22192647 2:0.78451389 3:0.44159297 4:0.19999999 5:0.34502311 6:1 7:0.28127836 8:0 9:1 10:6.826816e-05 11:0.24260897 12:0.90195217 13:0.0625 14:0 15:0.53333333 16:10 
1 1:0.21785124 2:0.72023809 3:0.48606706 4:0.34615386 5:0.11291116 6:1 7:0.28998401 8:0 9:1 10:0.00023130565 11:0.097716227 12:0 13:0.14285714 14:-0.28571427 15:0.66666667 16:17 
1 1:0.29876503 2:0.5177778 3:0.51791291 4:0.31034482 5:0.46999529 6:1 7:0.15386095 8:0.83300287 9:1 10:0.12069713 11:0.069273187 12:0.64212043 13:0.054545455 14:0.18181819 15:0.33333333 16:27 
-1 1:0.57229336 2:1 3:0.59963222 4:0.53125 5:0.53503134 6:1 7:0.48518647 8:0.63504801 9:1 10:0.024882075 11:0 12:0.64453481 13:0.3 14:-0.20000005 15:1.6 16:6 
1 1:0.52417731 2:0.94444442 3:0.63782457 4:0.40909094 5:0.25638046 6:1 7:0.33587873 8:0 9:1 10:0.0011634297 11:0 12:0 13:0.16666667 14:-0.5 15:0.71428571 16:20 
1 1:0.052113254 2:0.45798609 3:0.25739103 4:0.19148934 5:0.018419256 6:1 7:1.9138394e-07 8:0 9:1 10:0 11:0 12:0 13:0 14:0 15:0 16:7 
1 1:0.16811427 2:0.076322757 3:0.5783469 4:0.14666665 5:0.39302115 6:1 7:9.9307283e-08 8:0 9:1 10:0.00013893074 11:0 12:0 13:0 14:0.0625 15:0.038961039 16:60 
1 1:0.2017404 2:0.64112103 3:0.64016421 4:0.2962963 5:0.071361685 6:1 7:0.12619551 8:0 9:0 10:0.00010344859 11:0.29125824 12:0 13:0.11538462 14:-0.75 15:0.66666667 16:42 
1 1:0.33731615 2:0.72619051 3:0.52997205 4:0.36363637 5:0.32512907 6:1 7:0.2748056 8:0 9:0 10:1.9315825e-05 11:0 12:0 13:0.1 14:-0.60000002 15:0.41666667 16:16 
-1 1:0.33429921 2:0.80324072 3:0.355997 4:0.17391306 5:0.1081041 6:1 7:0.20386752 8:0.62139221 9:1 10:0.00084414277 11:0 12:0 13:0 14:-1.75 15:0.8 16:25 
1 1:0.32173943 2:0.8888889 3:0.24072366 4:0.375 5:0.22633485 6:1 7:0.00011150365 8:0 9:1 10:0 11:0 12:0 13:0 14:-0.5 15:0 16:14 
1 1:0.34116966 2:0.68738091 3:0.47483913 4:0.2037037 5:0.32728069 6:1 7:0.31321952 8:0.77729441 9:1 10:0.0043598508 11:0.58569727 12:0.78892631 13:0.088235294 14:-0.11111116 15:0.43636364 16:11 
1 1:0.12819845 2:0 3:0.30551819 4:0.22222221 5:0.14469416 6:1 7:0 8:0 9:1 10:0 11:0 12:0 13:0 14:0.14285713 15:0 16:19 
1 1:0.36250409 2:0.70999998 3:0.72635642 4:0.22916669 5:0.40388742 6:1 7:0.37715858 8:0.93351091 9:1 10:0.0007323663 11:0 12:0 13:0.047619048 14:-0.14285719 15:0.55555556 16:8 
0.3316039126025866 1:0.54208171 2:0.94999999 3:0.7555344 4:0.11764705 5:0.27671305 6:1 7:0.2408436 8:0.50871409 9:1 10:0.00051853732 11:0 12:0.2804288 13:0.33333333 14:-6.3333335 15:0.88235294 16:119 
-0.8031471106709079 1:0 2:1 3:0.59997813 4:0.18333334 5:0.20202975 6:1 7:0.29351798 8:0.81567284 9:1 10:0.029385335 11:0 12:0 13:0 14:-3 15:0.48484848 16:44 
0.3530580318298508 1:0.63587896 2:1 3:0.50610479 4:0.14285713 5:0.12607971 6:1 7:0.55432092 8:0.51140221 9:1 10:0.26837498 11:0 12:0.3764442 13:0.33333333 14:-5.3333335 15:1.6842105 16:107 
-1 1:0.020158843 2:0.57023811 3:0.52640648 4:0.3018868 5:0.0030438919 6:1 7:0.33864053 8:0 9:1 10:6.5032093e-05 11:0 12:0.64523027 13:0 14:0.125 15:0.42857143 16:19 
1 1:0.15944574 2:0.59098643 3:0.24386558 4:0.30434781 5:0.088775449 6:1 7:3.0506741e-05 8:0 9:0 10:2.0082841e-08 11:0 12:0 13:0.022222222 14:0 15:0 16:18 
-1 1:0.11637738 2:0.51615822 3:0.31184824 4:0.30508476 5:0.040340146 6:1 7:1.4541749e-07 8:0 9:1 10:0 11:0 12:0 13:0.035714286 14:-0.125 15:0 16:23 
1 1:0.1964375 2:0.73140794 3:0.26678846 4:0.35185188 5:0.1535802 6:1 7:5.8553176e-06 8:0 9:0 10:0 11:0.33870729 12:0.87087526 13:0 14:-0.33333337 15:0.38095238 16:18 
-1 1:0.096163222 2:0.47837302 3:0.22233246 4:0.20408165 5:0.023536106 6:1 7:1.8154896e-07 8:0 9:1 10:0 11:0 12:0 13:0 14:-1.2 15:0 16:14 
-1 1:0.59033495 2:1 3:0.69516694 4:0.22727275 5:0.61246642 6:1 7:0.87715515 8:0.82896147 9:1 10:0.023000631 11:0.14895963 12:0.82554416 13:0 14:-0.33333337 15:1.2 16:1 
1 1:0.33542572 2:0.59687501 3:0.50983745 4:0.47368419 5:0.45010881 6:1 7:0.26517697 8:0.94549633 9:1 10:0.097163738 11:0.21178303 12:0 13:0.14285714 14:-0.28571427 15:0.49230769 16:18 
1 1:0.39156375 2:0.96296293 3:0.54087508 4:0.2758621 5:0.4688402 6:1 7:0.59667696 8:0 9:1 10:0 11:0 12:0 13:0.066666667 14:0 15:0.5 16:6 
-1 1:0.054999343 2:0.26979592 3:0.267384 4:0.25 5:0.018741352 6:1 7:2.3767938e-06 8:0.9980351 9:1 10:0.002010713 11:0 12:0 13:0 14:0.125 15:0.17777778 16:16 
1 1:0.2834286 2:0.86154515 3:0.64845639 4:0.37837839 5:0.28448637 6:1 7:0.32287982 8:0.78240687 9:1 10:0.010495462 11:0.52124748 12:0.75511907 13:0.2 14:0.44444442 15:0.20779221 16:2 
1 1:0.59336993 2:0.32467532 3:0.61828066 4:0.38297874 5:0.24711627 6:1 7:7.8472467e-09 8:0 9:1 10:1.438935e-05 11:0 12:0 13:0.5 14:-0.25 15:0 16:26 
1 1:0.2039569 2:0.66233766 3:0.80767802 4:0.52173913 5:0.71878592 6:1 7:0.45369843 8:0.56220144 9:1 10:0.18097448 11:0 12:0.55935203 13:0.2 14:0.33333331 15:0 16:9 
-1 1:0.64765254 2:0.90558219 3:0.73604414 4:0.29292929 5:0.26789555 6:0.46470077 7:0.42547218 8:0.87178988 9:1 10:0.013304151 11:0 12:0.82213369 13:0.41666667 14:-0.44444442 15:0.75 16:40 
-1 1:0.92125751 2:1 3:0.78016382 4:0.51999998 5:0.85209114 6:1 7:0.74978075 8:0.98293994 9:1 10:0.82454674 11:0.38127747 12:0.97658078 13:0.6 14:-0.20000005 15:1.3333333 16:22 
1 1:0.49151721 2:0.92857146 3:0.65932777 4:0.36363637 5:0.5462271 6:1 7:0.3380592 8:0.8028659 9:1 10:0.10708103 11:0.38361981 12:0.90659658 13:0.28571429 14:0.28571427 15:0.21428571 16:3 
1 1:0.2298894 2:0.73004121 3:0.22772955 4:0.5945946 5:0.24016572 6:1 7:0.19713946 8:0.89884301 9:1 10:0.00719116 11:0 12:0.92261663 13:0.10714286 14:0.25 15:0.42857143 16:7 
-1 1:0.78355145 2:1 3:0.5031504 4:0.2241379 5:0.79228483 6:1 7:0.42028854 8:0.91815974 9:1 10:0.26559582 11:0 12:0.92153416 13:0.14285714 14:-0.28571427 15:1.3333333 16:13 
1 1:0.20213585 2:0.39259258 3:0.2240206 4:0.61818182 5:0.57398795 6:1 7:0.22197158 8:0.74919236 9:1 10:0.21344994 11:0 12:0.86133254 13:0.16666667 14:0.46153843 15:0.3968254 16:15 
1 1:0.53171073 2:0.65432096 3:0.60701923 4:0.53571427 5:0.49520354 6:1 7:0.33053893 8:0 9:1 10:5.8393148e-06 11:0 12:0 13:0.2 14:0.33333331 15:0.33333333 16:7 
0.7834011675196793 1:0.59632203 2:0.98148149 3:0.7692026 4:0.29577464 5:0.40321691 6:1 7:0.48699594 8:0.76471883 9:1 10:0.30399571 11:0 12:0.64704292 13:0.21818182 14:-1.1818182 15:1.1666667 16:81 
1 1:0.37481467 2:0.77148145 3:0.35906989 4:0.42465752 5:0.19631498 6:1 7:0.21493667 8:0.72982442 9:1 10:0.0048381014 11:0.21405843 12:0.76178936 13:0.10909091 14:0.18181819 15:0.27777778 16:15 
-0.309513279256989 1:0.96185494 2:1 3:0.89731998 4:0.36231881 5:0.63157552 6:1 7:0.56975148 8:0.67070725 9:1 10:0.08172322 11:0.46713328 12:0.61765699 13:1 14:-0.33333337 15:1.4 16:44 
-1 1:0.32648454 2:0.72789115 3:0.56126938 4:0.25531918 5:0.20856629 6:1 7:0.41361126 8:0.3750901 9:1 10:0.00088071539 11:0 12:0.47356827 13:0.13333333 14:-0.66666663 15:0.88888889 16:21 
-0.4854136336431849 1:0.52998863 2:0.72321427 3:0.49962286 4:0.3142857 5:0.1930472 6:1 7:0.29375347 8:0 9:1 10:0 11:0.59589969 12:0 13:0.33333333 14:-0.66666663 15:0.75 16:19 
-0.07499425779882547 1:1 2:1 3:0.89385025 4:0.45614034 5:0.73445894 6:1 7:0.56704999 8:0.78207557 9:0 10:0.4832208 11:0.68437817 12:0.79652689 13:1 14:-0.75 15:1.5 16:31 
1 1:0.6342079 2:0.8888889 3:0.63497635 4:0.7241379 5:0.568683 6:1 7:0.27865493 8:0 9:1 10:8.009396e-06 11:0.72437158 12:0.83660533 13:0.4 14:0.66666663 15:0.6 16:0 
1 1:0.76129287 2:0.79166669 3:0.60842012 4:0.375 5:0.29327521 6:1 7:0.2558324 8:0.94969935 9:1 10:0.064248964 11:0.094943804 12:0.84919951 13:0.66666667 14:0 15:0.9 16:18 
0.3706877007724647 1:0.48085716 2:1 3:0.68858131 4:0.36363637 5:0.30715778 6:1 7:0.38154259 8:0.55556197 9:1 10:0.022466407 11:0.23739422 12:0.89781782 13:0.46666667 14:-0.5 15:0.93333333 16:28 
-1 1:0.37204378 2:0.94999999 3:0.68522696 4:0.54347825 5:0.34951561 6:1 7:0.56529055 8:0.94810204 9:1 10:0.033584141 11:0.69841692 12:0.95544623 13:0.16393443 14:0.5 15:0.71794872 16:0 
-0.8556264940051618 1:0.12368292 2:0.6015873 3:0.4124224 4:0.30000001 5:0.3071411 6:1 7:0.16449779 8:0.87414583 9:0 10:0.078216083 11:0.28051529 12:0.88048585 13:0.12857143 14:0 15:0.23809524 16:15 
1 1:0.55829789 2:0.86831278 3:0.59088895 4:0.4130435 5:0.18303564 6:1 7:0.31031514 8:0.8843678 9:1 10:0.069768151 11:0.15330451 12:0.84101165 13:0.47619048 14:0 15:0.6 16:16 
1 1:0.39073859 2:0.69345242 3:0.62108506 4:0.47727275 5:0.10192075 6:1 7:0.11388754 8:0 9:1 10:0 11:0 12:0 13:0.28571429 14:0.14285713 15:0.63636364 16:2 
1 1:0.47289349 2:1 3:0.7921849 4:0.41379309 5:0.19081798 6:1 7:0.39789462 8:0.47416399 9:1 10:0.050795889 11:0 12:0.42958088 13:0.33333333 14:0 15:1.5 16:15 
1 1:0.31331697 2:1 3:0.82586005 4:0.2962963 5:0.097924644 6:1 7:0.20304978 8:0 9:1 10:9.288183e-06 11:0 12:0 13:0.33333333 14:-1 15:0 16:3 
1 1:0.37546788 2:0.86250001 3:0.70421823 4:0.41071427 5:0.36477164 6:1 7:0.60086843 8:0.91946646 9:1 10:0.19864654 11:0.2589721 12:0.88298041 13:0.33333333 14:0.30000001 15:0.66666667 16:4 
1 1:0.57597063 2:0.81547618 3:0.51684413 4:0.56603777 5:0.53000039 6:1 7:0.46599192 8:0 9:1 10:3.5191274e-06 11:0.46985341 12:0.96067014 13:0.32 14:0.375 15:0.43636364 16:9 
-0.3538896606537964 1:0.36631288 2:1 3:0.99936499 4:0.5 5:0.75953216 6:1 7:0.26199524 8:0.90898489 9:1 10:0.44691896 11:0 12:0.94350903 13:0.1 14:0.60000002 15:1 16:13 
-1 1:0.44211837 2:1 3:0.63765584 4:0.13513511 5:0.50926278 6:1 7:0.35588882 8:0.94767589 9:1 10:0.015801585 11:0 12:0.92192808 13:0.13333333 14:-0.5 15:0.83333333 16:2 
1 1:0.014817666 2:1 3:0.34825296 4:0.60000002 5:0.13828842 6:1 7:0.38605282 8:0 9:1 10:0 11:0 12:0.64984485 13:0.2 14:0 15:0.38095238 16:8 
1 1:1 2:0 3:0.9977971 4:0.39999998 5:0.65388552 6:1 7:0 8:0 9:1 10:0 11:0 12:0 13:1 14:-0.5 15:1.5 16:15 
1 1:0.34890881 2:0.87083334 3:0.85292688 4:0.71428573 5:0.23744906 6:1 7:0.55308137 8:0 9:1 10:8.6563902e-05 11:0 12:0 13:0.3 14:0.80000001 15:0.75 16:3 
1 1:0.43293304 2:0.875 3:0.52517497 4:0.38333333 5:0.62829773 6:1 7:0.55278359 8:0.72233168 9:1 10:0.72459671 11:0.40523605 12:0.79885285 13:0.33333333 14:-0.44444442 15:0.6 16:24 
-0.6980677892510472 1:0.30122902 2:0.71081352 3:0.97115415 4:0.45652175 5:0.22034909 6:1 7:0.51593575 8:0.68492839 9:1 10:0.039852146 11:0 12:0.71468368 13:0.15151515 14:0.5 15:0.33333333 16:24 
1 1:0.54926266 2:0.94999999 3:0.87669161 4:0.5 5:0.41781694 6:1 7:0.1782711 8:0 9:1 10:8.5833903e-05 11:0.82693526 12:0 13:0.66666667 14:-0.16666663 15:0.75 16:25 
1 1:0.53643451 2:0.90909094 3:0.4933262 4:0.71428573 5:0.5180433 6:1 7:0.37762731 8:0.95682767 9:1 10:0.1115045 11:0.28393319 12:0.93521639 13:0.46666667 14:0.69999999 15:0.71111111 16:10 
1 1:0.14667878 2:0.83809525 3:0.45657816 4:0.36986303 5:0.4977292 6:1 7:0.28084634 8:0 9:1 10:0.00026896121 11:0 12:0.45801598 13:0.28846154 14:0.63636363 15:0.48076923 16:45 
1 1:0.73915085 2:0.90476197 3:0.94866573 4:0.73170733 5:0.88081325 6:1 7:0.47475003 8:0.93532692 9:1 10:0.060619267 11:0.33630774 12:0.81115115 13:0.41666667 14:0.66666663 15:0.45 16:11 
1 1:0.47569448 2:0.96296293 3:0.59208864 4:0.45454544 5:0.43634922 6:1 7:0.38765066 8:0.88810109 9:1 10:0.0061721236 11:0.4371063 12:0 13:0.28571429 14:0.14285713 15:0.83333333 16:14 
1 1:0.2344687 2:1 3:0.89707113 4:0.92307693 5:0.15329658 6:1 7:0.2473108 8:0 9:1 10:0 11:0.80922336 12:0 13:0.16666667 14:0.75 15:0.79411765 16:1 
1 1:0.22206539 2:0.78916717 3:0.34575519 4:0.31818181 5:0.44789485 6:1 7:0.38710244 8:0.97712604 9:1 10:0.051675617 11:0.096925119 12:0.80338859 13:0.12820513 14:0.10000002 15:0.35714286 16:0 
-1 1:0.65277457 2:1 3:0.88972905 4:0.64615381 5:0.46534229 6:1 7:0.70868386 8:1 9:1 10:0.016859966 11:0.22802923 12:0.72699594 13:0.71428571 14:0 15:1.4545455 16:20 
1 1:0.3673715 2:1 3:0.51836965 4:0.2903226 5:0.42379527 6:1 7:0.37588294 8:0.91394907 9:1 10:0.018553043 11:0 12:0 13:0.2 14:0.19999999 15:0.76190476 16:16 
-1 1:1 2:1 3:0.44952863 4:0.68000001 5:0.97743498 6:1 7:0.91592429 8:1 9:1 10:0.9999631 11:0 12:1 13:1 14:-0.5 15:1.2 16:8 
1 1:0.36366486 2:1 3:0.63114399 4:0.26923078 5:0.11485464 6:1 7:0.37187117 8:0.80376256 9:0 10:0.47919096 11:0.10987433 12:0.79906588 13:0.38461538 14:-0.41666663 15:0.92857143 16:20 
-1 1:0.93044495 2:1 3:0.89967231 4:0.63380283 5:0.75273197 6:1 7:0.65871258 8:0.70778375 9:1 10:0.23891211 11:0.64043313 12:0.68942968 13:0.77777778 14:0.44444442 15:1.2307692 16:25 
1 1:0.42153157 2:1 3:0.73576381 4:0.58823526 5:0.43169869 6:1 7:0.16312476 8:0.82331594 9:1 10:0.0021592931 11:1 12:0 13:0.33333333 14:0.69999999 15:0.56842105 16:17 
-1 1:0.92912981 2:1 3:0.24999278 4:0.55000001 5:0.86408352 6:1 7:0.80387774 8:0.9337088 9:1 10:0.50150761 11:0.18030059 12:0.84405582 13:0.33333333 14:-0.33333337 15:1.3333333 16:7 
-1 1:0.84565879 2:1 3:0.99990126 4:0.6875 5:0.97861535 6:1 7:0.89981521 8:1 9:1 10:0.9999631 11:1 12:1 13:0.33333333 14:0.33333331 15:1.2 16:2 
-1 1:0.2679698 2:0.44687498 3:0.68626669 4:0.36842108 5:0.094747749 6:1 7:0.15597133 8:0.98984062 9:1 10:0.0013404631 11:0 12:0.90372938 13:0.2 14:0 15:0.3 16:4 
-1 1:0.48635224 2:1 3:0.71756864 4:0.21875 5:0.58873277 6:1 7:0.69599157 8:0.93087995 9:1 10:0.023241935 11:0 12:0.85950769 13:0.2 14:0.33333331 15:0.5 16:8 
-1 1:0.42412525 2:0.77664399 3:0.85031351 4:0.35714287 5:0.66729652 6:1 7:0.51217215 8:0.84553037 9:1 10:0.1186508 11:0 12:0.7704929 13:0.14285714 14:0.4285714 15:0.16666667 16:17 
1 1:0.64639373 2:0.9666667 3:0.68924051 4:0.63636363 5:0.64274475 6:1 7:0.33632066 8:0.90190371 9:1 10:0.21525874 11:0.097203471 12:0.89889475 13:0.77777778 14:0.33333331 15:1.1428571 16:13 
1 1:0.28291586 2:0.87083334 3:0.258801 4:0.53488374 5:0.36653307 6:1 7:0.39726238 8:0.89977673 9:1 10:0.25826385 11:0.44506858 12:0.84973073 13:0.22222222 14:0.5 15:0.75757576 16:9 
1 1:0.76963816 2:1 3:0.54846974 4:0.39473683 5:0.63462444 6:0.50859138 7:0.19350518 8:0.68395245 9:0 10:0.022123707 11:0.092345042 12:0.72614986 13:0.6 14:-0.20000005 15:1.5 16:18 
-1 1:0.30733529 2:0.70757931 3:0.82672049 4:0.33333331 5:0.36438528 6:1 7:0.58173276 8:0.85508567 9:1 10:0.024900132 11:0 12:0.95640205 13:0.10714286 14:0.375 15:0.35555556 16:26 
1 1:0.20525567 2:0.85000002 3:0.99665538 4:0.52941179 5:0.28279566 6:1 7:0.52188123 8:0.79104327 9:1 10:0.16870717 11:0.18301839 12:0.7310897 13:0.12 14:0.27272725 15:0.31168831 16:18 
1 1:0.37157519 2:0.82999998 3:0.73715895 4:0.44736844 5:0.30808754 6:1 7:0.32776472 8:0 9:1 10:0.00022244334 11:0 12:0 13:0.21428571 14:0.375 15:0.4 16:6 
1 1:0.69756865 2:0.91666663 3:0.91832861 4:0.72000003 5:0.87109236 6:1 7:0.23348628 8:0.84529087 9:1 10:0.19187965 11:0.53487484 12:0.81230898 13:0.41666667 14:0.66666663 15:0.45 16:14 
1 1:0.35912686 2:1 3:0.5055562 4:0.3888889 5:0.086063698 6:1 7:0.35840863 8:0.87933638 9:1 10:0.077572375 11:0.21344522 12:0 13:0.13333333 14:-0.16666663 15:0.93333333 16:12 
-1 1:0.5880278 2:0.46768704 3:0.89416894 4:0.5 5:0.85377122 6:1 7:0.36630902 8:0.92570607 9:1 10:0.27228188 11:0 12:0.94704094 13:0.14285714 14:0.4285714 15:0.66666667 16:20 
1 1:0.43428005 2:0.77777773 3:0.48330092 4:0.36363637 5:0.50702683 6:1 7:0.38122113 8:0 9:1 10:3.1420693e-06 11:0 12:0.83988213 13:0.31578947 14:-0.28571427 15:0.93333333 16:8 
-1 1:0.39718388 2:0.97727275 3:0.83630845 4:0.47368419 5:0.43650317 6:1 7:0.61551167 8:0.91903362 9:1 10:0.58141706 11:0.59528362 12:0.85437127 13:0.14285714 14:0.28571427 15:0.6 16:5 
1 1:0.23933741 2:0.90740734 3:0.64371483 4:0.41666669 5:0.31953657 6:1 7:0.32412807 8:0 9:1 10:1.2761484e-06 11:0.43825478 12:0 13:0.14285714 14:0.4285714 15:0.66666667 16:12 
-1 1:0.60206166 2:0.93333334 3:0.35909499 4:0.25 5:0.63234946 6:1 7:0.58612495 8:0.86905873 9:1 10:0.040169407 11:0 12:0.77097339 13:0.2 14:0 15:0.5 16:4 
1 1:0.60066101 2:0.9336735 3:0.91903393 4:0.60526311 5:0.89445001 6:1 7:0.30604185 8:0.7716002 9:1 10:0.025987508 11:0 12:0 13:0.35714286 14:0.5 15:0.4 16:9 
1 1:0.74741661 2:0.88611114 3:0.87787536 4:0.80000001 5:0.73919923 6:1 7:0.54898993 8:0.9567313 9:1 10:0.23686841 11:1 12:0.99408507 13:0.62222222 14:0.80000001 15:0.60606061 16:0 
0.08153543926691451 1:1.0963204 2:1 3:0.83224459 4:0.37037039 5:0.65401944 6:1 7:0.56678131 8:0.46412303 9:1 10:0.43433866 11:0.57093612 12:0.52217116 13:1 14:-1.25 15:1.4285714 16:34 
1 1:0.21757272 2:0.81802464 3:0.96366603 4:0.45652175 5:0.17198131 6:1 7:0.52210141 8:0 9:1 10:4.4806739e-07 11:0 12:0 13:0.16666667 14:0.44444442 15:0.42857143 16:22 
-1 1:0.64664921 2:0.6953125 3:0.84719896 4:0.48275864 5:0.83067896 6:1 7:0.2774369 8:0.98944125 9:1 10:0.36335688 11:0 12:0.97723396 13:0.1 14:0.19999999 15:0.42857143 16:13 
1 1:0.42717908 2:0.84814817 3:0.68423486 4:0.44117647 5:0.31165682 6:1 7:0.50266403 8:0 9:1 10:0 11:0 12:0 13:0.33333333 14:0 15:0.66666667 16:9 
1 1:0.058375987 2:0.60000002 3:0.27392361 4:0.51612902 5:0.0068301603 6:1 7:0.4161065 8:0.89781076 9:0 10:0.042854394 11:0.70175022 12:0.94346665 13:0.1 14:0.19999999 15:0.6 16:4 
1 1:0.36340466 2:0.62857145 3:0.93391764 4:0.34615386 5:0.55284265 6:1 7:0.5291359 8:0.40144572 9:1 10:0.0005096366 11:0 12:0 13:0.1 14:0.39999998 15:0.26666667 16:16 
0.9835838665180863 1:0.67826993 2:1 3:0.68842674 4:0.69999999 5:0.9161445 6:1 7:0.37743406 8:0.90795007 9:1 10:0.51506322 11:1 12:0.91203023 13:0.3 14:0.39999998 15:1.2 16:7 
-1 1:0.35492873 2:0.85714287 3:0.78559147 4:0.36363637 5:0.48634083 6:1 7:0.70542407 8:0.93988152 9:1 10:0.6190719 11:1 12:0.96167376 13:0.10714286 14:0.375 15:0.45 16:18 
1 1:0.5720428 2:0.762963 3:0.77035518 4:0.51111114 5:0.49057168 6:1 7:0.20829421 8:0.86617981 9:1 10:0.030162161 11:0.24887156 12:0 13:0.53571429 14:0.5 15:0.38095238 16:2 
1 1:0.80292569 2:0.85238093 3:0.72871249 4:0.71111107 5:0.94109832 6:1 7:0.21258447 8:0.88057825 9:1 10:0.00493092 11:0.86116707 12:0 13:0.54545455 14:0.75 15:0.47619048 16:7 
1 1:0.2971476 2:0.94444442 3:0.59108659 4:0.52083337 5:0.36111776 6:1 7:0.53907946 8:0 9:1 10:3.9586593e-05 11:0.40744519 12:0 13:0.21428571 14:0.5 15:0.3 16:18 
-1 1:0.49966001 2:1 3:0.70335717 4:0.65217388 5:0.63139107 6:1 7:0.4716013 8:0.98875654 9:1 10:0.121226 11:0.58433838 12:0.99316807 13:0.16666667 14:0.5 15:1.5 16:3 
1 1:0.37884495 2:1 3:0.96799207 4:0.80000001 5:0.33317993 6:1 7:0.87111187 8:0 9:1 10:0 11:0 12:0 13:0.33333333 14:0.33333331 15:1.2 16:1 
1 1:0.32223625 2:0.70535713 3:0.54483677 4:0.58490562 5:0.2357623 6:1 7:0.44538569 8:0.94049126 9:1 10:0.18225319 11:0.14034345 12:0.85649544 13:0.27777778 14:0.55555558 15:0.8 16:7 
1 1:0.57512626 2:0.77419508 3:0.68138438 4:0.67857146 5:0.22655503 6:1 7:0.34294862 8:1 9:1 10:0.0012143171 11:0.46412913 12:0.80041632 13:0.41666667 14:0.44444442 15:0.65454545 16:6 
1 1:0.24587514 2:0.83636361 3:0.96590281 4:0.53846157 5:0.29524349 6:1 7:0.53404646 8:0.76639916 9:1 10:0.02880443 11:0.81593086 12:0.7848527 13:0.18181818 14:0.45454544 15:0.25 16:17 
1 1:0.4504783 2:0.8650794 3:0.47731479 4:0.5 5:0.38208424 6:1 7:0.36249291 8:0.9043722 9:1 10:0.020169788 11:0.74070941 12:0.91231486 13:0.19354839 14:0.22222221 15:0.4 16:7 
1 1:0.6157119 2:1 3:0.99972152 4:0.39024389 5:0.46105229 6:1 7:0.65148943 8:0.99146312 9:1 10:0.44266367 11:0 12:0.91108816 13:0.33333333 14:-1.3333333 15:1.3333333 16:24 
1 1:0.28573988 2:0.79841262 3:0.70998444 4:0.35483873 5:0.53205452 6:1 7:0.23356882 8:0.80186375 9:0 10:0.016544027 11:0.29721611 12:0.72066394 13:0.2 14:0.16666669 15:0.42857143 16:2 
-1 1:0.36812365 2:0.73277777 3:0.32610901 4:0.25 5:0.51124091 6:1 7:0.33259785 8:0.94873582 9:1 10:0.0024220395 11:0 12:0.95998761 13:0.16666667 14:0.22222221 15:0.52747253 16:4 
-1 1:0.6612759 2:1 3:0.73642806 4:0.51020408 5:0.47411922 6:1 7:0.6242537 8:0.75822889 9:1 10:0.095475574 11:0 12:0.86401579 13:0.5 14:-0.25 15:1.2727273 16:18 
-0.2655102417472518 1:0.50012342 2:0.85714287 3:0.91853949 4:0.44444442 5:0.89290194 6:1 7:0.61629348 8:0.51372382 9:1 10:0.66252549 11:0.68311483 12:0.53750502 13:0.14634146 14:0.39999998 15:0.42857143 16:24 
1 1:0.14513285 2:1 3:0.49883529 4:0.36585367 5:0.108934 6:1 7:0.16731154 8:0.78422991 9:1 10:0.13732412 11:0 12:0.6857007 13:0 14:-1.25 15:1.3333333 16:8 
-1 1:0.37341433 2:0.77222222 3:0.88564379 4:0.59090912 5:0.55255298 6:1 7:0.28857666 8:0.93157256 9:1 10:0.064976765 11:0 12:1 13:0 14:0.5 15:0.42857143 16:7 
-0.3318479607707078 1:0.73363861 2:1 3:0.73596368 4:0.52499998 5:0.67492022 6:1 7:0.7359717 8:0.90045575 9:1 10:0.40040276 11:0 12:0.89053716 13:0.5 14:-0.25 15:1.1428571 16:17 
1 1:0.50463244 2:0.530303 3:0.53807237 4:0.58536589 5:0.70595289 6:1 7:0.1687395 8:1 9:1 10:0.20940123 11:1 12:1 13:0.16666667 14:0.55555558 15:0.53333333 16:16 
1 1:0.20564027 2:0.95833331 3:0.40685938 4:0.49019605 5:0.17016102 6:1 7:0.37874122 8:0 9:1 10:2.7863255e-07 11:0.46508965 12:0 13:0.21428571 14:0.375 15:0.5 16:13 
1 1:0.59393308 2:0.66326529 3:0.99948278 4:0.64999998 5:0.71967812 6:1 7:0.42473322 8:0.81404875 9:1 10:0.00685838 11:0 12:0.57872353 13:0.16666667 14:0.5 15:0.42857143 16:6 
1 1:0.65061161 2:1 3:0.78473032 4:0.69354838 5:0.80125029 6:0 7:0.54505311 8:0.65364004 9:1 10:0.11639598 11:0.66997564 12:0.83906813 13:0.46666667 14:0.5 15:1.0909091 16:11 
1 1:0.44053968 2:0.83888888 3:0.75155814 4:0.49206346 5:0.51573083 6:1 7:0.46603323 8:0.89685918 9:1 10:0.021783339 11:0.14158185 12:0.87375134 13:0.33333333 14:0.36363637 15:0.71428571 16:14 
-1 1:0.56225003 2:0.89880955 3:0.64123885 4:0.32608694 5:0.70704441 6:1 7:0.6524863 8:0.98250414 9:1 10:0.61082367 11:0 12:0.92525155 13:0.38709677 14:0.33333331 15:0.6 16:5 
1 1:0.32334307 2:0.86805552 3:0.66680549 4:0.50724638 5:0.30675618 6:1 7:0.4655638 8:0.94280936 9:1 10:0.24074154 11:0.83151773 12:0.92771485 13:0.1641791 14:0.38461536 15:0.60606061 16:10 
1 1:0.48251809 2:0.57098764 3:0.53028835 4:0.41666669 5:0.53492673 6:1 7:0.22931014 8:0.95162029 9:1 10:0.15137369 11:0.49598842 12:0.8392776 13:0.66666667 14:-0.16666663 15:0.83333333 16:21 
-1 1:0.49019418 2:0.91666669 3:0.66059989 4:0.59183669 5:0.54067164 6:1 7:0.49618532 8:0.79239047 9:1 10:0.13010012 11:0.3362351 12:0.8918521 13:0.28571429 14:0.14285713 15:0.83333333 16:5 
1 1:0.72512798 2:1 3:0.66665658 4:0.65853655 5:0.73085874 6:1 7:0.4010329 8:0.97091253 9:1 10:0.030783819 11:1 12:0.83213696 13:0.42857143 14:0.4285714 15:1.1428571 16:2 
1 1:0.37793629 2:0.96296293 3:0.57274137 4:0.46153843 5:0.45007291 6:1 7:0.45431263 8:0 9:0 10:1.4460131e-07 11:0 12:0 13:0.34375 14:0.33333331 15:0.66666667 16:12 
1 1:0.44853231 2:1 3:0.99218478 4:0.60000002 5:0.32966971 6:1 7:0.6549602 8:0 9:1 10:0.00040167527 11:0 12:0 13:0.5 14:0.25 15:0.66666667 16:7 
-1 1:1 2:1 3:0.89380091 4:0.35555553 5:0.71239192 6:1 7:0.41146132 8:0.43146975 9:1 10:0.017660744 11:0 12:0.51909488 13:1 14:-1.6666667 15:1.4285714 16:29 
-1 1:0.33092221 2:0.8888889 3:0.832306 4:0.56666666 5:0.31874929 6:1 7:0.65572192 8:1 9:1 10:0.0015608264 11:0.64456191 12:0.65225404 13:0.2 14:0.66666663 15:0.64285714 16:12 
-1 1:0.58222901 2:0.64999998 3:0.73855779 4:0.58490562 5:0.7000699 6:1 7:0.12812793 8:0.9181282 9:1 10:0.13000448 11:0.50488167 12:0.92173532 13:0.16666667 14:0.55555558 15:0.66666667 16:13 
-1 1:0.71118396 2:1 3:0.86619354 4:0.53658533 5:0.59295007 6:1 7:0.4734249 8:0.73127552 9:1 10:0.13274099 11:0.53815297 12:0.82536102 13:0.62222222 14:0.30000001 15:1.2307692 16:30 
1 1:0.65262594 2:0.94999999 3:0.94922467 4:0.66666663 5:0.60150875 6:1 7:0.45276724 8:0.94674448 9:1 10:0.0021035068 11:0.68196233 12:0.95012918 13:0.5 14:0.75 15:0.66666667 16:1 
1 1:0.86916704 2:1 3:0.62278564 4:0.7045455 5:0.92398716 6:1 7:0.81579594 8:0.54824468 9:1 10:0.67853825 11:1 12:0.5923313 13:0.6 14:0.19999999 15:1.3333333 16:12 
1 1:0.97272698 2:1 3:0.86819051 4:0.55405402 5:0.3511647 6:1 7:0.552799 8:0.77668504 9:1 10:0.24764932 11:0.37562002 12:0.72252865 13:1 14:0.22222221 15:1.3846154 16:16 
1 1:0.90706237 2:1 3:0.88387932 4:0.78787875 5:0.87670681 6:1 7:0.49994544 8:0.92730181 9:1 10:0.14537465 11:1 12:0.86907386 13:0.8 14:0.80000001 15:1.1111111 16:13 
1 1:0.75569563 2:1 3:0.9375798 4:0.875 5:0.88273937 6:1 7:0.59576915 8:0.92268583 9:1 10:0.3044291 11:1 12:0.89908924 13:0.72580645 14:0.91666669 15:0.88402062 16:4 
1 1:0.59166709 2:1 3:0.83361673 4:0.59090912 5:0.65233885 6:1 7:0.81365827 8:0 9:1 10:0.00024258283 11:0 12:0 13:0.3 14:0.39999998 15:0.42857143 16:7 
1 1:0.62466844 2:1 3:0.88791654 4:0.75 5:0.82499198 6:1 7:0.8573629 8:0.92571523 9:1 10:0.27593154 11:0.52720642 12:0.89215658 13:0.47619048 14:0.57142854 15:0.42857143 16:7 
1 1:0.74284 2:1 3:0.86581769 4:0.89999998 5:0.91196979 6:0 7:0.21795914 8:0.955408 9:1 10:0.62139859 11:0 12:0.96602322 13:0.47619048 14:0.85714287 15:1 16:0 
0.5455464858583741 1:0.33069863 2:0.70833331 3:0.81755739 4:0.6875 5:0.37762119 6:1 7:0.73936293 8:1 9:1 10:0.14423546 11:0 12:0 13:0.4 14:0.83333331 15:0.64285714 16:9 
1 1:0.22039728 2:0.78666669 3:0.95662837 4:0.44999999 5:0.27749937 6:1 7:0.54542941 8:0.65021236 9:1 10:0.019469826 11:0.7743818 12:0 13:0.2 14:0.5 15:0.3 16:10 
-1 1:0.53309201 2:0.89285713 3:0.6391421 4:0.68000001 5:0.58329712 6:1 7:0.72359796 8:0.99380822 9:1 10:0.66409736 11:0.18183391 12:0.97920477 13:0.44117647 14:0.55555558 15:0.8 16:9 
-1 1:0.9305453 2:1 3:0.99228218 4:0.625 5:0.80515204 6:1 7:0.35827602 8:0.98535878 9:1 10:0.56413993 11:0 12:1 13:0.9 14:0 15:1.4 16:10 
1 1:0.79856868 2:1 3:0.81793885 4:0.75 5:0.36901829 6:1 7:0.54859474 8:0.95006241 9:1 10:0.49956284 11:1 12:0.97887879 13:0.57142857 14:0.60000002 15:0.93333333 16:7 
-1 1:0.65317343 2:1 3:0.53358199 4:0.57142854 5:0.73902576 6:1 7:0.21165255 8:0.91978512 9:1 10:0.10299722 11:0 12:0.91273489 13:0.5 14:0.25 15:1.3333333 16:1 
0.7769952019789689 1:0.630925 2:0.89999998 3:0.83006969 4:0.8888889 5:0.74578479 6:1 7:0.24035905 8:1 9:1 10:0.78909017 11:1 12:0.86861792 13:0.66666667 14:0.66666663 15:1.1428571 16:1 
1 1:0.21736432 2:1 3:0.48269601 4:0.70588231 5:0.33856199 6:1 7:0.55383148 8:0.99290529 9:1 10:0.74725507 11:0.44049518 12:0.99233851 13:0.26315789 14:0.58333337 15:0.44444444 16:13 
1 1:0.72251926 2:0.91428566 3:0.70034657 4:0.7241379 5:0.8291946 6:1 7:0.56613476 8:0.86465826 9:1 10:0.20305588 11:1 12:0.85352703 13:0.57894737 14:0.5 15:0.4 16:2 
1 1:1 2:1 3:0.91978133 4:0.72727275 5:0.93394082 6:1 7:0.85283217 8:0.90991284 9:1 10:0.42442534 11:1 12:0.89395612 13:1 14:0.60000002 15:1.2 16:9 
1 1:0.75376018 2:0.38095239 3:0.53837006 4:0.36363637 5:0.80304614 6:1 7:3.2776726e-08 8:0.90859541 9:1 10:0.10560779 11:0 12:0.84351633 13:0.33333333 14:0 15:0.6 16:1 
1 1:0.23403789 2:0.84814817 3:0.1610974 4:0.67500001 5:0.27824405 6:1 7:0.34906906 8:0.95675349 9:1 10:0.52196952 11:0 12:0.9241071 13:0.22222222 14:0.60000002 15:0.41558442 16:12 
1 1:0.7844648 2:0.75132275 3:0.82503041 4:0.66666663 5:0.80884128 6:1 7:0.5804311 8:0.951567 9:1 10:0.22075974 11:0 12:0.72246787 13:0.66666667 14:0.4285714 15:0.76190476 16:4 
1 1:0.66505178 2:0.81083328 3:0.66439405 4:0.77777779 5:0.80826612 6:1 7:0.56366963 8:0.86000667 9:1 10:0.47927699 11:0.52304863 12:0.83788067 13:0.53333333 14:0.6875 15:0.33333333 16:16 
1 1:0.32999368 2:0.89799994 3:0.93163098 4:0.73913044 5:0.31336376 6:1 7:0.50914578 8:0.87512508 9:1 10:0.35596574 11:0.22664918 12:0.90999847 13:0.42424242 14:0.75 15:0.41558442 16:11 
1 1:0.39613606 2:0.18367347 3:0.53820864 4:0.36363637 5:0.77836281 6:1 7:6.4665225e-09 8:0.93997488 9:1 10:0.19103484 11:0 12:0.89410167 13:0.33333333 14:0 15:0.6 16:1 
-1 1:0.59645477 2:0.96180558 3:0.85384657 4:0.69852942 5:0.54726011 6:1 7:0.45308866 8:0.94102753 9:1 10:0.33345276 11:0.12535039 12:0.92189529 13:0.69026549 14:0.56521738 15:0.79411765 16:20 
1 1:1 2:1 3:0.95539272 4:0.63636363 5:0.68521771 6:1 7:0.80505243 8:0.51252347 9:1 10:0.93558888 11:1 12:0.50682125 13:1 14:0.25 15:1.3333333 16:12 
1 1:0.15586146 2:0.86666662 3:0.59467413 4:0.60869563 5:0.33029631 6:1 7:0.30946297 8:0.74691903 9:1 10:0.17658095 11:0 12:0.68389138 13:0.27777778 14:0.5 15:0.22222222 16:17 
1 1:0.70998907 2:0.92857146 3:0.80612085 4:0.87804878 5:0.82560706 6:1 7:0.58790688 8:0.9577625 9:1 10:0.30762665 11:1 12:0.94235675 13:0.62222222 14:0.89999998 15:0.85034014 16:0 
1 1:0.35402067 2:0.81818181 3:0.78140081 4:0.46296299 5:0.39603728 6:1 7:0.33636442 8:0.9715115 9:1 10:0.35860638 11:0.27061233 12:0.98137548 13:0.37878788 14:0.46153843 15:0.58333333 16:9 
1 1:0.39205806 2:1 3:0.85042682 4:0.60714287 5:0.50266428 6:1 7:0.77006011 8:0.71328338 9:1 10:0.25893398 11:0.69226887 12:0 13:0.3 14:0.80000001 15:1 16:10 
1 1:0.8258263 2:1 3:0.78008092 4:0.51219511 5:0.67085934 6:1 7:0.68951745 8:0.55954683 9:1 10:0.22716986 11:0.11351521 12:0.58794531 13:0.51351351 14:0.39999998 15:0.53333333 16:7 
-1 1:0.56961704 2:1 3:0.71769009 4:0.65306121 5:0.8058266 6:1 7:0.5154646 8:1 9:1 10:0.87818811 11:0.23147547 12:1 13:1 14:0.39999998 15:1.25 16:17 
1 1:0.23977325 2:1 3:0.38863728 4:0.63636363 5:0.30490078 6:1 7:0.52768094 8:0.98040889 9:1 10:0.32852173 11:0.66274819 12:0.99796552 13:0.28571429 14:0.57142854 15:0.33333333 16:12 
1 1:0.32646238 2:0 3:0.59582261 4:0.69230771 5:0.61902772 6:1 7:0 8:0.95506951 9:1 10:0.81427667 11:0 12:0.97208208 13:0.35294118 14:0.57142854 15:0.53333333 16:8 
1 1:0.027113509 2:1 3:0.88460006 4:0.76923078 5:0.0026762571 6:1 7:0.31339695 8:1 9:1 10:0.9999631 11:0 12:1 13:0 14:-0.33333337 15:0 16:4 
-1 1:0.9576979 2:1 3:0.9672937 4:0.66666663 5:0.74115273 6:1 7:0.74005374 8:0.78013268 9:1 10:0.49562579 11:0 12:0.80941849 13:1 14:0.39999998 15:1.25 16:14 
1 1:0.7145134 2:1 3:0.33262062 4:0.76190478 5:0.93431863 6:1 7:0.24089358 8:0.86983068 9:1 10:0.53590691 11:0 12:0.90104153 13:0.33333333 14:0.39999998 15:0.42857143 16:2 
-1 1:0.62828652 2:1 3:0.77297941 4:0.84615386 5:0.66095425 6:1 7:0.60771168 8:1 9:1 10:0.9999631 11:0.33012995 12:1 13:0.68421053 14:0.57142854 15:1.1111111 16:2 
1 1:0.95688987 2:1 3:0.47561764 4:0.60606062 5:0.78511293 6:1 7:0.55041479 8:0.70783978 9:1 10:0.00050657454 11:0.7644134 12:0 13:1 14:0.5 15:1.3333333 16:13 
1 1:0.2495513 2:0.9375 3:0.9362465 4:0.65714288 5:0.30127754 6:1 7:0.60126725 8:0.98691532 9:1 10:0.70027873 11:0.40803441 12:0.99798175 13:0.27777778 14:0.66666663 15:0.41558442 16:11 
1 1:1 2:1 3:0.7651485 4:0.68421054 5:0.64385813 6:1 7:0.43538191 8:1 9:1 10:0.0089671201 11:0 12:0 13:1 14:0.39999998 15:1.25 16:12 
1 1:0.5595326 2:0.96875 3:0.91837457 4:0.89583331 5:0.49673371 6:1 7:0.46346688 8:1 9:1 10:0.087321053 11:1 12:0.98314008 13:0.58333333 14:0.8888889 15:0.86921529 16:0 
1 1:0.76202732 2:0.66666669 3:0.89425173 4:0.71428573 5:0.71288812 6:1 7:0.1878771 8:0.89386329 9:1 10:0.17624099 11:0 12:0.8129793 13:0.66666667 14:0.66666663 15:0.6 16:5 
1 1:0.76898857 2:1 3:0.93167757 4:0.98750001 5:0.93379793 6:1 7:0.32982962 8:0.98109296 9:1 10:0.43734711 11:0.76839368 12:0.99185401 13:0.86407767 14:0.93333334 15:0.9 16:1 
-1 1:0.80101015 2:0.86428571 3:0.9013661 4:0.79487181 5:0.80782535 6:1 7:0.69419866 8:0.9571203 9:1 10:0.60670758 11:0.35271995 12:0.91848015 13:0.71428571 14:0.71428573 15:1.3333333 16:0 
1 1:0.56507707 2:1 3:0.89167976 4:0.52777779 5:0.95619193 6:1 7:0.57408636 8:0.54819091 9:1 10:0.51297319 11:0 12:0.56705769 13:0.23076923 14:0.375 15:0.3 16:15 
1 1:0.96550361 2:1 3:0.96515283 4:0.73170733 5:0.87490327 6:1 7:0.62101567 8:0.63700989 9:1 10:0.0032585772 11:0.1816466 12:0.69537371 13:1 14:0.66666663 15:1.1428571 16:11 
-1 1:0.85999538 2:1 3:0.95407914 4:0.875 5:0.98207227 6:1 7:0.81294137 8:1 9:1 10:0.9999631 11:0 12:1 13:0.66666667 14:0.66666663 15:1.2 16:2 
1 1:0.26802295 2:0.90952379 3:0.76836014 4:0.67901236 5:0.41255837 6:1 7:0.52206173 8:0.92349617 9:1 10:0.39012873 11:0.81556159 12:0.88879541 13:0.31632653 14:0.60000002 15:0.42982456 16:12 
1 1:0.70761438 2:1 3:0.90300898 4:0.96078432 5:0.64279712 6:1 7:0.60557934 8:0.97583902 9:1 10:0.54299217 11:1 12:0.9381486 13:0.68181818 14:0.91666669 15:0.65934066 16:1 
1 1:0.46789994 2:0.91049385 3:0.86407008 4:0.82051283 5:0.49891734 6:1 7:0.60753055 8:1 9:1 10:0.10178606 11:0.14337806 12:0.88654602 13:0.5 14:0.78571427 15:0.57647059 16:14 
-1 1:0.56869979 2:0.57999998 3:0.62446998 4:0.79069769 5:0.64443001 6:1 7:0.1393644 8:0.96462256 9:1 10:0.59710683 11:0 12:0.91179774 13:0.35714286 14:0.625 15:0.5952381 16:9 
1 1:0.72937763 2:0.94140625 3:0.53758275 4:0.80555558 5:0.66976516 6:1 7:0.59729527 8:0.99193629 9:1 10:0.28694859 11:0.5247592 12:0.95500948 13:0.66666667 14:0.66666663 15:0.83333333 16:3 
1 1:0.1944357 2:0.88020831 3:0.85068966 4:0.69444442 5:0.33261736 6:1 7:0.58397909 8:0.92513656 9:1 10:0.22270647 11:0.063291073 12:0.94766544 13:0.33333333 14:0.60000002 15:0.41558442 16:11 
1 1:0.39925708 2:0.93004113 3:0.55705547 4:0.75999999 5:0.4124629 6:1 7:0.60780908 8:0.90648387 9:1 10:0.10556781 11:0 12:0.68780129 13:0.42857143 14:0.71428573 15:0.64285714 16:0 
1 1:0.78500475 2:1 3:0.81926596 4:0.69117647 5:0.41864073 6:1 7:0.57991623 8:0.78963962 9:1 10:0.50049483 11:0.44805313 12:0.88457958 13:0.79069767 14:0.45454544 15:1.25 16:16 
1 1:0.51916866 2:1 3:0.91934885 4:0.72340429 5:0.36453823 6:1 7:0.47663991 8:0.99772438 9:1 10:0.99129078 11:0.62154229 12:0.96000009 13:0.66666667 14:-0.33333337 15:0 16:12 
1 1:0.34836962 2:0.88095236 3:0.82982691 4:0.57142854 5:0.74311676 6:1 7:0.75275341 8:0 9:1 10:4.3533683e-05 11:0 12:0.59159507 13:0.41666667 14:0.5 15:0.42857143 16:10 
1 1:0.70226173 2:0.97727275 3:0.93497765 4:0.83720928 5:0.67114409 6:1 7:0.52320878 8:0.99367251 9:1 10:0.32417381 11:1 12:0.92723782 13:0.75 14:0.75 15:0.83333333 16:2 
1 1:0.28569544 2:0.97222215 3:0.97424585 4:0.625 5:0.28966317 6:1 7:0.52065929 8:0.88142896 9:1 10:0.41104866 11:0.80605312 12:0.8541979 13:0.30769231 14:0.64285713 15:0.48076923 16:26 
0.5753159976107607 1:0.66048626 2:0.9666667 3:0.84121303 4:0.69999999 5:0.72795048 6:1 7:0.58975688 8:0.87764158 9:1 10:0.26817677 11:0.75154914 12:0.7128484 13:0.56 14:0.75 15:0.42857143 16:11 
1 1:0.32978756 2:1 3:0.795898 4:0.8888889 5:0.3125354 6:1 7:0.32976378 8:0.95568613 9:1 10:0.34389949 11:1 12:0.95064062 13:0.41666667 14:0.66666663 15:0.42857143 16:0 
1 1:0.72826149 2:1 3:0.79353881 4:0.74545455 5:0.88635001 6:1 7:0.87178975 8:0.83538291 9:1 10:0.014130993 11:0.15331165 12:0.80475781 13:0.61538462 14:0.60000002 15:0.8 16:7 
1 1:0.65597995 2:0.93999994 3:0.92439484 4:0.65957451 5:0.84092318 6:1 7:0.7926223 8:0.62885714 9:1 10:0.21771396 11:0.95542183 12:0.70356003 13:0.51219512 14:0.69999999 15:0.53333333 16:15 
-1 1:0.76968973 2:1 3:0.72459968 4:0.48780489 5:0.71463353 6:1 7:0.38392742 8:0.94288107 9:1 10:0.37179137 11:1 12:0.91798634 13:0.61904762 14:0.4285714 15:1.3333333 16:1 
1 1:0.25796088 2:0.89285713 3:0.5850344 4:0.59615386 5:0.26616829 6:1 7:0.4844567 8:1 9:1 10:0.62947712 11:0 12:0.84174478 13:0.2625 14:0.57142854 15:0.48076923 16:20 
1 1:0.6260279 2:0.82610542 3:0.93915346 4:0.61250001 5:0.73445228 6:1 7:0.40314916 8:0.89480126 9:1 10:0.20924765 11:0.3118306 12:0.88191062 13:0.57954545 14:0.73333335 15:0.41558442 16:31 
1 1:0.9705138 2:1 3:0.93066206 4:0.875 5:0.98838839 6:1 7:0.33567993 8:0.97342213 9:1 10:0.67871064 11:0.71861419 12:0.92749117 13:1 14:0.80000001 15:1.0769231 16:7 
-1 1:0.97590903 2:1 3:0.46556232 4:0.76190478 5:0.99718802 6:1 7:0.73927253 8:1 9:1 10:0.9999631 11:0.6343898 12:1 13:1 14:0 15:1.3333333 16:5 
1 1:0.62093136 2:1 3:0.58087449 4:0.85714287 5:0.57705224 6:1 7:0.70960811 8:0.93709421 9:1 10:0.25313313 11:0.70646774 12:0.92025753 13:0.69444444 14:0.9285714 15:0.85714286 16:10 
1 1:0.68703801 2:0.95454544 3:0.79731843 4:0.45161289 5:0.71975384 6:1 7:0.63005208 8:0.79091346 9:1 10:0.040131035 11:0.088931751 12:0.88875015 13:0.54166667 14:0.5 15:0.53333333 16:1 
1 1:0.61788971 2:1 3:0.84811641 4:0.89999998 5:0.61481484 6:0.63386508 7:0.65315348 8:0.99486844 9:1 10:0.61476104 11:0.74900238 12:0.93321292 13:0.50909091 14:0.72727275 15:0.76829268 16:4 
0.4721505682930677 1:0.71663048 2:1 3:0.91552271 4:0.65517241 5:0.79042604 6:1 8:0.98474821 9:1 10:0.61854867 11:0 12:0.93880458 13:0.62222222 14:0.89999998 15:1 16:19 
1 1:0.65626671 2:0.54761904 3:0.81269888 4:0.79487181 5:0.68515947 6:1 7:0.12412912 8:1 9:1 10:0.17874742 11:1 12:0.98080539 13:0.66666667 14:0.66666663 15:0.76190476 16:2 
-1 1:0.60203841 2:0.83680558 3:0.95717932 4:0.67857146 5:0.81592843 6:1 7:0.70712427 8:0.98660518 9:1 10:0.18071392 11:0.7590822 12:0.72120027 13:0.46153846 14:0.5 15:0.66666667 16:7 
-1 1:0.93263565 2:1 3:0.90898466 4:0.58333337 5:0.70962889 6:1 7:0.66038098 8:0.81753676 9:1 10:0.047023665 11:0.45371099 12:0.87325608 13:0.81818182 14:0.45454544 15:1.25 16:39 
1 1:0.1442231 2:0.84506404 3:0.5559722 4:0.43518519 5:0.10192776 6:1 7:0.28611398 8:0.91884678 9:1 10:0.012179338 11:0.45308562 12:0.82775121 13:0.078740157 14:0.29411763 15:0.57272727 16:2 
1 1:0.40206435 2:1 3:0.44718893 4:0.71910113 5:0.39248383 6:0.65406979 7:0.097359586 8:0.9443221 9:1 10:0.24107045 11:0.62199674 12:0.95697553 13:0.30693069 14:0.4375 15:0.9 16:6 
1 1:0.46615083 2:0.83520198 3:0.72426067 4:0.63106799 5:0.45506694 6:0 7:0.31557671 8:0.7406243 9:1 10:0.13193115 11:0.70356357 12:0.85760959 13:0.375 14:0.375 15:0.66461538 16:21 
1 1:0.42881917 2:0.83520198 3:0.6056123 4:0.6836735 5:0.39741498 6:0 7:0.32434741 8:0.72013272 9:1 10:0.22119689 11:0.7635527 12:0.9088465 13:0.23333333 14:0.375 15:0.51692308 16:16 
1 1:0.30155325 2:0.7437641 3:0.43774256 4:0.28358209 5:0.49392273 6:0.62347102 7:0.48200517 8:0.85919525 9:1 10:0.098041846 11:0.31763971 12:0.69533741 13:0.21794872 14:0.076923072 15:0.44444444 16:5 
1 1:0.17464177 2:0.4214015 3:0.33699467 4:0.328125 5:0.22275408 6:1 7:0.24959551 8:0.78397577 9:1 10:0.0031456151 11:0 12:0.66901011 13:0.070422535 14:0.15384614 15:0.60952381 16:6 
-1 1:0.24469477 2:0.60221088 3:0.57033524 4:0.3125 5:0.54588159 6:0 7:0.31590554 8:0 9:0 10:0.00011746536 11:0 12:0.78435372 13:0.087912088 14:0.21428573 15:0.33333333 16:35 
0.8789908427329569 1:0.4566101 2:0.95216054 3:0.68496128 4:0.56799996 5:0.48347682 6:1 7:0.57166964 8:0.93732674 9:1 10:0.19974767 11:0.51465304 12:0.93234384 13:0.375 14:0.3125 15:0.95333333 16:31 
1 1:0.33050429 2:0.78670639 3:0.46949918 4:0.60629922 5:0.29885664 6:0 7:0.28942519 8:0.73494964 9:0 10:0.019253982 11:0.72328778 12:0.8887067 13:0.45833333 14:0.4375 15:0 16:10 
1 1:0.30155325 2:0.71900225 3:0.40484624 4:0.29850745 5:0.51778962 6:0.62347102 7:0.49355803 8:0.85073053 9:1 10:0.1414167 11:0.21784347 12:0.71548311 13:0.25641026 14:0.076923072 15:0.44444444 16:0 
1 1:0.48808615 2:0.76025128 3:0.53249546 4:0.48214287 5:0.67348896 6:1 7:0.50496875 8:0.71305334 9:1 10:0.16330399 11:0.73061381 12:0.75095184 13:0.31818182 14:0.5 15:0.64285714 16:18 
1 1:0.43339823 2:0.731713 3:0.76985606 4:0.72380948 5:0.37462029 6:0.63709421 7:0.2003445 8:0.98612915 9:1 10:0.36099602 11:1 12:0.97881022 13:0.57352941 14:0.58823526 15:1.0909091 16:0 
1 1:0.45185622 2:0.87566137 3:0.76717501 4:0.64957261 5:0.41694758 6:0 7:0.39615682 8:0.86940892 9:1 10:0.044365415 11:0.66007484 12:0.90752577 13:0.55 14:0.6875 15:0.90909091 16:9 
-1 1:0.44613012 2:0.87006176 3:0.62174396 4:0.61904764 5:0.62128397 6:0 7:0.59897806 8:0.80827076 9:0 10:0.11676976 11:0.34058647 12:0.93697352 13:0.45833333 14:0.5 15:0.75757576 16:11 
1 1:0.38600213 2:0.85064936 3:0.74525985 4:0.47222221 5:0.35361151 6:1 7:0.39964601 8:0.94983117 9:1 10:0.24401978 11:0.32322353 12:0.90911554 13:0.22727273 14:0.5 15:0.9 16:6 
1 1:0.64080146 2:1 3:0.59578115 4:0.78651685 5:0.81011201 6:1 7:0.093174754 8:0.93601286 9:1 10:0.50141403 11:0.8573528 12:0.94946327 13:0.56435644 14:0.625 15:0.94285714 16:1 
1 1:0.49778661 2:0.86640215 3:0.75225546 4:0.56060606 5:0.39883974 6:1 7:0.36440618 8:0.92202285 9:1 10:0.12529329 11:0.59406899 12:0.93905978 13:0.5625 14:0.43478262 15:0 16:17 
1 1:0.099782582 2:0.94444442 3:0.69029504 4:0.47500002 5:0.024250458 6:1 7:0.26209534 8:0 9:1 10:7.3696537e-05 11:0.2916269 12:0 13:0 14:0 15:0.5 16:14 
0.4583172201730593 1:0.50119815 2:0.97500002 3:0.70938642 4:0.74712646 5:0.7342699 6:0.46239039 7:0.48830385 8:0.91224202 9:1 10:0.10874404 11:0.1666716 12:0.84812681 13:0.32142857 14:0.58823526 15:0.83660131 16:11 
-1 1:0.019981046 2:0.46555558 3:0.44984755 4:0.25287354 5:0.011179701 6:0 7:1.7756474e-06 8:0 9:1 10:0 11:0 12:0 13:0.0089285714 14:0.11764705 15:0.15873016 16:42 
-1 1:0.24469477 2:0.60221088 3:0.57033524 4:0.3125 5:0.54588159 6:0 7:0.31590554 8:0 9:0 10:0.00011746536 11:0 12:0.78435372 13:0.087912088 14:0.21428573 15:0.33333333 16:35 
1 1:0.47437188 2:1 3:0.91214819 4:0.81944442 5:0.5380107 6:1 7:0.55260333 8:0.94203598 9:1 10:0.32722974 11:0.13763813 12:0.91907407 13:0.27272727 14:0.63636363 15:0.85714286 16:5 
1 1:0.50998681 2:0.72998315 3:0.55649605 4:0.60869563 5:0.44226012 6:0 7:0.24675169 8:0.60379705 9:1 10:0.13334793 11:0.515271 12:0.89668517 13:0.375 14:0.5625 15:0.66461538 16:10 
1 1:0.31245546 2:0.82161456 3:0.57449721 4:0.55952382 5:0.40743455 6:1 7:0.28205223 8:0.9138463 9:1 10:0.40555806 11:0.66399711 12:0.92920336 13:0.10144928 14:0.30769229 15:0.60952381 16:16 
1 1:0.41602412 2:0.91904765 3:0.82195347 4:0.59740257 5:0.30868264 6:1 7:0.66927099 8:0.87048443 9:1 10:0.12361427 11:0.097945157 12:0.90980062 13:0.35 14:0.41666669 15:0.83333333 16:8 
1 1:0.48132518 2:0.8767361 3:0.58110271 4:0.6557377 5:0.59003391 6:0.94608324 7:0.37337204 8:0.83877863 9:1 10:0.44778909 11:0.27367945 12:0.84623384 13:0.2 14:0.26666665 15:0.86037492 16:28 
-1 1:0.22393765 2:0.42244318 3:0.40723367 4:0.36842108 5:0.42813748 6:0 7:0.25366639 8:0 9:1 10:1.9991212e-05 11:0.14145084 12:0 13:0.16176471 14:0.38461536 15:0.28846154 16:30 
-1 1:0.12532768 2:0.69387752 3:0.61890033 4:0.28750002 5:0.5006188 6:0 7:0.29953665 8:0 9:0 10:6.0480429e-07 11:0 12:0.74777171 13:0.087912088 14:0.14285713 15:0.375 16:32 
1 1:0.5496212 2:0.72888887 3:0.67524922 4:0.74074078 5:0.62628064 6:0.75354808 7:0.38968621 8:0.95880868 9:1 10:0.401546 11:0.47374782 12:0.94201881 13:0.5 14:0.73333335 15:0.81871345 16:3 
1 1:0.41735078 2:0.86455029 3:0.72196578 4:0.78095239 5:0.24514412 6:1 7:0.32689767 8:0.93995367 9:1 10:0.30898862 11:0.40273526 12:0.96561968 13:0.49462366 14:0.60000002 15:0.77777778 16:6 
1 1:0.016092432 2:0.95238096 3:0.54009194 4:0.2631579 5:0.00091031286 6:1 7:0.45149679 8:0 9:1 10:9.589716e-08 11:0 12:0 13:0 14:-0.39999998 15:1.3333333 16:16 
1 1:0.52341257 2:1 3:0.93086727 4:0.875 5:0.57934647 6:1 7:0.54046466 8:0.93545046 9:1 10:0.27364864 11:0.29255466 12:0.95967932 13:0.38181818 14:0.72727275 15:1 16:1 
1 1:0.72214823 2:0.9354167 3:0.92729567 4:0.79746836 5:0.72169032 6:1 7:0.56386203 8:0.92485294 9:1 10:0.13649164 11:0.66653917 12:0.9088966 13:0.70512821 14:0.69230771 15:0.91428571 16:8 
1 1:0.18469035 2:0.84208047 3:0.65377773 4:0.42372882 5:0.088083127 6:1 7:0.23853046 8:0.95799819 9:1 10:0.0042096939 11:0.22221587 12:0.79867625 13:0.16535433 14:0.29411763 15:0 16:10 
1 1:0.49910929 2:0.86507934 3:0.64385558 4:0.55319148 5:0.61848133 6:0.41501958 7:0.49445575 8:0.93371615 9:1 10:0.17547519 11:0.32004733 12:0.93843584 13:0.39705882 14:0.35294116 15:0.86580087 16:6 
1 1:0.45275364 2:0.82430559 3:0.82641017 4:0.73636365 5:0.40344343 6:0.63709421 7:0.26224061 8:0.97492045 9:1 10:0.39659246 11:0.12296065 12:0.97589149 13:0.56617647 14:0.52941179 15:1.1304348 16:5 
1 1:0.580187 2:1 3:0.29053781 4:0.35714287 5:0.44300125 6:1 7:0.22540503 8:0 9:1 10:0 11:0 12:0 13:0.5 14:0.39999998 15:1 16:0 
1 1:0.34466177 2:0.84126979 3:0.67306109 4:0.49295777 5:0.3212112 6:1 7:0.44788771 8:0.82592794 9:1 10:0.0026250417 11:0.12002216 12:0.96406495 13:0.25 14:0.41666669 15:0.66666667 16:2 
1 1:0.41735078 2:0.86455029 3:0.68933284 4:0.77777779 5:0.24381063 6:1 7:0.32788567 8:0.93995367 9:1 10:0.30898862 11:0.24549227 12:0.96561968 13:0.48387097 14:0.60000002 15:0.77777778 16:1 
1 1:0.20662114 2:0.87999994 3:0.55703908 4:0.55000001 5:0.1658453 6:0.51321018 7:0.25868504 8:0.87597065 9:1 10:0.113218 11:0.34500914 12:0.93119132 13:0.076923077 14:0.30769229 15:1.1111111 16:5 
1 1:0.67006027 2:0.86099839 3:0.89286286 4:0.85393262 5:0.70486386 6:1 7:0.54433117 8:0.94142742 9:1 10:0.59907273 11:0.78131444 12:0.95991209 13:0.57352941 14:0.7647059 15:1.047619 16:2 
1 1:0.48132518 2:1 3:0.60603632 4:0.60344827 5:0.65043264 6:0.94608324 7:0.45267225 8:0.88034023 9:1 10:0.5430488 11:0.35806398 12:0.90503099 13:0.28571429 14:0.26666665 15:0.77896787 16:22 
0.8330207849220227 1:0.62681865 2:0.94675922 3:0.67221807 4:0.61627907 5:0.76062889 6:1 7:0.54490909 8:0.91075014 9:0 10:0.26245511 11:0.33348356 12:0.87305248 13:0.47794118 14:0.52941179 15:0.81818182 16:6 
1 1:0.580187 2:1 3:0.29053781 4:0.35714287 5:0.44300125 6:1 7:0.22540503 8:0 9:1 10:0 11:0 12:0 13:0.5 14:0.39999998 15:1 16:0 
1 1:0.59657097 2:0.86099839 3:0.81358615 4:0.67346942 5:0.67696517 6:1 7:0.53034261 8:0.94047086 9:1 10:0.56169532 11:0.56168389 12:0.95337548 13:0.39705882 14:0.47058821 15:0.9569378 16:11 
-1 1:0.57954949 2:0.88888896 3:0.41328716 4:0.39999998 5:0.66143802 6:0.79255739 7:0.32993453 8:0.85345292 9:1 10:0.28082154 11:0.346995 12:0.89187503 13:0.57446809 14:0.19999999 15:0.7173913 16:15 
1 1:0.76656501 2:0.91071427 3:0.81104372 4:0.82432431 5:0.78066407 6:1 7:0.44504779 8:0.8925561 9:1 10:0.17818842 11:1 12:0.95624294 13:0.7 14:0.84615386 15:0.83333333 16:4 
1 1:0.46479943 2:0.71600622 3:0.26166215 4:0.3974359 5:0.46305921 6:0.79255739 7:0.13041079 8:0.91222759 9:1 10:0.24285009 11:0.35394451 12:0 13:0.37234043 14:0.19999999 15:0.63768116 16:18 
-1 1:0.3078308 2:0.92693883 3:0.58459808 4:0.49333334 5:0.18268129 6:1 7:0.33094578 8:0.92211009 9:1 10:0.15297612 11:0.26381407 12:0.88614827 13:0.19230769 14:0.35714287 15:0.66666667 16:10 
1 1:0.2515117 2:0.75 3:0.61195077 4:0.46428573 5:0.21919917 6:1 7:0.50943758 8:0 9:1 10:0 11:0.40510109 12:0 13:0.1 14:0.19999999 15:0.75 16:6 
-1 1:0.23606021 2:0.73503399 3:0.50213503 4:0.36363637 5:0.30372177 6:0.62290938 7:0.24152629 8:0.75118134 9:1 10:0.016448872 11:0.26911412 12:0.76428834 13:0.22580645 14:0.39999998 15:0.38888889 16:35 
1 1:0.099782582 2:0.94444442 3:0.69029504 4:0.47500002 5:0.024250458 6:1 7:0.26209534 8:0 9:1 10:7.3696537e-05 11:0.2916269 12:0 13:0 14:0 15:0.5 16:14 
-0.7217698061372435 1:0.34118064 2:0.66230154 3:0.58770528 4:0.53846157 5:0.40579525 6:0 7:0.36659682 8:0.71675254 9:0.049538176 10:0.0094208868 11:0.37574494 12:0.7596748 13:0.20588235 14:0.35294116 15:0.65454545 16:3 
1 1:0.62375815 2:1 3:0.48276025 4:0.78651685 5:0.88612904 6:1 7:0.099542718 8:0.91574148 9:1 10:0.54429705 11:0.51029321 12:0.92052052 13:0.37623762 14:0.5625 15:0.75789474 16:7 
1 1:0.32605438 2:0.77201182 3:0.65637746 4:0.44444442 5:0.32637423 6:1 7:0.34497318 8:0.93650084 9:1 10:0.37869606 11:0.13580964 12:0.90747407 13:0.15151515 14:0.41666669 15:0.71111111 16:12 
1 1:0.079733173 2:0.56493503 3:0.61114837 4:0.45652175 5:0.032776939 6:1 7:0.17916032 8:0 9:1 10:0 11:0.32916631 12:0.87174368 13:0.047619048 14:0.14285713 15:0.85034014 16:3 
1 1:0.43497847 2:0.85138297 3:0.75662365 4:0.51086956 5:0.6352735 6:0.56252171 7:0.43422364 8:0.9224995 9:1 10:0.356247 11:0.46742752 12:0.91473763 13:0.32352941 14:0.41176468 15:0.91365921 16:5 
1 1:0.49768328 2:0.85079366 3:0.79068974 4:0.559322 5:0.70187347 6:1 7:0.52006413 8:0.92512596 9:1 10:0.37539502 11:0.5444821 12:0.9099824 13:0.39583333 14:0.4375 15:0 16:6 
1 1:0.62395816 2:0.77777785 3:0.53337064 4:0.67567569 5:0.52933963 6:1 7:0.42117944 8:0.99415601 9:1 10:0.41255125 11:1 12:0.99791643 13:0.7 14:0.77777779 15:0.65934066 16:3 
1 1:0.29946561 2:0.64568865 3:0.48338082 4:0.5 5:0.27681329 6:1 7:0.11876877 8:0.89354048 9:1 10:0.0015758414 11:0 12:0.86036715 13:0.14492754 14:0.38461536 15:0.3956044 16:8 
1 1:0.28867271 2:0.64671296 3:0.54943269 4:0.65714288 5:0.22205328 6:0.63709421 7:0.10460143 8:0.94237142 9:1 10:0.11139638 11:0.5274061 12:0.94793802 13:0.33088235 14:0.41176468 15:0.90434783 16:6 
1 1:0.64687347 2:0.85079366 3:0.73541056 4:0.52542377 5:0.89524044 6:1 7:0.51143708 8:0.92512596 9:1 10:0.37539502 11:0.17226642 12:0.9099824 13:0.58333333 14:0.4375 15:0.6293578 16:3 
1 1:0.59616408 2:0.77777785 3:0.48703522 4:0.4054054 5:0.52933963 6:1 7:0.42117944 8:0.99415601 9:1 10:0.41255125 11:1 12:0.99791643 13:0.66666667 14:0.55555558 15:0.65934066 16:3 
1 1:0.33413243 2:0.6926505 3:0.71592204 4:0.77777779 5:0.22797778 6:0.31110538 7:0.096145904 8:0 9:1 10:6.9616214e-05 11:0.19124377 12:0.68504874 13:0.40441176 14:0.47058821 15:0.79130435 16:3 
1 1:0.51551956 2:0.80867344 3:0.5749794 4:0.64864862 5:0.60976004 6:1 7:0.42879835 8:0.94549732 9:1 10:0.19124506 11:0.22388475 12:0.92968573 13:0.552 14:0.52941179 15:0.83333333 16:0 
1 1:0.4880765 2:0.58103174 3:0.53991161 4:0.63333333 5:0.53962337 6:1 7:0.24957884 8:0.93580733 9:1 10:0.0067507096 11:0.17115141 12:0.95041691 13:0.5 14:0.5333333 15:0.70175439 16:12 
-1 1:0.35138253 2:0.92812502 3:0.61579067 4:0.56321836 5:0.57456891 6:0.46239039 7:0.38329986 8:0.90662752 9:1 10:0.095604204 11:0.597866 12:0.86895042 13:0.17857143 14:0.41176468 15:0.68055556 16:25 
0.3303811823117357 1:0.5513571 2:0.83520198 3:0.64347736 4:0.60377359 5:0.48527452 6:0 7:0.30561794 8:0.73539687 9:1 10:0.14892746 11:0.58503089 12:0.83773285 13:0.36666667 14:0.25 15:0 16:24 
1 1:0.2183283 2:0.71618569 3:0.48949453 4:0.35294116 5:0.33300208 6:1 7:0.25381766 8:0 9:1 10:0 11:0.55267591 12:0 13:0.11029412 14:0.2352941 15:0.41176471 16:12 
-1 1:0.052998224 2:0.64543205 3:0.45271316 4:0.26666665 5:0.030815801 6:0 7:0.14412605 8:0 9:1 10:2.5399932e-06 11:0 12:0 13:0.012820513 14:0.15384614 15:0.3 16:14 
1 1:0.73959746 2:1 3:0.73980881 4:0.77419353 5:0.66746472 6:1 7:0.22062483 8:0.89170919 9:1 10:0.0028337439 11:0.80506649 12:0.85848729 13:0.6 14:0.80000001 15:0.75 16:3 
-1 1:0.38488842 2:0.89351851 3:0.52543406 4:0.44615382 5:0.60170416 6:1 7:0.30136985 8:0.83825879 9:1 10:0.075729853 11:0 12:0.87352198 13:0.4 14:0.47058821 15:0.83333333 16:10 
-1 1:0.34929778 2:1 3:0.65824761 4:0.72307694 5:0.41285981 6:1 7:0.64179463 8:0.96395724 9:1 10:0.72828462 11:0.17791439 12:0.97338619 13:0.3974359 14:0.57142854 15:0.83333333 16:0 
1 1:0.44505411 2:0.86468256 3:0.60885097 4:0.68181819 5:0.53837636 6:1 7:0.37050815 8:0.8784407 9:1 10:0.063276628 11:0.65475235 12:0.90138312 13:0.36885246 14:0.52941179 15:1 16:0 
1 1:0.27144493 2:0.76025128 3:0.53249515 4:0.48214287 5:0.1991925 6:1 7:0.50037592 8:0.71305334 9:1 10:0.16330399 11:0.73061381 12:0.75095184 13:0.22727273 14:0.5 15:0.64285714 16:16 
-1 1:0.24469477 2:0.70623583 3:0.60597157 4:0.26249999 5:0.38962625 6:0 7:0.30320683 8:0 9:0 10:0 11:0 12:0.66708406 13:0.065934066 14:0.14285713 15:0.26666667 16:35 
-1 1:0.34002489 2:0.89351851 3:0.71855123 4:0.41538459 5:0.40385933 6:1 7:0.296839 8:0.75155898 9:1 10:0.08170678 11:0 12:0.85085102 13:0.22105263 14:0.35294116 15:0.8974359 16:14 
1 1:0.60940683 2:0.72888887 3:0.74246015 4:0.80769229 5:0.71692539 6:1 7:0.40102828 8:0.96156729 9:1 10:0.47026393 11:0.46283994 12:0.95232697 13:0.60204082 14:0.80000001 15:0.77777778 16:3 
0.05979967799075515 1:0.44508981 2:0.86904764 3:0.92386224 4:0.67213118 5:0.63645806 6:1 7:0.67685047 8:0.93293419 9:1 10:0.141398 11:0.042783014 12:0.91245582 13:0.46666667 14:0.60000002 15:0.94230769 16:8 
1 1:0.4880765 2:0.62888891 3:0.53991161 4:0.61702126 5:0.53933063 6:1 7:0.24950444 8:0.93049857 9:1 10:0.006125851 11:0.21779219 12:0.89027545 13:0.5 14:0.5333333 15:0.70175439 16:16 
1 1:0.4880765 2:0.62888891 3:0.53991161 4:0.65909088 5:0.54225299 6:1 7:0.25360759 8:0.93049857 9:1 10:0.006125851 11:0.46610897 12:0.89027545 13:0.5 14:0.60000002 15:0.66666667 16:10 
1 1:0.46918039 2:0.86468256 3:0.68495221 4:0.71590912 5:0.55969956 6:1 7:0.37655499 8:0.84430995 9:1 10:0.056315353 11:0.40475565 12:0.8752279 13:0.36885246 14:0.58823526 15:1 16:9 
1 1:0.34511738 2:1 3:0.81291028 4:0.70833337 5:0.5339494 6:1 7:0.60538579 8:0.86033787 9:1 10:0.090725634 11:1 12:0.87082532 13:0.16666667 14:0.75 15:0.64285714 16:1 
1 1:0.51869362 2:0.85969388 3:0.78307497 4:0.8018018 5:0.60617519 6:1 7:0.4299003 8:0.94451707 9:1 10:0.17928539 11:0.64590032 12:0.93492297 13:0.56 14:0.70588231 15:0.92047026 16:4 
-1 1:0.40529687 2:0.87944305 3:0.70577822 4:0.51351351 5:0.4162813 6:1 7:0.43266699 8:0.77736915 9:0 10:0.069054062 11:0.44156754 12:0.67095752 13:0.34285714 14:0.46666664 15:0.49090909 16:1 
1 1:0.27486647 2:0.62888891 3:0.44303786 4:0.38297874 5:0.28929749 6:0.59460975 7:0.23979944 8:0.97350325 9:0 10:0.0019979577 11:0.16850911 12:0.98284529 13:0.24489796 14:0.13333333 15:0.70175439 16:16 
1 1:0.49848191 2:1 3:0.67483111 4:0.80341882 5:0.52084026 6:1 7:0.49986247 8:0.85743165 9:1 10:0.012309771 11:0.86153159 12:0.92039715 13:0.65 14:0.75 15:0.81818182 16:3 
1 1:0.16565189 2:0.87110573 3:0.62523106 4:0.4285714 5:0.08152198 6:1 7:0.27032184 8:0.91274879 9:1 10:0.014674771 11:0.05201899 12:0.88069991 13:0.11811024 14:0.2352941 15:0 16:11 
1 1:0.069374575 2:0.77201182 3:0.4056085 4:0.34722221 5:0.038900594 6:1 7:0.36298109 8:0 9:1 10:7.9174159e-05 11:0.18429247 12:0 13:0.045454545 14:0.25 15:0.53333333 16:14 
0.1178520902795679 1:0.60940683 2:0.72888887 3:0.73190992 4:0.79487181 5:0.71657144 6:1 7:0.4008996 8:0.95880868 9:1 10:0.401546 11:0.46830242 12:0.94201881 13:0.60204082 14:0.80000001 15:0.77777778 16:1 
1 1:0.42890928 2:0.86455029 3:0.76759371 4:0.81188118 5:0.2451722 6:1 7:0.32788567 8:0.93995367 9:1 10:0.30898862 11:0.5163037 12:0.96561968 13:0.49462366 14:0.66666663 15:0.77777778 16:2 
1 1:0.45354488 2:0.83072561 3:0.72174754 4:0.64347827 5:0.37001941 6:1 7:0.3911365 8:0.90401736 9:1 10:0.12110353 11:0.79092884 12:0.95620035 13:0.43333333 14:0.60869563 15:0 16:0 
1 1:0.49039359 2:1 3:0.74884597 4:0.56521738 5:0.67010538 6:1 7:0.65091515 8:0.86033787 9:1 10:0.090725634 11:0.5936163 12:0.87082532 13:0.16666667 14:0.5 15:0.33333333 16:3 
-1 1:0.37818849 2:0.66045451 3:0.56038237 4:0.58536589 5:0.59207273 6:0 7:0.30485573 8:0.64923103 9:1 10:0.045100794 11:0.52533362 12:0.94601346 13:0.29166667 14:0.4375 15:0.44055944 16:7 
-1 1:0.45133318 2:0.86904764 3:0.6151446 4:0.60000002 5:0.41366702 6:1 7:0.57153577 8:0.91758635 9:1 10:0.18219442 11:0.042814639 12:0.93201481 13:0.33333333 14:0.5 15:1.0666667 16:12 
1 1:0.33240991 2:0.83840394 3:0.58850379 4:0.52892566 5:0.5019976 6:1 7:0.43189228 8:0.75401147 9:1 10:0.011812258 11:0 12:0.67136257 13:0.32352941 14:0.29411763 15:0.83760684 16:26 
1 1:0.34511738 2:1 3:0.81291028 4:0.65384614 5:0.5339494 6:1 7:0.60538579 8:0.86033787 9:1 10:0.090725634 11:1 12:0.87082532 13:0.16666667 14:0.75 15:0.64285714 16:3 
1 1:0.1442231 2:0.84506404 3:0.64998778 4:0.43199998 5:0.072031352 6:1 7:0.23772345 8:0.94570275 9:1 10:0.0055708288 11:0.41604689 12:0.89327622 13:0.086614173 14:0.2352941 15:0 16:17 
1 1:0.099782582 2:0.94444442 3:0.69029504 4:0.47500002 5:0.024250458 6:1 7:0.26209534 8:0 9:1 10:7.3696537e-05 11:0.2916269 12:0 13:0 14:0 15:0.5 16:14 
1 1:0.48768913 2:0.92592597 3:0.68015184 4:0.61864406 5:0.42292822 6:1 7:0.45060216 8:0.89356902 9:1 10:0.31001492 11:0.84003751 12:0.90306116 13:0.49583333 14:0.52173913 15:0.71428571 16:3 
1 1:0.42472734 2:0.7557407 3:0.60591177 4:0.57142854 5:0.57405198 6:0.78798419 7:0.23583815 8:0.78762279 9:1 10:0.36994034 11:0.36751393 12:0.77551907 13:0.43137255 14:0.5 15:0.68306011 16:8 
1 1:0.37985684 2:0.87944305 3:0.54303409 4:0.5454545 5:0.4874718 6:1 7:0.38823319 8:0.91926313 9:1 10:0.025964469 11:0.35152044 12:0.85325224 13:0.34285714 14:0.39999998 15:0.40909091 16:4 
1 1:0.20662114 2:0.87999994 3:0.65643762 4:0.5 5:0.1805283 6:0.51321018 7:0.26330273 8:0.87597065 9:1 10:0.113218 11:0.34899707 12:0.93119132 13:0.076923077 14:0.30769229 15:1.1111111 16:8 
1 1:0.44112967 2:0.82771164 3:0.61925823 4:0.58139539 5:0.45583247 6:1 7:0.38135574 8:0.91014802 9:0 10:0.24639522 11:0.2871602 12:0.86119227 13:0.39705882 14:0.47058821 15:0 16:6 
1 1:0.69141876 2:1 3:0.64720582 4:0.74074078 5:0.54259556 6:1 7:0.34083721 8:0 9:1 10:0.00020495431 11:0.78966119 12:0 13:0.6 14:0.80000001 15:1 16:4 
1 1:0.21057168 2:0.4214015 3:0.37744186 4:0.34375 5:0.24563 6:1 7:0.26277389 8:0.76137051 9:1 10:0.0022335817 11:0 12:0.66901011 13:0.098591549 14:0.23076922 15:0.60952381 16:2 
1 1:0.71109492 2:0.96590912 3:0.90857957 4:0.80208331 5:0.74021321 6:1 7:0.59851182 8:0.96850573 9:1 10:0.77201375 11:0.81344158 12:0.97501305 13:0.57352941 14:0.7647059 15:0.90909091 16:9 
-1 1:0.12760384 2:0.71350408 3:0.28084133 4:0.33846152 5:0.16731333 6:1 7:0.26906361 8:0 9:1 10:0 11:0 12:0 13:0.090909091 14:0.25 15:0.19230769 16:24 
1 1:0.050826318 2:0.50019479 3:0.3327443 4:0.31818181 5:0.021414026 6:0 7:0.12996966 8:0 9:1 10:8.3785102e-07 11:0 12:0 13:0.038461538 14:0.076923072 15:0.65934066 16:20 
1 1:0.43795056 2:0.7652778 3:0.69403704 4:0.53225803 5:0.53046975 6:1 7:0.42746526 8:0.95393743 9:1 10:0.10734633 11:0.19442522 12:0.93399809 13:0.33333333 14:0.39999998 15:0.96348315 16:9 
1 1:0.56095705 2:0.86507934 3:0.74024585 4:0.72727275 5:0.62906511 6:0.41501958 7:0.48937671 8:0.94449319 9:1 10:0.23767237 11:0.72407107 12:0.95250826 13:0.48529412 14:0.58823526 15:1 16:0 
0.9941823170132831 1:0.62681865 2:0.94675922 3:0.67221807 4:0.61627907 5:0.76062889 6:1 7:0.54490909 8:0.91075014 9:0 10:0.26245511 11:0.33348356 12:0.87305248 13:0.47794118 14:0.52941179 15:0.81818182 16:6 
1 1:0.51187471 2:0.89814812 3:0.72212524 4:0.67346942 5:0.59942163 6:1 7:0.31881385 8:0.91669292 9:1 10:0.10863921 11:0.48851773 12:0.83236125 13:0.46666667 14:0.58333337 15:0.75 16:1 
-1 1:0.50470593 2:1 3:0.79793909 4:0.46428573 5:0.66404936 6:1 7:0.34618869 8:0.57082042 9:1 10:0.0028616539 11:0 12:0.532724 13:0.3 14:0.60000002 15:0.64285714 16:13 
1 1:0.20662114 2:0.87999994 3:0.66199317 4:0.5 5:0.1690629 6:0.51321018 7:0.25868504 8:0.87597065 9:1 10:0.113218 11:0.34899707 12:0.93119132 13:0.076923077 14:0.30769229 15:1.1111111 16:8 
1 1:0.41245293 2:0.72998315 3:0.6247989 4:0.59139788 5:0.384554 6:0 7:0.25216704 8:0.59777359 9:1 10:0.096698744 11:0.34502285 12:0.91990151 13:0.3 14:0.4375 15:0 16:11 
1 1:0.47846406 2:0.791982 3:0.58185262 4:0.54954958 5:0.62285992 6:1 7:0.43373521 8:0.90428152 9:1 10:0.25042361 11:0.47187399 12:0.88025866 13:0.552 14:0.52941179 15:0.83333333 16:4 
1 1:0.54301154 2:0.85079366 3:0.73541056 4:0.50847459 5:0.78808008 6:1 7:0.5247847 8:0.92512596 9:1 10:0.37539502 11:0.17226642 12:0.9099824 13:0.47916667 14:0.375 15:0.54782609 16:3 
1 1:0.57793269 2:1 3:0.77821289 4:0.88135594 5:0.62164253 6:1 7:0.48458072 8:0.86691611 9:1 10:0.021320869 11:0.86153159 12:0.89004447 13:0.75833333 14:0.8125 15:0.90909091 16:1 
1 1:0.71109492 2:0.96590912 3:0.90245208 4:0.82795697 5:0.74145379 6:1 7:0.59890588 8:0.95504427 9:1 10:0.545992 11:0.84138254 12:0.96135011 13:0.57352941 14:0.7647059 15:1.0434783 16:6 
-1 1:0.18580791 2:0.86304986 3:0.43019416 4:0.30769229 5:0.14371155 6:1 7:0.2593088 8:0.87743321 9:1 10:0.15964524 11:0 12:0.86042951 13:0.038461538 14:0.14285713 15:0.64367816 16:0 
1 1:0.35831235 2:0.86455029 3:0.57492194 4:0.58585858 5:0.24284778 6:1 7:0.33344678 8:0.92246087 9:1 10:0.078614577 11:0.24560508 12:0.93944678 13:0.38709677 14:0.46666664 15:0 16:3 
-1 1:0.27965451 2:0.89814812 3:0.48274578 4:0.41509432 5:0.35127729 6:1 7:0.29880245 8:0.89462808 9:1 10:0.009278129 11:0.17826469 12:0.97369873 13:0.1 14:0.33333331 15:0.42857143 16:5 
1 1:0.55601724 2:0.69841272 3:0.49154052 4:0.67241383 5:0.62498645 6:1 7:0.14267479 8:0.94945933 9:1 10:0.27483255 11:0.78637049 12:0.95214421 13:0.26923077 14:0.36363637 15:0.66666667 16:3 
1 1:0.12862891 2:0.74027729 3:0.44677913 4:0.26956522 5:0.16261209 6:1 7:0.13223024 8:0 9:1 10:1.8202242e-05 11:0.31288847 12:0.85034834 13:0.044117647 14:-0.11764705 15:0.71794872 16:13 
1 1:0.37985786 2:0.89814812 3:0.47417444 4:0.38 5:0.45910016 6:1 7:0.31117846 8:0.97811911 9:1 10:0.03637938 11:0 12:0.87237721 13:0.1 14:0.33333331 15:0.42857143 16:2 
-0.8399381914898781 1:0.25453946 2:0.60221088 3:0.54948213 4:0.39999998 5:0.54790096 6:0 7:0.32215834 8:0 9:0 10:0.00011746536 11:0 12:0.78435372 13:0.098901099 14:0.28571427 15:0.33333333 16:37 
1 1:0.44787823 2:0.86507934 3:0.64405164 4:0.55319148 5:0.53720675 6:0.41501958 7:0.49836767 8:0.93371615 9:1 10:0.17547519 11:0.32004733 12:0.93843584 13:0.33088235 14:0.35294116 15:0.86580087 16:6 
-1 1:0.50470593 2:1 3:0.79793909 4:0.46428573 5:0.66404936 6:1 7:0.34618869 8:0.57082042 9:1 10:0.0028616539 11:0 12:0.532724 13:0.3 14:0.60000002 15:0.64285714 16:15 
1 1:0.43049836 2:0.86111116 3:0.56561273 4:0.63478261 5:0.36692315 6:1 7:0.37464284 8:0.88019648 9:1 10:0.076109423 11:0.57158661 12:0.92398356 13:0.4375 14:0.56521738 15:0.66502463 16:2 
-1 1:0.3947799 2:0.89646465 3:0.71507285 4:0.41666669 5:0.24562298 6:1 7:0.42083594 8:0.94574193 9:1 10:0.27506384 11:0 12:0.94777317 13:0.39393939 14:0.41666669 15:0.97222222 16:7 
1 1:0.34511738 2:1 3:0.81291028 4:0.70833337 5:0.5339494 6:1 7:0.60538579 8:0.86033787 9:1 10:0.090725634 11:1 12:0.87082532 13:0.16666667 14:0.75 15:0.64285714 16:1 
1 1:0.18720885 2:0.9330247 3:0.58802694 4:0.63218391 5:0.38477837 6:0 7:0.33771854 8:0.82812944 9:1 10:0.15258557 11:0.26895663 12:0.73496001 13:0.10714286 14:0.47058821 15:0.83660131 16:14 
1 1:0.61412377 2:0.96406251 3:0.8884581 4:0.73195875 5:0.62719551 6:1 7:0.68652454 8:0.75835039 9:1 10:0.15884045 11:0.73567962 12:0.81989562 13:0.56097561 14:0.7647059 15:1 16:12 
1 1:0.55172397 2:0.69841272 3:0.44787329 4:0.58620691 5:0.78885926 6:1 7:0.16398628 8:0.82268854 9:1 10:0.082587896 11:0.76194104 12:0.97651668 13:0.17307692 14:0.36363637 15:0.60606061 16:11 
1 1:0.27144493 2:0.54761904 3:0.47694015 4:0.48214287 5:0.16252916 6:1 7:0.20398861 8:0 9:1 10:0 11:0.32480726 12:0 13:0.22727273 14:0.5 15:0.53571429 16:18 
1 1:0.59616408 2:0.77777785 3:0.48703522 4:0.4054054 5:0.52933963 6:1 7:0.42117944 8:0.99415601 9:1 10:0.41255125 11:1 12:0.99791643 13:0.66666667 14:0.55555558 15:0.65934066 16:3 
1 1:0.59261857 2:0.8998512 3:0.70504519 4:0.7662338 5:0.72176213 6:1 7:0.46086169 8:0.9068956 9:1 10:0.17189469 11:0.72489219 12:0.89282708 13:0.62857143 14:0.66666663 15:0.69264069 16:4 
1 1:0.3130003 2:0.83072561 3:0.62008375 4:0.58474576 5:0.33441847 6:1 7:0.40314077 8:0.91088342 9:1 10:0.24613955 11:0.78308504 12:0.89959407 13:0.32083333 14:0.43478262 15:0 16:3 
1 1:0.079733173 2:0.56493503 3:0.61114837 4:0.45652175 5:0.032776939 6:1 7:0.17916032 8:0 9:1 10:0 11:0.32916631 12:0.87174368 13:0.047619048 14:0.14285713 15:0.85034014 16:3 
1 1:0.47459687 2:0.91247791 3:0.68686377 4:0.59482759 5:0.65923537 6:1 7:0.51200771 8:0.80536511 9:1 10:0.21853085 11:0.52205889 12:0.74737943 13:0.55147059 14:0.41176468 15:0.97777778 16:21 
1 1:0.62395816 2:0.77777785 3:0.53337064 4:0.67567569 5:0.52933963 6:1 7:0.42117944 8:0.99415601 9:1 10:0.41255125 11:1 12:0.99791643 13:0.7 14:0.77777779 15:0.65934066 16:3 
1 1:0.40507292 2:0.83840394 3:0.6034206 4:0.53781509 5:0.50837867 6:1 7:0.43388682 8:0.74848827 9:1 10:0.011165874 11:0.32555239 12:0.67088445 13:0.32352941 14:0.29411763 15:0.8038777 16:24 
1 1:0.34511738 2:1 3:0.81291028 4:0.70833337 5:0.5339494 6:1 7:0.60538579 8:0.86033787 9:1 10:0.090725634 11:1 12:0.87082532 13:0.16666667 14:0.75 15:0.64285714 16:1 
1 1:0.26801669 2:0.5925926 3:0.61305354 4:0.56 5:0.23306262 6:1 7:0.18624239 8:0.95348929 9:1 10:0.0045933099 11:0.35301056 12:0.87174368 13:0.14285714 14:0.14285713 15:0.85034014 16:4 
1 1:0.56095705 2:0.86507934 3:0.74024585 4:0.72727275 5:0.62906511 6:0.41501958 7:0.48937671 8:0.94449319 9:1 10:0.23767237 11:0.72407107 12:0.95250826 13:0.48529412 14:0.58823526 15:1 16:0 
1 1:0.42986163 2:0.83181816 3:0.49955506 4:0.44927537 5:0.45020926 6:1 7:0.46539854 8:0.73238256 9:1 10:0.0069351926 11:0.28357713 12:0.59863399 13:0.30985915 14:0.46153843 15:0.80357143 16:5 
1 1:0.51281746 2:0.85969388 3:0.57078108 4:0.40259743 5:0.79520516 6:0.89201029 7:0.42177834 8:0.91840151 9:0 10:0.13312304 11:0 12:0.947533 13:0.16666667 14:0.14285713 15:0.81818182 16:1 
-1 1:0.24469477 2:0.76530617 3:0.5582663 4:0.30000001 5:0.51883288 6:0 7:0.4459132 8:0.72087129 9:0 10:0.012382508 11:0 12:0.80390926 13:0.087912088 14:0.21428573 15:0.375 16:30 
1 1:0.25602617 2:0.6926505 3:0.59176497 4:0.57142854 5:0.17801315 6:0.35919894 7:0.10015218 8:0.90162863 9:0.12104207 10:0.024436314 11:0.11911679 12:0.88970841 13:0.26470588 14:0.29411763 15:0.76363636 16:2 
1 1:0.59616408 2:0.77777785 3:0.48703522 4:0.4054054 5:0.52933963 6:1 7:0.42117944 8:0.99415601 9:1 10:0.41255125 11:1 12:0.99791643 13:0.66666667 14:0.55555558 15:0.65934066 16:3 
-1 1:0.44939458 2:0.79832762 3:0.46407014 4:0.4848485 5:0.50427088 6:0.87530514 7:0.21812481 8:0.92552636 9:1 10:0.75469168 11:0.1552586 12:0.91200922 13:0.43137255 14:0.22222221 15:0.87272727 16:33 
1 1:0.56221842 2:1 3:0.76464795 4:0.78181815 5:0.66353175 6:0.94608324 7:0.46262903 8:0.88257545 9:1 10:0.57799997 11:0.30277977 12:0.90350549 13:0.26666667 14:0.5333333 15:0.820061 16:16 
1 1:0.54068451 2:0.83041126 3:0.66943681 4:0.61627907 5:0.5417121 6:1 7:0.35290972 8:0.86073904 9:1 10:0.38368253 11:0.094565979 12:0.92233475 13:0.30769231 14:0.5 15:0.7 16:9 
1 1:0.61379271 2:0.85079366 3:0.73541056 4:0.49152541 5:0.84312387 6:1 7:0.49116819 8:0.92512596 9:1 10:0.37539502 11:0.17226642 12:0.9099824 13:0.58333333 14:0.4375 15:0 16:0 
0.8862229493701741 1:0.78817892 2:1 3:0.46729106 4:0.71910113 5:0.98111653 6:1 7:0.099515244 8:1 9:1 10:0.9999631 11:0.33573511 12:1 13:0.56435644 14:0.625 15:0.9 16:8 
1 1:0.2515117 2:0.75 3:0.61195077 4:0.46428573 5:0.21919917 6:1 7:0.50943758 8:0 9:1 10:0 11:0.40510109 12:0 13:0.1 14:0.19999999 15:0.75 16:6 
1 1:0.48436618 2:0.68761903 3:0.56563957 4:0.60919541 5:0.36710224 6:0 7:0.23463577 8:0.55818221 9:1 10:0.097067789 11:0.5975593 12:0.917946 13:0.45833333 14:0.5 15:0 16:5 
-1 1:0.55259825 2:0.72698414 3:0.5261559 4:0.38235295 5:0.55479451 6:1 7:0.27565683 8:0.9540938 9:1 10:0.011791285 11:0 12:0.91893311 13:0.46875 14:0.25 15:0 16:9 
1 1:0.68046112 2:0.85714287 3:0.62584521 4:0.70833337 5:0.60215309 6:1 7:2.7108742e-06 8:0 9:1 10:0 11:1 12:0 13:0.6 14:0.80000001 15:1 16:1 
0.9031572232597185 1:0.57602364 2:0.94675922 3:0.55752645 4:0.55555558 5:0.71657586 6:1 7:0.52598605 8:0.88346185 9:0 10:0.23508039 11:0.33119829 12:0.80446212 13:0.32352941 14:0.35294116 15:0.72727273 16:10 
1 1:0.41879234 2:0.83500004 3:0.77259952 4:0.65517241 5:0.68621727 6:0.46239039 7:0.41240837 8:0.89980657 9:1 10:0.13429879 11:0.14988799 12:0.8775558 13:0.15178571 14:0.41176468 15:0.68055556 16:11 
1 1:0.44112967 2:0.82771164 3:0.65659525 4:0.60465115 5:0.45583247 6:1 7:0.38135574 8:0.91014802 9:0 10:0.24639522 11:0.33348356 12:0.86119227 13:0.39705882 14:0.47058821 15:0 16:6 
1 1:0.30041608 2:0.79708999 3:0.52918671 4:0.68686867 5:0.20428037 6:1 7:0.25667246 8:0.90660645 9:1 10:0.099588174 11:0.52590029 12:0.92317702 13:0.31182796 14:0.46666664 15:0.77777778 16:0 
1 1:0.55601724 2:1 3:0.73957458 4:0.67241383 5:0.69966314 6:1 7:0.37222081 8:1 9:1 10:0.9999631 11:0.86373672 12:1 13:0.26923077 14:0.36363637 15:0.83333333 16:8 
1 1:0.065500109 2:0.87999994 3:0.5570767 4:0.51666665 5:0.016698969 6:0 7:0.28136211 8:0.62872475 9:1 10:0.0011378963 11:0.29844891 12:0.75405564 13:0.038461538 14:0.23076922 15:1.1111111 16:5 
-1 1:0.18580791 2:0.86304986 3:0.42654358 4:0.28787881 5:0.14391598 6:1 7:0.25976842 8:0.89138925 9:1 10:0.12924704 11:0 12:0.83780309 13:0.038461538 14:0.14285713 15:0.64367816 16:1 
1 1:0.30155325 2:0.7437641 3:0.43446329 4:0.26865673 5:0.49187068 6:0.62347102 7:0.4734731 8:0.85919525 9:1 10:0.098041846 11:0.21784347 12:0.69533741 13:0.23076923 14:0.076923072 15:0.44444444 16:1 
1 1:0.52341257 2:1 3:0.93086727 4:0.875 5:0.57934647 6:1 7:0.54046466 8:0.93545046 9:1 10:0.27364864 11:0.29255466 12:0.95967932 13:0.38181818 14:0.72727275 15:1 16:1 
1 1:0.32861039 2:0.7437641 3:0.40809721 4:0.41791046 5:0.51012372 6:0.62347102 7:0.48099702 8:0.85919525 9:1 10:0.093473301 11:0.56623707 12:0.72227283 13:0.29487179 14:0.38461536 15:0.53333333 16:10 
1 1:0.58253126 2:0.90194005 3:0.69489806 4:0.72277224 5:0.67876657 6:0 7:0.57934262 8:0.81802184 9:0 10:0.2602966 11:0.22856022 12:0.9038818 13:0.55 14:0.6875 15:1 16:7 
1 1:0.39229841 2:0.86455029 3:0.77534322 4:0.77777779 5:0.31020486 6:1 7:0.35644328 8:0.92310853 9:1 10:0.086072661 11:0.41280811 12:0.92161563 13:0.39784946 14:0.60000002 15:0.73202614 16:4 
1 1:0.51920169 2:0.87755102 3:0.4197236 4:0.53164554 5:0.83151849 6:1 7:0.49716668 8:0.9433519 9:0 10:0.25782273 11:0 12:0.92467555 13:0.23809524 14:0.21428573 15:0.85375494 16:3 
-1 1:0.28722926 2:0.75172907 3:0.40654168 4:0.34210527 5:0.37188552 6:1 7:0.32591598 8:0.90016027 9:1 10:0.076770984 11:0 12:0.86070788 13:0.384 14:0.2352941 15:0.55797101 16:3 
1 1:0.44508981 2:0.82936507 3:0.49493264 4:0.63235295 5:0.61331834 6:1 7:0.53809217 8:0.91017722 9:1 10:0.10947969 11:0.044110302 12:0.90764019 13:0.46666667 14:0.60000002 15:0.94230769 16:15 
1 1:0.34511738 2:1 3:0.81291028 4:0.70833337 5:0.5339494 6:1 7:0.60538579 8:0.86033787 9:1 10:0.090725634 11:1 12:0.87082532 13:0.16666667 14:0.75 15:0.64285714 16:1 
0.2722782001394498 1:0.57602364 2:0.94675922 3:0.55752645 4:0.55555558 5:0.71657586 6:1 7:0.52598605 8:0.88346185 9:0 10:0.23508039 11:0.33119829 12:0.80446212 13:0.32352941 14:0.35294116 15:0.72727273 16:10 
1 1:0.21111838 2:0.68594807 3:0.37430994 4:0.39999998 5:0.17542308 6:1 7:0.22181192 8:0.96705744 9:1 10:0.033966647 11:0.34597457 12:0 13:0.11666667 14:0.30434781 15:0 16:27 
1 1:0.24891246 2:0.83314276 3:0.62718817 4:0.45238096 5:0.17076517 6:1 7:0.26089059 8:0.86193079 9:1 10:0.013797463 11:0 12:0.91969281 13:0.22047244 14:0.2352941 15:0.9569378 16:18 
0.3321632944009486 1:0.33087548 2:0.94140625 3:0.56100213 4:0.53947365 5:0.38938747 6:1 7:0.42221415 8:0.89594742 9:1 10:0.3267292 11:0.37877307 12:0.92861677 13:0.14492754 14:0.38461536 15:0.76190476 16:8 
-1 1:0.099782582 2:0.94444442 3:0.45433051 4:0.2903226 5:0.018390899 6:1 7:0.22606167 8:0 9:1 10:0.00012972378 11:0.39160529 12:0 13:0 14:-1 15:1.1111111 16:36 
1 1:0.29628042 2:0.7437641 3:0.47778467 4:0.46268654 5:0.52841911 6:0.62347102 7:0.526525 8:0.78677864 9:1 10:0.087495711 11:0.25905592 12:0.61781878 13:0.16666667 14:0.30769229 15:0.41176471 16:20 
1 1:0.079733173 2:0.56493503 3:0.61114837 4:0.45652175 5:0.032776939 6:1 7:0.17916032 8:0 9:1 10:0 11:0.32916631 12:0.87174368 13:0.047619048 14:0.14285713 15:0.85034014 16:3 
1 1:0.46146809 2:0.8767361 3:0.45199246 4:0.65853655 5:0.66325736 6:0.94608324 7:0.37393023 8:0.83877863 9:1 10:0.44778909 11:0.31954176 12:0.84623384 13:0.31428571 14:0.19999999 15:0.89712697 16:29 
1 1:0.20662114 2:0.87999994 3:0.5588793 4:0.48333335 5:0.24946995 6:0.40960535 7:0.29142683 8:0.94451291 9:1 10:0.0071236141 11:0.11108696 12:0.8228015 13:0.076923077 14:0.30769229 15:1.1111111 16:10 
1 1:0.3018979 2:0.7437641 3:0.46868031 4:0.47761196 5:0.52887083 6:0.62347102 7:0.52274204 8:0.78677864 9:1 10:0.087495711 11:0.2478589 12:0.61781878 13:0.23076923 14:0.30769229 15:0.41176471 16:16 
1 1:0.16535616 2:0.76025128 3:0.53295351 4:0.39285713 5:0.093047587 6:1 7:0.5095255 8:0.74296822 9:0 10:0.18728231 11:0.59650446 12:0.74745965 13:0.15151515 14:0.41666669 15:0.64285714 16:16 
1 1:0.25438143 2:0.69736052 3:0.37279755 4:0.44999999 5:0.30403873 6:0.6236725 7:0.2207652 8:0 9:0 10:2.9955723e-05 11:0.24850749 12:0.89578088 13:0.25 14:0.41176468 15:0.50838482 16:12 
-0.5847865100146987 1:0.41929243 2:0.70876068 3:0.25908472 4:0.37037039 5:0.4508517 6:0.65089013 7:0.14059415 8:0.89833244 9:1 10:0.066115779 11:0.07217219 12:0 13:0.28723404 14:0.19999999 15:0.66666667 16:21 
1 1:0.40529687 2:0.87944305 3:0.62852902 4:0.61643839 5:0.54327631 6:1 7:0.40072716 8:0.84735058 9:0 10:0.040346108 11:0.44156754 12:0.75172112 13:0.42857143 14:0.5333333 15:0.49090909 16:4 
-1 1:0.091492633 2:0.482833 3:0.3513438 4:0.19999999 5:0.10337878 6:1 7:8.8159545e-07 8:0 9:1 10:3.2596353e-06 11:0 12:0.43360398 13:0.012820513 14:0.14285713 15:0.4 16:40 
1 1:0.54482551 2:0.77709752 3:0.5644215 4:0.76978415 5:0.60457219 6:1 7:0.3189584 8:0.93930567 9:1 10:0.28607738 11:0.24834519 12:0.85045385 13:0.44444444 14:0.60714287 15:0.56643357 16:13 
0.9869298740434799 1:0.21840243 2:0.87662768 3:0.49086057 4:0.48113209 5:0.37513599 6:0 7:0.23478469 8:0.8887654 9:1 10:0.0093799012 11:0.31888177 12:0.78499066 13:0.25821596 14:0.45454544 15:0.74002157 16:26 
1 1:0.57240624 2:0.90325284 3:0.62062756 4:0.54870129 5:0.80613879 6:0.51207321 7:0.60902408 8:0.93413953 9:1 10:0.6032634 11:0.44096838 12:0.96457137 13:0.57523148 14:0.37288135 15:0 16:17 
0.2129493946016064 1:0.48368865 2:0.89917701 3:0.67351753 4:0.52830189 5:0.76893223 6:0 7:0.32126387 8:0.94836012 9:1 10:0.30972586 11:0.31364281 12:0.944173 13:0.48826291 14:0.5454545 15:0.83660131 16:17 
1 1:0.98039528 2:1 3:0.98913047 4:0.91891891 5:0.88244564 6:1 7:0.26139756 8:0.87881505 9:1 10:0.085212352 11:0.45021542 12:0.82245908 13:1 14:0.85714287 15:1.1111111 16:3 
-1 1:0.63954281 2:0.98046875 3:0.79972322 4:0.23391813 5:0.8432722 6:1 7:0.60222426 8:0.95166795 9:1 10:0.31974913 11:0.44431427 12:0.96703981 13:0.44148936 14:0.21875 15:0.90725806 16:4 
1 1:0.22743402 2:0.86199778 3:0.58492609 4:0.39416057 5:0.20134292 6:0 7:0.22303858 8:0 9:0 10:0.00042656587 11:0.40144962 12:0.68333979 13:0.23703704 14:0.33333331 15:0.72580645 16:15 
1 1:0.68279451 2:0.98412704 3:0.80811291 4:0.67123288 5:0.63836016 6:1 7:0.53837567 8:0.98549457 9:1 10:0.66186208 11:0.23508307 12:0.95840265 13:0.625 14:0.52173913 15:0.9569378 16:23 
1 1:0.30514183 2:0.89857638 3:0.63010634 4:0.52768731 5:0.56220175 6:0.71779928 7:0.37715411 8:0.84516114 9:1 10:0.45553178 11:0.26398262 12:0.80804444 13:0.3081571 14:0.19565219 15:1.0675794 16:68 
1 1:0.44760462 2:0.89142859 3:0.48344024 4:0.47500002 5:0.48479197 6:1 7:0.26330027 8:0.83317968 9:1 10:0.071966153 11:0.20178372 12:0.86578028 13:0.33948339 14:0.19230771 15:0.60606061 16:19 
-1 1:0.36086467 2:0.97113997 3:0.46193773 4:0.35135138 5:0.55369729 6:1 7:0.50092271 8:0.73118436 9:1 10:0.03890094 11:0.084890253 12:0.83804231 13:0.12777778 14:0.25 15:0.61678322 16:37 
-1 1:0.32404016 2:0.7537685 3:0.56810454 4:0.40883976 5:0.43463233 6:0.82958117 7:0.35833409 8:0.94075838 9:1 10:0.4954721 11:0.25658062 12:0.93574732 13:0.18662953 14:0.39999998 15:0.42857143 16:41 
-1 1:0.40669482 2:0.93227512 3:0.64055476 4:0.29341316 5:0.46378235 6:0.4468044 7:0.57678458 8:0.93604817 9:1 10:0.52146656 11:0.27588394 12:0.93445904 13:0.27659574 14:0.1875 15:0.84677419 16:24 
1 1:0.4083751 2:0.87691253 3:0.68384553 4:0.61837459 5:0.62259228 6:0.85859437 7:0.47338324 8:0.79442867 9:1 10:0.17136497 11:0.12636154 12:0.77093923 13:0.43578485 14:0.59615386 15:0.76688453 16:64 
1 1:0.48802425 2:0.86351174 3:0.55098193 4:0.48120302 5:0.57656807 6:1 7:0.3131677 8:0.90944767 9:1 10:0.33840638 11:0.36105797 12:0.92038903 13:0.38582677 14:0.31034482 15:0 16:2 
-1 1:0.32718897 2:0.8026455 3:0.61819368 4:0.375 5:0.34555245 6:0.047398475 7:0.32700116 8:0.87857972 9:1 10:0.49158204 11:0.12376823 12:0.85247627 13:0.23708207 14:0.12903225 15:0.82580645 16:16 
1 1:0.23259984 2:0.76893049 3:0.51474345 4:0.47169811 5:0.32908059 6:0.75246499 7:0.1847682 8:0.94300287 9:1 10:0.0088779897 11:0.19752041 12:0.93445376 13:0.21052632 14:0.39999998 15:0.6875632 16:16 
0.4631686344689456 1:0.30742679 2:0.75908595 3:0.54501712 4:0.41826922 5:0.45062017 6:0.42457041 7:0.22110911 8:0.90841145 9:0 10:0.19732384 11:0.22749874 12:0.85939579 13:0.15521191 14:0.29166669 15:0.49052397 16:80 
1 1:0.53365889 2:0.91414142 3:0.67776916 4:0.7320261 5:0.63267671 6:1 7:0.51522898 8:0.93220022 9:1 10:0.15221427 11:0.39614008 12:0.94788874 13:0.48044693 14:0.71428573 15:0.76923077 16:11 
1 1:0.31866144 2:0.79342127 3:0.50312273 4:0.41826922 5:0.49888058 6:0.45874912 7:0.28266623 8:0.89603738 9:1 10:0.29413467 11:0.19640219 12:0.72133937 13:0.1838488 14:0.33333331 15:0.50052039 16:102 
1 1:0.36264774 2:0.90666664 3:0.70887155 4:0.66197181 5:0.55335008 6:0.74843021 7:0.41252845 8:0.75055393 9:1 10:0.35552456 11:0.28312636 12:0.93946319 13:0.41062802 14:0.53488374 15:0.83333333 16:28 
-1 1:0.27887298 2:0.84887189 3:0.56923362 4:0.40594059 5:0.36616614 6:1 7:0.36135014 8:0.89073587 9:1 10:0.063542143 11:0.19546112 12:0.94659864 13:0.13448276 14:0.25 15:0.7053701 16:10 
1 1:0.62073416 2:0.97619045 3:0.84368978 4:0.72000003 5:0.62181577 6:1 7:0.47077373 8:0.93872415 9:1 10:0.06895948 11:0.4095362 12:0.93458445 13:0.69620253 14:0.68421054 15:1.0588235 16:16 
1 1:0.25270697 2:0.77871919 3:0.55917127 4:0.31756759 5:0.26184938 6:1 7:0.28777924 8:0.98960612 9:1 10:0.00070157878 11:0.30150585 12:0 13:0.11552347 14:0.19230771 15:0.60945274 16:5 
-0.1047273473540739 1:0.30231418 2:0.42306438 3:0.2766924 4:0.2903226 5:0.50968553 6:0.8204383 7:0.090080728 8:0 9:0 10:0.0003926727 11:0 12:0.64525478 13:0.09375 14:0.21052629 15:0.28282828 16:33 
0.4734068208583969 1:0.26134331 2:0.81219959 3:0.53011264 4:0.44954127 5:0.33204989 6:0.64465466 7:0.2974754 8:0.96146803 9:1 10:0.0098857101 11:0.19162925 12:0.91353359 13:0.20713073 14:0.39999998 15:0.76152833 16:6 
1 1:0.52227239 2:0.9130609 3:0.84779514 4:0.60337555 5:0.66266065 6:0.55099922 7:0.42987822 8:0.88845597 9:0.67702266 10:0.29609931 11:0.23563422 12:0.86218739 13:0.61595547 14:0.51282048 15:1.1578947 16:54 
-1 1:0.5383737 2:0.97448981 3:0.75845392 4:0.57213926 5:0.77284789 6:0.59230317 7:0.56243252 8:0.97012663 9:1 10:0.71522594 11:0.55610615 12:0.95798925 13:0.51214128 14:0.25806451 15:1 16:11 
1 1:0.40822935 2:0.86160713 3:0.57422003 4:0.59872615 5:0.48501542 6:0.77330787 7:0.35358819 8:0.86187658 9:1 10:0.027014375 11:0.50656732 12:0.86270356 13:0.44081633 14:0.57142854 15:1.1034483 16:4 
1 1:0.63336044 2:0.93650794 3:0.7035824 4:0.7067669 5:0.58389473 6:1 7:0.48325163 8:0.9454352 9:1 10:0.57440344 11:0.30369717 12:0.94044887 13:0.55357143 14:0.60869563 15:0.9569378 16:10 
1 1:0.42261781 2:0.88978058 3:0.64906235 4:0.56537104 5:0.65253051 6:0.79344349 7:0.52430001 8:0.90039982 9:1 10:0.13812759 11:0.089090863 12:0.93421954 13:0.38638858 14:0.5 15:0.85470085 16:54 
1 1:0.36534246 2:0.89309645 3:0.68750831 4:0.63773584 5:0.43455777 6:0.5404429 7:0.41534153 8:0.78016514 9:1 10:0.31337216 11:0.51547792 12:0.86563937 13:0.28027682 14:0.46808511 15:0.70086043 16:23 
-1 1:0.32503915 2:0.84523809 3:0.62567882 4:0.46268654 5:0.60572528 6:0.8259497 7:0.45631662 8:0.92284742 9:1 10:0.25137874 11:0.46565127 12:0.90828016 13:0.23076923 14:0.5 15:0.59259259 16:21 
1 1:0.64642352 2:0.91836739 3:0.78830168 4:0.7638889 5:0.69984627 6:1 7:0.703723 8:0.92481519 9:1 10:0.17931588 11:0 12:0.94371528 13:0.35897436 14:0.61538458 15:0.69230769 16:9 
0.4229817606780304 1:0.40378121 2:0.88879746 3:0.63664538 4:0.37894738 5:0.6342429 6:1 7:0.44234572 8:0.96014849 9:1 10:0.07033758 11:0.31922011 12:0.95476608 13:0.33110164 14:0.10294116 15:0.79619067 16:17 
0.4266892003334747 1:0.71133243 2:0.98989904 3:0.88831493 4:0.89265537 5:0.89748818 6:1 7:0.60472496 8:0.9596666 9:1 10:0.73463959 11:0.98029887 12:0.93910966 13:0.82545455 14:0.8888889 15:1 16:11 
-1 1:0.1508799 2:0.70070153 3:0.55378559 4:0.49462366 5:0.10898729 6:0.10101663 7:0.15720315 8:0.95084052 9:1 10:0.074102007 11:0.14856157 12:0.89087008 13:0.15591398 14:0.33333331 15:0.30725462 16:7 
-1 1:0.23551012 2:0.78042507 3:0.51427435 4:0.41089112 5:0.31067303 6:1 7:0.32287203 8:0.9549674 9:1 10:0.1123013 11:0.16968612 12:0.89754149 13:0.11363636 14:0.21621621 15:0.49122807 16:46 
1 1:0.61873941 2:0.94305557 3:0.8743019 4:0.69724774 5:0.86905656 6:0 7:0.37919102 8:0.88179787 9:1 10:0.2090791 11:0.72549927 12:0.86331091 13:0.64761905 14:0.71428573 15:0.93333333 16:2 
1 1:0.60720245 2:0.88963944 3:0.51614367 4:0.22222221 5:0.80068428 6:1 7:0.58037791 8:0.94614185 9:1 10:0.56628148 11:0.19449951 12:0.95773796 13:0.35031847 14:0.09677422 15:0.90725806 16:20 
1 1:0.57289007 2:0.8605442 3:0.56386466 4:0.79136693 5:0.68705605 6:1 7:0.39485633 8:0.89337696 9:1 10:0.22032959 11:0.28765689 12:0.87271472 13:0.47222222 14:0.64285713 15:0.50818859 16:16 
